{"type":"LSTMTimeStep","options":{"inputSize":1,"inputRange":0,"hiddenLayers":[30],"outputSize":1,"decayRate":0.999,"smoothEps":1e-8,"regc":0.000001,"clipval":5,"maxPredictionLength":100,"dataFormatter":{"indexTable":{},"characterTable":{},"characters":[],"specialIndexes":[]},"learningRate":0.1},"hiddenLayers":[{"inputMatrix":{"rows":30,"columns":1,"weights":[-0.3563079535961151,-0.1235649362206459,0.27324992418289185,-0.34634217619895935,0.5661088824272156,-0.6093392968177795,-0.16598811745643616,0.27700275182724,-0.10624328255653381,0.11035183072090149,-0.20461177825927734,1.3868255615234375,-0.0661255344748497,0.059765998274087906,-0.0365004688501358,-0.5756222009658813,-0.16261042654514313,-0.23873186111450195,-0.42496106028556824,-0.053962379693984985,0.0036597070284187794,0.1515200138092041,-0.16552652418613434,0.023361915722489357,-0.5134274959564209,-0.48201486468315125,-0.06335771828889847,-0.3766830861568451,-0.2702094614505768,0.41361892223358154]},"inputHidden":{"rows":30,"columns":30,"weights":[-0.015116282738745213,-0.04929399490356445,0.04676702618598938,-0.00854701828211546,-0.06832819432020187,-0.02077982947230339,-0.018667949363589287,-0.06229021027684212,-0.0028497723396867514,0.018779169768095016,-0.05413981154561043,-0.04069089889526367,0.04833734780550003,0.01408750843256712,-0.003093279665336013,-0.0181707926094532,0.05031925439834595,-0.002335157012566924,-0.06222159042954445,0.07062922418117523,0.07122249156236649,0.05717357620596886,-0.07125139981508255,0.06844674795866013,-0.07234236598014832,0.06470359116792679,-0.0739419087767601,-0.015163573436439037,0.045331958681344986,-0.0717833936214447,0.0570976622402668,-0.02452968806028366,0.07369030267000198,-0.043761059641838074,0.022627271711826324,0.07651735097169876,-0.014376568607985973,-0.06583912670612335,0.046883564442396164,-0.038603439927101135,0.025117581710219383,-0.03587810695171356,0.04651482775807381,-0.013203395530581474,0.06166645139455795,-0.07885733991861343,-0.0007999255903996527,0.049979280680418015,-0.02582058310508728,-0.028430495411157608,-0.015634501352906227,0.028097232803702354,0.03729305788874626,0.05123727768659592,-0.026190469041466713,0.007251239847391844,0.016537364572286606,0.042404964566230774,-0.07173576951026917,0.022714417427778244,0.052780356258153915,0.010401016101241112,0.06566566973924637,-0.007878253236413002,-0.03328201547265053,-0.07008574903011322,-0.07282287627458572,-0.03818562626838684,0.04314335063099861,-0.03965051472187042,0.017642846331000328,-0.03059084713459015,0.07069351524114609,0.013064827769994736,0.07095873355865479,0.0029212755616754293,0.05388939753174782,-0.07422807812690735,0.03541387990117073,0.014667446725070477,-0.0633917897939682,-0.005485884379595518,0.04304811730980873,0.057415638118982315,-0.02936202473938465,-0.03828025609254837,-0.05006920173764229,-0.06221631169319153,0.05531246215105057,0.0255503561347723,0.02437972091138363,-0.003407068084925413,-0.07853130996227264,0.01008007861673832,-0.04704064503312111,-0.05676591023802757,-0.037367600947618484,-0.015099973417818546,0.04076983407139778,-0.06370338797569275,-0.0075906007550656796,-0.014703435823321342,-0.06498485058546066,-0.03430593013763428,0.045501500368118286,0.05616232752799988,0.015220565721392632,0.030790260061621666,0.036535993218421936,-0.0252250824123621,0.07877718657255173,0.016809942200779915,-0.00852480623871088,0.0296736191958189,-0.024080947041511536,-0.0010342245223000646,-0.04760464280843735,0.052013300359249115,0.015437082387506962,-0.03793870285153389,-0.05497070401906967,-0.037888746708631516,0.0601162426173687,-0.0444849357008934,-0.054840337485075,0.047079890966415405,-0.06261394917964935,0.054626524448394775,0.06270182132720947,0.07512369751930237,-0.04948320612311363,-0.011270122602581978,0.04960939288139343,-0.03733659163117409,0.006856880150735378,-0.042785339057445526,0.003591442247852683,-0.03678487241268158,0.07425067573785782,-0.05828778073191643,-0.033062633126974106,0.02236274816095829,-0.06623982638120651,-0.018383514136075974,0.0028932017739862204,-0.03368988260626793,-0.06552675366401672,-0.0013181205140426755,0.03693869709968567,0.014539123512804508,0.01293906755745411,0.01998213678598404,0.023204630240797997,0.06149264797568321,0.007108911406248808,-0.0005469370516948402,-0.07146374881267548,0.07336747646331787,0.02058020606637001,0.07386049628257751,0.02345792017877102,-0.06858240813016891,-0.07306661456823349,-0.07904525846242905,0.03518034145236015,0.03653031960129738,-0.01031008642166853,-0.06576351076364517,0.010384460911154747,-0.06298363208770752,0.020225180312991142,0.06526020169258118,0.05027124658226967,0.008577197790145874,0.037004999816417694,-0.05303068459033966,-0.026499908417463303,0.020583679899573326,0.07482041418552399,0.06447704881429672,-0.01534800324589014,-0.012717975303530693,0.0454011969268322,0.07555955648422241,-0.017628002911806107,-0.041011884808540344,-0.0028467180673033,-0.04852575063705444,-0.030330829322338104,0.025374526157975197,-0.03212423622608185,-0.05342438444495201,0.014022859744727612,0.04036901518702507,0.002765788696706295,-0.021525977179408073,-0.05662636086344719,-0.038439150899648666,0.06173064187169075,-0.04526319354772568,-0.052582211792469025,0.012120798230171204,0.07308463752269745,0.0613870844244957,0.040452852845191956,0.06073474511504173,0.04807335510849953,-0.034858349710702896,0.010593834333121777,-0.07386830449104309,0.0561501570045948,-0.051073651760816574,0.07280571758747101,0.07783984392881393,-0.07134293764829636,-0.0345366895198822,0.04614952206611633,-0.05550280585885048,0.048525724560022354,0.07628072053194046,-0.06586295366287231,0.06312581151723862,0.0617239736020565,-0.023064695298671722,0.02541361190378666,0.07530911266803741,0.013206574134528637,-0.07800882309675217,-0.03451851010322571,-0.0021416121162474155,0.033080603927373886,0.02811439521610737,-0.04133021458983421,-0.0037492173723876476,0.025794755667448044,-0.01740347407758236,0.051894959062337875,-0.03928958252072334,-0.050139982253313065,-0.025077512487769127,-0.058973610401153564,0.0033378403168171644,-0.0373699925839901,-0.06586357206106186,0.05255796015262604,0.06801736354827881,0.029516518115997314,-0.012569918297231197,0.06636451929807663,-0.057968415319919586,-0.058111172169446945,-0.002385059604421258,0.015674710273742676,0.07481767237186432,-0.06416565179824829,-0.008184583857655525,-0.07661627233028412,0.04181673750281334,-0.06317862123250961,0.05646894872188568,0.03291744738817215,0.057408757507801056,0.01645354926586151,-0.004223298747092485,-0.015796968713402748,-0.01647747866809368,-0.02562461420893669,0.07208704203367233,-0.015570723451673985,0.04171636328101158,0.05512505769729614,-0.07405390590429306,-0.07361319661140442,0.060821112245321274,-0.06931135058403015,-0.046306632459163666,0.04730316624045372,0.013748669065535069,0.06581322848796844,0.07152938842773438,0.054839760065078735,0.06299547851085663,-0.04459307715296745,-0.046849507838487625,0.07071893662214279,-0.04667217656970024,-0.03366028890013695,0.0721944272518158,0.013688277453184128,0.043823204934597015,0.054107774049043655,-0.01923755556344986,0.02908468432724476,-0.06546342372894287,-0.0640479102730751,0.02503270097076893,-0.009473751299083233,-0.06411930173635483,0.019611792638897896,0.03432627022266388,-0.020597808063030243,0.028249260038137436,-0.020655425265431404,-0.06429746001958847,0.07391706854104996,0.05247250571846962,0.022853178903460503,0.001838805852457881,0.0061864061281085014,-0.0724203959107399,-0.07562633603811264,0.020138273015618324,-0.03858670964837074,0.00583066139370203,-0.06685632467269897,0.015656137838959694,-0.07420168071985245,-0.0004596315266098827,0.034259408712387085,0.03698265552520752,0.0230104997754097,-0.03333355858922005,0.06511830538511276,-0.07337159663438797,0.02935963310301304,0.06377492845058441,-0.05301788076758385,0.05655771493911743,0.006250875070691109,0.06301270425319672,-0.05771784111857414,0.022447388619184494,0.040896203368902206,-0.03173457458615303,0.0069276983849704266,0.050614457577466965,-0.039582546800374985,0.049058910459280014,0.05101210996508598,-0.053157005459070206,-0.04075860604643822,0.009090305306017399,0.05306283384561539,-0.07705915719270706,0.05642467737197876,0.0530550442636013,-0.07768582552671432,0.04999832436442375,-0.07872078567743301,-0.016632594168186188,0.04769869148731232,-0.06683811545372009,-0.028518086299300194,-0.030268440023064613,-0.04021378606557846,-0.05218816548585892,0.06897437572479248,-0.03563356772065163,0.07175128906965256,-0.058969829231500626,0.002743959426879883,0.0185046698898077,0.011542167514562607,0.07368554174900055,-0.007722044363617897,0.07656645029783249,-0.07283664494752884,0.02068176493048668,-0.07095593959093094,-0.013453871943056583,0.058647092431783676,0.014179800637066364,0.02541395276784897,0.0019763195887207985,-0.049017492681741714,-0.029357627034187317,0.028090693056583405,-0.004944494925439358,0.01871604286134243,0.027381818741559982,0.010614183731377125,-0.035303421318531036,0.06128879263997078,-0.06710051000118256,0.014886854216456413,-0.015616459771990776,-0.06165521591901779,-0.05121864005923271,-0.03392765671014786,-0.023969868198037148,0.01138216257095337,0.023635217919945717,-0.058043383061885834,0.07363361120223999,-0.04745888710021973,-0.003873969428241253,0.05953593552112579,-0.07915341854095459,-0.003573901019990444,0.00028462198679335415,-0.030003134161233902,0.00030447589233517647,0.04967682808637619,-0.036359552294015884,-0.0760362446308136,0.07862867414951324,0.05141488090157509,0.0512707382440567,0.01801685243844986,-0.06269454210996628,-0.06023304909467697,-0.04065041244029999,-0.05210373178124428,0.009901079349219799,-0.06331360340118408,-0.03370460867881775,0.0449560172855854,-0.012512839399278164,-0.019779931753873825,-0.028751080855727196,-0.05384769290685654,-0.03884107992053032,0.03513006493449211,0.056326888501644135,-0.06504980474710464,0.02896057814359665,0.04293176531791687,-0.04436567798256874,0.0624813549220562,0.006122026592493057,0.04743843153119087,0.06987715512514114,0.033358849585056305,-0.022175181657075882,0.04078752174973488,0.026991266757249832,-0.05309411883354187,0.07060059905052185,-0.023607410490512848,-0.04350143298506737,0.034203656017780304,-0.03437364846467972,-0.05171271041035652,-0.010712005198001862,-0.006691806949675083,0.01270497590303421,0.06971454620361328,0.06458260118961334,0.057555247098207474,-0.02093714475631714,0.03692895919084549,0.06960811465978622,0.03846700116991997,-0.07220286130905151,-0.016168653964996338,-0.04883779585361481,0.026734812185168266,0.030338633805513382,0.004840072710067034,-0.05429340526461601,0.07476058602333069,0.05737287551164627,-0.037058647722005844,-0.047725822776556015,0.06306783854961395,-0.005077416077256203,-0.02819158136844635,0.028392698615789413,0.0011654308764263988,-0.053441889584064484,0.03291286528110504,-0.06789369881153107,0.0726417526602745,-0.00819974672049284,0.05598128214478493,0.07470620423555374,-0.01372900977730751,-0.05501136556267738,0.02719694748520851,-0.029543478041887283,-0.040721356868743896,0.011597160249948502,0.012043086811900139,-0.0437685064971447,0.06747321784496307,-0.06899584084749222,0.03443435952067375,-0.04741198942065239,-0.04485694319009781,0.04298494756221771,-0.07189534604549408,0.039096053689718246,0.006076057441532612,-0.02127566747367382,-0.04456067457795143,0.012681637890636921,-0.053058523684740067,-0.0037300509866327047,0.022083934396505356,-0.0171290822327137,0.01777554862201214,-0.07567618042230606,0.07204503566026688,0.04343346878886223,-0.030793417245149612,0.07265827059745789,0.03039873205125332,-0.04801212251186371,-0.05335446447134018,0.04313547909259796,-0.025756901130080223,-0.033869668841362,0.008508339524269104,0.00271984888240695,-0.03940485790371895,-0.007840176112949848,0.06907635927200317,0.032205067574977875,0.0012086392380297184,0.030440043658018112,0.023042121902108192,-0.030908776447176933,0.06620544195175171,-0.07828780263662338,-0.031596384942531586,-0.07183990627527237,0.0065947119146585464,0.05883379653096199,0.03807318955659866,-0.07483303546905518,0.04261891543865204,0.05165623128414154,-0.01852550357580185,-0.012738422490656376,0.0482604056596756,-0.006690959446132183,0.010165387764573097,0.07614325731992722,0.010001122951507568,-0.006702828221023083,-0.05225110054016113,0.04240494966506958,0.06943975389003754,0.02433186024427414,-0.04171358421444893,0.07458598911762238,-0.0787297934293747,0.03603752329945564,0.032019346952438354,0.025642886757850647,0.055139996111392975,-0.06419598311185837,0.06263817101716995,-0.003520496655255556,0.038800425827503204,-0.023443184792995453,0.025211570784449577,0.016510073095560074,-0.010063543915748596,-0.013043049722909927,0.04022517055273056,0.07089963555335999,0.04277573898434639,-0.0031270927283912897,0.06084492430090904,0.0577760748565197,-0.030391283333301544,-0.01884886622428894,0.02463911473751068,0.04907416179776192,0.06895847618579865,-0.027257578447461128,-0.07620961964130402,-0.04841356351971626,-0.0347590334713459,-0.06143356114625931,0.02423272468149662,-0.03883111849427223,0.061012282967567444,-0.03155107796192169,0.009098364040255547,0.017100073397159576,-0.07072142511606216,0.022786645218729973,-0.0024134533014148474,-0.03593286871910095,-0.04902927950024605,-0.024541864171624184,-0.07846679538488388,0.04060600697994232,0.06864874064922333,0.019268494099378586,0.072250597178936,-0.061435554176568985,0.004403962753713131,-0.06518089771270752,0.07496261596679688,-0.046105511486530304,-0.06067468971014023,0.02513682097196579,-0.04139702022075653,-0.02673315815627575,-0.02004481479525566,-0.023839863017201424,-0.03421536460518837,0.07250197976827621,0.045217256993055344,-0.00022018996241968125,-0.04600540176033974,-0.039797212928533554,0.0015489592915400863,-0.037180207669734955,-0.039839014410972595,-0.010485054925084114,0.044970590621232986,0.02929517813026905,-0.020917540416121483,0.04881041869521141,-0.04534095525741577,0.019216399639844894,0.06791931390762329,0.014697464182972908,-0.06768102943897247,0.0325077660381794,0.06968961656093597,0.004017266910523176,0.0065393452532589436,-0.04777176305651665,-0.06478672474622726,0.027742063626646996,0.0753970518708229,0.027139006182551384,-0.06500353664159775,-0.010286657139658928,-0.02947845123708248,0.04055243730545044,-0.07100757211446762,0.06916362792253494,0.008591840974986553,0.046080611646175385,-0.01547094713896513,-0.03273981064558029,0.01522902399301529,0.02687794342637062,0.07072576880455017,0.012480936013162136,-0.03672215715050697,0.04806111380457878,0.0001114619299187325,-0.061774589121341705,-0.03458254039287567,0.01613418012857437,-0.06926631927490234,0.0786048099398613,-0.024143580347299576,0.0025721429847180843,-0.06455142796039581,0.00829966738820076,-0.035268671810626984,0.07386310398578644,-0.0694136992096901,-0.03197338432073593,0.012133315205574036,0.058314476162195206,-0.003947270102798939,-0.030780287459492683,0.020948875695466995,-0.0516846738755703,-0.07665668427944183,0.03553493320941925,-0.03239806741476059,0.038759905844926834,-0.05218224227428436,0.04001152142882347,-0.05214183032512665,0.06947902590036392,-0.07450573891401291,0.0014809228014200926,0.053592581301927567,-0.020160403102636337,-0.05914747714996338,0.07375181466341019,0.0377107635140419,-0.0016761354636400938,0.04643293842673302,-0.04746659845113754,0.03815174102783203,-0.04349811002612114,-0.04248276352882385,0.03944426402449608,-0.007560706697404385,-0.026680879294872284,-0.05211607366800308,-0.06543335318565369,0.05025400221347809,-0.017392106354236603,0.014548752456903458,0.07500950992107391,-0.020047295838594437,-0.012003985233604908,-0.009684504009783268,-0.04830969125032425,-0.06924603134393692,-0.062115538865327835,0.04430895298719406,0.0697082132101059,-0.06098400801420212,-0.04241439327597618,0.014349565841257572,-0.06088133156299591,-0.006537190172821283,0.07218226045370102,-0.07641563564538956,-0.07815800607204437,0.060227468609809875,-0.054425399750471115,-0.06101984158158302,0.042202770709991455,0.04580657184123993,-0.04836391657590866,0.03842668607831001,-0.07216958701610565,-0.061337120831012726,-0.07183893769979477,-0.03990878164768219,-0.06437867134809494,-0.06789860874414444,0.012691815383732319,-0.05266272649168968,0.016599541530013084,0.051500238478183746,-0.0028842375613749027,0.04488513618707657,-0.05907326564192772,0.0731622502207756,-0.04054095596075058,-0.04678503796458244,-0.039880361407995224,0.027739491313695908,-0.005911641754209995,0.04000914841890335,-0.03737214580178261,-0.03769804164767265,-0.009550872258841991,-0.06617425382137299,-0.007795125711709261,0.039396390318870544,-0.0033603834453970194,-0.042877987027168274,0.04776725545525551,-0.05711744725704193,-0.010679012164473534,0.01604163646697998,-0.06710013747215271,-0.06519443541765213,-0.03959805145859718,-0.05421823635697365,0.030990513041615486,0.043429046869277954,0.041804566979408264,-0.048751357942819595,-0.06909871846437454,0.031678397208452225,0.048347506672143936,-0.04087494686245918,0.06937095522880554,0.013462739996612072,-0.06687773019075394,-0.01755925826728344,-0.07831979542970657,0.004256317857652903,-0.00793843250721693,0.0018745021661743522,-0.0014785382663831115,-0.047867272049188614,-0.009034918621182442,-0.009078579023480415,-0.0597781166434288,0.0541016161441803,-0.06842662394046783,-0.04780707135796547,-0.009760910645127296,0.07570084184408188,0.018966512754559517,-0.0477135106921196,0.0719655230641365,0.04583411291241646,0.026761876419186592,-0.05751225724816322,0.0042671929113566875,-0.004587721545249224,-0.07293696701526642,-0.04002176970243454,0.03621220216155052,-0.07459148019552231,-0.012526459991931915,0.06912662833929062,-0.03575599938631058,-0.016881722956895828,-0.034486282616853714,-0.06325288861989975,-0.03671559691429138,-0.04110752418637276,-0.013239764608442783,0.023438140749931335,-0.010817413218319416,0.026531724259257317,0.03160186484456062,-0.06799964606761932,0.006848793942481279,0.03600524738430977,0.004352597054094076,0.053681954741477966,0.01387154683470726,-0.0034500067122280598,-0.06881879270076752,-0.016158444806933403,-0.06101008504629135,-0.05831807479262352,0.020484760403633118,-0.06819235533475876,-0.0062577249482274055,0.027722079306840897,-0.015122733078897,-0.006506181322038174,0.0475153774023056,-0.057180263102054596,0.07891663163900375,0.07680431008338928,0.05041324719786644,0.010193130932748318,-0.0013322005979716778,-0.05589566007256508,0.04968719184398651,-0.0180964432656765,0.061740536242723465,0.053851328790187836,0.04567917808890343,-0.0018500527366995811,-0.014528515748679638,-0.03184628486633301,0.06418074667453766,0.057699594646692276,-0.007244748063385487,-0.03324758633971214,-0.0352528840303421,0.04346935823559761,0.041802097111940384,-0.05177803337574005,0.009687731973826885,-0.021045681089162827,0.020135922357439995,0.06744419038295746,0.07803866267204285,0.05389128625392914,0.06324809789657593,-0.033430278301239014,-0.07175411283969879,-0.016234947368502617,-0.04627354443073273,0.0028212163597345352,0.04822678491473198,0.033212557435035706,-0.04451446980237961,-0.02392791397869587,-0.07020542025566101,0.01871788315474987,0.05309515818953514,0.07836025208234787,0.02208205685019493,0.07666292786598206,-0.07363497465848923,0.056427523493766785,-0.027897702530026436,-0.015444093383848667,-0.07627943903207779,-0.00019336141122039407,-0.004270796198397875,0.062384482473134995,0.04805642366409302,-0.07507231086492538,-0.021114621311426163,-0.049447499215602875,0.02952195703983307,-0.023929117247462273,-0.0616312213242054,-0.06330765038728714,-0.0014368649572134018,-0.048723697662353516,-0.03276443108916283,-0.07218397408723831,0.0042205145582556725,0.020624350756406784,-0.03345270827412605,0.03974023461341858,0.052397243678569794,-0.023170651867985725,-0.0327933132648468,-0.005756224039942026,-0.07161537557840347]},"inputBias":{"rows":30,"columns":1,"weights":[-0.7886261940002441,-0.93384850025177,-0.9247205853462219,-0.7528924345970154,-0.5097974538803101,-1.0184379816055298,-0.703535258769989,-0.4362402856349945,-1.0176527500152588,-0.0430833101272583,-0.8273665904998779,-0.5752681493759155,-0.9244104623794556,-1.0565159320831299,-0.90351802110672,-1.1074626445770264,-1.167264461517334,-0.8747336864471436,-0.8825043439865112,-0.4342852830886841,-0.4787355661392212,-0.4196810722351074,-1.1739789247512817,-0.504675567150116,-0.9855910539627075,-1.0328657627105713,-0.8305474519729614,-0.7990949153900146,-0.9209592938423157,-0.21817395091056824]},"forgetMatrix":{"rows":30,"columns":1,"weights":[-0.04507576301693916,0.03482821211218834,0.030207276344299316,-0.0015923508908599615,0.0672626867890358,0.00042887090239673853,-0.046807173639535904,0.013989008031785488,-0.011679640039801598,-0.04913712665438652,-0.061869066208601,-0.04157691076397896,0.017493698745965958,0.058426257222890854,-0.06462673842906952,-0.05822548270225525,0.038746315985918045,0.04060150310397148,0.03817887231707573,-0.031114092096686363,0.03916995972394943,-0.044274572283029556,0.030192360281944275,0.01734413206577301,-0.02614232338964939,-0.00927785038948059,-0.008221909403800964,0.06217072159051895,-0.05821571871638298,0.02566498890519142]},"forgetHidden":{"rows":30,"columns":30,"weights":[-0.07266813516616821,-0.06572955846786499,-0.0668630376458168,0.025130873546004295,0.005040505435317755,0.07801517844200134,0.03854012489318848,0.012627771124243736,-0.07846275717020035,-0.04520246386528015,-0.07758893072605133,0.006727036088705063,-0.06801483780145645,-0.05764664709568024,-0.03346707299351692,-0.03149542957544327,0.026328522711992264,0.026226814836263657,-0.04076077416539192,0.03437381610274315,0.022360313683748245,0.012985431589186192,0.021829793229699135,-0.022525575011968613,-0.06759727001190186,-0.06050197035074234,-0.0451141782104969,0.06806506216526031,0.04065541550517082,0.03368716314435005,-0.043184131383895874,-0.04644743353128433,-0.044130902737379074,0.06481728702783585,-0.024565700441598892,0.07743428647518158,-0.023520121350884438,0.00783340260386467,-0.021938834339380264,-0.03797250986099243,-0.01507545541971922,-0.020530153065919876,0.010093986056745052,0.046222541481256485,-0.011824687011539936,-0.041123658418655396,0.04871831834316254,-0.06505265831947327,-0.012579390779137611,0.020108923316001892,0.04753464460372925,0.011136677116155624,-0.00412715133279562,-0.0661335363984108,0.05030973255634308,-0.05962280556559563,-0.050335511565208435,-0.05364289879798889,0.04080374538898468,-0.06523679196834564,0.05623888596892357,0.07770823687314987,0.008269389159977436,0.021345676854252815,0.05449306592345238,-0.04528049752116203,-0.048397246748209,-0.04543287679553032,-0.05726538971066475,-0.07593411207199097,-0.06291979551315308,0.04541125148534775,0.055501386523246765,0.0444086529314518,-0.022051315754652023,-0.028867553919553757,0.03036578558385372,0.010795842856168747,0.013968286104500294,-0.06020963564515114,0.06356283277273178,-0.038408584892749786,-0.06036566197872162,-0.06230819597840309,0.0727558434009552,-0.06216073036193848,-0.03351858630776405,-0.027880316600203514,-0.0687890350818634,-0.02345290407538414,0.02573627419769764,-0.01097591407597065,-0.04288414865732193,-0.04360981285572052,-0.03172827884554863,0.026544876396656036,-0.008830319158732891,0.0001700363791314885,-0.06795121729373932,0.06811627000570297,-0.07515624165534973,0.04005715996026993,0.06284242123365402,0.03410260006785393,0.07087915390729904,-0.07850152999162674,0.04592076689004898,-0.05005066469311714,0.01241866685450077,-0.07308977097272873,-0.03024679608643055,0.050890710204839706,0.04112035781145096,0.045772235840559006,-0.02674613520503044,-0.022348489612340927,-0.015129396691918373,0.00590532086789608,-0.04678082466125488,0.011536017060279846,0.07247018814086914,-0.033373598009347916,0.02054639719426632,-0.04781519994139671,0.05213672295212746,-0.012823820114135742,0.040056537836790085,-0.04890931770205498,-0.07687313854694366,-0.07603594660758972,-0.047951146960258484,0.06591221690177917,-0.07664252817630768,0.06425582617521286,-0.030504845082759857,0.02334626577794552,-0.044529106467962265,-0.02108045667409897,-0.04752397537231445,0.057627446949481964,-0.03222332522273064,-0.008420039899647236,-0.013156943023204803,0.029454892501235008,0.018283076584339142,-0.029655124992132187,0.021807970479130745,0.005615745205432177,0.06305725872516632,0.04339977726340294,-0.05459156259894371,0.07217620313167572,0.013221461325883865,0.05067415162920952,0.055273450911045074,0.013093599118292332,-0.0234990231692791,-0.01636776514351368,0.010991540737450123,-0.03596490994095802,-0.024711573496460915,-0.012900421395897865,-0.029838858172297478,-0.01291375607252121,-0.07725144177675247,-0.049456845968961716,0.06110253930091858,-0.07091344147920609,0.06203370913863182,0.06387916207313538,0.017459535971283913,-0.06880736351013184,-0.07530517131090164,-0.05817071348428726,0.012254029512405396,-0.03318599611520767,-0.03652437403798103,-0.05135654658079147,-0.0012267784914001822,0.013605453073978424,-0.03194204717874527,-0.03242067992687225,0.02669396996498108,-0.06708118319511414,0.008842572569847107,0.05520050972700119,0.06630147248506546,-0.065449059009552,0.07709291577339172,-0.04602576419711113,0.06886983662843704,0.06646491587162018,-0.031330276280641556,-0.06104549765586853,0.03283750265836716,-0.07623941451311111,0.032889820635318756,0.02502971701323986,-0.023101018741726875,0.04813380539417267,-0.01194918341934681,-0.044161681085824966,-0.012625748291611671,0.03892283886671066,-0.06296918541193008,0.01359584741294384,0.04947181046009064,0.07566215842962265,0.04919546842575073,-0.04616532102227211,0.0008111617062240839,-0.05783814191818237,-0.00024924869649112225,0.06754940748214722,0.07616785168647766,-0.060483627021312714,-0.03862890601158142,-0.07564472407102585,0.03897244855761528,-0.05870642513036728,0.004554437473416328,-0.012498956173658371,0.04649368301033974,-0.03607206046581268,-0.03496813029050827,0.0258663147687912,0.044553522020578384,-0.06575493514537811,0.07651742547750473,0.059867553412914276,-0.01277951430529356,-0.02943887934088707,0.07080454379320145,0.013973427005112171,-0.03282895311713219,-0.04465663060545921,-0.07839784026145935,-0.00844410341233015,-0.005245178937911987,-0.029510777443647385,-0.02912181057035923,0.006001505069434643,-0.052165284752845764,0.020856492221355438,0.07574243098497391,-0.020332522690296173,0.07025548815727234,0.05965473875403404,0.04184742644429207,-0.06471585482358932,0.017654089257121086,0.0009591643465682864,-0.007815434597432613,0.006968943867832422,-0.016802184283733368,0.06656121462583542,-0.04000268876552582,0.0442802719771862,-0.0029059580992907286,-0.054808951914310455,0.07203289121389389,0.07335656136274338,0.0596272237598896,-0.04098700359463692,0.07341057807207108,-0.03281595930457115,-0.06808872520923615,0.0467185378074646,0.040424857288599014,0.04496109485626221,-0.006580363027751446,-0.03155218064785004,-0.03771891072392464,-0.06569737941026688,0.07749816030263901,0.03501587361097336,0.05986129119992256,-0.0019055624725297093,-0.04425865039229393,-0.07596316188573837,0.055692922323942184,-0.07760452479124069,-0.06875745952129364,0.05899549275636673,-0.04711008816957474,-0.0621100515127182,0.014664425514638424,-0.0270027294754982,0.06661481410264969,0.03908425569534302,0.0681568831205368,0.014266462996602058,-0.03518424183130264,0.01014248188585043,0.06331627815961838,-0.01917753741145134,0.02597370743751526,-0.03648746758699417,-0.017259223386645317,-0.015460795722901821,0.06233161315321922,0.07726354897022247,0.004871296230703592,0.04092356562614441,0.0524381585419178,-0.04763851687312126,0.05736294016242027,0.06307154893875122,0.07880622893571854,0.05788453668355942,-0.07699061185121536,-0.017010081559419632,-0.06882799416780472,-0.023338785395026207,-0.03090618923306465,-0.03229668736457825,0.060958944261074066,-0.05875088647007942,-0.06741176545619965,-0.018318062648177147,-0.057842858135700226,0.07295599579811096,0.012989317066967487,-0.07792666554450989,0.009363409131765366,0.030311569571495056,-0.011016279458999634,-0.04754164442420006,-0.04396183043718338,0.034088242799043655,0.07482647150754929,0.04427097365260124,0.01385771669447422,-0.055387262254953384,-0.05260466784238815,0.01672600768506527,0.07773266732692719,0.07556372135877609,-0.07330973446369171,0.00043423782335594296,0.021336032077670097,-0.0398164838552475,0.06820545345544815,-0.07662009447813034,-0.0011483586858958006,0.038572702556848526,-0.07829060405492783,-0.06388534605503082,-0.009631266817450523,0.0765085443854332,-0.01682504639029503,-0.01700611039996147,-0.07657166570425034,0.0607626810669899,0.06109421327710152,0.02243812382221222,0.023499423637986183,-0.037411127239465714,-0.010262076742947102,0.023623604327440262,-0.033438634127378464,0.035995885729789734,-0.03515000268816948,-0.04326861724257469,-0.046107638627290726,0.021874921396374702,0.03956384211778641,-0.03755917400121689,0.060191765427589417,0.004873889032751322,-0.030742231756448746,0.024769803509116173,-0.0008594253449700773,0.005364163778722286,0.04115058481693268,-0.0258986484259367,0.009279828518629074,0.06448295712471008,-0.06542196869850159,-0.015343704260885715,0.0005044895806349814,0.05025816708803177,0.008672491647303104,-0.010139002464711666,-0.012187781743705273,0.07102310657501221,-0.04358367621898651,-0.06722389161586761,-0.03149537742137909,0.05329930782318115,0.05081833899021149,-0.024611422792077065,-0.04715196043252945,-0.06063620746135712,0.016832955181598663,-0.048122894018888474,-0.038190875202417374,-0.07779576629400253,0.0030196926090866327,0.05647847056388855,0.0765763521194458,-0.063449926674366,0.024732302874326706,0.037226635962724686,-0.05318708345293999,-0.01982557401061058,0.006356201600283384,-0.04879027232527733,-0.05412554740905762,-0.025546185672283173,-0.015427419915795326,0.03334738686680794,-0.06534072756767273,0.06192857027053833,0.04527417570352554,-0.05098123848438263,0.06027969345450401,-0.05280689895153046,0.024514200165867805,-0.0032475099433213472,0.039873156696558,0.0522591732442379,-0.005181275773793459,0.06006656959652901,0.01870676875114441,0.019111065194010735,0.054106175899505615,-0.0013724397867918015,-0.009370905347168446,-0.07655572146177292,-0.02366623841226101,-0.036945831030607224,0.07706211507320404,-0.04606221988797188,0.04842370003461838,-0.051026828587055206,0.03538027033209801,-0.058935437351465225,-0.016201093792915344,0.04011921212077141,0.03917764127254486,-0.011400538496673107,-0.014987521804869175,-0.06585086137056351,0.06337476521730423,-0.05886812508106232,-0.047411754727363586,-0.01316025946289301,0.00965921487659216,0.03859569877386093,0.07907995581626892,-0.07665453106164932,-0.043046582490205765,0.04956616088747978,-0.04411591961979866,0.056440092623233795,0.05296336114406586,0.0413392148911953,-0.04594942927360535,-0.07461749017238617,-0.07225219905376434,0.03668097406625748,-0.01959194242954254,-0.023147162050008774,0.03156927973031998,0.0724596157670021,0.06778737157583237,0.024065902456641197,0.030077628791332245,-0.05687515065073967,-0.051003847271203995,0.0064089116640388966,-0.02142345905303955,0.019816594198346138,-0.05697553977370262,-0.0603078156709671,-0.030711093917489052,-0.010365326888859272,-0.054285928606987,0.07524370402097702,-0.044676523655653,-0.0303678996860981,-0.07475665956735611,-0.004691074136644602,0.05385206639766693,-0.01372182834893465,0.016719477251172066,0.04951855540275574,0.03530499339103699,-0.0309146735817194,-0.025213422253727913,-0.03716692700982094,-0.06430747359991074,0.006078815553337336,-0.07054317742586136,0.05926993116736412,-0.04357384890317917,0.003239791840314865,0.05099639296531677,-0.07915521413087845,-0.010227873921394348,-0.05103496462106705,-0.06724419444799423,-0.06519622355699539,-0.007505346089601517,-0.0735974907875061,0.01414657011628151,-0.022801315411925316,-0.0074559892527759075,0.001973537728190422,-0.019378475844860077,-0.05951954051852226,-0.025447195395827293,-0.07902500033378601,-0.0256747268140316,0.0018124822527170181,-0.038974832743406296,0.008625713177025318,-0.06245754286646843,-0.016264380887150764,0.004257024731487036,-0.02695034071803093,-0.0674179270863533,-0.049302347004413605,-0.03943970054388046,-0.001146842841990292,-0.058421362191438675,0.05504273623228073,-0.05671244114637375,0.048094797879457474,0.06257782131433487,-0.053987883031368256,0.05437971651554108,0.032112278044223785,-0.01267099380493164,0.04864253103733063,0.02741830050945282,-0.02771727368235588,-0.05861156806349754,0.03790587559342384,-0.03731565177440643,-0.00393704092130065,-0.051122669130563736,-0.054071132093667984,-0.024715334177017212,0.004425193183124065,0.043796055018901825,0.01730119250714779,0.04477844387292862,-0.014586320146918297,0.06552862375974655,0.03924300894141197,-0.02135622315108776,0.060767002403736115,-0.024556823074817657,0.060900021344423294,-0.02153494581580162,-0.07413329929113388,0.049916721880435944,0.011420191265642643,-0.041202280670404434,-0.06913236528635025,-0.0170675590634346,-0.07073894143104553,-0.005755924154073,0.05748441442847252,0.0410589799284935,0.0005174819962121546,-0.01404307596385479,0.054023731499910355,0.07509486377239227,0.05614208057522774,-0.0679795891046524,-0.03736521303653717,0.02298254333436489,-0.051600560545921326,-0.03321031853556633,-0.01901848427951336,0.034196823835372925,-0.004123230930417776,-0.034872595220804214,0.07449062913656235,-0.033481501042842865,0.010023556649684906,0.011507490649819374,0.056353893131017685,-0.03225986286997795,0.05255597084760666,0.06804355978965759,0.05371200665831566,-0.030504239723086357,0.07839205861091614,0.007646553218364716,0.05189933627843857,0.02662506327033043,0.03667061775922775,0.06507520377635956,-0.018941788002848625,0.02964325249195099,-0.03333815187215805,-0.055676333606243134,-0.06162812188267708,0.043315477669239044,0.030984651297330856,0.052708376199007034,0.04372848942875862,0.009949005208909512,0.0054389797151088715,0.0042059775441884995,0.03102494403719902,0.05186191946268082,0.009226381778717041,0.0011575986864045262,0.005194682627916336,-0.027130264788866043,-0.07409119606018066,0.0773787721991539,0.04882968217134476,-0.04834221675992012,-0.037684954702854156,-0.06308828294277191,-0.04229624196887016,-0.01778997667133808,-0.07285187393426895,-0.0667596310377121,-0.05166419968008995,-0.058890797197818756,-0.03826390206813812,0.018896110355854034,-0.0638902485370636,-0.019891757518053055,-0.07351148873567581,0.07336816936731339,0.06099935993552208,-0.06315183639526367,0.005604162346571684,0.06983207911252975,-0.062203630805015564,0.06398862600326538,-0.02543681114912033,0.02881455235183239,0.045007698237895966,0.01524624414741993,-0.019490288570523262,-0.05108359083533287,0.033311400562524796,-0.012532621622085571,-0.0687338262796402,-0.019056592136621475,-0.0688140019774437,-0.031232891604304314,-0.07535135746002197,0.0748385637998581,0.05594995990395546,0.05010818690061569,-0.04974567890167236,0.07607916742563248,0.06591257452964783,0.02415560558438301,-0.0003592433058656752,-0.006852115970104933,0.07638005167245865,0.05946287885308266,-0.06164155527949333,-0.061925873160362244,0.018873443827033043,-0.05620041862130165,0.05098578706383705,-0.05692583695054054,-0.007532353047281504,-0.04008799046278,0.015967020764946938,0.016831515356898308,-0.0727914348244667,0.005304588004946709,-0.04652338847517967,-0.025831855833530426,0.017104586586356163,0.06499185413122177,0.005223129875957966,0.07907494902610779,-0.019770558923482895,-0.05106684938073158,-0.00034547230461612344,0.039764273911714554,-0.02415759675204754,0.01132750790566206,-0.010574097745120525,-0.03782445937395096,0.05935249105095863,0.07211799174547195,-0.0019962696824222803,-0.03137991204857826,-0.016108276322484016,0.05701940506696701,-0.014536241069436073,-0.013408920727670193,0.04935028403997421,0.020271068438887596,0.011577704921364784,-0.05341048911213875,-0.04222063347697258,0.04105685278773308,-0.06608085334300995,0.037727341055870056,-0.06563545018434525,0.011781512759625912,0.02855769544839859,-0.028265802189707756,0.05511828139424324,-0.043533358722925186,-0.014638957567512989,-0.04217169061303139,0.0234710443764925,-0.053710341453552246,0.051987335085868835,0.05503122881054878,0.0032741271425038576,0.03706168383359909,-0.07478790730237961,-0.014538949355483055,0.05459144338965416,0.06108197569847107,-0.027265284210443497,-0.06086970120668411,0.058288298547267914,0.019952664151787758,-0.0009797614766284823,-0.03824876993894577,-0.043897464871406555,-0.057056974619627,0.009539637714624405,0.043558843433856964,-0.06103985011577606,0.029793061316013336,0.003558885771781206,-0.05009998381137848,0.01762746274471283,-0.03624564781785011,0.029286736622452736,-0.06519684940576553,0.01856228895485401,0.05426676571369171,-0.06317001581192017,-0.0006507800426334143,0.07447956502437592,-0.03891001641750336,-0.05389028415083885,-0.02026263438165188,0.05771731957793236,0.07102439552545547,-0.03407752141356468,0.03589475154876709,0.050594262778759,0.07419884204864502,0.01785854622721672,-0.06887692213058472,-0.027357839047908783,-0.028590725734829903,0.03550992161035538,-0.06527511030435562,-0.039540037512779236,0.07596869021654129,0.07236815989017487,0.03557973727583885,0.061587247997522354,0.030677011236548424,-0.024565327912569046,0.02839343622326851,0.011263122782111168,-0.027102205902338028,0.05562269687652588,-0.028755508363246918,-0.07283460348844528,0.04820144549012184,0.07294993847608566,0.010915151797235012,-0.01709998957812786,0.032266486436128616,0.04823495075106621,-0.04861076548695564,0.05053877830505371,0.00834659393876791,-0.009843592531979084,-0.030279718339443207,0.03191107511520386,0.02749551460146904,0.0722576230764389,0.005827274173498154,-0.005789908114820719,-0.021581681445240974,0.03972681984305382,-0.001776000950485468,0.014888336881995201,-0.03829271346330643,0.037647880613803864,0.020602324977517128,0.007659825496375561,0.005742625333368778,0.05797252431511879,0.007307293359190226,0.020069347694516182,0.00886121392250061,-0.011539583094418049,-0.0622955784201622,0.0030544667970389128,0.03161023557186127,-0.07530062645673752,0.0475391186773777,-0.06676687300205231,0.05435234308242798,-0.06457458436489105,-0.01185582485049963,0.06534890085458755,-0.06751720607280731,0.06973447650671005,-0.0781237781047821,-0.030022529885172844,0.07628180086612701,0.05294301360845566,0.04448821023106575,0.012768261134624481,-0.032544951885938644,-0.045982010662555695,0.00948320608586073,0.003043409902602434,0.06794965267181396,-0.018105896189808846,0.04384482651948929,-0.018506290391087532,0.004597411025315523,-0.03485289216041565,0.06323989480733871,0.048789918422698975,0.000589799543377012,0.031127676367759705,-0.0405755341053009,-0.05925421416759491,0.06461142748594284,0.0589793398976326,-0.019623002037405968,0.02314556948840618,0.059502698481082916,0.0017137194517999887,0.03212378919124603,-0.009345454163849354,-0.02298920974135399,0.06287265568971634,-0.07809826731681824,-0.025903061032295227,-0.021834129467606544,0.07239484041929245,-0.07698997110128403,0.016093870624899864,-0.04161743074655533,0.06432518362998962,-0.06743921339511871,-0.07853666692972183,0.009229217655956745,-0.0073575167916715145,-0.008214662782847881,0.02921176329255104,-0.07291335612535477,0.024795547127723694,-0.06460575014352798,0.015245798043906689,-0.07454439252614975,-0.041930101811885834,-0.05238577350974083,0.061155013740062714,-0.007384186144918203,0.008064758032560349,-0.04968813806772232,0.05632391944527626,-0.015269983559846878,-0.03744197264313698,-0.0038159345276653767,0.053598802536726,0.02749594859778881,-0.050287242978811264,-0.03183092176914215,0.07626719027757645,0.04842332378029823,0.05945369228720665,-0.04630511254072189,-0.03168877214193344,0.04826771095395088,0.015138179995119572,-0.03169572353363037,0.0474887378513813,-0.027922511100769043,0.06574906408786774,0.045422088354825974,-0.03348507732152939,-0.0020683743059635162,0.03836708515882492,-0.05873716622591019,-0.06382548063993454,0.05261169746518135,-0.022212881594896317]},"forgetBias":{"rows":30,"columns":1,"weights":[0,0,0,0,0,0,0,0,0,0,0,0,0,0,0,0,0,0,0,0,0,0,0,0,0,0,0,0,0,0]},"outputMatrix":{"rows":30,"columns":1,"weights":[-0.35432976484298706,-0.1768425554037094,0.33512642979621887,-0.21138350665569305,0.5114908218383789,-0.5374231934547424,-0.2739607095718384,0.18538284301757812,-0.19149228930473328,0.06741689890623093,-0.2490423172712326,1.4704045057296753,-0.0662357434630394,0.1092054545879364,-0.13857948780059814,-0.6289509534835815,-0.11815455555915833,-0.22641946375370026,-0.4621095359325409,0.009372986853122711,0.009473199024796486,0.157253235578537,-0.18203088641166687,-0.0037819240242242813,-0.5192604064941406,-0.5499034523963928,-0.11784688383340836,-0.3752579391002655,-0.3503422141075134,0.4937569797039032]},"outputHidden":{"rows":30,"columns":30,"weights":[-0.05598803609609604,-0.01797068491578102,-0.02455826848745346,0.03496968001127243,0.07132335007190704,-0.07814740389585495,-0.030275806784629822,-0.022518999874591827,-0.03733059763908386,0.01750447228550911,0.016590198501944542,-0.0750836655497551,0.014381133019924164,0.0008195652044378221,-0.07691677659749985,-0.07910249382257462,0.07449160516262054,0.03882123529911041,-0.020872777327895164,-0.02533159963786602,-0.05040865018963814,0.06275416165590286,0.021850351244211197,0.07316776365041733,0.014067317359149456,-0.035657260566949844,-0.06003092974424362,0.05677371472120285,0.02134198136627674,-0.04518364369869232,0.054849155247211456,0.04664687067270279,-0.0221092589199543,-0.04794787988066673,-0.0005453733610920608,-0.008115715347230434,0.03266537934541702,-0.043193139135837555,-0.03117481805384159,0.03677815571427345,0.049933720380067825,-0.019213758409023285,0.07431941479444504,0.06047745794057846,0.06379739195108414,-0.024939613416790962,-0.04338991269469261,-0.05255496874451637,-0.07489502429962158,0.009883985854685307,-0.026131825521588326,-0.07184132933616638,0.016295580193400383,0.04509250447154045,-0.026744233444333076,0.05318387225270271,-0.02005317620933056,-0.0016529950080439448,-0.04879644885659218,0.01246662624180317,0.041904546320438385,-0.0403229184448719,-0.024525338783860207,-0.06209574639797211,0.07403955608606339,-0.0560271330177784,0.012684999965131283,-0.04910243675112724,-0.04904628545045853,-0.0406787171959877,-0.014666063711047173,0.04955738037824631,-0.016176681965589523,-0.018399210646748543,-0.051295530050992966,0.015826033428311348,-0.022302309051156044,0.004286499228328466,-0.06846237182617188,-0.0651782676577568,0.04368443042039871,-0.03887743502855301,0.05908074229955673,0.05186083912849426,-0.009980536065995693,-0.05530329793691635,-0.013431399129331112,-0.06729453057050705,-0.07042761892080307,0.0762251615524292,0.00286203739233315,-0.04082098603248596,-0.01596725545823574,0.056286364793777466,-0.06237455829977989,-0.03816055878996849,0.07726307213306427,0.051434680819511414,0.061590950936079025,0.06432066857814789,-0.07622484862804413,-0.051723603159189224,0.031181614845991135,-0.05112031102180481,0.004913607612252235,0.0013549182331189513,0.022788675501942635,-0.05121275410056114,0.07616741210222244,0.042122434824705124,0.046890225261449814,0.051056139171123505,0.040521953254938126,-0.03050682507455349,-0.01924099773168564,-0.05375001206994057,-0.0678815171122551,0.0678442120552063,0.006870524492114782,0.05619245395064354,-0.047683943063020706,0.0018231554422527552,-0.045121096074581146,-0.05165866017341614,-0.07915069907903671,0.051374346017837524,-0.0226290263235569,0.04015611484646797,-0.05029705911874771,-0.002388586523011327,-0.035344284027814865,0.01077026966959238,0.044938329607248306,0.06919600069522858,-0.0026533007621765137,-0.06992563605308533,-0.022915860638022423,-0.009373703971505165,0.07480908185243607,0.07713878899812698,-0.019698647782206535,-0.03752423822879791,0.0009336729999631643,-0.005066961981356144,-0.04717621952295303,0.027340630069375038,0.06645256280899048,-0.0720389187335968,-0.07279427349567413,0.025702262297272682,0.07370095700025558,-0.06545153260231018,-0.040356896817684174,-0.0022252420894801617,-0.021913155913352966,0.04337881878018379,-0.02845986932516098,0.014301112852990627,-0.050845667719841,0.03649190440773964,0.06003567576408386,0.042605649679899216,0.045270681381225586,0.018484381958842278,-0.013587103225290775,0.04009174183011055,0.07246539741754532,0.05734430253505707,-0.0764063149690628,0.009936469607055187,-0.009034257382154465,0.04302394017577171,0.034702565521001816,0.07036945968866348,-0.03247682377696037,0.03299110382795334,0.03472015634179115,-0.03821873664855957,0.010163523256778717,0.04511428251862526,-0.07903482019901276,-0.0405447892844677,0.05237884819507599,0.06620752066373825,0.05932408943772316,-0.02210134267807007,-0.05915684252977371,-0.021577952429652214,0.004638110753148794,0.0410800501704216,-0.07712046056985855,0.06080969050526619,0.03208967670798302,-0.039644092321395874,-0.07350492477416992,0.05834585055708885,0.029022110626101494,0.011879906058311462,-0.004369229543954134,-0.05276495963335037,-0.005439074710011482,-0.07055969536304474,0.07644088566303253,0.03458952158689499,0.012223667465150356,0.058937471359968185,-0.05773857980966568,-0.02462686598300934,0.010067841038107872,0.07125256955623627,0.023113960400223732,-0.011705038137733936,-0.0568714365363121,0.04133716970682144,-0.012257248163223267,0.03900308907032013,-0.0045415484346449375,0.00028784776804968715,-0.05037670582532883,0.024585412815213203,0.002177685033529997,0.07267378270626068,-0.037791911512613297,0.003339676186442375,0.0775146409869194,-0.0588378831744194,0.06618738174438477,-0.04195050522685051,0.03930189087986946,0.03505081310868263,0.020794343203306198,-0.05019368976354599,0.024390485137701035,0.022164085879921913,-0.007619128562510014,0.00955208856612444,0.05155652016401291,0.025390397757291794,0.010478226467967033,-0.07708676159381866,-0.006208882667124271,0.03249850496649742,-0.07661471515893936,0.011134219355881214,0.06867483258247375,0.04977810010313988,-0.07412676513195038,0.06845168769359589,0.014454973861575127,0.021277034655213356,-0.05385906621813774,0.059610869735479355,0.05728139728307724,0.022445237264037132,-0.07832174003124237,-0.008045341819524765,-0.04623796045780182,0.015020301565527916,-0.06127737835049629,0.035438042134046555,-0.060569655150175095,-0.04390805959701538,-0.050610411912202835,0.06083473190665245,-0.010019345209002495,-0.060676295310258865,-0.04394419118762016,0.058668747544288635,0.06366618722677231,-0.07100052386522293,0.036079712212085724,0.03206802159547806,-0.05111675336956978,-0.07303014397621155,0.0067752948962152,-0.016141319647431374,0.007454016245901585,0.054590631276369095,-0.007647048681974411,-0.06690435111522675,0.06542085856199265,0.00365324760787189,-0.026562677696347237,-0.00785053987056017,0.02951953001320362,0.002043680986389518,-0.0569937527179718,0.017033351585268974,-0.004522415809333324,0.033340513706207275,-0.06256034970283508,-0.0621984526515007,-0.023798339068889618,0.03952161222696304,-0.0005700726178474724,0.045015957206487656,0.06806682795286179,0.005624026991426945,0.06356241554021835,0.06216524541378021,0.07238847017288208,-0.024289367720484734,0.010641276836395264,-0.017039475962519646,-0.0625135600566864,0.016809193417429924,-0.04936595261096954,-0.034527912735939026,0.030746884644031525,-0.05082743614912033,0.0007172756595537066,0.06582296639680862,0.038738567382097244,-0.026256849989295006,0.029762160032987595,0.06544503569602966,0.03889603167772293,-0.05210864543914795,0.031929053366184235,0.028267817571759224,0.006583378184586763,0.04028996452689171,0.06858498603105545,0.012344704940915108,0.018612580373883247,0.07469336688518524,0.0392678938806057,0.07049820572137833,-0.07899081707000732,0.04690451920032501,0.03571728244423866,0.05025767907500267,-0.004159539472311735,-0.06996110826730728,0.0032173339277505875,0.06262366473674774,-0.02509208954870701,-0.043233033269643784,0.061761654913425446,-0.05762917175889015,0.06432321667671204,0.05505680665373802,-0.05689937621355057,0.04769406467676163,-0.026854336261749268,-0.018265724182128906,0.07193973660469055,-0.07725875824689865,0.03153109550476074,-0.029186956584453583,0.06683602929115295,0.005715780891478062,0.028671029955148697,-0.056272126734256744,0.06313300132751465,0.07894554734230042,0.021370643749833107,0.07433626800775528,-0.07297331094741821,0.024621430784463882,0.051910948008298874,-0.022220155224204063,-0.029056932777166367,-0.03304625675082207,0.041308432817459106,-0.07642947882413864,0.02686263434588909,-0.03969467431306839,-0.0046820384450256824,0.03684714809060097,-0.004767510574311018,-0.06252618879079819,-0.04005161672830582,0.07533808797597885,-0.07857190072536469,0.050745610147714615,-0.023363955318927765,-0.007146967109292746,0.011554301716387272,-0.05418423190712929,0.06456690281629562,-0.06443233042955399,-0.03888608515262604,-0.016591466963291168,-0.07232160866260529,-0.06419554352760315,0.04970024526119232,0.018220877274870872,0.04513811320066452,-0.04912811145186424,-0.07231541723012924,0.05471998080611229,-0.076193667948246,-0.035219527781009674,-0.005096840672194958,-0.0453827939927578,-0.03856223449110985,-0.039302241057157516,-0.011795328930020332,-0.00712105818092823,-0.010326947085559368,-0.07505131512880325,-0.04422199726104736,-0.02263137511909008,-0.05071103945374489,0.04343822970986366,0.023534908890724182,-0.07775764167308807,-0.07705102860927582,-0.07010509818792343,0.04850362613797188,0.02513008937239647,-0.02271188795566559,-0.05464113876223564,0.011694188229739666,-0.018376799300312996,0.004654198884963989,0.021272113546729088,-0.01444515585899353,-0.05208319425582886,0.014654108323156834,0.023768192157149315,0.06261570006608963,-0.01910652592778206,-0.012540698051452637,-0.042491182684898376,0.06277638673782349,-0.019597169011831284,0.01051258109509945,0.06984752416610718,0.07436145842075348,0.009060339070856571,-0.037149496376514435,0.045265913009643555,-0.056286782026290894,-0.07814416289329529,0.011563614942133427,0.0774013102054596,0.06399814784526825,-0.013487488031387329,0.06810227036476135,0.05392107740044594,0.07751215249300003,0.010336487554013729,0.001942108036018908,0.06503982096910477,-0.007667137775570154,-0.026455847546458244,-0.04972647503018379,-0.0160438884049654,-0.050983138382434845,0.010289034806191921,0.02969684824347496,-0.04120514914393425,-0.060818661004304886,0.07288307696580887,0.03307701647281647,-0.0360923707485199,0.008166961371898651,-0.009446000680327415,0.06645169854164124,0.0007654643268324435,0.03320741280913353,-0.07804019749164581,0.026359161362051964,-0.019378626719117165,0.028658809140324593,-0.007266865111887455,-0.0166525486856699,-0.07882896810770035,-0.038447488099336624,-0.07092474400997162,-0.07240688800811768,-0.07675996422767639,-0.04265836998820305,-0.06066631153225899,0.009054714813828468,0.0023887893185019493,-0.045329365879297256,-0.027757523581385612,-0.06748814135789871,-0.019231285899877548,0.0497179813683033,0.03219585120677948,0.0716620460152626,0.008405194617807865,-0.013322906568646431,-0.04645473510026932,-0.02403191849589348,-0.048209287226200104,0.048944033682346344,-0.03824722394347191,0.03185714781284332,0.03899324685335159,0.025734173133969307,0.0525321401655674,0.014141859486699104,-0.031462423503398895,-0.03851963207125664,-0.00798532459884882,0.06445515900850296,-0.044994428753852844,-0.01602085493505001,0.010708197951316833,-0.06534301489591599,0.04793143644928932,0.05076242983341217,-0.07284124940633774,-0.032945770770311356,-0.04299093410372734,-0.055136218667030334,0.028083577752113342,0.001645251177251339,-0.030770188197493553,-0.07700881361961365,-0.07025434821844101,0.03060450218617916,-0.035894330590963364,-0.07819236814975739,0.02374533750116825,0.06479797512292862,-0.002811468904837966,0.0640859454870224,0.05495363846421242,-0.02396208420395851,-0.020222129300236702,0.03999325633049011,-0.07617660611867905,0.07598943263292313,0.06139614060521126,-0.03418200463056564,-0.018504230305552483,-0.01326961163431406,-0.04428059235215187,0.009056740440428257,-0.003120619338005781,0.033849261701107025,-0.03110223449766636,0.02164177969098091,0.04708375036716461,0.06179282069206238,-0.06490382552146912,-0.06560703366994858,0.013683936558663845,-0.00819743238389492,-0.05500157177448273,0.02468940056860447,-0.04673987627029419,0.024370020255446434,0.003913077525794506,-0.07504352927207947,-0.05951390042901039,-0.006895093247294426,-0.02411826141178608,0.061578840017318726,0.010484257712960243,0.06992106139659882,0.07728639990091324,0.07463271170854568,0.06393622606992722,0.07407614588737488,-0.009361110627651215,-0.05077267810702324,0.03282144293189049,0.024324283003807068,-0.0730416402220726,-0.06404072046279907,-0.01329798810184002,-0.04705900326371193,-0.04213077947497368,-0.06773604452610016,-0.06346909701824188,-0.04470222815871239,-0.05389159172773361,0.019263913854956627,-0.0019672061316668987,-0.005640825722366571,-0.001195968477986753,-0.06748168170452118,0.019449178129434586,0.04802394285798073,-0.05377592518925667,0.06320006400346756,0.0030395009089261293,-0.040768131613731384,-0.028751609846949577,0.009145489893853664,-0.05628931149840355,-0.05364500731229782,-0.0740814283490181,-0.020269686356186867,-0.04291652888059616,0.07147018611431122,0.027051199227571487,-0.04752017930150032,-0.02552798017859459,-0.04620607569813728,-0.005771350581198931,-0.020516371354460716,-0.018235303461551666,0.06268007308244705,0.048831090331077576,0.06544622778892517,-0.07580786198377609,0.06660552322864532,-0.03151841461658478,-0.023361487314105034,0.05654945224523544,-0.017764367163181305,0.06344041973352432,-0.039092980325222015,0.02177063561975956,0.07908354699611664,-0.00819120928645134,0.026942577213048935,-0.017722904682159424,0.04680195450782776,-0.03616563603281975,0.07658097892999649,0.04325733333826065,0.05517641082406044,-0.016566285863518715,0.047323644161224365,0.03173112869262695,-0.06571400165557861,-0.05545894056558609,-0.035575129091739655,0.06281429529190063,-0.039429642260074615,-0.007342413533478975,-0.020812328904867172,0.05467643961310387,0.03494514524936676,-0.012479806318879128,-0.010541328229010105,0.031647492200136185,-0.06530901044607162,0.030560867860913277,0.022048821672797203,0.03048781491816044,-0.05441751331090927,0.0014164673630148172,-0.075014129281044,0.0002596605336293578,0.05059857666492462,-0.06389695405960083,-0.049588803201913834,0.05357694253325462,0.04532448947429657,-0.012241609394550323,0.032492272555828094,0.025540687143802643,0.06956891715526581,-0.03979574516415596,-0.026880042627453804,-0.006497152615338564,-0.07419560104608536,-0.05726078897714615,-0.07365801185369492,0.04617556557059288,0.05603085085749626,0.0014737914316356182,-0.060398973524570465,0.0012563463533297181,0.027413630858063698,0.04132544994354248,-0.024189792573451996,-0.010654473677277565,0.0346406064927578,0.021059976890683174,-0.0733625665307045,0.012211562134325504,0.05066290870308876,-0.07314159721136093,-0.006744296755641699,0.05363543704152107,-0.07220321148633957,-0.013401037082076073,0.015232098288834095,-0.07877659052610397,0.05527859553694725,0.005721085239201784,0.04948469251394272,0.06846865266561508,0.06458697468042374,-0.002410999732092023,0.03934825584292412,0.04651947319507599,-0.029506336897611618,-0.000484936754219234,0.027561189606785774,0.012086059898138046,0.0179901123046875,-0.048112355172634125,0.0247406717389822,0.04970666393637657,-0.02924543060362339,-0.05229983478784561,0.03586594760417938,0.023794954642653465,0.02231569215655327,-0.0761348083615303,-0.04242143779993057,0.07090811431407928,0.00851491466164589,-0.07196912914514542,0.06212766468524933,-0.05970054864883423,-0.05470062792301178,-0.008604682981967926,0.03050275519490242,0.018037963658571243,0.028327427804470062,-0.046518221497535706,-0.02110031247138977,0.03945961967110634,-0.01971905305981636,-0.048625342547893524,0.024229291826486588,0.049141231924295425,0.03612298145890236,0.051448896527290344,0.009126760065555573,0.039596181362867355,-0.023887168616056442,-0.059141241014003754,0.05578036978840828,0.03567848354578018,-0.025454996153712273,0.020985806360840797,-0.0568578839302063,0.007337070535868406,-0.06369371712207794,-0.049163125455379486,-0.003480160143226385,0.031417444348335266,-0.011346015147864819,-0.06735464185476303,-0.04792375862598419,0.04931957647204399,0.052747275680303574,-0.036018360406160355,0.03240804746747017,-0.06283348798751831,-0.051845964044332504,-0.05691221356391907,-0.026759635657072067,0.031909819692373276,0.07552935928106308,0.01232899073511362,-0.07119568437337875,-0.051694344729185104,0.04870526120066643,-0.002440608339384198,-0.0019146879203617573,0.07351212203502655,-0.02039569802582264,0.03474222123622894,0.03937944397330284,0.05721735954284668,-0.0663115382194519,0.059919435530900955,0.06618646532297134,-0.04554249346256256,-0.05820270627737045,-0.07482952624559402,-0.06498696655035019,-0.07259175181388855,0.05784638971090317,0.04329793155193329,-0.043394915759563446,-0.055093638598918915,-0.07835543155670166,-0.005611286032944918,0.025860728695988655,0.001524141407571733,0.06639794260263443,0.029583640396595,-0.033286646008491516,0.07415253669023514,-0.06969011574983597,0.032432883977890015,0.05485108494758606,-0.005485652945935726,0.01978372596204281,0.03032848984003067,0.02527194283902645,0.014344592578709126,0.07144444435834885,0.03968550264835358,-0.01717677339911461,0.0008989217458292842,-0.005324210971593857,-0.053459182381629944,0.03749192878603935,0.026041686534881592,-0.026651723310351372,-0.06544685363769531,-0.06449060887098312,-0.0689065083861351,-0.023971449583768845,-0.03324802219867706,0.02961665578186512,0.05606638640165329,0.046241395175457,0.019444679841399193,-0.05054652690887451,-0.057133931666612625,0.007901100441813469,-0.06154985725879669,0.02696189284324646,-0.02364223077893257,-0.07620221376419067,0.04760374128818512,0.06889209896326065,-0.05463274195790291,-0.04468214884400368,0.051303960382938385,-0.05450873076915741,0.013551372103393078,0.05815380811691284,0.00314509985037148,-0.04337070509791374,0.04366212710738182,-0.0054276613518595695,-0.06663713604211807,-0.064281165599823,0.021722696721553802,-0.06196274608373642,0.012539779767394066,0.014511787332594395,-0.058917976915836334,0.048251036554574966,0.023411903530359268,-0.06687655299901962,-0.034976787865161896,-0.01805099844932556,0.0650501549243927,0.07460077106952667,-0.05823802575469017,0.014704433269798756,0.01433140691369772,-0.02062884159386158,-0.07508406788110733,-0.048699166625738144,-0.04747282713651657,-0.03698969632387161,0.03227093815803528,-0.03507038578391075,-0.0768323466181755,0.018814777955412865,-0.0692967101931572,-0.022048043087124825,0.05832209810614586,-0.07410396635532379,-0.0011547086760401726,-0.07557197660207748,0.05773858353495598,-0.059380605816841125,0.021426212042570114,0.03237690031528473,0.008164998143911362,0.03824888914823532,0.04282571002840996,0.04631646350026131,-0.06340516358613968,-0.009891725145280361,0.02358599565923214,0.053343165665864944,-0.04644641652703285,0.016411159187555313,0.006206137128174305,-0.00003668768476927653,-0.05125652998685837,-0.004744538106024265,-0.03217269480228424,-0.003165297210216522,0.00515674939379096,-0.03658044710755348,0.0742860734462738,-0.033049408346414566,0.0744839459657669,-0.007825260050594807,-0.008023138158023357,-0.04105200618505478,0.07018657773733139,-0.07865975052118301,0.006214917171746492,-0.06083985045552254,0.0009396325331181288,0.03533826023340225,0.03620060533285141,0.00755833275616169,-0.018844567239284515,-0.016583450138568878,-0.06217300891876221,0.03257003054022789,0.016010306775569916,-0.05549364164471626,-0.03457927703857422]},"outputBias":{"rows":30,"columns":1,"weights":[-0.786018967628479,-0.9355945587158203,-0.9346562027931213,-0.745629072189331,-0.5023566484451294,-1.0150721073150635,-0.7014564275741577,-0.3730867803096771,-1.0124263763427734,-0.21368874609470367,-0.8279950618743896,-0.4847646653652191,-0.9272432923316956,-1.0594350099563599,-0.9024741053581238,-1.102574348449707,-1.1717197895050049,-0.8696502447128296,-0.8697853684425354,-0.4248596727848053,-0.45674505829811096,-0.3934518098831177,-1.1683374643325806,-0.4761938750743866,-0.975667417049408,-1.026519775390625,-0.8318745493888855,-0.7958325147628784,-0.9252519607543945,-0.24274003505706787]},"cellActivationMatrix":{"rows":30,"columns":1,"weights":[-0.1282217651605606,0.4070908725261688,0.8520461320877075,0.04799395054578781,-0.7788592576980591,0.5769079327583313,-0.06246589869260788,0.927823007106781,-0.25342509150505066,3.5728137493133545,0.27676472067832947,1.229244589805603,0.43614864349365234,0.7421422600746155,-0.4778030216693878,-0.6741207242012024,0.49730539321899414,0.18844036757946014,0.6631638407707214,0.8940163850784302,0.8625229001045227,-0.9197508692741394,-0.5072363615036011,-0.8896464109420776,-0.7785475254058838,-0.5393434762954712,-0.43991944193840027,-0.14528967440128326,-0.314922571182251,-0.9665563106536865]},"cellActivationHidden":{"rows":30,"columns":30,"weights":[0.060320254415273666,-0.041073620319366455,0.0630113035440445,0.008097129873931408,-0.029260439798235893,0.008368697948753834,0.07506539672613144,-0.0758402869105339,-0.023926563560962677,-0.0047598350793123245,-0.06914325058460236,0.04730900004506111,-0.012758509255945683,0.029946405440568924,-0.008465133607387543,-0.07803553342819214,0.04593056067824364,0.06184368208050728,-0.05275789648294449,0.06953044980764389,0.006701162550598383,0.0032898904755711555,-0.01567815989255905,0.04584607481956482,0.0059690154157578945,0.05659577623009682,0.012751118279993534,0.01258773636072874,-0.00983334518969059,0.050362423062324524,0.03728599473834038,-0.05131326615810394,0.07499534636735916,0.05802459642291069,0.03642399609088898,-0.065031036734581,-0.05958021804690361,-0.043003372848033905,-0.011633212678134441,-0.010901287198066711,-0.019503358751535416,-0.05140890181064606,0.028106775134801865,-0.030832931399345398,-0.05300617963075638,-0.023206552490592003,0.03491668030619621,-0.01680859364569187,-0.016059231013059616,0.07255448400974274,-0.010333918035030365,-0.06552852690219879,0.03282706439495087,-0.011827402748167515,-0.0775991901755333,-0.033590711653232574,0.020209213718771935,0.012717810459434986,0.05987914651632309,0.0568774938583374,0.054491061717271805,0.025829387828707695,0.043773312121629715,0.058103516697883606,-0.00003431277218624018,-0.07311864197254181,-0.057769425213336945,0.06526299566030502,0.0050285859033465385,0.024578962475061417,0.062340423464775085,0.0013065217062830925,-0.06796044111251831,-0.04984300583600998,0.01964087411761284,0.012772277928888798,0.05684680864214897,0.011871513910591602,0.033923376351594925,-0.07053474336862564,0.032969702035188675,-0.06472624093294144,-0.058345574885606766,-0.028156455606222153,0.03688406944274902,0.07377265393733978,0.019507991150021553,-0.010500466451048851,-0.038584060966968536,-0.06080161780118942,-0.06138358637690544,-0.07193278521299362,0.04524798318743706,0.048127468675374985,-0.03412562608718872,-0.004263605922460556,-0.0590321347117424,-0.04984612390398979,-0.042491670697927475,-0.03541859611868858,-0.07574231922626495,-0.02312626875936985,-0.02837512083351612,-0.004152684938162565,-0.04293784126639366,0.056632474064826965,0.043766338378190994,0.04322054609656334,0.06238393858075142,0.011806336231529713,-0.011186571791768074,-0.054025352001190186,0.05551040172576904,0.023028308525681496,0.009907643310725689,-0.032194506376981735,-0.032126087695360184,0.02763502486050129,-0.00043116556480526924,0.002310309326276183,0.04609416052699089,-0.07460939884185791,0.026980696246027946,-0.05267106369137764,-0.05861342325806618,-0.008994841016829014,-0.0034274249337613583,-0.07912120968103409,-0.07296806573867798,0.07823122292757034,-0.0441557839512825,0.002052376512438059,0.060159917920827866,0.0499405637383461,0.05589309707283974,-0.05446742847561836,-0.052085768431425095,-0.003873833455145359,0.07162515819072723,-0.025786234065890312,0.03636161610484123,-0.05762457847595215,-0.06890196353197098,-0.06559164822101593,-0.0019505504751577973,0.0004048784030601382,0.0608656145632267,0.00892976950854063,0.0079291220754385,-0.041621215641498566,-0.051049720495939255,0.06872189790010452,-0.04639725014567375,0.03408091142773628,0.005071287043392658,-0.05698924884200096,0.007070732302963734,-0.07009103894233704,-0.029011482372879982,-0.018191473558545113,-0.024574417620897293,-0.005060351453721523,-0.003788920119404793,-0.024099452421069145,0.06069793179631233,-0.010710235685110092,-0.021067772060632706,0.020104186609387398,0.06484057754278183,-0.005769199691712856,-0.03941962867975235,0.07663559168577194,0.044223058968782425,-0.013914917595684528,-0.022863030433654785,-0.02280927263200283,0.03447331488132477,0.029168114066123962,-0.04964735358953476,-0.01686653308570385,-0.018840258941054344,-0.01387291681021452,-0.06654227524995804,0.07211160659790039,0.06671034544706345,0.02280452661216259,0.07572340220212936,0.07286989688873291,0.002755617257207632,0.045775171369314194,0.07265201956033707,-0.04224341735243797,0.043825216591358185,0.016074568033218384,-0.029139403253793716,-0.018703149631619453,-0.008907774463295937,-0.07060720026493073,-0.0510217659175396,0.02348122000694275,0.07812146097421646,0.07821708917617798,-0.01664801687002182,0.038756679743528366,-0.05921037867665291,0.05123509466648102,0.03050493448972702,-0.008782983757555485,-0.05022883787751198,0.025078827515244484,0.04804028943181038,0.07653072476387024,0.034059226512908936,-0.01811462827026844,-0.03167315199971199,0.011790525168180466,0.06150120124220848,-0.06890949606895447,0.010193373076617718,-0.05432331934571266,0.03292005509138107,0.006687789224088192,-0.009706446900963783,0.051884982734918594,0.011189114302396774,-0.022351400926709175,-0.04518839716911316,0.0422975979745388,0.06782592833042145,0.03631100431084633,0.05669841170310974,0.013072395697236061,0.061215974390506744,-0.013769982382655144,-0.0026295145507901907,0.005134983919560909,-0.013847697526216507,-0.05558567866683006,0.04560861736536026,-0.07083377242088318,0.04425593465566635,-0.037108100950717926,0.05532250180840492,-0.01016275305300951,0.04713929817080498,-0.03517262637615204,0.033706627786159515,-0.036415088921785355,-0.03189614787697792,0.0649208202958107,-0.015747560188174248,-0.039369065314531326,0.04241299629211426,-0.05856901779770851,-0.06650037318468094,-0.034252021461725235,-0.026784082874655724,0.02268506959080696,-0.012957466766238213,0.03140990808606148,0.033541515469551086,-0.00852952990680933,-0.015807462856173515,-0.03134612366557121,0.017053425312042236,0.06975137442350388,0.045231517404317856,-0.0022225575521588326,-0.04065593704581261,-0.03476634621620178,0.03736046701669693,-0.05045519769191742,-0.017874211072921753,-0.05951526015996933,0.032824739813804626,-0.057327985763549805,-0.012078005820512772,0.01502186432480812,-0.05352160334587097,0.06628437340259552,-0.07703528553247452,-0.07460968941450119,-0.06281370669603348,0.002088660839945078,0.027552276849746704,0.06424801796674728,0.006824505515396595,-0.04596208781003952,-0.02946643903851509,-0.060599565505981445,0.0110090347006917,0.050774890929460526,-0.058618463575839996,-0.04742009565234184,-0.03252692148089409,0.061234138906002045,0.03224704787135124,-0.022991012781858444,0.013164721429347992,0.056046318262815475,0.07090790569782257,-0.05765778198838234,-0.07052068412303925,-0.050086721777915955,-0.023253152146935463,-0.01123280543833971,0.037128377705812454,-0.021329673007130623,0.0078113689087331295,0.0728636085987091,-0.008317859843373299,0.02393810637295246,-0.04611249268054962,0.06211340054869652,-0.03011656552553177,-0.027732059359550476,-0.03272683173418045,0.016879795119166374,-0.04755469411611557,0.033924445509910583,-0.041829392313957214,-0.06825363636016846,0.03758890926837921,0.011304604820907116,-0.03524092212319374,0.053101181983947754,-0.05629383772611618,-0.029935689643025398,-0.06184481456875801,0.06291563808917999,0.06328918039798737,-0.02093159593641758,-0.0598369836807251,-0.02027127705514431,-0.03578067198395729,0.03863529860973358,0.06835217773914337,0.016108812764286995,0.020936615765094757,-0.05181291699409485,0.047320131212472916,0.028903089463710785,0.02421393245458603,0.0340082086622715,-0.019261149689555168,-0.02824447676539421,-0.06338368356227875,-0.018950408324599266,0.06306032836437225,-0.001752347918227315,0.014823542907834053,-0.022080546244978905,0.0726378783583641,0.03370227664709091,0.0035514014307409525,-0.016287071630358696,-0.020294800400733948,-0.021877743303775787,0.039013247936964035,-0.03087928332388401,-0.029464442282915115,0.0005699433386325836,-0.056138403713703156,0.025733759626746178,0.024962397292256355,0.058268237859010696,-0.07729103416204453,-0.06230444461107254,-0.0355420745909214,0.014357847161591053,0.047737836837768555,0.07916131615638733,0.05003974959254265,-0.06276684999465942,-0.06680652499198914,0.004480363335460424,0.01100173033773899,0.059129826724529266,0.01968695968389511,0.06914445012807846,0.07429494708776474,0.05240381136536598,0.03272637352347374,0.06674586236476898,0.009843229316174984,0.07363546639680862,-0.06655561923980713,0.07544858008623123,0.03328340873122215,-0.05663449689745903,0.07639024406671524,0.06157118082046509,0.02984149195253849,-0.04377220198512077,-0.054320648312568665,0.06731703877449036,0.02010427787899971,-0.012855585664510727,-0.06654392182826996,0.06270888447761536,0.011965250596404076,-0.03880941867828369,-0.01060020737349987,-0.04814032092690468,0.06425449997186661,-0.054619163274765015,-0.04371960833668709,-0.0002901846310123801,0.06976151466369629,-0.011526121757924557,-0.037639081478118896,-0.03736628219485283,0.010633432306349277,-0.045900870114564896,0.01716221123933792,0.043827321380376816,-0.010253614746034145,-0.02558128535747528,-0.00773035641759634,0.04783989489078522,0.06133069470524788,-0.005267106927931309,-0.05308941751718521,0.04573579877614975,-0.039242934435606,-0.07868346571922302,0.06073625013232231,-0.07282283157110214,-0.010830423794686794,-0.0013822646578773856,0.05539354309439659,0.01766177825629711,0.07853300124406815,0.06666900962591171,-0.048445895314216614,-0.03478916734457016,-0.07426632195711136,-0.011772521771490574,-0.033645302057266235,-0.07530693709850311,-0.031334295868873596,-0.04042910039424896,0.06429821997880936,-0.0148394163697958,0.0020633586682379246,0.06091327965259552,0.04390852153301239,-0.060496650636196136,0.06030954793095589,-0.0738421157002449,0.06578756123781204,-0.024416523054242134,-0.03567613288760185,0.016618337482213974,0.06204342097043991,0.01710805483162403,0.00899044331163168,0.04646603763103485,-0.07288940995931625,0.04858122766017914,-0.05032549425959587,0.039941057562828064,0.0217055045068264,0.04852379113435745,-0.07723169773817062,0.009438694454729557,0.055200718343257904,0.0005084644653834403,0.030720775946974754,-0.0754881352186203,0.0746050626039505,0.042355649173259735,-0.07673611491918564,-0.04257374629378319,0.020942410454154015,0.02342655137181282,-0.06367999315261841,0.03865464776754379,0.06620015949010849,-0.054987747222185135,-0.017381729558110237,0.07358063012361526,-0.07553257048130035,-0.07138603925704956,0.06448058038949966,-0.059276510030031204,-0.07730229943990707,-0.0010833611013367772,0.04377712681889534,0.02886626496911049,0.05254989489912987,-0.03187020495533943,0.07064615935087204,-0.06198015436530113,0.03567911311984062,-0.02872709184885025,-0.03539499267935753,0.0777411237359047,-0.04756450280547142,-0.041795000433921814,-0.06454098969697952,-0.046447932720184326,0.045542553067207336,-0.061780013144016266,-0.009483534842729568,-0.03215186670422554,-0.014022720977663994,0.03263174742460251,0.058151282370090485,0.02885860577225685,0.03833441808819771,0.06685834378004074,0.06259728968143463,0.0567280575633049,0.027542689815163612,-0.03422963246703148,0.07790300995111465,0.02279718965291977,-0.025060176849365234,-0.07516457885503769,0.033371347934007645,-0.07419572025537491,-0.006690657697618008,-0.06552057713270187,0.03401452302932739,0.05509427189826965,0.03277570381760597,0.04479191079735756,-0.01281082071363926,-0.07332679629325867,-0.04941795393824577,-0.02722032740712166,0.04188515245914459,0.005401409696787596,-0.011171121150255203,0.0617462694644928,-0.06491701304912567,-0.07112976908683777,-0.04375677928328514,0.0002694964350666851,0.0515250526368618,0.013439212925732136,-0.07616777718067169,-0.03420503810048103,-0.01038938108831644,-0.051828522235155106,-0.019869551062583923,0.03185448795557022,0.018841033801436424,-0.037497926503419876,-0.06733548641204834,-0.013520709238946438,0.07390489429235458,0.05204077810049057,-0.04737652465701103,-0.047617826610803604,0.030222734436392784,0.018191423267126083,-0.0324663445353508,-0.04337000846862793,0.06405272334814072,0.054226040840148926,-0.07372545450925827,0.006470191292464733,0.07448449730873108,-0.0583738274872303,-0.04988417774438858,-0.06833144277334213,-0.003919735085219145,-0.014562348835170269,0.012018468230962753,-0.0012650887947529554,0.07257504761219025,0.03445854410529137,0.061050672084093094,-0.027941865846514702,-0.03901628404855728,-0.0653298869729042,0.023535072803497314,-0.06434766948223114,0.0306054949760437,0.0035176866222172976,-0.0615493543446064,0.05007711052894592,0.05766325443983078,0.062183815985918045,-0.051711734384298325,-0.0032586921006441116,0.04949737340211868,-0.01123902853578329,0.045321788638830185,0.044407326728105545,0.025722632184624672,-0.04742412641644478,-0.0699223205447197,0.021060990169644356,-0.049255404621362686,0.0736401155591011,-0.042935360223054886,0.04942728951573372,0.035341665148735046,-0.01803520694375038,-0.0640152171254158,-0.015196063555777073,-0.014018530026078224,-0.03234097734093666,0.03703255206346512,-0.0021140254102647305,-0.03736723214387894,0.04951344057917595,0.04432399198412895,0.07642126828432083,-0.0199232567101717,0.030404187738895416,-0.07194947451353073,0.07642394304275513,0.06510772556066513,0.06259933114051819,0.05540015920996666,0.0037810441572219133,-0.06751299649477005,-0.046373311430215836,-0.07081922888755798,-0.05558155104517937,0.06334546208381653,-0.07213573157787323,0.03577997535467148,-0.011167044751346111,0.04387211799621582,-0.022082392126321793,0.03955983743071556,-0.07763383537530899,0.015571815893054008,0.024585893377661705,-0.07334549725055695,0.0029730654787272215,0.035780277103185654,0.003466866910457611,-0.007035324349999428,0.07914480566978455,0.0006814923835918307,-0.006785847712308168,-0.03485025838017464,-0.04629531130194664,-0.0765746533870697,-0.07520298659801483,-0.047047656029462814,0.029363414272665977,0.07871171087026596,-0.00968176033347845,0.05505165830254555,-0.06722252070903778,0.04727787896990776,-0.02426517754793167,0.06715111434459686,-0.03390226140618324,0.06839095801115036,-0.025796759873628616,-0.014454854652285576,0.03908717632293701,-0.04251870512962341,-0.006265833042562008,0.036254096776247025,-0.06008673086762428,-0.04969882592558861,-0.034773148596286774,-0.04152924194931984,-0.04089852049946785,-0.07143305987119675,-0.024288201704621315,-0.06837096065282822,0.062114372849464417,-0.03531929478049278,-0.001099205925129354,-0.06479218602180481,-0.008650709874927998,-0.034050021320581436,0.06120091676712036,-0.07844804227352142,0.05366700887680054,-0.025268109515309334,0.04865828901529312,-0.0031509234104305506,0.0695153996348381,0.0083873076364398,-0.01500740833580494,0.07317519187927246,-0.06181906536221504,-0.02651289664208889,0.05293182283639908,0.012619039975106716,-0.02673008106648922,-0.018582873046398163,0.0350494459271431,0.03285158798098564,-0.07271961867809296,-0.045712754130363464,0.023698870092630386,-0.02726670913398266,-0.04536914452910423,-0.01824040152132511,-0.03487832471728325,-0.04812445119023323,0.061003297567367554,0.06446914374828339,0.07659510523080826,0.0758584514260292,0.07392121106386185,0.0593036413192749,-0.033185701817274094,0.026328418403863907,0.03292353078722954,-0.0038396120071411133,0.047642506659030914,0.0754452645778656,-0.041279517114162445,0.036047693341970444,-0.03722831606864929,0.06163498014211655,-0.010276548564434052,0.06562622636556625,-0.056513432413339615,-0.049073074012994766,0.015131417661905289,-0.02981504611670971,-0.02656068094074726,-0.06953267753124237,0.015501019544899464,-0.005002872087061405,-0.043674785643815994,0.03320157900452614,0.04079454392194748,0.01815430261194706,0.058267928659915924,-0.05173175409436226,-0.057297222316265106,0.011193833313882351,0.06637746840715408,-0.04759380593895912,0.07147416472434998,0.01063862070441246,-0.021535739302635193,-0.036196865141391754,0.041717272251844406,-0.05891699343919754,-0.03793911263346672,0.05246951803565025,0.04229917377233505,0.005900721997022629,0.011180047877132893,0.048376813530921936,-0.012540675699710846,0.06363929808139801,0.027475446462631226,-0.030640067532658577,0.048417139798402786,0.0161728672683239,-0.06201637163758278,0.030138686299324036,0.0682755708694458,-0.016567477956414223,-0.07893592119216919,0.06902613490819931,-0.04121564328670502,0.0008172050584107637,0.024940716102719307,-0.007774266414344311,0.04095447063446045,0.00195107061881572,0.03400903567671776,-0.009720423258841038,-0.06566444039344788,-0.05789224058389664,-0.039528410881757736,-0.035946741700172424,-0.05875896289944649,0.0339910052716732,0.012858716771006584,-0.02646365389227867,0.05353427678346634,-0.05077836290001869,-0.04339452087879181,0.07737423479557037,-0.07153573632240295,-0.06585033237934113,0.01151344645768404,-0.00968225859105587,0.059537678956985474,-0.046583130955696106,-0.019485285505652428,0.06814272701740265,-0.010202789679169655,0.05342360585927963,-0.013604964129626751,-0.04438314586877823,-0.04319450631737709,-0.020438699051737785,-0.03248133882880211,0.0726456344127655,-0.02016456425189972,-0.069334015250206,0.0071600042283535,0.020450038835406303,0.0638175904750824,0.03755322843790054,0.006084003485739231,0.04918703809380531,-0.06332503259181976,0.031796880066394806,0.05345698818564415,0.024497421458363533,0.04079729691147804,0.05850621685385704,-0.036073748022317886,0.013606125488877296,-0.05025123804807663,-0.00872979499399662,-0.018485644832253456,0.024351947009563446,0.01856696605682373,-0.06425921618938446,0.038253460079431534,0.0027166421059519053,0.07554970681667328,0.02394123747944832,0.03160997852683067,-0.07905527204275131,-0.022315718233585358,-0.04800199344754219,0.00018651450227480382,-0.003038793569430709,-0.06368621438741684,-0.009698665700852871,0.05467536672949791,0.003878588555380702,-0.072678342461586,0.013300936669111252,0.058481622487306595,-0.020714106038212776,-0.039651792496442795,0.06229563057422638,0.019769441336393356,0.05318088456988335,0.021993029862642288,-0.007060563657432795,-0.04928665980696678,0.041763078421354294,0.017735764384269714,0.010431112721562386,0.04423096403479576,0.06889718025922775,0.05517623946070671,0.034237105399370193,0.030396154150366783,-0.03986639901995659,-0.007650462910532951,-0.05369596183300018,0.013270127587020397,-0.014013499021530151,0.022178910672664642,0.048954494297504425,0.02345415949821472,0.012627622112631798,0.07877521961927414,-0.06732836365699768,0.02934366650879383,-0.011220795102417469,0.07339904457330704,0.03404771909117699,0.0482901930809021,-0.07709241658449173,0.05391954630613327,0.05345957353711128,-0.06246902793645859,-0.04109595715999603,-0.05693506449460983,0.049600452184677124,-0.053546808660030365,-0.07542527467012405,-0.07199683040380478,-0.017847193405032158,0.07077479362487793,-0.016719093546271324,-0.02184409089386463,-0.03616951406002045,0.07110234349966049,-0.01973857916891575,0.049074552953243256,0.02442045323550701,0.0576762817800045,-0.026766758412122726,0.0746379867196083,0.01653495989739895,-0.0736408457159996,-0.014929896220564842,0.046564731746912,-0.06324297934770584,0.04981887713074684,-0.06715124100446701,0.07152988016605377]},"cellActivationBias":{"rows":30,"columns":1,"weights":[-0.053407587110996246,-0.08855597674846649,-0.5674518346786499,0.014035479165613651,-0.26301202178001404,-0.3111644387245178,-0.012582853436470032,-0.5011505484580994,0.04199345409870148,-0.2767098844051361,-0.020438730716705322,-0.4060121476650238,-0.05810508504509926,-0.4958239495754242,0.06908667087554932,0.40970417857170105,-0.2766236662864685,0.003896103473380208,-0.3996698558330536,-0.5712449550628662,-0.5420219898223877,0.5577678680419922,0.2810700535774231,0.5696930289268494,0.5101856589317322,0.27732330560684204,0.005141131114214659,-0.05421563237905502,0.089002825319767,0.3489539623260498]}}],"outputConnector":{"rows":1,"columns":30,"weights":[0.055226825177669525,0.11352019011974335,0.23669499158859253,-0.01609719730913639,-0.4389466643333435,0.13231095671653748,0.017213324084877968,0.3911212086677551,0.030309028923511505,0.6601827144622803,0.07260607182979584,0.873131513595581,0.14296260476112366,0.14705251157283783,-0.15683606266975403,-0.19734133780002594,0.05838239565491676,-0.03853921592235565,0.17004308104515076,0.3328947126865387,0.3026679456233978,-0.3599584996700287,-0.06509993225336075,-0.3276388943195343,-0.2500547468662262,-0.10457988828420639,-0.14968091249465942,0.06096910685300827,-0.04609869047999382,-0.5179229974746704]},"output":{"rows":1,"columns":1,"weights":[0.2770778238773346]},"inputLookup":null,"inputLookupLength":0,"outputLookup":null,"outputLookupLength":0}