{"type":"LSTMTimeStep","options":{"inputSize":1,"inputRange":0,"hiddenLayers":[30],"outputSize":1,"decayRate":0.999,"smoothEps":1e-8,"regc":0.000001,"clipval":5,"maxPredictionLength":100,"dataFormatter":{"indexTable":{},"characterTable":{},"characters":[],"specialIndexes":[]},"learningRate":0.1},"hiddenLayers":[{"inputMatrix":{"rows":30,"columns":1,"weights":[-0.8066360354423523,-0.7481946349143982,-0.7748871445655823,-0.9585556387901306,-0.831550657749176,-1.2946891784667969,-0.38368698954582214,-0.3919811248779297,-0.7759222388267517,0.23999537527561188,-1.137302279472351,-0.7707176208496094,0.14787286520004272,1.073656439781189,-0.3963165581226349,-0.2682672441005707,-0.8988243341445923,0.6225591897964478,-0.9047539234161377,-0.6544212698936462,0.4181576669216156,0.8330538272857666,-0.8542045950889587,-0.6688060164451599,0.09965326637029648,-0.6139687895774841,-0.44711625576019287,-0.41225606203079224,-0.2618831694126129,-1.0231895446777344]},"inputHidden":{"rows":30,"columns":30,"weights":[0.04458368197083473,0.04867423325777054,-0.06376143544912338,0.009915889240801334,0.021058768033981323,0.012628244236111641,0.004515901207923889,-0.062128450721502304,-0.05805773288011551,0.03993796557188034,0.01881936751306057,-0.007812567986547947,-0.010334366001188755,-0.046996235847473145,-0.07311002910137177,-0.07433571666479111,0.060486696660518646,-0.014971256256103516,0.017938947305083275,-0.0569002591073513,-0.055872298777103424,-0.07789738476276398,-0.05944829434156418,-0.048765089362859726,0.02533053606748581,0.040532492101192474,0.022388115525245667,-0.005131805315613747,-0.053905051201581955,-0.07157541811466217,0.002838931744918227,-0.02607441507279873,-0.044801171869039536,-0.015284284017980099,0.076907679438591,0.011621220037341118,0.015793941915035248,-0.04903293773531914,0.026836030185222626,0.07527570426464081,-0.04040319845080376,-0.0020294692367315292,-0.04339525103569031,-0.028782378882169724,0.0036352500319480896,0.06427604705095291,-0.010638264939188957,-0.0730617493391037,-0.06502758711576462,-0.06916409730911255,-0.038048334419727325,0.018102992326021194,-0.039796482771635056,-0.045652635395526886,-0.021380871534347534,-0.0761636346578598,0.04856758192181587,0.017975440248847008,0.02991914562880993,0.04545634239912033,0.026484832167625427,0.06618963927030563,0.07187572866678238,0.05676133930683136,0.04331137612462044,-0.04742120951414108,-0.06171077489852905,0.004437508527189493,-0.028865372762084007,-0.022787146270275116,-0.04946354031562805,0.013262482360005379,-0.06583307683467865,0.04055211693048477,0.026196014136075974,-0.008807376027107239,-0.007350732106715441,0.03306864947080612,0.014321592636406422,0.012339440174400806,0.07897468656301498,-0.02611163817346096,-0.07285106182098389,0.04548513516783714,0.07484789937734604,0.026920901611447334,-0.008092238567769527,0.03956388682126999,0.02778632938861847,-0.0589192733168602,0.03833284229040146,-0.06927534192800522,-0.038938410580158234,-0.07623846083879471,-0.015365924686193466,0.008135688491165638,0.07272583991289139,-0.04101090133190155,-0.0022987446282058954,-0.03941944241523743,0.06945881992578506,-0.013123936019837856,-0.03702766075730324,-0.03832085430622101,0.07507214695215225,0.055843841284513474,0.011092878878116608,-0.02628972940146923,-0.06216362863779068,-0.0631314292550087,0.052692510187625885,0.020004887133836746,0.023254847154021263,-0.02314198762178421,-0.04505055770277977,0.06714243441820145,0.03984158858656883,0.077118881046772,-0.04691094160079956,-0.018986906856298447,-0.013415518216788769,-0.05141434073448181,-0.03759564831852913,-0.03335234895348549,-0.04454256594181061,-0.030262693762779236,0.015893341973423958,0.025565864518284798,0.042296115309000015,-0.05811942368745804,-0.07173041254281998,0.01803627237677574,0.01849610172212124,0.0644693672657013,0.06007254868745804,-0.0077458517625927925,0.07569041848182678,-0.039051659405231476,-0.03367271274328232,-0.03932899981737137,0.03654228895902634,0.06928464770317078,0.05339685082435608,0.04084448888897896,0.0005068954778835177,0.06858958303928375,-0.040404610335826874,0.018093904480338097,0.033101920038461685,-0.016521790996193886,0.022676385939121246,0.05835416913032532,0.05273345857858658,-0.01737136021256447,-0.03702876716852188,-0.045661456882953644,0.062420979142189026,0.008689590729773045,0.05837216600775719,0.060908105224370956,0.02629231847822666,0.06284646689891815,-0.05684180557727814,-0.01251218467950821,0.05969182401895523,0.02995159663259983,-0.05276259779930115,0.019420621916651726,0.01777169294655323,-0.05021946132183075,-0.07428710907697678,-0.0603603720664978,0.05895961448550224,0.0574028305709362,-0.004682561848312616,0.03352298587560654,-0.01066556479781866,-0.0652327686548233,-0.05994105339050293,0.03205626830458641,0.02586016058921814,0.007191649172455072,-0.024854131042957306,-0.040462277829647064,-0.07194597274065018,0.026302505284547806,0.07812747359275818,-0.003059900365769863,-0.07446230202913284,0.024240007624030113,-0.010858074761927128,0.056285250931978226,-0.06711716204881668,-0.012357915751636028,0.07798831164836884,0.023326566442847252,-0.046066801995038986,-0.04959231615066528,-0.021589964628219604,0.02661878615617752,0.048287518322467804,-0.07711761444807053,0.034027811139822006,-0.02063077688217163,-0.04734032601118088,0.051951292902231216,0.04326344653964043,0.057078227400779724,0.016350125893950462,-0.004844144452363253,0.07130301743745804,-0.07649349421262741,0.07816318422555923,-0.05446445941925049,0.0542936734855175,-0.016201769933104515,-0.04535198211669922,-0.02537807635962963,-0.04915823042392731,-0.04812471568584442,0.07786063104867935,-0.073472760617733,-0.02775518223643303,0.0036444806028157473,-0.044830333441495895,0.012436704710125923,-0.015011378563940525,-0.0017758877947926521,0.07201651483774185,0.042377203702926636,-0.04247039556503296,0.05268896743655205,0.05497181415557861,-0.014025771990418434,-0.05254659056663513,0.059341613203287125,0.05181000381708145,0.039339397102594376,-0.05298084393143654,0.06867672502994537,0.005265898536890745,0.07770277559757233,0.019219309091567993,-0.05908855050802231,0.04156887158751488,0.04968564212322235,-0.02376326359808445,-0.040004100650548935,-0.04414217174053192,0.002678578719496727,-0.0579192228615284,0.00873925443738699,-0.05591187626123428,-0.010260107927024364,-0.05282188206911087,0.020618433132767677,0.034475576132535934,0.049720823764801025,0.07054238021373749,-0.005858170334249735,0.0012110852403566241,0.05676737427711487,-0.06651517003774643,-0.048153866082429886,0.04588061198592186,0.019144034013152122,-0.056550972163677216,-0.03533647581934929,0.03423398360610008,-0.04980328679084778,-0.020192185416817665,-0.0013140212977305055,0.001991481753066182,-0.05950550362467766,0.0015394337242469192,0.04761822894215584,0.01298499945551157,-0.07847695797681808,0.05828564241528511,-0.0015883230371400714,0.005112392827868462,0.0497521311044693,0.06202338635921478,-0.04440312460064888,0.017564017325639725,-0.006476196460425854,-0.0024305866099894047,0.05382588133215904,-0.07703672349452972,0.028681233525276184,0.006226927042007446,-0.07006224989891052,-0.00881410762667656,-0.07153461873531342,0.0682278499007225,0.06634225696325302,-0.02853540889918804,0.05587611347436905,0.03371915966272354,0.06289857625961304,-0.01806005835533142,0.0034057418815791607,0.06978099793195724,0.022043172270059586,-0.07681018859148026,-0.06107974797487259,0.06113196536898613,0.004180187359452248,0.02915765345096588,-0.04907434806227684,0.07277870178222656,-0.044622983783483505,0.0557687021791935,0.07866556942462921,-0.03635384142398834,-0.013700407929718494,-0.0764530599117279,0.06376619637012482,-0.06258191913366318,0.002660204190760851,0.026781434193253517,0.03361649438738823,-0.020446253940463066,-0.055506959557533264,0.03775196895003319,0.043285176157951355,0.042968448251485825,0.07810428738594055,0.058939721435308456,0.043383873999118805,-0.02040509320795536,-0.012087123468518257,0.025648416951298714,0.04257795959711075,-0.07511413842439651,0.06985139846801758,-0.0025462850462645292,0.054079215973615646,0.0441286638379097,0.01743609458208084,-0.06301653385162354,0.03586583957076073,0.028017589822411537,-0.04383501783013344,-0.04943530634045601,-0.06559211015701294,0.0012512067332863808,0.0029720717575401068,0.0030830877367407084,0.06413531303405762,-0.012228951789438725,-0.052125219255685806,-0.020872797816991806,0.052401427179574966,0.02897527627646923,-0.0423298254609108,0.02342250570654869,0.07836160063743591,0.06415095180273056,0.03214079886674881,-0.014801125973463058,0.03123975172638893,-0.07379340380430222,-0.05393648147583008,-0.07394051551818848,-0.05745049938559532,0.04249059408903122,0.07308907806873322,-0.018652401864528656,0.07102712243795395,-0.0038691628724336624,-0.06376152485609055,0.003452317090705037,-0.010198897682130337,0.01232095342129469,0.04501014202833176,0.010693738237023354,-0.04553365707397461,-0.047371555119752884,-0.058121830224990845,0.0684863030910492,-0.06953535228967667,0.019831867888569832,0.0623948872089386,-0.005291047040373087,0.04070409759879112,0.0104526337236166,0.036818403750658035,0.020038267597556114,-0.06989863514900208,0.0666126236319542,-0.020951062440872192,0.05292157456278801,-0.07855138182640076,-0.039129771292209625,-0.056050579994916916,-0.0018802898703143,0.03780641034245491,0.039833977818489075,-0.05866784229874611,-0.048122357577085495,-0.053311750292778015,0.051037732511758804,0.07794788479804993,-0.033512793481349945,-0.035735659301280975,-0.07075385004281998,0.061948467046022415,0.023810215294361115,0.06673100590705872,-0.022502731531858444,-0.018954267725348473,0.057086046785116196,0.032472722232341766,0.06914146989583969,-0.05064065381884575,0.03522035479545593,-0.015248400159180164,-0.04663749411702156,0.04095514118671417,-0.03901661932468414,0.005984405986964703,0.0269300676882267,0.07884788513183594,0.06849299371242523,-0.004624275024980307,-0.026464546099305153,-0.014292669482529163,-0.020569028332829475,-0.026274999603629112,0.03490029647946358,-0.01512126810848713,0.004193136002868414,0.004851958714425564,-0.04727661609649658,0.05904913693666458,-0.017454344779253006,-0.05896580591797829,-0.03053751029074192,-0.05284273251891136,0.0770634263753891,-0.008972864598035812,0.017149925231933594,-0.07036969065666199,0.07487475872039795,-0.0726194679737091,0.0758347436785698,0.0719364657998085,0.0382600873708725,0.024019328877329826,0.019722430035471916,0.03507080301642418,-0.034743279218673706,-0.07589644193649292,0.025413189083337784,0.05991097167134285,0.03773507475852966,0.015195470303297043,-0.05699623376131058,-0.06986360996961594,-0.05811589956283569,0.004309833515435457,0.0011235388228669763,0.0780082568526268,-0.05750437080860138,-0.06774385273456573,-0.07791079580783844,-0.02725115418434143,-0.07500214129686356,-0.05572827532887459,0.036593176424503326,-0.02984028123319149,0.06295731663703918,0.015339775942265987,-0.013205070048570633,0.026303548365831375,0.06162853166460991,0.07008270919322968,0.00016965906252153218,0.07662271708250046,0.0058208489790558815,-0.055887408554553986,-0.05755217373371124,0.047252971678972244,-0.01458057388663292,0.001890441752038896,0.06907662749290466,-0.07232492417097092,-0.025595081970095634,0.052761856466531754,0.0013762394664809108,0.0516778901219368,0.002615929814055562,-0.0535937063395977,0.06992590427398682,-0.0012223442317917943,0.014359069056808949,-0.014158502221107483,-0.07628420740365982,-0.007007766515016556,0.04547285661101341,0.033419836312532425,0.021319206804037094,-0.006005492992699146,-0.02756420150399208,-0.004967615474015474,0.06968221068382263,-0.00716016860678792,-0.006935442797839642,-0.030436331406235695,0.06959980726242065,0.01827199012041092,0.05654197558760643,-0.04155699163675308,0.01710282266139984,-0.04005300626158714,0.025916770100593567,-0.06121349334716797,0.0674738883972168,0.03186823055148125,-0.017789365723729134,-0.02111721597611904,-0.058229558169841766,-0.07309074699878693,-0.04443400353193283,-0.010262499563395977,0.041087556630373,0.007877781987190247,0.06503017991781235,-0.02924172952771187,-0.007772454526275396,0.046411506831645966,-0.006312260404229164,0.06418752670288086,0.028827965259552002,-0.06021365523338318,0.07549167424440384,0.048169758170843124,-0.05186224356293678,-0.05420280992984772,0.03294770419597626,0.0011295464355498552,-0.030253496021032333,-0.04804272577166557,-0.04816518723964691,0.014104259200394154,0.005522978957742453,0.07801114022731781,-0.05818972736597061,0.00022212853946257383,0.007817342877388,-0.003488816786557436,-0.022616855800151825,-0.06866784393787384,-0.07525526732206345,0.025866467505693436,0.05570731312036514,-0.061812542378902435,0.07073432207107544,0.053102463483810425,0.0709943100810051,0.023187832906842232,-0.05786248296499252,0.06310510635375977,0.045130472630262375,-0.007834842428565025,-0.027481624856591225,-0.06571026891469955,-0.023182116448879242,-0.04361782222986221,0.021363316103816032,-0.055836647748947144,0.0069679440930485725,0.033275946974754333,0.0027022340800613165,-0.038741327822208405,-0.02626124583184719,-0.04621301591396332,0.04400993511080742,0.06556617468595505,0.06372643262147903,-0.045829299837350845,0.033769115805625916,0.05105656757950783,-0.013339062221348286,-0.011915445327758789,0.016563693061470985,-0.03135037049651146,0.03393078222870827,0.058552056550979614,-0.017065275460481644,0.0031146162655204535,0.053306933492422104,-0.04257838800549507,0.04084191843867302,0.036478061228990555,0.05937957018613815,0.011425449512898922,-0.030733803287148476,0.018010342493653297,-0.06464509665966034,0.07769182324409485,-0.01018841564655304,-0.0674315094947815,0.0779174417257309,0.07613269239664078,-0.06584923714399338,-0.04670754447579384,-0.016400178894400597,0.025888578966259956,0.021753771230578423,0.050786953419446945,-0.07497386634349823,-0.04573533311486244,-0.05984632298350334,-0.004774098750203848,0.0035527388099581003,-0.052326954901218414,0.07000812888145447,-0.02457161247730255,0.04477233812212944,-0.00256291008554399,0.0300056841224432,-0.04308377206325531,-0.07657119631767273,-0.06948554515838623,-0.03129905089735985,0.014464632607996464,-0.03352663666009903,0.04680079221725464,0.0515945740044117,-0.049218982458114624,0.03064926527440548,0.016712017357349396,0.07517441362142563,0.04933307692408562,-0.06840640306472778,-0.02560284733772278,-0.019749406725168228,-0.02133972942829132,0.06965916603803635,-0.026671603322029114,0.07666997611522675,0.011460530571639538,0.05914483591914177,0.026264285668730736,-0.061887968331575394,-0.07479598373174667,0.00434963870793581,0.044241368770599365,-0.07749364525079727,0.06982433050870895,-0.029211241751909256,-0.013486307114362717,0.04879654571413994,-0.03303134813904762,0.022776972502470016,0.0664672777056694,-0.05404536798596382,0.051506202667951584,0.06498327106237411,0.05171122029423714,0.04342293739318848,0.04421122372150421,0.04374861344695091,0.024623973295092583,-0.06102422997355461,-0.026815755292773247,0.06238729506731033,0.06430267542600632,0.03344603627920151,0.06383341550827026,0.05082688853144646,0.007770296186208725,0.0017517464002594352,0.024523569270968437,0.00843237154185772,-0.04104355722665787,-0.056230708956718445,-0.07553046196699142,0.01675151288509369,-0.00877332128584385,0.013903222046792507,-0.03711675852537155,-0.05310782045125961,0.020414993166923523,0.023175589740276337,-0.06013889238238335,-0.007871594280004501,0.013077298179268837,-0.07348652929067612,-0.036617353558540344,0.06585629284381866,0.0009113484411500394,-0.07136169821023941,0.03663356602191925,0.04062958061695099,-0.05099151283502579,-0.03344547748565674,-0.022722434252500534,0.05476995185017586,0.03267122432589531,-0.022465268149971962,-0.05940121039748192,-0.02068900503218174,0.03815535455942154,-0.06534875184297562,-0.015130113810300827,-0.0773404911160469,-0.054284416139125824,-0.010746447369456291,-0.065990149974823,0.07818932831287384,0.035513363778591156,0.0238670464605093,-0.025805393233895302,-0.01725243218243122,-0.006173475179821253,-0.006834592670202255,0.07880789041519165,0.029545385390520096,0.058105748146772385,0.06284227222204208,0.058790795505046844,0.0613393560051918,0.045018721371889114,0.04361727461218834,-0.070408895611763,-0.07658744603395462,0.030433420091867447,-0.014683258719742298,0.07200553268194199,-0.03259449079632759,0.0023812204599380493,0.006855834275484085,0.022180194035172462,0.0046286447905004025,0.04839190095663071,-0.04175460338592529,0.046531789004802704,-0.012134280055761337,0.033964309841394424,0.032981324940919876,-0.0001337213470833376,0.026114491745829582,0.030287159606814384,-0.021102914586663246,-0.03812738507986069,-0.054363954812288284,-0.040146488696336746,0.044440217316150665,0.062483809888362885,-0.03871102258563042,-0.0332905575633049,-0.06706009805202484,-0.019760333001613617,-0.06845158338546753,0.013107489794492722,-0.01379504892975092,0.06782945245504379,-0.05973299592733383,-0.008769637905061245,0.0717300996184349,0.02179110236465931,0.0022841477766633034,0.07726414501667023,0.04754241928458214,-0.06389157474040985,0.016079964116215706,-0.04229457676410675,-0.06877225637435913,-0.04438696801662445,0.005337187089025974,-0.057432591915130615,0.07851609587669373,0.0074801077134907246,0.019471511244773865,0.010543125681579113,-0.07499954849481583,-0.05917587876319885,-0.03533473238348961,0.07709261029958725,-0.0033974112011492252,-0.040372978895902634,0.042536284774541855,0.023887407034635544,-0.01427165511995554,-0.07110369950532913,0.05870835855603218,-0.015373029746115208,0.03960727900266647,-0.05944466218352318,-0.02083759941160679,0.06425106525421143,0.0070944614708423615,0.0374765507876873,-0.035387467592954636,0.019478974863886833,0.058589763939380646,0.03954650089144707,-0.038204241544008255,0.03794214129447937,0.07089804857969284,-0.037537042051553726,-0.029533427208662033,0.0459277406334877,-0.07780924439430237,-0.0009093667031265795,0.06401094794273376,0.04637926444411278,-0.07021278887987137,-0.07565104961395264,0.024726474657654762,-0.043197669088840485,-0.034966908395290375,-0.013402276672422886,0.0446021743118763,0.04548391327261925,0.060919687151908875,-0.04847431555390358,0.07387492805719376,-0.015355072915554047,0.06916467845439911,-0.038137588649988174,-0.07123143970966339,0.041871342808008194,0.00593562051653862,0.04377010464668274,0.006399436853826046,-0.06541977822780609,0.02074604108929634,-0.0556742399930954,-0.022084778174757957,0.014779671095311642,0.049760159105062485,0.05222812294960022,-0.019093208014965057,0.05053742602467537,-0.05419669300317764,-0.007243617903441191,-0.07627693563699722,0.004426318220794201,0.021917235106229782,0.02529267594218254,0.05079496651887894,0.045936815440654755,-0.03054199181497097,0.03441770747303963,-0.06726828962564468,-0.04543159529566765,0.029024343937635422,-0.012087734416127205,-0.026515474542975426,-0.0563364215195179,-0.0458998903632164,-0.013920789584517479,-0.014303380623459816,0.01042731199413538,-0.004464036785066128,0.005322776269167662,-0.020839693024754524,-0.04980316758155823,0.04381115362048149,0.0044279866851866245,0.00846029818058014,-0.015828538686037064,0.07519683986902237,0.049566518515348434,-0.014789815060794353,-0.06868583709001541,-0.07049717754125595,-0.054387032985687256,-0.04753977432847023,-0.013531862758100033,0.07880912721157074,0.0496903732419014,0.03533251956105232,0.007907532155513763,0.06683962792158127,0.04776422679424286,-0.07078148424625397,0.0002594551770016551,0.020743731409311295,0.057264551520347595,-0.044278185814619064,-0.0398227833211422,-0.02912781946361065,0.03234567120671272,0.00035536359064280987,-0.00019834315753541887,-0.07442449033260345,-0.01952853985130787,0.013527922332286835,-0.07066767662763596,0.03701578080654144,0.00910267699509859,-0.0017971358029171824,-0.027872160077095032,0.06191320717334747,0.003155064070597291]},"inputBias":{"rows":30,"columns":1,"weights":[-0.929296612739563,-1.010934591293335,-0.9098185896873474,-0.9466476440429688,-0.9017808437347412,-0.7743587493896484,-1.1326128244400024,-1.17986261844635,-1.0221538543701172,-0.955764889717102,-0.819815456867218,-1.0421558618545532,-0.9412834048271179,-0.7638441324234009,-1.1679505109786987,-1.046331763267517,-0.9669068455696106,-0.2624044120311737,-0.9604772329330444,-1.0942413806915283,-0.47947072982788086,-0.3559919595718384,-0.901749849319458,-1.0752030611038208,-0.9812027812004089,-1.0234544277191162,-0.6968271136283875,-1.1430186033248901,-1.1840757131576538,-0.8770845532417297]},"forgetMatrix":{"rows":30,"columns":1,"weights":[0.06760161370038986,0.02906041592359543,-0.035349760204553604,0.03961923345923424,-0.07283630222082138,0.03946874663233757,0.013049091212451458,-0.024459347128868103,-0.05596979707479477,-0.06985195726156235,-0.0028904678765684366,0.07373733818531036,0.031000839546322823,-0.0037965704686939716,0.03347780928015709,0.06010126322507858,0.03613213822245598,-0.05582768842577934,0.02030029334127903,-0.004700271878391504,-0.02316260151565075,-0.005037863273173571,0.029674407094717026,0.036122631281614304,-0.012747355736792088,0.04525095969438553,0.07539886236190796,0.051395684480667114,-0.013490517623722553,-0.006564125884324312]},"forgetHidden":{"rows":30,"columns":30,"weights":[-0.06527619063854218,-0.05429713428020477,0.05782792717218399,-0.037444476038217545,0.048764392733573914,0.04361751303076744,-0.055231835693120956,-0.01971224509179592,0.0631132572889328,-0.03326650708913803,0.05044766888022423,0.0170561783015728,-0.014357169158756733,0.05323141813278198,0.0604834258556366,0.04928358644247055,-0.057528283447027206,0.001103794202208519,0.014038028195500374,-0.014549770392477512,0.0437420979142189,0.06412564963102341,0.003085741773247719,-0.002079128986224532,0.01914535090327263,-0.04214804992079735,-0.04241003096103668,-0.03355342149734497,-0.016841504722833633,0.015607979148626328,0.04749108478426933,0.05994576960802078,-0.04367214813828468,0.04416287690401077,0.06538096815347672,-0.018587343394756317,-0.03008531965315342,0.06928952038288116,0.01955925114452839,-0.03136188164353371,0.010679042898118496,-0.07853180915117264,0.014123836532235146,0.07583589106798172,-0.03746762499213219,0.06305693089962006,0.02184603177011013,-0.06407269090414047,0.01916947402060032,0.022777564823627472,0.009684770368039608,0.044623326510190964,-0.07406578212976456,0.07901818305253983,-0.0242378618568182,0.06873051077127457,-0.06937606632709503,0.06662411987781525,0.03534892573952675,-0.04053957387804985,-0.041008565574884415,-0.052435990422964096,0.05126470699906349,0.01934184692800045,-0.035939302295446396,-0.059359077364206314,-0.06718086451292038,-0.02270434983074665,-0.021554550155997276,-0.07236252725124359,-0.03571486845612526,0.061834078282117844,0.01603599824011326,0.04920118674635887,0.0009096062276512384,-0.07369757443666458,-0.05715884268283844,-0.031043361872434616,-0.052814025431871414,0.05203109607100487,0.012320189736783504,-0.053834546357393265,-0.008209832943975925,0.041216932237148285,0.04949582740664482,0.07680506259202957,-0.04858902841806412,0.07440102845430374,-0.06446778774261475,-0.06271260976791382,-0.0014565677847713232,-0.02582855150103569,-0.004389272537082434,0.05688585340976715,-0.016214029863476753,-0.016310598701238632,-0.06832805275917053,0.019485173746943474,0.043122708797454834,-0.015497149899601936,0.06800590455532074,-0.011666000820696354,0.013743550516664982,0.07799433171749115,-0.07091402262449265,0.07771055400371552,-0.07505784183740616,0.03555982559919357,-0.07019549608230591,-0.05832136794924736,0.004674401134252548,-0.015471360646188259,0.06941981613636017,0.03378986194729805,-0.07710321992635727,-0.03689965978264809,-0.06801272183656693,-0.04676298052072525,-0.06336402148008347,0.03713259473443031,-0.041487522423267365,-0.06133916974067688,-0.06363973021507263,0.07763521373271942,-0.03283600136637688,-0.0620063953101635,-0.05398586392402649,0.03406733274459839,0.024369411170482635,-0.007829670794308186,0.04867871105670929,0.021230638027191162,0.010911895893514156,0.020189711824059486,0.07729142159223557,-0.026325304061174393,-0.013919602148234844,-0.0036156196147203445,-0.05474584549665451,0.061578016728162766,0.0036535479594022036,-0.028119761496782303,0.07375481724739075,-0.042724184691905975,0.05537794530391693,-0.014047092758119106,0.000834635691717267,0.07066228985786438,0.04369119927287102,0.010145941749215126,-0.04424823820590973,-0.03549365699291229,0.04755018278956413,-0.0003127898380625993,0.05371929705142975,0.030685901641845703,0.010264355689287186,-0.0020192719530314207,-0.06257854402065277,-0.014551304280757904,-0.05623229593038559,-0.022050192579627037,0.05429606884717941,-0.011724327690899372,-0.03510626032948494,-0.03230149298906326,-0.028006957843899727,-0.05296369642019272,0.031193900853395462,0.057725485414266586,0.013360710814595222,0.06909218430519104,0.004405740182846785,0.050312500447034836,0.008276964537799358,-0.022522281855344772,0.03382721543312073,0.01676045171916485,-0.0027041591238230467,0.07804238051176071,-0.05311339348554611,-0.0028395552653819323,0.012819591909646988,-0.06937732547521591,0.06459686905145645,-0.008583582006394863,-0.0417155846953392,-0.004976124502718449,-0.04422267898917198,0.01832476072013378,0.04747548699378967,0.05512101575732231,-0.032244645059108734,0.006562129128724337,-0.05049708113074303,-0.047301650047302246,0.06675837934017181,-0.04783613979816437,0.02152806706726551,0.07363416254520416,-0.07034942507743835,-0.05004708841443062,-0.05863475799560547,0.06634322553873062,0.011202525347471237,0.030523451045155525,0.07823486626148224,-0.007837305776774883,-0.07364538311958313,0.06207400932908058,-0.026477573439478874,0.03953082486987114,0.06659857928752899,0.07384828478097916,-0.00011552005162229761,-0.07276000827550888,-0.05873813107609749,0.048205360770225525,0.027724051848053932,0.014360942877829075,0.06410392373800278,0.05239308997988701,0.06876242905855179,-0.06536789983510971,-0.04085397347807884,-0.0375661738216877,0.07839057594537735,0.007186117582023144,-0.06422222405672073,0.04400809854269028,0.01882409304380417,-0.05118270590901375,-0.07573238015174866,-0.045602425932884216,-0.044470470398664474,-0.04249655082821846,-0.07288817316293716,0.003321451600641012,0.0019612694159150124,0.051454391330480576,0.007181211374700069,-0.021229900419712067,-0.06329923868179321,0.039294540882110596,-0.0014645707560703158,-0.05501161888241768,0.029670218005776405,-0.01491398923099041,0.012056268751621246,0.05739186704158783,0.07896337658166885,0.06795422732830048,-0.011297953315079212,-0.011477845720946789,-0.03724648430943489,0.024890102446079254,-0.04889049753546715,-0.012391959317028522,-0.028360873460769653,0.06452208757400513,0.0019666298758238554,0.07314903289079666,0.05013109743595123,-0.005593528505414724,0.007682203780859709,0.06121933460235596,0.02130843698978424,0.06602635234594345,0.03810315579175949,0.020641475915908813,0.059258610010147095,-0.027978140860795975,0.013238203711807728,-0.005182910244911909,-0.040676817297935486,0.0461958609521389,0.032562773674726486,-0.037227582186460495,0.048214007169008255,0.035482291132211685,0.02487689070403576,0.03273696079850197,0.054036691784858704,0.026213720440864563,-0.07855639606714249,-0.05761215463280678,-0.07136131823062897,0.029243402183055878,-0.0008657144499011338,0.05279047414660454,-0.07698674499988556,-0.028677746653556824,0.0722859799861908,0.03074236959218979,-0.05927378684282303,-0.030712325125932693,-0.06404753029346466,-0.023124368861317635,-0.005602762568742037,0.0480060800909996,0.006035849917680025,0.06808365881443024,0.0152653269469738,0.009046576917171478,-0.06396686285734177,0.0728943794965744,0.033574871718883514,0.05601319670677185,0.06537426263093948,-0.036967549473047256,0.07155448943376541,-0.0352197103202343,-0.06059498339891434,0.01746123656630516,0.05784899368882179,0.004704997409135103,0.041888777166604996,0.06708656996488571,0.0452834777534008,-0.036393992602825165,0.03407437726855278,0.02719188667833805,0.07828684151172638,-0.00653486093506217,0.07789537310600281,-0.05185208469629288,-0.07876759767532349,0.001025721780024469,0.07451952248811722,-0.06695438921451569,0.07070862501859665,0.07713280618190765,-0.03707444295287132,0.017989913001656532,-0.06888595223426819,-0.038414228707551956,0.0063622454181313515,-0.04720326140522957,-0.03277122229337692,-0.0018753323238343,0.04117653891444206,-0.032005004584789276,0.04302924871444702,0.019205503165721893,-0.011391228064894676,0.01410389319062233,0.050945479422807693,0.04607626050710678,-0.05645673722028732,0.03794233500957489,0.015807388350367546,-0.013842477463185787,-0.07344811409711838,-0.06017618998885155,0.00300540286116302,0.004230401013046503,0.03409015014767647,0.01948922872543335,-0.05902379751205444,-0.05340699478983879,0.04930679500102997,0.029484640806913376,0.03537954017519951,0.03405755013227463,-0.05574241653084755,0.07279201596975327,-0.046058475971221924,-0.04597161337733269,-0.06420666724443436,-0.026186726987361908,-0.01344250701367855,0.07467878609895706,-0.0012533317785710096,0.03854043781757355,-0.036283209919929504,-0.003272409550845623,-0.042718127369880676,0.0661349967122078,0.03673422336578369,0.03270162269473076,-0.06486117839813232,0.04818541929125786,0.012171185575425625,0.013513709418475628,0.07354703545570374,0.01646791771054268,0.051853619515895844,-0.02070731669664383,-0.02999935671687126,0.008710919879376888,0.0275046918541193,-0.014288987964391708,0.06884048134088516,-0.007147973403334618,-0.0637759268283844,0.002092901384457946,-0.023197565227746964,-0.07293231040239334,-0.02252766117453575,-0.06317891925573349,0.0758315920829773,0.035077545791864395,-0.051987987011671066,-0.04212064668536186,-0.015406547114253044,-0.055036671459674835,0.02921670861542225,0.05252284184098244,0.016668202355504036,0.06733622401952744,-0.04229172319173813,0.03767656534910202,0.010530452243983746,0.010292237624526024,-0.006057600025087595,0.05722888186573982,-0.002440396463498473,0.05096457898616791,-0.0673719197511673,0.040288325399160385,-0.026813091710209846,-0.027768360450863838,0.03249167650938034,0.004282629117369652,0.016705887392163277,-0.010032891295850277,0.06447101384401321,-0.07522651553153992,-0.00969074945896864,0.020212166011333466,-0.02471906878054142,-0.06250585615634918,0.024051658809185028,-0.07459305971860886,-0.03841443732380867,0.06408342719078064,0.0025470422115176916,-0.0666177049279213,0.06173371151089668,0.02690635435283184,0.05711837112903595,0.06944189965724945,0.04142148047685623,0.0386682003736496,-0.05525725707411766,-0.05410498380661011,-0.060516394674777985,-0.0168331079185009,0.012579651549458504,0.07442110776901245,-0.03138580918312073,0.057903870940208435,0.06827465444803238,0.04907402768731117,-0.07204993069171906,-0.07340294867753983,-0.05850829929113388,0.07014786452054977,0.014793372713029385,-0.054828546941280365,0.07523763179779053,0.01087009347975254,-0.03739197924733162,-0.020725255832076073,0.020964365452528,-0.052427470684051514,-0.012215127237141132,0.029437273740768433,0.04644526168704033,0.01549486443400383,-0.044164180755615234,0.046598467975854874,0.06855934113264084,0.057752761989831924,0.07733635604381561,-0.0314786434173584,-0.0559784434735775,0.05850789323449135,-0.004074177239090204,0.0571979358792305,0.008336670696735382,-0.0014857553178444505,-0.008051013574004173,-0.017612464725971222,0.0681898295879364,0.03830612078309059,-0.022152217105031013,-0.04330781102180481,0.03460286557674408,0.054147250950336456,0.010883704759180546,0.007088121492415667,-0.034766074270009995,0.07497058063745499,0.06632214039564133,0.021443480625748634,-0.043365441262722015,0.019681068137288094,0.026016639545559883,0.053852517157793045,0.024932600557804108,-0.04053268954157829,0.000460394803667441,0.06287934631109238,0.0007406265940517187,-0.0020838789641857147,-0.06471755355596542,0.07765145599842072,0.004764843266457319,0.035812560468912125,0.008222258649766445,-0.020482242107391357,-0.012356326915323734,0.06874169409275055,0.07742641121149063,-0.06352395564317703,0.07408951967954636,-0.039433419704437256,0.018450919538736343,-0.04998520016670227,-0.07266641408205032,0.024200137704610825,0.06940126419067383,-0.012975460849702358,-0.0735149160027504,0.05612808093428612,-0.06811035424470901,0.037391550838947296,-0.03214405104517937,-0.0013187038712203503,-0.027222294360399246,0.03405100852251053,0.0032669524662196636,0.05162367224693298,0.0106755206361413,0.0063053094781935215,-0.0324244424700737,-0.06034887582063675,0.06288064271211624,-0.009205124340951443,0.014676923863589764,-0.04650207981467247,-0.00877294596284628,-0.016239505261182785,-0.06995244324207306,-0.046903420239686966,-0.019472632557153702,0.026503127068281174,-0.036664679646492004,-0.007941128686070442,0.008299889042973518,0.000683255901094526,0.0025785400066524744,-0.03509876877069473,-0.056488461792469025,-0.051590707153081894,-0.0240479726344347,-0.0473373606801033,0.027523238211870193,0.046284258365631104,0.05432206764817238,0.04937240853905678,-0.005976119078695774,0.006827299017459154,0.0363689623773098,-0.07769747823476791,-0.055456094443798065,0.004738869145512581,-0.07559177279472351,0.019629934802651405,0.05631602182984352,0.05300351604819298,-0.03608408942818642,-0.02176337130367756,0.0409027561545372,0.028299251571297646,0.03843843564391136,-0.008243241347372532,-0.017239557579159737,-0.02930610068142414,-0.012512406334280968,0.06589040160179138,-0.01794365793466568,0.003973766230046749,-0.020833760499954224,-0.02500489167869091,-0.061653342097997665,-0.016170021146535873,0.04717075452208519,-0.02636818215250969,-0.037796229124069214,-0.02004191465675831,-0.03899354487657547,0.05199047178030014,0.0486733578145504,-0.0315411202609539,0.01707376539707184,0.0676264762878418,-0.04265077784657478,-0.03954629972577095,0.050167266279459,-0.03156962990760803,0.06967951357364655,-0.052936241030693054,0.04315205663442612,0.05270398035645485,0.03633622080087662,-0.02409234084188938,0.028897425159811974,0.024380702525377274,0.026606479659676552,0.00568446796387434,-0.022734370082616806,-0.030677486211061478,0.015814313665032387,0.051204800605773926,0.04858722537755966,0.07634131610393524,0.013328641653060913,0.044492609798908234,0.05143777281045914,-0.05956920608878136,0.07644366472959518,-0.029543139040470123,-0.01848357357084751,0.03980521485209465,-0.045246101915836334,0.021044105291366577,-0.06360167264938354,-0.07310807704925537,0.035874202847480774,0.02632870152592659,0.07601387798786163,0.054708607494831085,-0.05984410643577576,0.026521693915128708,0.02491385117173195,0.0045072766952216625,0.021984267979860306,-0.058512210845947266,-0.012272641062736511,-0.032497648149728775,-0.00402207113802433,-0.07147293537855148,-0.057289380580186844,-0.052521537989377975,-0.03561408072710037,0.06064873933792114,-0.06499937176704407,-0.03273475915193558,-0.01403006725013256,-0.009619214572012424,-0.05710584297776222,-0.045398369431495667,0.03722473978996277,-0.060436561703681946,0.0073208981193602085,-0.0024140048772096634,0.03485443443059921,-0.001868395134806633,-0.07361362129449844,-0.026847368106245995,0.026138460263609886,0.0556667186319828,0.00717500876635313,-0.006048050709068775,0.015510558150708675,-0.06705918908119202,0.059346530586481094,0.05220064893364906,0.009489492513239384,0.004637727048248053,0.03492085635662079,0.05792775750160217,0.002705803606659174,-0.03387807309627533,-0.014798600226640701,0.024012437090277672,0.04446396976709366,-0.023527344688773155,0.0009641518699936569,0.0014983919681981206,-0.02567063830792904,-0.0022639776580035686,0.07311175018548965,0.06190144270658493,0.014203324913978577,0.014854172244668007,-0.012352312915027142,0.04818257689476013,-0.0016837965231388807,0.024542422965168953,-0.0051050144247710705,-0.04321694374084473,-0.0021554026752710342,-0.05475865676999092,0.06436808407306671,-0.07900074869394302,0.0070675332099199295,0.05246463045477867,0.04833642765879631,-0.054799001663923264,-0.05970655381679535,0.06972813606262207,-0.0469885990023613,-0.07167565822601318,-0.01552906446158886,0.05306802690029144,0.04423503950238228,-0.01016400195658207,0.04604699835181236,-0.017638398334383965,0.04444223269820213,0.014235381968319416,-0.03164151310920715,-0.06547843664884567,0.013911391608417034,0.04520236700773239,-0.06956858187913895,0.00483062444254756,-0.04586907848715782,-0.056258611381053925,0.001441195490770042,0.05896271765232086,-0.04058535024523735,0.005107400007545948,-0.0732496976852417,0.007449756842106581,-0.06320792436599731,-0.021248403936624527,-0.05377862975001335,0.004761019721627235,0.06944843381643295,-0.06433060765266418,0.07874508202075958,-0.03683079034090042,0.0554281510412693,-0.03627729415893555,0.06888195127248764,0.02573566697537899,-0.0296925138682127,-0.06360231339931488,-0.07665352523326874,-0.003449870040640235,0.024547148495912552,-0.04906968027353287,-0.008095980621874332,-0.010623261332511902,-0.012109220959246159,0.02316325716674328,-0.02336984872817993,0.023779012262821198,-0.0280015729367733,0.02670273743569851,0.059025879949331284,0.057084500789642334,0.012273424305021763,-0.03756909817457199,-0.03526328504085541,0.037709854543209076,-0.03874480351805687,-0.022903187200427055,-0.03835442289710045,-0.007127542048692703,-0.0005253039416857064,0.06800870597362518,0.07098519802093506,-0.06372327357530594,0.05506601184606552,0.06700942665338516,0.03395956754684448,-0.016760343685746193,-0.04408473148941994,-0.03431861475110054,-0.03963209688663483,-0.06882349401712418,0.051489148288965225,0.0035774423740804195,-0.03275208920240402,0.017574798315763474,-0.047711629420518875,-0.009846268221735954,-0.03522806987166405,0.042141467332839966,0.05821652337908745,-0.06790484488010406,0.02143964171409607,-0.06901136785745621,-0.04491224139928818,0.03740496188402176,0.04984583705663681,-0.03111756034195423,0.06069754436612129,-0.047656990587711334,0.028450757265090942,-0.03900501877069473,-0.028705548495054245,-0.04563923552632332,0.06684564799070358,-0.03998332470655441,-0.040907472372055054,0.024283472448587418,-0.02057827077805996,-0.07716240733861923,0.008645081892609596,0.07798410952091217,0.037176065146923065,0.04546287655830383,-0.00505915516987443,-0.04358823597431183,0.03212873265147209,0.03688997030258179,-0.02699202299118042,-0.02554335445165634,0.01820751279592514,-0.03643494099378586,0.06816843152046204,-0.04622124508023262,-0.012842204421758652,-0.058200329542160034,0.07372553646564484,-0.032924942672252655,0.05462157353758812,0.019845733419060707,0.033842749893665314,0.031687039881944656,-0.015226401388645172,0.07650384306907654,-0.0033657029271125793,0.058881424367427826,-0.046620480716228485,0.015784557908773422,0.05007537454366684,-0.03023712709546089,-0.03281080350279808,-0.061638619750738144,-0.04309341683983803,0.01749984174966812,-0.01235800888389349,0.0722869411110878,-0.07193151116371155,-0.03975461795926094,0.02072569727897644,0.06785108894109726,0.02996654435992241,-0.03139055520296097,0.06866830587387085,-0.04725238308310509,0.027111664414405823,0.002687573665753007,0.036631591618061066,0.0008266924996860325,0.06073079630732536,0.07559585571289062,0.060251634567976,0.014016272500157356,0.034464407712221146,-0.06779410690069199,0.016892608255147934,-0.0633232519030571,-0.011589150875806808,-0.03139428049325943,0.03518013656139374,-0.015006731264293194,-0.020350119099020958,-0.07684633880853653,-0.04234245792031288,0.009895069524645805,0.06692434847354889,0.06876491755247116,0.06270170211791992,0.07615286856889725,0.021603165194392204,-0.056481391191482544,0.016988640651106834,-0.002632741117849946,-0.003119896864518523,-0.03315848484635353,-0.0014844367979094386,-0.055091019719839096,-0.06423932313919067,-0.06437975913286209,-0.07532252371311188,0.004024416673928499,-0.034318793565034866,0.06938932090997696,0.04903724417090416,0.06318756937980652,0.04528301954269409,-0.05957252159714699,0.06270609050989151,0.07513394206762314,0.02733110822737217,-0.00915441568940878,-0.07492770254611969,-0.07832219451665878,0.03836245462298393,0.05042928084731102,-0.016893384978175163,-0.04189952835440636]},"forgetBias":{"rows":30,"columns":1,"weights":[0,0,0,0,0,0,0,0,0,0,0,0,0,0,0,0,0,0,0,0,0,0,0,0,0,0,0,0,0,0]},"outputMatrix":{"rows":30,"columns":1,"weights":[-0.7478958368301392,-0.7566677927970886,-0.7084818482398987,-0.9570133090019226,-0.7607915997505188,-1.2888003587722778,-0.41695457696914673,-0.3488989472389221,-0.7992367148399353,0.25716137886047363,-1.0952554941177368,-0.8166349530220032,0.11539235711097717,1.080981969833374,-0.34046670794487,-0.25222495198249817,-0.9580240845680237,0.5594343543052673,-0.9192655682563782,-0.6029306054115295,0.5369624495506287,0.9833910465240479,-0.8218651413917542,-0.7115989923477173,0.12073442339897156,-0.6665675640106201,-0.31373879313468933,-0.3647276759147644,-0.3042726218700409,-0.9512442350387573]},"outputHidden":{"rows":30,"columns":30,"weights":[-0.0715491846203804,0.046647727489471436,-0.038950782269239426,-0.012286156415939331,0.046712249517440796,-0.032620735466480255,0.033498041331768036,-0.04930045083165169,0.04977353662252426,0.07835253328084946,0.02834472805261612,0.0627625584602356,-0.07818896323442459,-0.014348023571074009,0.07769370824098587,0.030661415308713913,-0.057037632912397385,-0.03671186417341232,-0.048451460897922516,-0.04694763571023941,-0.04160467907786369,0.02566724270582199,0.056070126593112946,-0.0058320267125964165,-0.0009852404473349452,-0.061667971312999725,0.06774681806564331,0.06347278505563736,0.048575252294540405,-0.05686380714178085,0.0038743133191019297,0.0217412281781435,0.0507875494658947,0.015546072274446487,0.006556468550115824,-0.057164840400218964,-0.05784663185477257,-0.028277192264795303,-0.07518818229436874,-0.07316255569458008,-0.02742912620306015,0.07244980335235596,0.0011831437004730105,0.07276163250207901,0.012161641381680965,0.017855994403362274,-0.07472559809684753,-0.030074065551161766,-0.04685584828257561,-0.04311554506421089,-0.04724191874265671,-0.004581053741276264,-0.06811833381652832,-0.0018797559896484017,-0.03381114453077316,0.0239862110465765,0.022599268704652786,0.03781907260417938,-0.07310497760772705,-0.005013307556509972,0.030193954706192017,0.05574865639209747,-0.07475388050079346,-0.02044077403843403,0.04769790545105934,0.02938791736960411,0.020197059959173203,-0.05310958996415138,0.044844795018434525,-0.032130300998687744,-0.004309554118663073,-0.05139806866645813,-0.0110506322234869,-0.0371817909181118,-0.025062931701540947,0.006967325694859028,0.04406563937664032,-0.07319321483373642,-0.011959184892475605,0.005882074125111103,0.06464780122041702,0.06455183774232864,-0.06276226043701172,0.05618015676736832,-0.0715813934803009,0.023788951337337494,-0.05335845425724983,-0.07719308882951736,0.016623947769403458,0.06091700494289398,0.06449318677186966,-0.03908254951238632,-0.07033423334360123,-0.06418793648481369,0.04764549061655998,0.024215087294578552,0.001526383450254798,-0.02904541976749897,-0.024549372494220734,-0.05924098566174507,-0.01925867609679699,0.02061684988439083,-0.058140967041254044,-0.07683467864990234,-0.07611992210149765,-0.022660138085484505,0.007998090237379074,-0.05734027922153473,0.039701156318187714,-0.06400617212057114,0.03393581882119179,-0.07728112488985062,0.07455020397901535,-0.01901986636221409,0.04552163556218147,-0.07399524748325348,-0.06922748684883118,0.03631880506873131,-0.012740637175738811,-0.05787769332528114,0.03645671159029007,0.05700425058603287,0.058285631239414215,-0.015224695205688477,0.07822377979755402,0.07802106440067291,0.07585199922323227,0.01527896337211132,-0.04530758410692215,0.04282868653535843,0.00590096740052104,0.07688053697347641,-0.0672520101070404,-0.06875806301832199,0.013805701397359371,-0.02035137079656124,-0.01602793298661709,-0.054076213389635086,-0.07033995538949966,0.03927355259656906,0.018844615668058395,-0.029823409393429756,-0.048111677169799805,-0.01127535942941904,-0.06685607135295868,-0.04921739548444748,0.07693556696176529,0.06607703864574432,0.07002715766429901,0.07561890035867691,-0.06627097725868225,-0.0499151386320591,0.03662557899951935,-0.07908069342374802,-0.052191272377967834,-0.01813635043799877,0.051803890615701675,-0.017786245793104172,0.06347515434026718,-0.07221844792366028,0.07026568055152893,0.006034348160028458,0.03238820284605026,-0.041944704949855804,-0.061447057873010635,0.025682710111141205,-0.016662657260894775,0.0055702319368720055,0.0025828483048826456,0.06012088805437088,-0.05217079073190689,0.0701049417257309,0.07606522738933563,-0.015678998082876205,0.05531906709074974,0.03178685903549194,-0.060824841260910034,0.052040647715330124,0.06567897647619247,-0.03767111152410507,-0.024739433079957962,-0.06837491691112518,0.021294591948390007,-0.05003984645009041,0.04421359673142433,0.07088237255811691,-0.015353391878306866,0.007482907269150019,-0.034923214465379715,-0.07195045053958893,0.050759848207235336,-0.07576177269220352,0.028753243386745453,0.04906730353832245,0.03466615080833435,0.03990006074309349,0.0391840822994709,-0.019030900672078133,-0.04155583679676056,0.03248855099081993,0.04576161876320839,-0.001409923075698316,0.060807500034570694,-0.03870393708348274,0.010172979906201363,-0.05736212804913521,-0.0695594772696495,0.06648293882608414,-0.07254105806350708,-0.034698642790317535,-0.03719239681959152,0.008380851708352566,0.019823269918560982,0.005899406503885984,-0.049618881195783615,0.05488599091768265,0.0026538395322859287,-0.0015480311121791601,0.021602604538202286,-0.006625297013670206,-0.0066842916421592236,-0.051277656108140945,0.02713906019926071,-0.07491614669561386,-0.004673399962484837,-0.03505433350801468,0.009971420280635357,0.006726780440658331,0.019875137135386467,0.04957323893904686,-0.008424519561231136,-0.07670869678258896,0.06759706884622574,0.07082805037498474,-0.009089255705475807,-0.022452762350440025,-0.048673614859580994,-0.06754400581121445,0.07604284584522247,0.04566226154565811,0.07829263806343079,-0.06192992627620697,-0.06552981585264206,0.02935113199055195,-0.06410690397024155,-0.05402209237217903,0.009095381014049053,0.02522163651883602,0.018732931464910507,0.015512104146182537,0.023171143606305122,0.026830093935132027,0.0049472046084702015,0.05101747810840607,-0.0020099107641726732,0.039997637271881104,-0.009476725943386555,-0.0518423393368721,0.02267548069357872,0.050202079117298126,0.062150876969099045,0.012071342207491398,-0.023885469883680344,0.04797491803765297,0.05473559349775314,-0.04938381537795067,0.0034508968237787485,-0.037823501974344254,0.003632567124441266,-0.01883614994585514,0.012830743566155434,0.0483785942196846,0.07342258840799332,-0.03751646727323532,-0.012360372580587864,0.07793903350830078,0.06825165450572968,-0.02469548024237156,0.06255442649126053,0.05422486364841461,-0.028386196121573448,-0.030513081699609756,0.06906779855489731,-0.07379874587059021,-0.005650916136801243,-0.07705135643482208,-0.060815561562776566,-0.012968209572136402,-0.07372039556503296,0.03768874332308769,0.03854665532708168,0.0036181716714054346,0.00025599298533052206,0.01267087273299694,-0.0108958650380373,-0.003551396308466792,0.022122763097286224,-0.009335680864751339,-0.029256239533424377,-0.022447658702731133,-0.045821864157915115,-0.05293285474181175,0.022708015516400337,-0.0707181915640831,-0.040146104991436005,0.019635705277323723,-0.06263387948274612,0.0015895755495876074,0.02505435235798359,-0.060742754489183426,0.00846833549439907,0.07690811157226562,-0.020107777789235115,0.07169342041015625,-0.008610355667769909,0.06473307311534882,-0.04714570567011833,0.0019807759672403336,0.04556240141391754,0.0377306304872036,-0.05515912547707558,0.06554676592350006,0.05619778111577034,-0.020137928426265717,0.0314946249127388,0.07424434274435043,0.02735772170126438,0.07357511669397354,0.006854624021798372,-0.011478548869490623,-0.000036989720683777705,-0.047786373645067215,0.03924933448433876,0.02119949273765087,-0.06826766580343246,-0.014167479239404202,-0.03959238529205322,0.05138160288333893,-0.06822021305561066,0.025075044482946396,-0.008309701457619667,0.0513499490916729,0.04785012826323509,0.04096964746713638,0.012411326169967651,0.06308603286743164,-0.021902447566390038,0.0038476763293147087,0.04662854224443436,0.028193578124046326,-0.06760156154632568,-0.0076650092378258705,0.03852959722280502,-0.05392442271113396,0.03453325107693672,0.0398777574300766,-0.06437359750270844,0.0733451172709465,-0.0639759972691536,0.02642207033932209,0.04177230969071388,-0.02165742963552475,0.07032275199890137,-0.05626387894153595,-0.022585976868867874,0.07511018961668015,0.017003195360302925,-0.07721201330423355,-0.01109786331653595,-0.042056091129779816,-0.07404228299856186,-0.033734291791915894,0.02266971953213215,-0.05730319395661354,0.010674546472728252,0.061183616518974304,0.03032037243247032,-0.04794923961162567,-0.0735858753323555,0.03486279398202896,-0.07134965807199478,-0.03638742119073868,-0.055789217352867126,-0.06744444370269775,0.041375532746315,0.013626405037939548,-0.05715825408697128,-0.07855217903852463,0.007483223453164101,-0.04601091146469116,-0.03984333202242851,0.07096157968044281,0.04190341383218765,-0.05294075235724449,0.05927744135260582,0.010506520979106426,-0.03580712899565697,0.042989131063222885,0.0655408501625061,0.06001373007893562,0.05073753744363785,0.03703915327787399,0.022012939676642418,-0.002119979355484247,-0.0013574970653280616,-0.049509815871715546,0.04111187160015106,-0.0582001730799675,0.06173892691731453,0.07117880880832672,0.038348741829395294,0.06095343455672264,-0.051917511969804764,-0.06535405665636063,-0.0755186378955841,0.002072341274470091,-0.03321010619401932,-0.05040663480758667,-0.05824414640665054,0.006501456256955862,0.07439491152763367,-0.061400726437568665,0.009841619990766048,0.07623229920864105,-0.023528223857283592,-0.07280879467725754,-0.0232623852789402,-0.06905707716941833,-0.03786025568842888,0.04626433551311493,-0.06431441009044647,-0.04936705529689789,0.0377400666475296,0.052867766469717026,0.009887081570923328,0.022083744406700134,-0.053516291081905365,-0.055924005806446075,-0.05973817780613899,-0.03095652349293232,-0.053486477583646774,0.06387398391962051,0.02521698921918869,0.012350067496299744,-0.07818073034286499,0.019248856231570244,-0.0713009238243103,-0.02561928518116474,0.041985973715782166,0.027047669515013695,-0.022675419226288795,-0.07084208726882935,-0.018524859100580215,0.0591704323887825,-0.043883342295885086,-0.055913034826517105,0.05423394963145256,-0.004582749214023352,0.028250934556126595,0.006228008307516575,0.001628859550692141,0.005178660620003939,0.010473871603608131,0.0016907324315980077,0.0013248096220195293,0.029451459646224976,0.05102934315800667,-0.04132155328989029,0.0693744421005249,0.04919066280126572,0.06866578012704849,-0.04279729351401329,-0.05714544653892517,0.03170517832040787,0.01073251012712717,0.03584400936961174,-0.07303774356842041,0.04354250058531761,-0.034288693219423294,0.07790030539035797,0.0700230821967125,-0.06787841022014618,0.0665828064084053,0.007899641059339046,-0.007671518251299858,0.04399796947836876,-0.07611388713121414,-0.05777597799897194,-0.027772733941674232,0.04129175841808319,-0.04501090571284294,-0.06795291602611542,-0.04189765080809593,-0.032975416630506516,-0.030900616198778152,0.01886613853275776,0.029503507539629936,0.023346219211816788,0.07393067330121994,-0.032631296664476395,0.018503369763493538,0.025349227711558342,0.06311590224504471,-0.04364032670855522,0.0015019780257716775,0.029649602249264717,-0.017351943999528885,0.04071545973420143,-0.012394743971526623,0.07896401733160019,0.024500444531440735,-0.057758111506700516,-0.07597440481185913,0.035351917147636414,0.01460671704262495,0.004833798389881849,-0.04581858217716217,0.07544135302305222,0.008379568345844746,0.029594838619232178,-0.06830647587776184,0.07370752096176147,0.004514521919190884,-0.016994548961520195,-0.06623236835002899,0.0030807694420218468,0.025400148704648018,0.027019139379262924,-0.0709870457649231,-0.03493877500295639,0.07021962106227875,-0.060745131224393845,-0.018190018832683563,-0.0439106784760952,-0.0761345699429512,0.04354420676827431,-0.07205875217914581,0.05835619196295738,0.04089080169796944,-0.07751045376062393,-0.0015746072167530656,0.004730426240712404,-0.07887280732393265,0.034329574555158615,-0.07892199605703354,0.02202519029378891,0.06193751096725464,0.0618617907166481,-0.037353046238422394,-0.030442332848906517,-0.014442827552556992,0.03175520896911621,0.030142124742269516,0.03794091194868088,0.019250907003879547,0.05291597917675972,0.006190394051373005,-0.038365013897418976,-0.0026515298523008823,-0.05374237895011902,-0.04376613721251488,-0.06485290080308914,-0.007894320413470268,0.04262426495552063,-0.014533531852066517,-0.0656871423125267,-0.012107720598578453,0.029133755713701248,0.07354170829057693,0.006852602120488882,-0.014191755093634129,0.06091735512018204,-0.028832845389842987,0.06848037987947464,0.011663427576422691,0.035824231803417206,-0.059559475630521774,0.021600252017378807,-0.037824664264917374,-0.014973697252571583,0.06704602390527725,-0.0008828025893308222,0.05073056370019913,0.027111751958727837,-0.04557175189256668,-0.03702830895781517,0.07766300439834595,0.03183990344405174,-0.0324825644493103,-0.07551936060190201,0.0724695473909378,-0.017339980229735374,0.03365125507116318,0.06856485456228256,0.07192539423704147,-0.059278618544340134,-0.025067323818802834,-0.003229331225156784,0.04638119041919708,-0.005537233781069517,-0.07407544553279877,0.07731399685144424,-0.028893781825900078,-0.06349536776542664,-0.0234706811606884,0.029697321355342865,-0.0012485282495617867,0.0625028908252716,-0.04271696135401726,0.03069407306611538,-0.03762611374258995,-0.07341385632753372,0.05773051455616951,0.0641089603304863,-0.05838992819190025,-0.0531005933880806,0.004006200470030308,-0.07853913307189941,-0.06511198729276657,0.07854730635881424,0.015944888815283775,-0.020070698112249374,0.03385759890079498,-0.031100770458579063,-0.008996556513011456,-0.02956053800880909,-0.014727291651070118,0.022538410499691963,-0.04685549437999725,0.006988429930061102,0.05507656931877136,-0.07098444551229477,-0.020318590104579926,0.008067423477768898,0.002044328488409519,0.05988454818725586,0.0286687221378088,-0.005923136603087187,-0.007250138558447361,0.07562021911144257,0.05235312506556511,-0.029765864834189415,0.017461031675338745,0.07654137909412384,-0.03499753400683403,0.05520651862025261,-0.06328752636909485,-0.06007423624396324,-0.010399636812508106,0.0413992740213871,0.07567035406827927,0.07294434309005737,-0.06817948818206787,-0.008996917866170406,0.0761134922504425,0.07874171435832977,0.0663154348731041,0.07902136445045471,0.04401327669620514,-0.021528545767068863,0.059949081391096115,-0.01872464269399643,-0.027217993512749672,0.05784539878368378,-0.07505001127719879,-0.07860754430294037,-0.04676279425621033,0.07300825417041779,-0.07591716200113297,0.04019128531217575,-0.07520465552806854,0.05086442083120346,0.029510926455259323,0.011395846493542194,0.06013702228665352,0.005262173246592283,0.004950110334903002,0.07537760585546494,-0.026883985847234726,-0.052052091807127,-0.03819960728287697,-0.044813789427280426,0.028299739584326744,0.07500921189785004,0.033298391848802567,-0.06456927210092545,0.03668719902634621,0.00831479299813509,-0.03970254212617874,0.04808931052684784,-0.0713072121143341,0.05060059204697609,-0.010627465322613716,0.07751874625682831,0.07196700572967529,0.0740051195025444,-0.041785456240177155,0.003359760856255889,-0.06116681545972824,0.03945552557706833,-0.013157526031136513,0.07314509898424149,0.004339596722275019,-0.028305137529969215,0.06252096593379974,0.041496049612760544,-0.06605134159326553,-0.010637710802257061,-0.0017024888657033443,-0.06649346649646759,-0.0027987495996057987,-0.04813060909509659,-0.004410045687109232,-0.008199982345104218,0.06001575291156769,0.05118613317608833,-0.07733830064535141,0.06968793272972107,0.07354506850242615,0.06930077821016312,0.04303274676203728,0.01871812902390957,-0.024966714903712273,-0.04219086840748787,0.04590050131082535,0.05083882063627243,0.04923418536782265,-0.03401442617177963,-0.06675434112548828,0.06037703901529312,0.018756022676825523,-0.03748171776533127,-0.022489523515105247,0.059883080422878265,0.05685241147875786,0.02984037809073925,0.027002189308404922,-0.0040878551080822945,-0.021332522854208946,-0.04062744975090027,0.010927497409284115,-0.005464524496346712,-0.008419492281973362,-0.0730641633272171,0.016478801146149635,0.04661841690540314,0.0482710637152195,0.05357404053211212,0.027385316789150238,-0.04328310489654541,0.07724147289991379,0.04172223433852196,-0.002662219339981675,-0.002813423052430153,-0.02120077982544899,0.009047485888004303,0.0222918838262558,-0.06226290762424469,-0.0030154669657349586,-0.04904455319046974,0.03223210945725441,-0.005491930991411209,0.04330962151288986,-0.026201996952295303,0.06347808986902237,0.028468182310461998,0.031160850077867508,0.05737020820379257,-0.06793860346078873,-0.0278792567551136,0.005549833178520203,0.06341741234064102,-0.05273250490427017,-0.014725949615240097,-0.011887572705745697,-0.001725921523757279,0.055059220641851425,-0.06553169339895248,0.013541453517973423,-0.055197037756443024,-0.07384900748729706,0.07798026502132416,-0.0744243934750557,0.05795542150735855,0.0548563227057457,0.07817889750003815,0.03826574981212616,0.025682125240564346,0.001104157418012619,0.03615894913673401,0.07736555486917496,0.06832941621541977,0.05224939435720444,0.027104590088129044,-0.012789382599294186,0.0617062970995903,-0.05533121898770332,0.0337778739631176,0.02635098621249199,-0.03358342498540878,-0.058798279613256454,-0.0019282210851088166,-0.04659518972039223,0.03234710544347763,0.04273778572678566,0.07070794701576233,0.03892293944954872,0.0741119459271431,0.04170607030391693,-0.07251185178756714,0.029532669112086296,-0.07084943354129791,0.0620022788643837,-0.0075757624581456184,-0.010602911934256554,0.04945240542292595,0.07208568602800369,-0.03933098167181015,-0.05198287218809128,0.0589163713157177,-0.05469551682472229,0.03318106010556221,0.028484340757131577,0.047234922647476196,0.026265829801559448,0.0026629562489688396,-0.005032236222177744,-0.004826756659895182,0.01791948266327381,-0.06802552938461304,-0.009736779145896435,0.0632663145661354,0.06000309810042381,-0.04826837778091431,0.06445644050836563,0.0415521003305912,-0.01627354882657528,0.0012356332736089826,0.03332773596048355,-0.005690441932529211,0.028059253469109535,-0.010734537616372108,-0.07763303816318512,-0.06105654314160347,0.03710915520787239,0.03605768084526062,0.027445130050182343,-0.02255544625222683,0.0008915462531149387,-0.029050396755337715,-0.07439438998699188,-0.012368299998342991,-0.05810187757015228,0.03780026733875275,0.020691528916358948,0.05312204360961914,0.016279350966215134,-0.07317928969860077,0.06540043652057648,-0.07513409852981567,-0.06133686751127243,-0.03512685373425484,-0.06305960565805435,0.04522857069969177,-0.0496785044670105,0.04903218522667885,0.05215855687856674,0.04585320129990578,-0.00802652444690466,0.07253562659025192,0.02860451675951481,-0.003620333503931761,0.044678185135126114,-0.028434041887521744,-0.01881485804915428,0.02124718576669693,0.03828443959355354,-0.01912635564804077,0.011001299135386944,0.06958839297294617,-0.07088834792375565,-0.05845939740538597,-0.05867185443639755,0.0235624760389328,0.06602146476507187,0.012624205090105534,-0.07264963537454605,0.027260184288024902,0.020456349477171898,0.001101547502912581,0.06778153777122498,-0.060279686003923416,0.04069474712014198,-0.022299932315945625,0.05823295935988426,-0.05631234124302864,0.07839401811361313,0.06659068912267685,-0.006451962515711784,-0.0316101498901844]},"outputBias":{"rows":30,"columns":1,"weights":[-0.9180984497070312,-0.998008131980896,-0.8763079047203064,-0.936335027217865,-0.8682252168655396,-0.757437527179718,-1.1385706663131714,-1.1800799369812012,-1.0166237354278564,-0.8974416851997375,-0.7900478839874268,-1.0406835079193115,-0.8643186092376709,-0.5257248878479004,-1.1671905517578125,-1.0169178247451782,-0.9653719663619995,-0.2491503208875656,-0.9508252143859863,-1.0908957719802856,-0.48439618945121765,-0.16919435560703278,-0.8729138970375061,-1.07795250415802,-0.9296876192092896,-1.007663607597351,-0.7035673260688782,-1.1430845260620117,-1.1821565628051758,-0.85420823097229]},"cellActivationMatrix":{"rows":30,"columns":1,"weights":[-0.385088711977005,-0.6883039474487305,-0.7611779570579529,-0.7852383255958557,-0.7766439914703369,1.0015307664871216,0.11299103498458862,-0.2889350354671478,-0.6771511435508728,-0.7826812863349915,0.8980568051338196,-0.6765395998954773,0.7839609980583191,1.0530195236206055,-0.3779706358909607,0.6457640528678894,0.7544346451759338,1.1234476566314697,0.760979175567627,-0.4963628947734833,0.5986005067825317,-1.033092975616455,0.784786581993103,0.5473711490631104,-0.7260167598724365,0.6881007552146912,0.4150346517562866,-0.15425579249858856,0.3736743927001953,0.6525163650512695]},"cellActivationHidden":{"rows":30,"columns":30,"weights":[0.003089318750426173,0.04189463332295418,-0.06940806657075882,0.02731860987842083,0.0007491571013815701,-0.0026842844672501087,0.022431042045354843,-0.03238895907998085,-0.059944018721580505,0.0020597116090357304,0.0021556185092777014,0.041878193616867065,0.07564529776573181,-0.04429776221513748,-0.04103945940732956,-0.017112398520112038,0.07630180567502975,0.023809831589460373,0.06690297275781631,0.06614319235086441,-0.03146475926041603,0.07151074707508087,-0.031189993023872375,0.027558034285902977,-0.05371430888772011,-0.036531962454319,0.04320068657398224,0.004499237518757582,-0.0369567833840847,0.0010955173056572676,-0.05090445280075073,-0.050237007439136505,-0.006527072284370661,-0.020841117948293686,0.021551910787820816,-0.038962919265031815,-0.06716909259557724,-0.030824895948171616,-0.05981910228729248,0.050116997212171555,-0.01172383688390255,0.02497381903231144,0.04893238842487335,-0.06731186807155609,-0.041262488812208176,0.03174149617552757,0.02043907158076763,0.06291084736585617,-0.05064430087804794,-0.05559076741337776,0.06508532911539078,0.06998685747385025,0.07360556721687317,0.0739872083067894,0.034308139234781265,0.048064231872558594,0.042209938168525696,-0.06782689690589905,-0.07142018526792526,0.04581263288855553,-0.05075739696621895,-0.07459712028503418,0.07645542919635773,-0.006296682171523571,0.0011986485915258527,0.018984295427799225,-0.052259787917137146,-0.035179849714040756,0.05250461399555206,0.002778000896796584,-0.029516583308577538,0.059002913534641266,-0.07054201513528824,-0.07526127994060516,0.07721348851919174,-0.035471897572278976,0.041960202157497406,0.05793091654777527,0.05748843774199486,-0.010358208790421486,0.043223895132541656,0.03659547492861748,-0.07390840351581573,-0.047350767999887466,-0.04784815385937691,-0.02390516921877861,0.015930192545056343,0.038553088903427124,0.027038462460041046,-0.07545683532953262,0.046597134321928024,-0.030230702832341194,0.047971051186323166,0.015477478504180908,-0.05490417033433914,0.019327325746417046,0.014826101250946522,0.03797959163784981,-0.008782653138041496,-0.06501613557338715,0.016437167301774025,-0.011184458620846272,0.07755984365940094,-0.03973693773150444,-0.02475713938474655,-0.009408189915120602,0.05925483629107475,0.023836417123675346,-0.05645032599568367,-0.035387102514505386,-0.07727281749248505,0.021275095641613007,0.011919623240828514,-0.02788769081234932,0.07061892747879028,-0.03347616270184517,0.025073017925024033,0.04153171181678772,-0.03588326647877693,-0.06950457394123077,-0.06515206396579742,0.011898534372448921,0.005962891038507223,0.07219931483268738,0.01759655401110649,-0.03434593975543976,0.02045399323105812,0.00007473498408216983,-0.0007806963985785842,-0.0675184428691864,0.05815791338682175,-0.06301772594451904,-0.02760879509150982,0.01070751715451479,-0.06735797971487045,0.03852706775069237,0.051711708307266235,-0.05345596373081207,-0.06328114122152328,-0.024931108579039574,0.02972608618438244,0.037264157086610794,0.050938550382852554,-0.061515528708696365,0.06998361647129059,-0.05351871997117996,0.06572135537862778,-0.07536454498767853,0.0679406151175499,-0.03389813005924225,0.05363452434539795,-0.06871835887432098,0.07333581149578094,0.04237344115972519,-0.03341423720121384,-0.06652241200208664,-0.034460846334695816,-0.019618865102529526,0.07849428057670593,-0.07476527988910675,0.06430097669363022,0.034410443156957626,0.0188734270632267,-0.07579424232244492,-0.06508444249629974,0.06602112948894501,0.009615777060389519,-0.03149478882551193,0.009376325644552708,0.03357081115245819,0.04119088500738144,-0.04228157550096512,0.014044326730072498,-0.03746406361460686,-0.05773824825882912,0.07001316547393799,-0.05926508083939552,0.02353248931467533,0.07540348172187805,0.03099270537495613,-0.022045787423849106,0.07474982738494873,-0.07728040218353271,-0.004189800936728716,-0.05475392937660217,-0.055372726172208786,-0.04544134810566902,0.05499419942498207,0.032104991376399994,-0.06958141177892685,-0.0018283402314409614,0.021185562014579773,-0.06368690729141235,-0.02684628590941429,0.018743518739938736,-0.022837556898593903,0.05360318347811699,-0.032242149114608765,-0.034423258155584335,-0.021196946501731873,0.068869948387146,0.07256702333688736,-0.013718439266085625,-0.0010855826549232006,-0.017316121608018875,-0.016699494794011116,0.06980448961257935,0.02986082434654236,-0.0033591105602681637,0.03433022275567055,-0.048906657844781876,0.04268524423241615,-0.025257863104343414,-0.003217508317902684,0.0506143793463707,-0.06748504936695099,-0.030604802072048187,-0.04908839985728264,0.0028663279954344034,-0.015943586826324463,-0.02358737774193287,0.07279747724533081,-0.03769645467400551,-0.012010583654046059,0.0770978257060051,0.04607297480106354,0.07354025542736053,-0.00594907533377409,0.054349470883607864,-0.032511766999959946,-0.00997623335570097,-0.023100081831216812,-0.05091787502169609,0.05884961411356926,-0.06947614252567291,-0.06942996382713318,0.06474597007036209,0.03372921422123909,-0.02370036393404007,0.052139636129140854,0.03379877284169197,0.026619547978043556,-0.029914792627096176,0.002421500626951456,0.004515111446380615,0.02056198939681053,0.01057296060025692,0.049711402505636215,-0.065888412296772,-0.05980449914932251,-0.023417670279741287,-0.021346360445022583,-0.04682042822241783,-0.0668795183300972,0.06373627483844757,0.012587346136569977,-0.0481150858104229,0.071810282766819,0.06993038207292557,0.07508520781993866,0.03435450792312622,0.06972180306911469,-0.07095302641391754,-0.03981095924973488,0.022382579743862152,-0.012272822670638561,-0.04724539443850517,0.07705751806497574,-0.07468989491462708,0.010690287686884403,0.0660257413983345,-0.04657137021422386,0.04312436282634735,-0.007658154238015413,0.05130944401025772,-0.02581850439310074,-0.07139471173286438,0.06882399320602417,-0.05538342148065567,-0.029500683769583702,-0.021777650341391563,-0.076470285654068,0.016266759485006332,-0.034322720021009445,-0.03891719505190849,-0.07755769044160843,0.05793164297938347,0.06093591824173927,-0.021570507436990738,0.0032405517995357513,-0.047284822911024094,0.03851272165775299,0.07621597498655319,-0.05356750264763832,-0.05836252123117447,0.07426638156175613,0.015930408611893654,-0.035468798130750656,-0.006639907136559486,-0.07865245640277863,-0.01492318045347929,-0.07081428915262222,-0.050033316016197205,0.016371721401810646,-0.0284718070179224,-0.07913454622030258,0.004142600577324629,-0.005335481371730566,0.0247335247695446,-0.04598302021622658,-0.023829534649848938,0.049843788146972656,0.02958347648382187,0.03238623961806297,0.024932386353611946,-0.03712572902441025,0.0011075432412326336,-0.06029515713453293,-0.033462390303611755,0.0004791260580532253,0.055016692727804184,-0.03562609851360321,0.056181419640779495,0.042180631309747696,-0.045437343418598175,-0.05198925733566284,0.06650067865848541,-0.009315595962107182,0.01056989561766386,-0.027280060574412346,0.026840435341000557,0.04476655274629593,-0.0769198089838028,-0.017982877790927887,0.04276195541024208,-0.023483937606215477,-0.036807477474212646,0.04161559045314789,-0.01127572450786829,0.023776868358254433,-0.025642480701208115,0.07259903848171234,0.05994757264852524,0.04934517294168472,0.0031455932185053825,0.0402676984667778,-0.03178203105926514,-0.054819706827402115,-0.06802837550640106,-0.05633579194545746,0.06968112289905548,-0.048154477030038834,0.050745587795972824,-0.014538821764290333,-0.01540383044630289,0.0790371522307396,0.0005380141083151102,0.07813955843448639,-0.04191357269883156,-0.012061112560331821,-0.07179823517799377,0.011388808488845825,0.015980910509824753,0.03213173896074295,-0.010257141664624214,-0.019222615286707878,-0.0346752293407917,0.02419435791671276,0.0755988210439682,-0.07503122836351395,-0.024510404095053673,0.010903900489211082,0.0057844556868076324,0.027110811322927475,-0.03680582717061043,-0.022517291828989983,0.04678543657064438,0.04039928317070007,-0.02056797966361046,0.06458123028278351,-0.06560245901346207,0.07275930047035217,0.007590163499116898,0.04562927782535553,0.05674659088253975,-0.04751867800951004,-0.02017330378293991,-0.05199483782052994,-0.016985928639769554,-0.056183427572250366,-0.026165543124079704,-0.013639558106660843,-0.07246874272823334,0.039329517632722855,0.06413456052541733,-0.047593746334314346,0.05933677777647972,-0.06484435498714447,0.05505012720823288,-0.004151955246925354,-0.03945012390613556,-0.038847651332616806,0.05782996863126755,-0.06250334531068802,0.07336056977510452,0.037167951464653015,-0.0648374855518341,0.03344510868191719,-0.019360516220331192,0.062171515077352524,0.05784127116203308,0.016177894547581673,0.0004037315084133297,-0.0717235654592514,-0.012493127956986427,-0.06174774840474129,0.039833858609199524,-0.0569763220846653,-0.03059212490916252,-0.02856365777552128,0.04205721989274025,-0.027450768277049065,0.04229927062988281,-0.07095205038785934,-0.043026745319366455,-0.07805344462394714,0.009767292067408562,-0.06648468226194382,-0.011671454645693302,-0.06928526610136032,-0.07810028642416,0.03152572736144066,-0.036477960646152496,-0.07901562005281448,-0.025213243439793587,0.05774489417672157,0.07575547695159912,0.0039993165992200375,0.03172440826892853,-0.07211105525493622,-0.05837372690439224,0.022413345053792,0.0457923486828804,0.04656517133116722,0.05276988446712494,-0.011958706192672253,0.010244408622384071,-0.012118411250412464,0.05775406211614609,-0.022219644859433174,0.035909537225961685,0.04607241973280907,0.0678538978099823,0.013951768167316914,-0.050646282732486725,-0.006122615188360214,0.008931770920753479,0.04718518257141113,-0.02074338309466839,-0.06918667256832123,0.035404544323682785,-0.06890598684549332,0.05024613067507744,-0.0674591064453125,0.047448910772800446,-0.0584113709628582,-0.07009721547365189,-0.07671524584293365,0.036456458270549774,-0.07011174410581589,-0.008414643816649914,0.010305305942893028,-0.045351747423410416,0.03460586443543434,0.016974182799458504,-0.07801749557256699,0.03645341470837593,-0.04273988679051399,-0.048402607440948486,-0.04871637746691704,0.011938818730413914,0.06678110361099243,-0.020669644698500633,0.04455305263400078,-0.002545343479141593,0.012130784802138805,0.07146724313497543,-0.05630555748939514,-0.05338318273425102,0.0074170357547700405,-0.021619955077767372,-0.002417938783764839,0.029110098257660866,0.05447477847337723,0.040143631398677826,0.005014305468648672,0.05212846398353577,-0.06023906171321869,-0.023105327039957047,-0.009211101569235325,-0.07044585049152374,-0.0573837049305439,0.04023072496056557,-0.04585188999772072,-0.06981506198644638,0.004465872421860695,-0.06438789516687393,0.022908544167876244,-0.05813785642385483,-0.02593800239264965,0.001847370178438723,-0.016126712784171104,-0.014899730682373047,0.053840767592191696,-0.006642460823059082,0.049051567912101746,0.07303106039762497,0.023392453789711,0.07359179109334946,0.07546520233154297,-0.025137869641184807,-0.007658453192561865,0.019725218415260315,-0.03777845576405525,0.06897762417793274,-0.03229696303606033,-0.026234420016407967,0.05871596932411194,-0.03874845802783966,0.025112641975283623,-0.0676710307598114,-0.025077233090996742,0.001715493155643344,-0.04377696290612221,-0.032727163285017014,0.00795786827802658,-0.04641542211174965,-0.05569211021065712,-0.005026780068874359,0.033716198056936264,0.07362290471792221,-0.07267559319734573,-0.05831567943096161,-0.042325813323259354,-0.07381266355514526,-0.07474163919687271,-0.038688018918037415,-0.052847784012556076,-0.06804228574037552,-0.04186074435710907,-0.04534335061907768,0.06713223457336426,0.01634523831307888,0.07807876914739609,-0.022216111421585083,-0.013215947896242142,0.022330014035105705,-0.01766783930361271,-0.0706462413072586,-0.07526335120201111,0.04705658182501793,0.008172583766281605,-0.02880989946424961,0.05098673328757286,-0.07048805803060532,0.03736383840441704,0.00444675050675869,-0.07470303028821945,0.06339025497436523,-0.06292084604501724,0.030119463801383972,-0.07680768519639969,-0.0300406776368618,-0.06549540162086487,-0.03666425123810768,-0.029563751071691513,-0.013847127556800842,0.025919336825609207,0.0517115481197834,0.02530830353498459,0.006598834414035082,-0.0019285017624497414,0.05081154778599739,-0.07322534173727036,0.038848165422677994,-0.06489578634500504,0.06234051659703255,0.03742120787501335,-0.0009802673012018204,-0.025174953043460846,0.06628153473138809,-0.04292423278093338,0.02753172069787979,-0.03536926582455635,-0.037378180772066116,-0.052928850054740906,-0.027981020510196686,0.03046412207186222,0.01597599871456623,-0.05375318229198456,0.0024200533516705036,-0.031969621777534485,-0.06886456906795502,0.022673191502690315,-0.0037227643188089132,0.05144566297531128,0.0039233374409377575,0.005666965153068304,-0.01965988799929619,0.06605214625597,-0.06639087945222855,0.0002078377001453191,-0.01567576453089714,0.03249908983707428,-0.0488477423787117,-0.04722199589014053,-0.0501013807952404,-0.04622567072510719,-0.01946583390235901,0.032982781529426575,-0.026360580697655678,-0.0333772711455822,-0.020616598427295685,0.06365109980106354,-0.028658660128712654,0.07390697300434113,-0.04585149511694908,0.06927831470966339,-0.034447867423295975,0.010421526618301868,-0.0214933343231678,-0.04060279205441475,-0.003011531662195921,-0.054207928478717804,0.01442976575344801,0.031356506049633026,0.004501352086663246,0.02744096890091896,0.057710085064172745,0.06494905799627304,0.005223468877375126,-0.04416965693235397,0.06079353764653206,0.009045553393661976,0.05300649628043175,-0.06255339831113815,-0.04219598323106766,-0.04057659953832626,0.06821482628583908,-0.06845071911811829,0.023138515651226044,0.004052065312862396,-0.06564030796289444,-0.02719794772565365,-0.07251839339733124,0.039090029895305634,-0.03874320536851883,0.034492287784814835,-0.05689512938261032,-0.034828588366508484,0.015405925922095776,0.07719437777996063,-0.07592187821865082,0.048910897225141525,0.035774119198322296,0.04960451275110245,-0.07534584403038025,0.003431745106354356,-0.04320821166038513,0.02830277755856514,0.04975669085979462,-0.01749822311103344,0.039549361914396286,-0.021721109747886658,-0.05249180644750595,0.07906240224838257,0.025972988456487656,0.0767805352807045,0.00991248432546854,0.046411171555519104,0.005914916750043631,-0.01480333972722292,-0.0485353022813797,-0.022807927802205086,0.0682399794459343,0.012291764840483665,0.027653662487864494,0.028375590220093727,0.07752197235822678,-0.016894755885004997,0.07677894085645676,-0.046745847910642624,-0.07839323580265045,0.005245097912847996,-0.04888644441962242,-0.03269132599234581,-0.07024608552455902,-0.021180186420679092,-0.06170527637004852,-0.07885128259658813,0.0131025156006217,-0.06116924434900284,0.050927117466926575,0.012584103271365166,-0.011691993102431297,0.009820201434195042,-0.002866679336875677,-0.05653393268585205,-0.03819340839982033,-0.03317130357027054,-0.0678284540772438,0.0017214074032381177,0.026457831263542175,0.07320807129144669,-0.058794718235731125,0.05488165095448494,-0.0580887645483017,0.06944993883371353,0.06804489344358444,0.07797496020793915,0.00039491563802585006,-0.06174565479159355,0.03648313507437706,-0.05107030272483826,-0.027571044862270355,-0.005124214570969343,0.03936251252889633,0.03507234528660774,0.04591311141848564,-0.04660042002797127,0.05572895705699921,-0.04336966946721077,0.039480362087488174,0.014377216808497906,0.03795916214585304,-0.07369856536388397,-0.07283248752355576,-0.0646657720208168,-0.01611124910414219,0.06475251168012619,-0.06110154464840889,-0.049851465970277786,0.07781136780977249,-0.03426481783390045,0.033659037202596664,-0.025331735610961914,0.06382249295711517,0.04880344122648239,0.016572335734963417,-0.06383305788040161,0.0662703737616539,0.01706204190850258,0.03082655370235443,0.050321660935878754,-0.009327738545835018,0.013623867183923721,0.06641824543476105,0.0651949942111969,-0.016240473836660385,-0.06100290268659592,0.07096701115369797,-0.02485145442187786,-0.04094608500599861,-0.02047736383974552,0.025556201115250587,-0.01939968392252922,0.05172526091337204,0.012293252162635326,0.056149497628211975,-0.05217607319355011,0.0005521070561371744,0.017418501898646355,0.06282505393028259,0.04916076734662056,-0.05037001147866249,0.07415715605020523,0.06812149286270142,-0.05616363137960434,0.04156472533941269,0.01572984643280506,-0.056262027472257614,-0.06675758212804794,0.03143155947327614,0.029621582478284836,-0.046258244663476944,-0.05421120673418045,-0.02258077636361122,-0.07852382212877274,0.06191946938633919,0.06480827182531357,0.03335089981555939,-0.049309346824884415,-0.009056858718395233,0.022087939083576202,-0.052648644894361496,-0.011052737012505531,0.017677443102002144,0.04376891627907753,-0.03821874037384987,0.07695304602384567,0.056473132222890854,0.04371519759297371,-0.021937351673841476,-0.0391480028629303,0.04073410853743553,-0.052946388721466064,0.05196905881166458,0.0066769118420779705,0.03177642449736595,0.04764431715011597,-0.02028222382068634,0.054862696677446365,0.00015314306074287742,0.07546873390674591,0.054371125996112823,0.07769346237182617,-0.026730282232165337,0.010845600627362728,-0.04271143302321434,0.04043804109096527,0.07071153819561005,0.010758977383375168,-0.05885619670152664,0.07232709228992462,-0.039801038801670074,0.025190001353621483,-0.03063719905912876,0.04135867580771446,-0.017952196300029755,0.008148839697241783,-0.043838247656822205,-0.06846056133508682,-0.07728298753499985,0.06177091225981712,0.05192048102617264,0.07065916061401367,0.0737769603729248,0.03370844945311546,0.031520795077085495,0.02688896842300892,0.0005374134052544832,0.05840253829956055,-0.0019822928588837385,-0.009057185612618923,-0.05209739878773689,0.0129682132974267,-0.02031516842544079,-0.00734788877889514,0.019769277423620224,-0.014522017911076546,-0.041179731488227844,-0.0362929105758667,-0.022205697372555733,-0.06422299891710281,0.03911404311656952,-0.0013031723210588098,0.07238627970218658,-0.06359729915857315,-0.023861808702349663,0.047282349318265915,-0.04738292098045349,-0.02703012339770794,0.06710153818130493,0.04859796166419983,-0.011882801540195942,-0.03034166432917118,-0.06104995682835579,0.02837294712662697,0.02389400079846382,-0.06905201822519302,0.040356770157814026,-0.060130808502435684,0.05301517993211746,-0.06259529292583466,0.003024966921657324,-0.06430456787347794,0.007727406919002533,0.07827489078044891,0.033704157918691635,-0.012219909578561783,-0.04944922402501106,0.010952346958220005,-0.05353005975484848,-0.0680633932352066,0.03359333798289299,-0.06977394223213196,-0.050073765218257904,0.033618174493312836,-0.008748828433454037,0.06274493038654327,-0.04537603259086609,-0.03362473100423813,0.017942704260349274,-0.057886481285095215,0.04094017297029495,0.04148999601602554,-0.046137746423482895,-0.04816771671175957,-0.060156818479299545,-0.07613806426525116]},"cellActivationBias":{"rows":30,"columns":1,"weights":[0.2001030445098877,0.43697431683540344,0.5060544013977051,0.49006393551826477,0.5114538073539734,-0.5761931538581848,-0.1450241357088089,0.18711213767528534,0.42326489090919495,0.5430077910423279,-0.5541879534721375,0.4241181015968323,-0.56430983543396,-0.5263880491256714,0.2413514107465744,-0.45388558506965637,-0.47095853090286255,0.5939836502075195,-0.4770479202270508,0.29257556796073914,0.5069863796234131,0.18348976969718933,-0.511367678642273,-0.3255787491798401,0.513453483581543,-0.4511459469795227,-0.01781311072409153,0.14946523308753967,-0.2517206072807312,-0.3860538899898529]}}],"outputConnector":{"rows":1,"columns":30,"weights":[-0.17605917155742645,-0.33393189311027527,-0.39643973112106323,-0.4130634069442749,-0.4072877764701843,0.591612696647644,0.05297388136386871,-0.11740704625844955,-0.327889621257782,-0.2929018437862396,0.5240985155105591,-0.3399829864501953,0.2871609330177307,0.8576862812042236,-0.14786852896213531,0.2563377022743225,0.3910323977470398,0.8243879079818726,0.3948758840560913,-0.22297075390815735,0.5025159120559692,-0.8872394561767578,0.4163617491722107,0.2513381242752075,-0.2637026607990265,0.3343217372894287,0.13984324038028717,-0.06790956854820251,0.1343730241060257,0.33439403772354126]},"output":{"rows":1,"columns":1,"weights":[0.21898630261421204]},"inputLookup":null,"inputLookupLength":0,"outputLookup":null,"outputLookupLength":0}