{"type":"LSTMTimeStep","options":{"inputSize":1,"inputRange":0,"hiddenLayers":[30],"outputSize":1,"decayRate":0.999,"smoothEps":1e-8,"regc":0.000001,"clipval":5,"maxPredictionLength":100,"dataFormatter":{"indexTable":{},"characterTable":{},"characters":[],"specialIndexes":[]},"learningRate":0.1},"hiddenLayers":[{"inputMatrix":{"rows":30,"columns":1,"weights":[-0.2596794068813324,0.24501794576644897,0.2089051455259323,-0.004940859042108059,-0.1013869121670723,0.031446296721696854,0.4411228597164154,-0.32681605219841003,-0.2894316613674164,-0.034965772181749344,0.951015830039978,-0.0075859613716602325,-0.2400801032781601,-0.3352262079715729,-0.07034658640623093,-0.01300009060651064,1.1586778163909912,1.0437238216400146,0.08178737014532089,0.0034824854228645563,0.25113755464553833,0.12450990080833435,-0.39063674211502075,-0.03861074522137642,-0.1375090628862381,0.47106629610061646,-0.09239057451486588,-0.1419679820537567,0.15237317979335785,0.2979094088077545]},"inputHidden":{"rows":30,"columns":30,"weights":[0.00445691030472517,0.04766054451465607,-0.020328497514128685,-0.03646455705165863,-0.04287106171250343,0.03920922055840492,-0.0006579461041837931,0.06317560374736786,0.0387701690196991,0.03994833305478096,-0.008888724260032177,-0.04183613136410713,-0.04663112387061119,0.0002865590213332325,-0.0066028074361383915,0.07449900358915329,-0.07816673070192337,0.052484843879938126,-0.007596113253384829,0.005390825215727091,0.05779554694890976,-0.05785485357046127,-0.04913638159632683,-0.04757465794682503,0.014666654169559479,-0.021376261487603188,0.07835942506790161,-0.04635164141654968,-0.01279969047755003,0.0009666266269050539,0.05422528088092804,0.0445067435503006,-0.062021058052778244,-0.042048390954732895,0.01986878551542759,-0.06928429752588272,-0.046695075929164886,-0.0659690573811531,-0.05468282848596573,-0.049479320645332336,0.027015386149287224,0.020193081349134445,-0.062370724976062775,0.013170838356018066,-0.04604220762848854,-0.0011841349769383669,0.05072665959596634,-0.018552104011178017,-0.05955132097005844,0.042750243097543716,0.07615725696086884,0.001391245168633759,0.00793757289648056,-0.05133381113409996,-0.07883185893297195,0.03706330060958862,0.06080189347267151,0.06777454912662506,0.021968305110931396,-0.05952639877796173,0.07136781513690948,0.038481105118989944,0.04742898792028427,-0.03696238622069359,-0.05074673891067505,0.06974701583385468,0.041266247630119324,0.05050518363714218,-0.05637481436133385,-0.004864946939051151,0.018381960690021515,0.027221428230404854,0.01698937639594078,-0.04641753435134888,0.019683951511979103,-0.06183523312211037,-0.04663945361971855,0.013791952282190323,0.07253126055002213,-0.06329584866762161,-0.05441778898239136,0.05736482888460159,0.03651643916964531,0.054093699902296066,0.018975969403982162,0.07177197188138962,-0.06516649574041367,0.05951656401157379,-0.07008346170186996,-0.06872426718473434,0.050323735922575,0.06714071333408356,0.05718832090497017,-0.0772707387804985,0.050083693116903305,-0.028267117217183113,-0.02315310761332512,0.0401323027908802,-0.03595789894461632,-0.0780181884765625,0.04633611440658569,0.04898566007614136,0.015259593725204468,0.054827168583869934,0.011742175556719303,0.06393107026815414,-0.02193315699696541,-0.0003760121762752533,-0.03045521304011345,-0.035536713898181915,-0.030351633206009865,-0.03261933475732803,0.05376653000712395,-0.03739560768008232,0.05900871753692627,0.07718697935342789,0.049918852746486664,0.051525045186281204,0.02880604937672615,-0.07606972008943558,-0.0751771479845047,-0.0008380342042073607,0.059355538338422775,-0.014225253835320473,0.03147483244538307,-0.07649601995944977,0.06457675993442535,0.00723985955119133,-0.012316212989389896,0.017419632524251938,-0.07468701153993607,-0.04805081710219383,-0.010654239915311337,0.03935437276959419,0.03248482197523117,0.061229512095451355,0.021086212247610092,-0.022640230134129524,-0.05370079725980759,0.05101457238197327,0.009995409287512302,0.06492929905653,-0.001303836703300476,-0.056655701249837875,-0.06746773421764374,0.03766094893217087,-0.05748356878757477,0.04623008519411087,-0.07135022431612015,-0.031176485121250153,-0.0011259346501901746,-0.06357308477163315,-0.05228040739893913,0.07409951090812683,-0.06465274840593338,-0.04961520433425903,0.06602730602025986,0.014903238043189049,0.0654374212026596,0.0032391161657869816,0.07128854840993881,0.06452765315771103,0.016741640865802765,-0.004432856570929289,-0.07173383235931396,0.06666472554206848,-0.02005932107567787,-0.004762950818985701,-0.04994262382388115,0.030588384717702866,-0.05732531473040581,-0.05607416853308678,-0.015863334760069847,0.06652319431304932,-0.022779148072004318,0.055746108293533325,-0.016416722908616066,0.06210397183895111,0.05096425116062164,-0.01247739139944315,0.07012315839529037,-0.01721685379743576,0.06228533387184143,0.039634473621845245,-0.05436788871884346,-0.02782502770423889,-0.04227637127041817,0.07373401522636414,0.025758523494005203,0.004910703748464584,-0.03260159492492676,0.05992630496621132,-0.014889311045408249,0.05072961002588272,-0.07273395359516144,0.07734421640634537,-0.00040176082984544337,0.04292619228363037,0.022329013794660568,-0.01856154203414917,-0.008686079643666744,-0.05284080654382706,0.03315452113747597,-0.06469526886940002,-0.04850030690431595,0.04342566430568695,-0.015747088938951492,-0.055510398000478745,0.0650203749537468,0.07378201931715012,-0.01273841131478548,-0.0650646984577179,0.05330747365951538,-0.05095362290740013,-0.04580014571547508,0.0015576619189232588,0.013242820277810097,-0.005755842663347721,0.019646191969513893,0.05943143740296364,0.003547132946550846,-0.017260665073990822,0.04362809658050537,0.05709904804825783,-0.06069827824831009,-0.07899375259876251,-0.03773590177297592,0.060060061514377594,-0.021774468943476677,-0.004905160516500473,0.025407422333955765,0.021105503663420677,-0.04438982531428337,-0.011954238638281822,-0.01998487114906311,0.05050050839781761,-0.048861268907785416,-0.008993122726678848,0.015565994195640087,0.05296339839696884,-0.04549732431769371,-0.06005043163895607,0.07786523550748825,-0.041125863790512085,0.028780654072761536,0.028088852763175964,0.007293401286005974,-0.001607268350198865,0.0478702075779438,-0.04629190266132355,-0.024315185844898224,-0.04095810651779175,0.0578153170645237,0.053585901856422424,0.021312840282917023,0.04405088722705841,0.07881343364715576,-0.0442887581884861,0.06475120782852173,-0.049905627965927124,0.06950207054615021,-0.021128298714756966,-0.05227876082062721,-0.05586373805999756,-0.07388899475336075,-0.0477881096303463,-0.033778734505176544,0.006999489385634661,-0.0419577918946743,0.06320671737194061,0.07818730920553207,-0.058195147663354874,0.005398896057158709,0.034212686121463776,0.03874588385224342,0.004487517289817333,-0.045459143817424774,-0.06971868872642517,-0.07345417886972427,0.06613917648792267,0.004721431527286768,0.056301381438970566,0.008372274227440357,-0.036182090640068054,0.037678685039281845,0.07126551866531372,0.012864911928772926,0.06888174265623093,-0.013674501329660416,0.0581330731511116,-0.013134774751961231,0.013236889615654945,-0.06300163269042969,0.06036556884646416,-0.06320059299468994,-0.03958768770098686,0.002192722400650382,-0.007997756823897362,-0.014886091463267803,0.043562762439250946,0.06286069750785828,-0.051945824176073074,0.02918049693107605,-0.04915967211127281,0.04353192821145058,-0.040812984108924866,-0.04056735709309578,0.06319630146026611,-0.022004446014761925,0.052602265030145645,-0.03476358577609062,0.020962314680218697,-0.021186353638768196,0.006598844658583403,-0.012873274274170399,-0.024068735539913177,-0.01733573153614998,-0.035162728279829025,-0.05374568700790405,-0.021143924444913864,0.010290371254086494,-0.04569277912378311,-0.05498377978801727,-0.07045947015285492,0.07130604237318039,-0.06593044102191925,-0.048992909491062164,-0.0664847120642662,-0.0019744192250072956,0.0061238300986588,-0.03156662732362747,0.023258008062839508,0.06897561252117157,0.06885979324579239,0.04780887812376022,-0.04452809318900108,-0.06641899049282074,0.07285913825035095,0.04033076763153076,-0.07047251611948013,0.07529196888208389,0.02367122657597065,-0.0029568469617515802,-0.019621144980192184,0.07449419796466827,-0.044007014483213425,0.040593959391117096,0.002694523660466075,-0.016843944787979126,0.047736119478940964,-0.027215110138058662,0.059400107711553574,0.025717148557305336,-0.022221719846129417,0.06264548748731613,0.04100564494729042,-0.07835213094949722,0.014327922835946083,0.018725784495472908,0.0764576643705368,-0.009039957076311111,0.01094798557460308,-0.03554506599903107,0.04903488978743553,0.012597679160535336,-0.04066057503223419,0.06512410938739777,0.044582512229681015,-0.07374542951583862,-0.0687483549118042,-0.04061795026063919,0.061074428260326385,0.023583605885505676,0.06743813306093216,-0.06519869714975357,-0.03498562052845955,0.0555046983063221,-0.06699857860803604,0.014607388526201248,0.06221296265721321,0.052685562521219254,-0.04381314292550087,0.031666625291109085,-0.06885456293821335,0.06836254149675369,-0.02975952811539173,0.030251789838075638,0.001215064199641347,-0.04284399747848511,0.010653532110154629,-0.024797281250357628,-0.05741783231496811,0.04041042923927307,0.07555432617664337,0.03906002268195152,0.025305291637778282,0.07232122868299484,-0.05016094073653221,-0.003214652882888913,0.04456751048564911,-0.006802198477089405,0.07063828408718109,-0.056617822498083115,-0.05802261456847191,0.045013606548309326,-0.035905782133340836,-0.05474034324288368,0.014444646425545216,-0.03702623024582863,0.040484193712472916,-0.018848923966288567,0.07833659648895264,-0.013629280030727386,0.073158398270607,0.07360486686229706,0.018724631518125534,-0.05707456171512604,0.05051455646753311,-0.05582984909415245,-0.03729424253106117,-0.07741079479455948,-0.016472164541482925,-0.011342518031597137,0.025813326239585876,-0.002873676363378763,0.021757233887910843,-0.009616900235414505,-0.059682659804821014,-0.025643786415457726,0.025135641917586327,-0.0627758726477623,0.023225855082273483,0.04491538926959038,-0.06728378683328629,0.028030548244714737,-0.02335374429821968,0.008525141514837742,-0.06474439799785614,0.027202067896723747,0.02234732359647751,-0.008396358229219913,0.06170942634344101,0.01320985984057188,-0.05382045358419418,-0.0333356074988842,-0.0015999868046492338,-0.04536507651209831,0.05442880094051361,0.013304091058671474,-0.07199707627296448,0.031043190509080887,-0.06891853362321854,0.03669658303260803,0.04456115514039993,-0.014666469767689705,0.0600842721760273,0.05241217836737633,0.0221879743039608,-0.011484595015645027,0.04804781824350357,0.040305040776729584,-0.06925809383392334,-0.0670536607503891,0.010010557249188423,0.0022081402130424976,-0.0240774042904377,0.039716485887765884,0.01343432255089283,0.003481154562905431,0.04413817077875137,-0.027435388416051865,-0.025281492620706558,0.04115578532218933,0.017124023288488388,-0.030128629878163338,-0.041873641312122345,0.01645173691213131,0.04833444207906723,-0.06935954093933105,-0.07874254882335663,-0.06482592970132828,-0.04398571699857712,-0.07837169617414474,0.010282854549586773,0.0648750513792038,-0.0032824899535626173,0.01048889011144638,0.05794569477438927,-0.008822634816169739,0.025642435997724533,-0.054828397929668427,0.06607180088758469,-0.00864278245717287,-0.05065960809588432,-0.06655001640319824,0.06828296184539795,0.04596654325723648,-0.06904984265565872,-0.02039474993944168,0.07632887363433838,0.05892247334122658,-0.014900078065693378,-0.05025450512766838,0.0594852939248085,-0.07592979073524475,0.00552491657435894,-0.06747288256883621,0.03278842940926552,0.020173946395516396,0.0533377081155777,0.04242853820323944,0.014876747503876686,0.06651686877012253,-0.02698901668190956,0.05214669555425644,0.03208708018064499,-0.03300786390900612,0.033546317368745804,-0.024328365921974182,-0.029172196984291077,0.013959052972495556,-0.015247094444930553,0.04695817083120346,-0.020264070481061935,-0.046316687017679214,-0.038851939141750336,-0.04224010929465294,-0.016665054485201836,0.06332423537969589,-0.052927009761333466,-0.015576783567667007,0.06052897870540619,0.06622704118490219,-0.070372574031353,0.04850310459733009,-0.0373992957174778,-0.03252098336815834,-0.05982089787721634,-0.007895341143012047,-0.06091487035155296,0.04710064083337784,-0.04156201705336571,0.03784296289086342,-0.05643448606133461,-0.04099014401435852,-0.07043056190013885,-0.03216339647769928,-0.06180240586400032,-0.0187826007604599,0.047176819294691086,0.06790029257535934,0.014918847009539604,0.031183036044239998,-0.07389488816261292,0.06903814524412155,-0.023381423205137253,0.04288461431860924,-0.06421036273241043,-0.0632624477148056,0.018370112404227257,-0.02636210061609745,-0.03863869234919548,-0.05381418764591217,-0.07269006967544556,-0.003998210653662682,-0.01322416216135025,-0.07156338542699814,0.06243819743394852,0.028589721769094467,0.04645185545086861,-0.003965198993682861,-0.03888075798749924,0.001443224959075451,0.044633932411670685,-0.027732152491807938,0.007046126294881105,0.026591045781970024,-0.049929942935705185,0.03928748890757561,-0.06828190386295319,0.05911318585276604,0.003042094875127077,-0.061854373663663864,0.0002467687299940735,-0.0022889026440680027,-0.05644512549042702,0.023895639926195145,-0.012029292993247509,0.06438035517930984,0.06481775641441345,-0.005539566744118929,-0.03942714259028435,-0.051886409521102905,0.006212521810084581,-0.027443859726190567,-0.017048897221684456,-0.028305133804678917,0.06183573976159096,-0.04772103950381279,-0.011254060082137585,0.04756908491253853,-0.07400987297296524,0.07773731648921967,-0.03476288169622421,-0.04101797193288803,0.0005270256078802049,0.07146739959716797,-0.05462207272648811,-0.003047874430194497,-0.036384403705596924,0.06688806414604187,0.05124819651246071,0.008033297955989838,-0.0767698660492897,-0.013078577816486359,0.031077496707439423,0.03514205664396286,0.06247444450855255,0.029277514666318893,0.020316671580076218,0.06074390187859535,-0.057028766721487045,-0.014531036838889122,0.03321162983775139,-0.05054308474063873,0.039931848645210266,-0.024843215942382812,-0.01549537107348442,-0.04760079085826874,0.008861237205564976,-0.06933366507291794,-0.030105652287602425,0.02403058297932148,0.024081382900476456,-0.07131840288639069,-0.0536452941596508,-0.03610466793179512,0.027290044352412224,-0.07248295843601227,0.06770727038383484,0.04745139181613922,0.050503313541412354,-0.05711715295910835,0.07019181549549103,-0.042416587471961975,-0.07003507763147354,-0.020141590386629105,0.060573991388082504,-0.07647790759801865,0.050588350743055344,-0.047376375645399094,-0.06479699909687042,0.0399417020380497,0.0075613996013998985,-0.07377497106790543,0.05682854726910591,-0.019858021289110184,0.02348516136407852,-0.028425462543964386,0.011540984734892845,0.0031960350461304188,0.02492436394095421,0.04526818171143532,0.05151700973510742,0.0010036142775788903,-0.012706848792731762,0.0010266323806717992,-0.003435752587392926,0.07264821231365204,-0.028664348646998405,-0.06115638464689255,0.04806066304445267,-0.03813736140727997,0.021366069093346596,-0.0642223134636879,0.035560473799705505,-0.033998604863882065,-0.05677065625786781,0.005285441409796476,0.01754824072122574,-0.06894116848707199,-0.05092013627290726,0.014646285213530064,-0.05507859215140343,0.000905836233869195,0.05433671176433563,-0.010680153034627438,0.03636067733168602,-0.020992303267121315,-0.017091987654566765,0.014547408558428288,0.033580973744392395,-0.030604014173150063,0.04745812714099884,0.030422156676650047,-0.003569124499335885,-0.06709838658571243,-0.07656893134117126,-0.0786241963505745,0.0740738958120346,0.0018206576351076365,-0.025354042649269104,0.019081223756074905,0.07295235991477966,-0.07813020050525665,0.0021710554137825966,-0.0774182677268982,-0.07897893339395523,-0.0357712060213089,-0.007969365455210209,0.024112172424793243,0.018842404708266258,-0.0744725689291954,-0.028887314721941948,-0.0557541586458683,-0.07758577167987823,0.04310080409049988,0.07450761646032333,-0.053223900496959686,-0.034964241087436676,0.06876777857542038,0.03313590958714485,0.06103968620300293,0.049701251089572906,0.06966347992420197,-0.07106709480285645,-0.06064148247241974,-0.05737403407692909,0.048663221299648285,-0.04511062055826187,0.0015679675852879882,0.03672942891716957,-0.03370293602347374,-0.061026304960250854,-0.04880264401435852,-0.061612218618392944,0.05450788512825966,-0.07288571447134018,0.02350274659693241,0.02243206463754177,-0.05660137161612511,-0.07901183515787125,-0.06701527535915375,0.03485749289393425,0.06903093308210373,-0.06501858681440353,0.016463859006762505,-0.0730220228433609,0.02697962336242199,-0.05414164811372757,0.05154845491051674,0.05927244573831558,0.06263808906078339,0.07279457896947861,-0.0679749995470047,-0.052221689373254776,-0.07495497167110443,0.0061682285740971565,-0.023712174966931343,-0.057479128241539,0.03339623659849167,0.013481906615197659,0.0175967775285244,-0.07821074873209,0.03057553619146347,-0.07723897695541382,0.0713641345500946,-0.007472424302250147,-0.056320466101169586,-0.01337804552167654,-0.0671226978302002,-0.05202525854110718,-0.011756458319723606,-0.069609634578228,0.06503468006849289,0.02725944295525551,0.00676114484667778,0.05170990526676178,0.021512264385819435,-0.052391890436410904,-0.016032561659812927,0.037223201245069504,-0.02165156789124012,-0.03500105440616608,-0.06617850810289383,-0.015051008202135563,0.029169823974370956,0.0425633080303669,0.053682610392570496,-0.07060812413692474,0.0314306914806366,-0.06688526272773743,-0.05430302768945694,-0.027690298855304718,0.03078281879425049,-0.06726003438234329,0.02058713510632515,-0.04436197131872177,0.012217414565384388,0.07336221635341644,-0.03771384432911873,0.004453254397958517,-0.05476023256778717,-0.039822034537792206,-0.007785736117511988,-0.006486850790679455,-0.028521141037344933,0.03324662148952484,-0.04662900045514107,0.01816645637154579,0.012074214406311512,0.07455302029848099,0.03188983350992203,-0.07424631714820862,-0.02808341383934021,0.044593505561351776,0.029325375333428383,-0.0023143612779676914,0.015272046439349651,0.07591620832681656,0.05001349747180939,-0.03350815922021866,-0.044720377773046494,-0.0291723795235157,-0.07494466751813889,-0.044715940952301025,-0.05558471754193306,0.06279492378234863,-0.058888763189315796,-0.0586746409535408,0.06407784670591354,0.04499346762895584,-0.03473109006881714,-0.02630322054028511,0.027474772185087204,0.018660541623830795,0.009292238391935825,-0.0710928812623024,0.03766946867108345,-0.0425405353307724,0.008437604643404484,-0.023822646588087082,-0.06216014549136162,-0.07640106976032257,-0.04154576361179352,0.02568061277270317,0.03477228432893753,-0.04054577648639679,0.013769203796982765,-0.023675380274653435,0.01879153586924076,-0.01018526591360569,0.05767644941806793,-0.06965406239032745,-0.034173931926488876,-0.025644417852163315,0.01921144314110279,-0.061554450541734695,-0.026112886145710945,0.006558357272297144,0.01921580545604229,0.03636328503489494,-0.0033748624846339226,0.004670522175729275,-0.030755437910556793,0.07511375099420547,0.021661216393113136,0.0002520060515962541,0.017247995361685753,-0.01682044006884098,-0.0757298544049263,-0.03754998371005058,-0.07012289017438889,-0.030507011339068413,0.0031175478361546993,0.05320052057504654,-0.029935548081994057,0.07121757417917252,0.0007554723997600377,-0.06333410739898682,0.0009501231834292412,0.02396867610514164,-0.0069864001125097275,0.012488543055951595,-0.029336629435420036,0.042130883783102036,0.002428257605060935,-0.04934880882501602,0.04969751089811325,0.01049256045371294,-0.0311754010617733,0.020806031301617622,-0.01769072376191616,0.06829189509153366,-0.06595251709222794,-0.07614436000585556,0.012151963077485561,0.047255128622055054,-0.045901089906692505,-0.033535465598106384]},"inputBias":{"rows":30,"columns":1,"weights":[-1.0746946334838867,-1.0579673051834106,-1.0543237924575806,-1.1146414279937744,-0.981634259223938,-1.0606437921524048,-0.8913935422897339,-1.1038620471954346,-1.2221198081970215,-0.9175817966461182,-0.7097256183624268,-0.9893510341644287,-1.2484357357025146,-1.2097744941711426,-1.110613226890564,-0.8154569268226624,0.2145974338054657,-0.7552846670150757,-0.8900924324989319,-0.7298015356063843,-1.0430320501327515,-0.96186363697052,-1.1622707843780518,-0.9544334411621094,-1.2044260501861572,-0.9699736833572388,-1.1341667175292969,-0.8693835735321045,-1.0309152603149414,-0.9824045896530151]},"forgetMatrix":{"rows":30,"columns":1,"weights":[0.06804238259792328,0.039849091321229935,0.07535145431756973,0.01041175052523613,-0.028008487075567245,0.06061600148677826,0.04296911135315895,0.07406540215015411,-0.028148138895630836,0.059457745403051376,-0.07911015301942825,-0.021057186648249626,0.05835907906293869,-0.041251618415117264,0.04456883668899536,0.028493860736489296,-0.050949420779943466,-0.058991629630327225,0.010711006820201874,-0.024402137845754623,0.07410712540149689,-0.04814093932509422,-0.025392504408955574,-0.007871657609939575,0.028811411932110786,0.04416203871369362,0.02955850213766098,-0.06602219492197037,0.04078138619661331,-0.07026907056570053]},"forgetHidden":{"rows":30,"columns":30,"weights":[0.05132570490241051,0.05321365222334862,0.0014699756866320968,-0.014198103919625282,0.07323474436998367,0.0299752838909626,-0.018525604158639908,-0.04702189564704895,0.03653159365057945,-0.04701710864901543,-0.026251645758748055,-0.070795439183712,0.07492340356111526,0.024594994261860847,-0.006397893186658621,0.0186891108751297,0.005814370699226856,-0.027081534266471863,0.03881170228123665,-0.067733034491539,0.005429829936474562,0.0709933266043663,0.06373879313468933,0.05703303962945938,-0.06256870180368423,0.012771766632795334,0.022134864702820778,-0.035223428159952164,-0.0005625003250315785,0.044461775571107864,0.02763388864696026,-0.04202105104923248,0.06600334495306015,-0.047941941767930984,-0.005279002711176872,-0.03138729929924011,0.023190932348370552,0.07106851041316986,-0.02981717884540558,0.032355230301618576,0.03259352222084999,0.007798157632350922,0.03939585015177727,0.06176438555121422,0.009746953845024109,-0.04172033816576004,-0.010925879701972008,-0.06611450761556625,0.018534589558839798,0.0159749798476696,0.030690040439367294,0.0005580612923949957,0.05450727418065071,-0.0613669790327549,-0.04164094105362892,-0.06156157702207565,-0.04157496616244316,0.00025873753475025296,-0.0603506937623024,0.06337961554527283,-0.04051448404788971,0.02674620784819126,-0.0032880036160349846,0.014327099546790123,-0.06078058481216431,-0.07147848606109619,-0.03709971159696579,0.0023224276956170797,-0.05119515210390091,-0.031939562410116196,0.07004395127296448,-0.06821005046367645,0.07029891759157181,0.0734499841928482,0.02747688814997673,0.0656832605600357,0.045091573148965836,-0.018190672621130943,-0.04260045289993286,-0.026332475244998932,0.062526635825634,0.055107031017541885,0.012432269752025604,-0.02131050080060959,0.0008349998388439417,-0.01888108439743519,-0.024493560194969177,-0.008206142112612724,0.027277471497654915,-0.02188010700047016,0.057963088154792786,0.03569284453988075,-0.023252539336681366,0.03147760406136513,-0.021696502342820168,0.009922320954501629,0.07568011432886124,-0.0331890806555748,-0.05982138216495514,-0.055865682661533356,0.054314978420734406,0.07365845888853073,-0.03608883544802666,-0.07704459875822067,-0.007798750419169664,-0.05618629232048988,-0.008337103761732578,0.035907432436943054,0.06424537301063538,0.042634934186935425,0.07723505795001984,0.06582099199295044,-0.048782829195261,0.07076092809438705,-0.008427387103438377,-0.009967364370822906,0.0386030450463295,-0.027736645191907883,-0.01124973502010107,0.012172222137451172,0.014665716327726841,0.02150375209748745,-0.0014185007894411683,-0.0022968798875808716,0.007458635605871677,0.07049931585788727,0.0024627726525068283,0.030615149065852165,0.057624392211437225,0.029635213315486908,0.0017409402644261718,-0.03155849874019623,-0.0172612052410841,0.007426975294947624,0.028772855177521706,0.014239835552871227,0.057737745344638824,0.014882532879710197,-0.060920994728803635,-0.028616266325116158,0.05145299807190895,0.06895357370376587,0.0481591671705246,-0.008810633793473244,-0.0646393820643425,-0.0615747906267643,0.05679376423358917,0.05353600159287453,0.028808411210775375,-0.06780871003866196,0.07158175855875015,-0.0006183564546518028,0.007574515417218208,-0.06919895112514496,0.06999340653419495,0.07674819231033325,-0.027056334540247917,0.013791770674288273,0.012482168152928352,-0.005745408125221729,-0.04456246644258499,0.0276099294424057,-0.05020829662680626,-0.05671107396483421,0.07306397706270218,0.005661805626004934,0.04050774499773979,0.018987411633133888,0.04894868656992912,0.06281149387359619,-0.07008358836174011,0.011149675585329533,0.02425096370279789,0.007754063233733177,0.06454058736562729,-0.02153482474386692,0.03625474497675896,-0.01977228745818138,0.02785671316087246,-0.07900790125131607,-0.029673347249627113,0.04535505548119545,0.0681166872382164,-0.0007252355571836233,0.06070912256836891,0.019389843568205833,0.05581599846482277,-0.0699189081788063,-0.03498772159218788,-0.032319582998752594,0.07298586517572403,-0.04574421048164368,0.042265117168426514,0.022451944649219513,0.04951418191194534,0.05867160111665726,-0.03255271166563034,-0.052180394530296326,0.009138376452028751,0.05569743365049362,0.005830975249409676,0.020857177674770355,0.033027466386556625,-0.06650607287883759,-0.02870708331465721,-0.018822750076651573,-0.04834902659058571,-0.004661892540752888,-0.009057216346263885,-0.0038149282336235046,-0.019154414534568787,-0.06539124995470047,0.043543457984924316,-0.018104299902915955,-0.015900863334536552,0.00806417502462864,-0.01721247471868992,0.05168921500444412,0.006450372282415628,0.009308739565312862,0.03204106539487839,0.026370691135525703,-0.04927835986018181,-0.0705610141158104,0.029497386887669563,-0.07421956956386566,0.0377950444817543,0.01338730938732624,0.06468462944030762,-0.06625017523765564,-0.07578526437282562,0.031227638944983482,0.07790294289588928,0.04696660861372948,-0.04829058423638344,0.03350057825446129,0.030112212523818016,-0.003974632825702429,0.03888097405433655,-0.04464108496904373,0.01193447969853878,0.05280259624123573,-0.07594887167215347,-0.01596653461456299,-0.021262172609567642,-0.06793053448200226,0.056852374225854874,-0.04401755332946777,-0.036305200308561325,0.07202684134244919,-0.04150776192545891,-0.011331538669764996,0.05064462125301361,-0.032147690653800964,0.040401019155979156,0.05459147319197655,-0.049232710152864456,-0.037554506212472916,-0.05748891830444336,0.008131664246320724,-0.03971218317747116,0.0252495426684618,0.002569719450548291,-0.022690311074256897,-0.005698178429156542,-0.07742594182491302,-0.042793791741132736,0.020945271477103233,0.0020899861119687557,0.0332816019654274,0.05077572166919708,0.07474687695503235,-0.02764597162604332,0.07397975772619247,0.0645659863948822,-0.03606949746608734,-0.05215863510966301,-0.019655147567391396,-0.04656296968460083,-0.013580561615526676,-0.030126379802823067,-0.05067215487360954,-0.04980579391121864,-0.03218812122941017,-0.047305602580308914,-0.007202242035418749,-0.044683173298835754,-0.07006414979696274,0.07054878026247025,0.06801099330186844,0.061240751296281815,-0.07470673322677612,-0.04121970757842064,-0.07031810283660889,-0.06586064398288727,-0.00043807458132505417,-0.01186903566122055,-0.05652133747935295,-0.021065305918455124,0.02147362008690834,0.034345269203186035,0.0014833667082712054,-0.006921589374542236,0.02205054461956024,0.033797744661569595,0.03630423545837402,-0.06188623607158661,-0.013395605608820915,0.02012542076408863,0.04538464546203613,-0.024205941706895828,0.07009975612163544,-0.061861518770456314,-0.06877698749303818,0.006246146745979786,0.026585852727293968,-0.0007068332633934915,0.07331401109695435,-0.0447719544172287,-0.05569172278046608,-0.06710635870695114,0.002412406960502267,-0.06962667405605316,-0.0247116070240736,0.026183893904089928,-0.03337215632200241,0.05488211289048195,0.05989304557442665,-0.006186024751514196,0.0764455795288086,0.020673159509897232,-0.037886764854192734,0.003683763090521097,-0.025854064151644707,0.05545393377542496,-0.02550581470131874,0.057015351951122284,-0.037139054387807846,0.007569214329123497,-0.03852110356092453,0.055953335016965866,-0.07156641036272049,-0.029156599193811417,0.042554821819067,-0.00033422838896512985,0.0581846684217453,0.06566181033849716,0.007372407708317041,-0.057861801236867905,-0.06204615905880928,-0.042969826608896255,0.012248269282281399,0.07068122923374176,-0.0117798475548625,0.0646919310092926,0.06611065566539764,0.06398030370473862,-0.0773291066288948,-0.07292723655700684,0.02576856128871441,0.002597987651824951,0.04992392286658287,0.018901122733950615,0.06471632421016693,0.07467810064554214,0.01740977168083191,0.02827296033501625,0.05708616226911545,-0.00916700717061758,0.04301593452692032,0.06113852187991142,0.06355489045381546,-0.023447977378964424,-0.07720815390348434,-0.017061475664377213,0.07168380916118622,-0.011437085457146168,0.04537687078118324,0.061039213091135025,-0.013373428024351597,-0.010500487871468067,-0.04558106139302254,-0.045709822326898575,-0.010039204731583595,0.037242546677589417,-0.04528967663645744,-0.0031154630705714226,0.002844618633389473,-0.017333341762423515,0.05379366874694824,-0.009369457140564919,0.07846974581480026,-0.032580167055130005,-0.02921285852789879,-0.055917128920555115,-0.04670519009232521,0.008465348742902279,0.018510350957512856,-0.07664555311203003,-0.025005843490362167,0.07571344822645187,0.05273234844207764,0.0005546476459130645,0.07130199670791626,-0.027896851301193237,-0.06297677010297775,-0.03488372266292572,-0.06324857473373413,-0.006409260910004377,0.011561630293726921,0.07460501790046692,-0.03354775905609131,0.00048633679398335516,0.019122347235679626,0.07526470720767975,0.04571293294429779,-0.05858464911580086,-0.04677901417016983,0.013852525502443314,-0.043299272656440735,0.05947870761156082,0.005606186576187611,-0.06550949811935425,0.03500188887119293,0.014312060549855232,0.01800636388361454,0.04029269143939018,-0.05722681060433388,-0.031045669689774513,-0.04416362941265106,0.06617100536823273,0.0354950949549675,0.03481040522456169,0.05069318786263466,0.07140859961509705,-0.06351105868816376,0.06389647722244263,0.030395036563277245,-0.059747062623500824,0.04772849753499031,0.030748173594474792,0.041890114545822144,-0.01682792417705059,0.030474718660116196,-0.020905977115035057,-0.05486731231212616,-0.055960651487112045,0.05754368007183075,-0.015052732080221176,0.011998753994703293,-0.028143269941210747,0.0355454683303833,0.014988268725574017,0.05411684140563011,-0.04767205938696861,0.07625070214271545,-0.021329445764422417,-0.01670873910188675,0.012959590181708336,-0.07894020527601242,0.053724635392427444,-0.031089160591363907,0.059303995221853256,0.027949100360274315,0.005019939970225096,0.0721626728773117,0.04333183541893959,-0.07862983644008636,-0.03788648918271065,0.01760598085820675,0.06851434707641602,0.049901384860277176,-0.05695852264761925,0.014056171290576458,0.04711458086967468,0.07139728963375092,0.018958033993840218,0.014687738381326199,0.023643214255571365,0.07375191152095795,0.047353554517030716,0.05674806609749794,-0.009561648592352867,0.032778989523649216,-0.029448822140693665,-0.021112004294991493,0.022218970581889153,0.009043285623192787,-0.018618222326040268,0.029820410534739494,-0.0748848244547844,0.017647702246904373,-0.006863097194582224,0.07138173282146454,0.07374750077724457,0.017920436337590218,0.016737936064600945,-0.022105539217591286,-0.032654691487550735,-0.003819182747974992,0.053204216063022614,-0.06775892525911331,0.06663314998149872,-0.040479887276887894,-0.032082028687000275,0.02828436717391014,-0.004752540495246649,0.01396570261567831,-0.03943346068263054,-0.06655237078666687,-0.06503359973430634,0.016725759953260422,0.0021230289712548256,0.0008078283863142133,-0.03720349445939064,-0.055821917951107025,0.018778521567583084,-0.03657989203929901,0.035738907754421234,0.036816082894802094,-0.008672790601849556,0.006111611146479845,0.033055804669857025,0.018060626462101936,0.06886444985866547,-0.010174041613936424,0.003928895574063063,-0.05746786668896675,0.07914388179779053,0.006722899153828621,0.0763581320643425,-0.02711527608335018,0.07585038989782333,0.005973135586827993,-0.07448922842741013,-0.03773658722639084,-0.06473847478628159,0.005740951281040907,-0.06508757174015045,-0.03171306848526001,-0.060543838888406754,-0.029002685099840164,0.058433011174201965,0.026052022352814674,0.04780283197760582,0.07265396416187286,-0.019963214173913002,-0.06647607684135437,-0.03293147683143616,-0.008574777282774448,0.04355780407786369,0.04054729640483856,0.031370002776384354,0.00619121827185154,0.07903467118740082,0.06644993275403976,0.070214182138443,-0.03159147500991821,0.06353306025266647,0.06392387300729752,0.00438770791515708,0.012467213906347752,-0.06984134018421173,0.030198024585843086,-0.06864000111818314,0.0241383109241724,-0.0019450115505605936,-0.01798388734459877,-0.07768385112285614,-0.07850170135498047,-0.052117083221673965,-0.04043253883719444,-0.07402268052101135,0.03816206380724907,0.023887095972895622,-0.0636141374707222,-0.032427072525024414,-0.07370017468929291,0.01049815583974123,0.056069515645504,0.02171516790986061,0.042287278920412064,0.033510927110910416,-0.057837385684251785,-0.00937996432185173,-0.021726153790950775,-0.04641920328140259,0.01112950500100851,-0.059183187782764435,0.060542818158864975,-0.006250960286706686,0.011045620776712894,0.018379760906100273,-0.05971956253051758,0.0304486732929945,-0.06124824285507202,0.043974511325359344,-0.022420573979616165,0.03983129560947418,-0.0527634359896183,0.041815485805273056,-0.027994457632303238,0.05063456669449806,-0.07181321829557419,0.06981147825717926,0.01784018985927105,0.06841152906417847,-0.02910560369491577,-0.049278371036052704,0.011637846939265728,-0.0717734843492508,0.07029680907726288,-0.022328311577439308,-0.03152056410908699,0.06522572785615921,0.024685529991984367,0.07562776654958725,0.005339533556252718,-0.03103414736688137,0.039079442620277405,-0.05860111489892006,-0.07522605359554291,0.07404394447803497,-0.04713301733136177,-0.06366731226444244,0.07271799445152283,-0.0009502438479103148,0.045380931347608566,0.04629728943109512,-0.06793731451034546,0.007147888652980328,0.05426459014415741,0.0701799988746643,-0.028997164219617844,-0.0591941736638546,0.05711890757083893,-0.015680063515901566,0.01652591861784458,-0.034261323511600494,0.03313280642032623,-0.016480982303619385,-0.04474758729338646,0.002061103470623493,0.04475124180316925,-0.047395989298820496,0.049187615513801575,-0.04702288657426834,0.003291616216301918,-0.015187009237706661,-0.04992406815290451,0.056927673518657684,-0.049574270844459534,0.045505501329898834,0.05567849054932594,-0.059859827160835266,-0.035454582422971725,0.03711024671792984,0.0436539426445961,0.07237060368061066,0.0502493791282177,0.021912476047873497,0.05656690150499344,0.007018353324383497,-0.0014161376748234034,0.05914188548922539,-0.006148478481918573,-0.07891777902841568,-0.0031691736076027155,-0.0003209520364180207,-0.041135434061288834,0.0013246415182948112,0.05169186741113663,-0.020723452791571617,0.037482280284166336,0.02422305941581726,-0.07576210796833038,-0.03677238151431084,-0.046092987060546875,0.03560591861605644,0.07015964388847351,-0.01599101535975933,-0.0436258465051651,-0.0016783265164121985,-0.01986890286207199,-0.045085933059453964,-0.07904168963432312,0.013964259997010231,-0.005345238838344812,-0.05532021075487137,-0.06886924058198929,-0.017335768789052963,-0.030926821753382683,0.04787876456975937,0.021371470764279366,0.02124117501080036,0.008044624701142311,0.06536473333835602,0.04995662719011307,-0.038079533725976944,-0.07416526228189468,0.07890602201223373,-0.06892480701208115,0.04057473689317703,0.0650625228881836,0.06191804260015488,0.034627292305231094,-0.04469635337591171,-0.055621348321437836,0.03534292057156563,-0.04109344631433487,-0.013186896219849586,-0.027717754244804382,-0.02899787202477455,-0.0704263225197792,0.005886001978069544,0.055464811623096466,-0.010548909194767475,0.02996286377310753,0.008602138608694077,0.03708437457680702,0.037577155977487564,-0.07584824413061142,0.05659361928701401,0.02665148861706257,-0.07074235379695892,0.006353210657835007,-0.05514197424054146,0.0642615482211113,-0.014496036805212498,0.05754754692316055,0.001525111380033195,-0.04097139835357666,-0.03951455280184746,0.04305252432823181,0.03735283017158508,0.06950420886278152,0.07394806295633316,-0.06455527991056442,0.04252975806593895,-0.0329989492893219,-0.020049113780260086,0.07642613351345062,-0.01651209220290184,-0.070554718375206,0.013602728955447674,0.01908472739160061,-0.043927066028118134,-0.031918831169605255,0.07179832458496094,0.06397034227848053,0.0451960451900959,-0.0720730647444725,-0.033541418612003326,0.04847944155335426,0.0357326902449131,-0.07894523441791534,-0.056402046233415604,-0.029419204220175743,0.00487471790984273,-0.058890342712402344,-0.0595724917948246,0.026159510016441345,0.037858616560697556,0.04993589222431183,-0.011068756692111492,-0.04168056696653366,0.023260431364178658,-0.06537754088640213,-0.07618221640586853,0.010804194025695324,-0.0432872548699379,0.020059410482645035,0.0710022896528244,0.01793510839343071,-0.04032868146896362,-0.07632167637348175,-0.033794183284044266,-0.06805357336997986,0.006614300888031721,0.04423755407333374,-0.05641608685255051,-0.03985690698027611,-0.05777539685368538,0.07302157580852509,-0.07005975395441055,-0.019953062757849693,-0.04667922854423523,0.04562319070100784,-0.049409057945013046,-0.035985298454761505,-0.04479042440652847,0.04296381399035454,0.026705484837293625,-0.0444420650601387,-0.07081665098667145,-0.032965436577796936,-0.04775102436542511,-0.014094328507781029,0.028150931000709534,-0.011875737458467484,0.03208824619650841,0.05223509296774864,-0.044493790715932846,-0.023405781015753746,-0.01818186603486538,-0.013081774115562439,0.041910942643880844,0.07449222356081009,-0.03447817638516426,0.020571935921907425,-0.003581271506845951,-0.015575079247355461,0.00034485827200114727,-0.05914925038814545,0.06329472362995148,-0.013322646729648113,0.05780354142189026,-0.050154685974121094,-0.03575597703456879,0.023973779752850533,0.024672964587807655,0.07352257519960403,0.04217405617237091,-0.05038229376077652,-0.06799884140491486,0.02666972577571869,-0.028181450441479683,-0.07204587012529373,0.03901559114456177,-0.053691934794187546,-0.00484477449208498,-0.041420407593250275,0.002055597957223654,-0.06455913186073303,0.02570389397442341,-0.07789528369903564,0.03646424785256386,-0.026266159489750862,0.003050184343010187,0.012904077768325806,-0.06053667142987251,0.05568791180849075,0.060189880430698395,-0.009237535297870636,0.0055457004345953465,-0.015336224809288979,0.006677921861410141,-0.04494336247444153,0.00009883564780466259,-0.06374262273311615,-0.034222088754177094,0.07132265716791153,0.012079305946826935,-0.05335592105984688,-0.038956183940172195,-0.06501305103302002,-0.0710195004940033,-0.05354493111371994,-0.008370611816644669,0.05515242740511894,0.04951297491788864,-0.07791794836521149,-0.06396763026714325,-0.046933405101299286,-0.07591463625431061,0.03481409698724747,-0.04697541892528534,-0.02608429454267025,-0.06655436009168625,0.06599938124418259,0.01624220609664917,0.0024871097411960363,-0.05234785005450249,-0.025472739711403847,0.06592255085706711,0.010420438833534718,-0.044884417206048965,0.0677616149187088,-0.04704010859131813,0.017691202461719513,0.04762076959013939,0.023661721497774124,-0.05998097360134125,-0.023437095806002617,0.052201323211193085,0.043737102299928665,-0.03293067216873169,-0.03180603310465813,-0.03870127722620964,0.07245665788650513,0.06282451748847961,-0.010573319159448147,0.04373502358794212,-0.05803242698311806,0.018525654450058937,0.05652264505624771,0.04459056630730629,0.04382041096687317,0.002308060647919774,-0.03554919734597206]},"forgetBias":{"rows":30,"columns":1,"weights":[0,0,0,0,0,0,0,0,0,0,0,0,0,0,0,0,0,0,0,0,0,0,0,0,0,0,0,0,0,0]},"outputMatrix":{"rows":30,"columns":1,"weights":[-0.2517450451850891,0.17679324746131897,0.20397557318210602,-0.036712948232889175,-0.03199923411011696,0.06587988883256912,0.5080366730690002,-0.3005882203578949,-0.22929881513118744,0.06952296197414398,0.9340691566467285,-0.12903288006782532,-0.2465669810771942,-0.37312769889831543,-0.06853421032428741,-0.014140038751065731,1.327486515045166,1.0214612483978271,0.018162937834858894,-0.07707956433296204,0.24907943606376648,0.21784304082393646,-0.40024334192276,-0.00960615649819374,-0.15759125351905823,0.41938716173171997,-0.09537649154663086,-0.11511390656232834,0.11707818508148193,0.24383459985256195]},"outputHidden":{"rows":30,"columns":30,"weights":[-0.026869792491197586,0.0014889577869325876,0.02840684913098812,0.006777373142540455,0.00800369493663311,-0.001290133106522262,-0.015787864103913307,-0.0015006093308329582,-0.04466387256979942,0.04961870238184929,0.030336862429976463,-0.04679989069700241,0.07903023809194565,0.07743848115205765,-0.040790509432554245,0.027365149930119514,-0.07448245584964752,0.033288728445768356,-0.06284826993942261,-0.04220239818096161,-0.02540541999042034,0.0010880014160647988,-0.07167458534240723,-0.07891734689474106,-0.0485190786421299,-0.018263226374983788,0.07339504361152649,-0.044982049614191055,0.07587554305791855,-0.02969488874077797,-0.0031462456099689007,-0.043233320116996765,0.060825664550065994,-0.023898890241980553,-0.05074559524655342,-0.05503665655851364,0.06466378271579742,-0.06824256479740143,0.03615221008658409,0.02653936669230461,0.017210397869348526,-0.01727784425020218,0.05286518856883049,0.05792025476694107,0.011933096684515476,-0.02140750363469124,0.06112595275044441,-0.034577615559101105,0.05856858193874359,-0.01671680435538292,0.019505586475133896,0.0513809472322464,-0.015226081013679504,0.06350529193878174,0.07562544196844101,0.06196877732872963,0.009895372204482555,0.015568223781883717,0.07342356443405151,-0.00572311831638217,-0.043079618364572525,-0.010575137101113796,-0.07184082269668579,-0.033707939088344574,-0.043037816882133484,0.03592749685049057,-0.04090366140007973,0.008846002630889416,0.05426184833049774,-0.06423674523830414,-0.01585218869149685,0.05748818814754486,-0.0665837898850441,0.021478494629263878,-0.043260421603918076,0.04009620472788811,-0.04230004921555519,0.004601975902915001,0.04914022237062454,-0.025602245703339577,-0.04946484789252281,-0.01793934591114521,-0.05163600295782089,-0.032884880900382996,0.049530964344739914,-0.07089290767908096,-0.013495084829628468,-0.0790582075715065,0.03931933268904686,-0.054618578404188156,-0.05529185011982918,0.024632994085550308,0.0028502116911113262,-0.0621008463203907,-0.056849706918001175,-0.03771217167377472,-0.07488042861223221,0.05663512647151947,0.07124286144971848,-0.04222584888339043,-0.0616961307823658,-0.027586577460169792,-0.029286343604326248,-0.07714419066905975,-0.05221397057175636,-0.0095720449462533,0.01027223002165556,-0.020963154733181,-0.07648852467536926,0.032995715737342834,-0.01277962140738964,0.07302821427583694,0.02053123526275158,0.016801446676254272,-0.046914830803871155,-0.04789697006344795,0.04322395846247673,-0.056229367852211,0.039966482669115067,0.05031555891036987,0.03408326208591461,-0.07416819036006927,0.05483759939670563,0.012849947437644005,0.02429608628153801,0.06218859553337097,-0.01809578388929367,0.07861466705799103,0.07290367037057877,0.023775985464453697,0.03885500505566597,0.0028255609795451164,0.032334260642528534,0.07443109899759293,-0.02342892810702324,0.06310658901929855,-0.06787706166505814,-0.004219249356538057,0.05860818177461624,-0.06636816263198853,-0.060566142201423645,-0.025944706052541733,-0.03483075648546219,0.0392557792365551,-0.048996955156326294,-0.014413535594940186,0.04171720892190933,0.05159841105341911,0.028781535103917122,-0.04424423724412918,0.017227210104465485,-0.07143876701593399,-0.0676577016711235,-0.027897724881768227,-0.02206522226333618,-0.03127450495958328,-0.006587841548025608,-0.051458172500133514,0.007720022927969694,-0.03549095243215561,0.020743221044540405,-0.07543429732322693,-0.0042555974796414375,-0.014637535437941551,0.007204005960375071,-0.06490031629800797,0.06453216820955276,0.007255844306200743,-0.012679577805101871,-0.057111404836177826,-0.05998731032013893,-0.05518951639533043,-0.006058671046048403,0.01296865101903677,0.013807205483317375,-0.028523297980427742,-0.004058322869241238,-0.0030918074771761894,-0.05217985436320305,0.06225190311670303,-0.07598239183425903,-0.03343740850687027,-0.06970994174480438,-0.013100545853376389,-0.008543708361685276,0.04380520433187485,-0.032893694937229156,-0.058597054332494736,-0.006359041668474674,0.006703023798763752,-0.049684230238199234,0.046304576098918915,-0.0340256541967392,-0.040242765098810196,0.005020359996706247,0.039179470390081406,-0.06498244404792786,-0.06226470321416855,-0.053802866488695145,0.011324810795485973,0.07237228006124496,-0.061892710626125336,-0.030535614117980003,-0.0002628613146953285,-0.033638276159763336,0.039542507380247116,-0.06556516140699387,0.02308082953095436,0.07601354271173477,0.005403597839176655,-0.002583564491942525,0.003907457925379276,-0.03912916034460068,0.05362095311284065,-0.04349689185619354,-0.07013367861509323,-0.07881338149309158,-0.03553265333175659,0.018718551844358444,-0.057077161967754364,0.05670321360230446,0.037194348871707916,-0.02537149377167225,-0.018063340336084366,-0.021421067416667938,0.03635510057210922,0.004889980889856815,-0.003029380924999714,0.03475210443139076,0.07404912263154984,-0.00771036883816123,0.04167236015200615,0.007562655955553055,-0.009694136679172516,-0.044862207025289536,0.03488263860344887,-0.04009036719799042,-0.041921135038137436,0.07699591666460037,-0.040445033460855484,0.0054835244081914425,-0.018401937559247017,0.06041010096669197,0.02239716425538063,-0.06926600635051727,0.007226676680147648,0.06586340069770813,-0.01672443188726902,-0.0014881056267768145,0.017141789197921753,-0.05627293139696121,0.010339014232158661,-0.007936548441648483,0.010866147466003895,-0.07303258031606674,-0.07107128202915192,0.06645327806472778,-0.05708838254213333,0.05066412687301636,-0.05237261578440666,-0.05696125701069832,-0.05950874090194702,-0.010685676708817482,0.03772801533341408,0.06158651411533356,0.054118722677230835,-0.07885181158781052,0.06418050825595856,-0.0015360820107161999,-0.031823426485061646,0.02917243167757988,-0.04561518877744675,-0.06669771671295166,-0.029604751616716385,0.05325791984796524,-0.05327864736318588,0.05822037160396576,0.01564313843846321,0.02507496438920498,-0.0749010294675827,0.01227112952619791,0.019039161503314972,0.07875729352235794,-0.016211679205298424,-0.016255682334303856,-0.07761572301387787,-0.06414597481489182,-0.02314724214375019,0.010487684980034828,0.008059362880885601,0.07165738195180893,-0.047438833862543106,0.04677090421319008,0.015787946060299873,0.010047982446849346,0.06874135136604309,-0.05598069727420807,0.03985574096441269,-0.07690728455781937,-0.018397478386759758,-0.06670370697975159,-0.07499738782644272,-0.048411641269922256,-0.007309903856366873,0.0037662629038095474,0.07779087126255035,0.004508372861891985,0.0743299275636673,0.011787915602326393,0.06467047333717346,0.025335730984807014,0.056563008576631546,0.05958374962210655,0.0266902856528759,-0.02384856529533863,0.01994638703763485,0.004185490310192108,0.012652736157178879,0.0369989275932312,-0.06275878101587296,-0.0028164731338620186,0.055334776639938354,0.05058559030294418,-0.061340849846601486,-0.003810327732935548,0.049708541482686996,0.054455194622278214,-0.0018260760698467493,0.009985296055674553,-0.027976814657449722,0.008085990324616432,-0.023091524839401245,-0.0328538753092289,0.03464314341545105,-0.04028312489390373,0.005444875918328762,0.07451915740966797,0.0027751943562179804,-0.029251305386424065,-0.013830681331455708,-0.016625702381134033,-0.07868442684412003,-0.06585728377103806,-0.0041829547844827175,-0.020627643913030624,-0.052121929824352264,-0.02553691901266575,-0.05136260762810707,-0.019805558025836945,-0.05131151154637337,0.0613015741109848,0.07798246294260025,-0.04285397380590439,0.0217172559350729,-0.007161295507103205,0.015393420122563839,0.04292285442352295,0.06401568651199341,0.04923538863658905,-0.03596487641334534,-0.026311079040169716,0.04796753451228142,0.018475063145160675,-0.07224054634571075,0.03645236790180206,-0.017633436247706413,-0.07454703748226166,-0.07279659062623978,-0.06074199452996254,0.029426131397485733,-0.013293575495481491,-0.03390175476670265,-0.02769705094397068,-0.008205072022974491,0.07759599387645721,-0.014873096719384193,0.028084656223654747,0.07347989827394485,0.011423271149396896,0.021742917597293854,0.06630664318799973,0.0014253687113523483,0.0683966875076294,0.05053398013114929,0.012811006978154182,-0.002166750840842724,-0.04819710925221443,0.06417854875326157,-0.0008402206585742533,0.018110206350684166,0.01649811491370201,-0.06406165659427643,0.06445278227329254,-0.06019655242562294,-0.0726424902677536,-0.0770457535982132,-0.013288052752614021,0.053211115300655365,-0.044293519109487534,0.06489217281341553,-0.025920001789927483,0.02980644255876541,0.025273999199271202,0.06511925905942917,-0.03385940194129944,-0.006236363667994738,0.04858382046222687,0.027855027467012405,-0.0525849349796772,-0.04132642596960068,-0.04883759096264839,0.05444604903459549,0.021344689652323723,0.021494237706065178,-0.07436304539442062,0.06737183034420013,-0.03484375402331352,0.06789245456457138,0.0008492738124914467,0.015046262182295322,0.07237216085195541,0.025378454476594925,-0.019631681963801384,0.008764587342739105,-0.018181797116994858,-0.03994462639093399,-0.0003712177276611328,0.0437559150159359,0.03572015464305878,0.003143179463222623,-0.05774759128689766,0.03996122255921364,0.00472537986934185,0.05144380405545235,0.04819270968437195,-0.0076801287941634655,0.022485166788101196,0.02173263020813465,-0.06343375146389008,0.01021867897361517,-0.02285357378423214,0.026055002585053444,0.07696988433599472,-0.008151670917868614,0.005304726772010326,0.006644906476140022,0.043678611516952515,0.032461296766996384,0.016297681257128716,-0.018740063533186913,-0.037810612469911575,0.01753992587327957,0.06988351792097092,-0.03084099479019642,-0.010404798202216625,-0.04269235581159592,0.02391686663031578,-0.005758865270763636,-0.0015456746332347393,-0.04391131177544594,0.013811714015901089,-0.013208909891545773,0.0726187452673912,-0.02383951097726822,-0.03549983724951744,0.039675548672676086,0.04297086223959923,0.06370823830366135,-0.06591479480266571,-0.02891670912504196,0.0054517388343811035,0.017732860520482063,0.008715001866221428,0.06040655076503754,-0.05706695094704628,0.060223065316677094,-0.07484287023544312,0.061828307807445526,0.044453732669353485,-0.024720117449760437,0.0388181135058403,0.036710474640131,0.025927234441041946,-0.042234793305397034,-0.01927519589662552,0.06835117936134338,-0.022988155484199524,-0.05394214019179344,0.038979385048151016,-0.054202850908041,0.04964965209364891,0.06570308655500412,0.0640437975525856,0.07547415792942047,0.07056284695863724,-0.005490852985531092,-0.04581010341644287,0.013863823376595974,0.0032647927291691303,-0.03629031032323837,-0.06119043380022049,0.05916830897331238,-0.026426898315548897,-0.014037949964404106,0.036700692027807236,-0.0073601552285254,0.06330092996358871,-0.06041844189167023,-0.025951948016881943,-0.017775578424334526,-0.04904196411371231,0.038098711520433426,-0.04749283939599991,0.04090799018740654,-0.07382573187351227,0.02712230570614338,0.07433320581912994,-0.0553407222032547,-0.025421248748898506,0.060678817331790924,0.03634069114923477,0.05053447186946869,-0.06888048350811005,-0.010375523008406162,-0.031163806095719337,-0.02437637746334076,-0.05046381056308746,0.030011210590600967,0.03744502738118172,0.03942907974123955,0.07542414963245392,0.029025191441178322,-0.04439609497785568,0.021866101771593094,0.0658918246626854,-0.017156081274151802,0.006419678684324026,-0.01801847107708454,-0.06306714564561844,-0.06390170007944107,0.02333628386259079,0.010775657370686531,0.03711901232600212,0.04793446511030197,0.00836104340851307,0.06851677596569061,-0.013723769225180149,-0.07187540084123611,0.03736264631152153,0.03731114789843559,-0.039537761360406876,-0.0245791245251894,0.03961104154586792,-0.03463819622993469,0.030814068391919136,-0.06207811087369919,-0.0157976932823658,0.07813271135091782,-0.04924998804926872,-0.013256596401333809,0.06847549974918365,-0.04285453259944916,0.0014627815689891577,0.03625011071562767,-0.009683740325272083,0.009155492298305035,-0.056765083223581314,0.026015551760792732,0.06342945247888565,0.02436053566634655,0.06620115786790848,0.027883823961019516,0.018763890489935875,0.009274500422179699,-0.016513586044311523,-0.0384567454457283,0.06594203412532806,-0.0017756392480805516,-0.04861089214682579,-0.0341847762465477,-0.02712540328502655,0.025540271773934364,-0.0062736161053180695,0.06215941905975342,-0.020803775638341904,-0.01883198693394661,0.015793412923812866,0.046544987708330154,-0.0013992193853482604,-0.07714292407035828,-0.012033581733703613,-0.07415308058261871,0.054040201008319855,-0.00923798605799675,0.028585903346538544,-0.05122334137558937,-0.028320936486124992,0.07001486420631409,-0.03433440998196602,0.0564161017537117,-0.05015227571129799,0.04074043035507202,0.042221181094646454,-0.06277675181627274,0.02253674902021885,-0.04053465276956558,0.07012588530778885,0.0638882964849472,0.05132211744785309,0.04379866644740105,0.03445401042699814,0.06946392357349396,-0.0734870582818985,-0.0024324606638401747,-0.07328660786151886,0.06857901066541672,-0.0346682034432888,0.008084537461400032,0.02793561853468418,-0.035451341420412064,-0.06216912344098091,-0.05997401848435402,0.032987985759973526,-0.06283506751060486,-0.06079535186290741,0.06690539419651031,0.023200329393148422,-0.02378079667687416,-0.018593668937683105,-0.045807674527168274,0.04587997496128082,-0.07175090163946152,-0.058173466473817825,-0.035099178552627563,0.06341598927974701,0.05251162871718407,0.06523295491933823,0.0491594560444355,0.0638674795627594,-0.04337405040860176,-0.04983549192547798,0.0006885410402901471,0.037549834698438644,-0.038806624710559845,0.05608568713068962,-0.05824492126703262,0.03307764232158661,0.06448877602815628,-0.06044221296906471,-0.06292678415775299,-0.05767630413174629,0.055958155542612076,0.02706855535507202,-0.01212147157639265,-0.06209539994597435,0.07700489461421967,0.01484998594969511,0.03846686705946922,-0.0760045126080513,0.033751506358385086,0.05416338890790939,-0.043149109929800034,-0.05885034799575806,0.014799023978412151,-0.03713224083185196,0.0697181299328804,-0.024577651172876358,-0.033533383160829544,-0.013577676378190517,-0.026800239458680153,-0.019382290542125702,0.018962016329169273,-0.0010499798227101564,0.040136292576789856,-0.03383144363760948,0.03997613862156868,-0.012893031351268291,-0.03587016835808754,-0.0005675030406564474,0.035659413784742355,-0.016590848565101624,0.009542970918118954,-0.06728891283273697,0.001474431250244379,0.04142581671476364,-0.07449614256620407,-0.04216321185231209,0.045197151601314545,0.06694341450929642,0.00017175852553918958,-0.0652252808213234,-0.06497471034526825,0.015976211056113243,-0.06698235124349594,-0.030505722388625145,0.027756739407777786,0.025314301252365112,0.06891131401062012,0.060955386608839035,-0.006077207624912262,-0.014489946886897087,-0.052588388323783875,0.05719561129808426,-0.06478378176689148,0.02146397903561592,-0.04141004756093025,-0.020341092720627785,-0.021859703585505486,0.0008660268504172564,-0.013759614899754524,0.045891087502241135,0.010940052568912506,0.07482004165649414,0.05019521340727806,0.039492059499025345,0.06774058192968369,-0.07829541712999344,-0.05883772298693657,0.07219261676073074,-0.0479179285466671,-0.05817577615380287,-0.03854697197675705,0.02332373522222042,0.05631430447101593,0.03195134550333023,-0.018888823688030243,-0.008326718583703041,-0.07121607661247253,0.007894512265920639,0.07075925171375275,0.04176117479801178,-0.05524318665266037,-0.027385422959923744,0.07020533084869385,0.019763601943850517,0.04126708582043648,-0.0003283885889686644,0.011928568594157696,-0.04825463145971298,0.013470872305333614,-0.035325199365615845,-0.02689962647855282,0.05016505345702171,-0.01753350906074047,-0.030538588762283325,-0.015218361280858517,0.07822215557098389,0.046979937702417374,0.022557618096470833,-0.06925737857818604,0.05770653113722801,0.06457971036434174,0.03653322905302048,0.07084478437900543,-0.018422702327370644,-0.010966484434902668,0.021291213110089302,-0.0036527093034237623,-0.06234527379274368,-0.07808464765548706,-0.05192943662405014,0.07344433665275574,-0.01823672652244568,-0.019873658195137978,0.04877827316522598,-0.06825712323188782,0.07118863612413406,-0.016705673187971115,0.06870178878307343,0.016583194956183434,0.005960066802799702,0.03628077358007431,-0.06851054728031158,0.0754738599061966,-0.0017529657343402505,-0.03250785917043686,-0.01871364563703537,-0.05509378761053085,0.011384209617972374,-0.07835756987333298,0.062333304435014725,-0.029423795640468597,0.030445924028754234,0.0391758531332016,0.008342266082763672,-0.03791527450084686,-0.04292399436235428,-0.015372163616120815,0.02525205723941326,-0.012883346527814865,-0.036312662065029144,-0.022022930905222893,0.009508701041340828,-0.0329466313123703,-0.06695310771465302,0.0002758410992100835,-0.017795799300074577,0.01483665406703949,0.03594578802585602,0.029212431982159615,0.003473882796242833,-0.07111639529466629,0.07484497129917145,-0.02751857601106167,0.03417167812585831,-0.05689936503767967,0.006163544952869415,0.06310680508613586,-0.011986243538558483,-0.06826593726873398,-0.06109948456287384,0.013002541847527027,0.028269991278648376,0.07654199749231339,0.07766293734312057,-0.07353465259075165,-0.0059554800391197205,0.06897999346256256,0.07898404449224472,-0.014913998544216156,0.05741824582219124,-0.03862283378839493,-0.0015324146952480078,-0.013444213196635246,-0.02199624851346016,0.005551244132220745,-0.02426748536527157,-0.020348114892840385,0.02138775773346424,-0.07617095112800598,-0.028360264375805855,0.012052290141582489,-0.040977317839860916,0.04399671405553818,0.07098089903593063,0.022099396213889122,0.001834798138588667,-0.031043320894241333,0.07379548251628876,-0.0030983034521341324,0.060439784079790115,-0.04774264618754387,-0.06893298774957657,0.026198476552963257,-0.0004832616541534662,0.03006605990231037,0.015482226386666298,0.05990094691514969,-0.07314901798963547,-0.043280843645334244,0.0764695405960083,0.020389007404446602,-0.037261366844177246,-0.010709153488278389,-0.03485359996557236,-0.06949368864297867,-0.0765642374753952,-0.014524328522384167,-0.009823471307754517,0.06200719624757767,0.06347139924764633,-0.01829357072710991,0.07655080407857895,0.008801772259175777,0.06760597974061966,-0.04641416296362877,0.028674958273768425,0.014675055630505085,-0.03340586647391319,0.012811228632926941,-0.050936341285705566,0.07314570993185043,-0.02262391522526741,0.07176852971315384,-0.04220439866185188,0.0667736604809761,-0.002183870179578662,-0.008910470642149448,-0.02590159885585308,0.026066049933433533,0.07269946485757828,-0.03735261410474777,-0.01088801957666874,-0.026384595781564713,-0.05515655502676964,0.008296727202832699,0.0032594145741313696,0.06432981044054031,-0.06314969062805176,0.021526329219341278,-0.04063722863793373,-0.019542865455150604,-0.05775130167603493,-0.07288265973329544,0.008673136122524738,0.04510394483804703,-0.07015552371740341,-0.06746234744787216,-0.049048542976379395,0.024345993995666504]},"outputBias":{"rows":30,"columns":1,"weights":[-1.0776212215423584,-1.0521334409713745,-1.0491608381271362,-1.0967974662780762,-0.9837696552276611,-1.0641356706619263,-0.8875089883804321,-1.105282187461853,-1.2237489223480225,-0.9220371842384338,-0.7185113430023193,-0.993865430355072,-1.2461076974868774,-1.207145094871521,-1.1166036128997803,-0.8186303973197937,0.17105808854103088,-0.7503364682197571,-0.8916808366775513,-0.7335944771766663,-1.0399649143218994,-0.9685177803039551,-1.1653071641921997,-0.95012366771698,-1.1947383880615234,-0.931476354598999,-1.1271671056747437,-0.8717758059501648,-1.02627694606781,-0.9741467833518982]},"cellActivationMatrix":{"rows":30,"columns":1,"weights":[0.08323483169078827,-0.375185489654541,0.962331235408783,-0.8865391612052917,-0.23246446251869202,0.30872970819473267,0.6018410325050354,-0.19236980378627777,-0.7157973647117615,-0.07533794641494751,-1.222579836845398,0.23293694853782654,0.6681126356124878,0.6631075143814087,0.10637637972831726,-0.30793559551239014,1.84778892993927,1.232248067855835,0.2664620876312256,0.02417115867137909,-0.9733194708824158,0.3282191753387451,0.4164416193962097,-0.40463998913764954,0.7941320538520813,1.0449213981628418,0.8539997339248657,-0.09025849401950836,-0.37647199630737305,-0.40081560611724854]},"cellActivationHidden":{"rows":30,"columns":30,"weights":[-0.002906083595007658,0.0646679624915123,-0.041641175746917725,-0.0783848688006401,-0.06384114176034927,0.07593773305416107,-0.01064205076545477,-0.004456208553165197,0.019513778388500214,-0.015874050557613373,-0.06691634654998779,-0.006094802170991898,-0.0009374925866723061,0.05331115797162056,0.05165233090519905,-0.024675585329532623,0.03167951852083206,-0.0237607192248106,0.03009127266705036,0.03266485780477524,-0.023108184337615967,-0.036861859261989594,0.049470219761133194,0.05817415937781334,-0.02023508958518505,-0.04430430755019188,-0.023709191009402275,-0.03581809252500534,-0.058138154447078705,0.0070108952932059765,0.013785114511847496,0.07591036707162857,-0.03882365673780441,0.001865037134848535,-0.014154474250972271,0.07067395746707916,0.03774396702647209,-0.07565292716026306,0.03985714167356491,-0.04918044060468674,-0.03123970702290535,0.06407715380191803,0.04172317683696747,0.040364429354667664,-0.026669993996620178,0.006269554141908884,0.06345439702272415,-0.023196816444396973,-0.03970266506075859,0.00720166927203536,-0.0059956819750368595,0.03668596222996712,0.014640728943049908,-0.0667681023478508,0.032107774168252945,0.01670774817466736,0.011826230213046074,0.009839428588747978,0.031080247834324837,-0.059405818581581116,0.05873919278383255,-0.045588504523038864,-0.00021480501163750887,-0.059661153703927994,-0.07859271764755249,-0.006300060544162989,0.005488859489560127,0.01825343631207943,0.07636214047670364,0.06618151068687439,-0.011522944085299969,0.007083510048687458,-0.010572630912065506,-0.03795688971877098,0.07915806025266647,-0.07562274485826492,0.07820100337266922,0.03146834671497345,-0.0016572249587625265,-0.06817058473825455,0.07322492450475693,-0.010938912630081177,0.038699567317962646,0.030570926144719124,-0.02958129160106182,-0.0696980431675911,0.0154940290376544,-0.0309457927942276,-0.059675317257642746,0.02441089041531086,0.014872887171804905,0.04074481129646301,-0.05978837609291077,-0.050160400569438934,-0.07593683898448944,0.03165116906166077,-0.015913182869553566,0.03127240017056465,-0.05580618232488632,-0.059688422828912735,0.078659288585186,-0.010550486855208874,0.05377889424562454,0.07477071136236191,0.06159612163901329,-0.03026091866195202,-0.06314663589000702,-0.05780688300728798,0.06517506390810013,-0.05926759913563728,0.07030580192804337,-0.006971001625061035,0.0014775575837120414,0.05634235963225365,-0.038590386509895325,0.017418861389160156,-0.0002315196325071156,-0.015305906534194946,-0.0512276291847229,-0.0706687718629837,-0.020392365753650665,-0.0784885585308075,-0.021282615140080452,-0.02776125818490982,0.03663875535130501,-0.044804684817790985,-0.07544681429862976,0.0014477316290140152,0.021952388808131218,0.0467710942029953,-0.028360983356833458,-0.03475736454129219,0.015314578078687191,-0.030833547934889793,0.018080934882164,0.03892340138554573,0.040210217237472534,-0.07300539314746857,-0.07273799180984497,-0.07766750454902649,-0.03648262843489647,0.033108726143836975,0.07743968069553375,-0.0024340786039829254,0.008209333755075932,-0.06236306205391884,-0.03148028254508972,-0.04592222347855568,0.007737470790743828,0.05582137033343315,0.06345583498477936,-0.0204569511115551,-0.05798998475074768,0.049815453588962555,-0.0207779910415411,-0.02874814160168171,-0.017574958503246307,0.05644874647259712,0.06430870294570923,-0.05400470644235611,0.033300500363111496,0.007060699164867401,-0.06405726820230484,0.06653715670108795,0.06421089172363281,-0.04970123618841171,-0.06536153703927994,-0.07570986449718475,0.020493479445576668,-0.025320133194327354,-0.07561532407999039,-0.04127998650074005,0.06140819936990738,-0.053361400961875916,0.035147637128829956,0.03181375563144684,-0.0035067845601588488,0.018894514068961143,0.0734618678689003,0.06820441037416458,-0.013529707677662373,-0.07776141911745071,0.0683404803276062,-0.0683155208826065,-0.06298032402992249,-0.06749778240919113,0.03943953290581703,-0.06756328791379929,-0.008071635849773884,0.0366988442838192,-0.07123244553804398,0.009187172167003155,0.06472780555486679,0.026853810995817184,-0.0666189044713974,-0.061710648238658905,0.06532164663076401,-0.05416439473628998,-0.038094792515039444,0.02884315513074398,-0.025411002337932587,-0.07206248492002487,0.034048762172460556,-0.07096853107213974,-0.020375097170472145,-0.07096857577562332,0.031308017671108246,0.03755912184715271,-0.05941573902964592,-0.002591922413557768,0.024143265560269356,0.020075403153896332,-0.020487679168581963,0.06165071576833725,0.0015731193125247955,0.039049454033374786,-0.03092094324529171,0.02495478466153145,0.07587078958749771,0.055861808359622955,0.01926538720726967,0.0037467123474925756,-0.05786487087607384,0.04034530743956566,0.056501757353544235,0.07072781026363373,0.0543145015835762,0.054486602544784546,0.0006228421116247773,0.0326894149184227,-0.06463881582021713,0.06935261189937592,0.009379264898598194,-0.06747148931026459,0.0656251385807991,-0.03337568789720535,0.07835076749324799,-0.0753568634390831,0.009318135678768158,-0.008202467113733292,0.013497240841388702,-0.07003192603588104,0.04266811162233353,-0.05614389851689339,0.06590677052736282,0.03175247833132744,0.043420299887657166,-0.03573748841881752,0.052337829023599625,0.07625335454940796,0.06421797722578049,-0.06563924252986908,-0.026970375329256058,-0.0014681941829621792,-0.0770687386393547,0.05767751485109329,-0.01075366884469986,0.026449359953403473,0.011327418498694897,0.04079955443739891,0.07569151371717453,0.017232505604624748,-0.0071114120073616505,0.027366958558559418,0.03249559924006462,0.0743221566081047,-0.025304680690169334,0.04911193251609802,-0.0009618816548027098,-0.04868556559085846,-0.07586086541414261,-0.04094861075282097,-0.078351229429245,0.07770524173974991,-0.041357170790433884,0.04004550352692604,0.022555001080036163,-0.03717183321714401,0.05680960416793823,0.01569138653576374,0.06211381033062935,-0.05672711879014969,0.06997991353273392,-0.04052959010004997,-0.024459630250930786,-0.056109197437763214,0.037580881267786026,-0.015246657654643059,0.07501433789730072,0.008068266324698925,0.038248300552368164,-0.02835256978869438,0.02400386705994606,0.022076141089200974,0.0725475400686264,-0.06034040078520775,-0.0710475817322731,0.05465938523411751,-0.03364277258515358,0.004505685530602932,0.005057215224951506,-0.0023230714723467827,-0.07917824387550354,0.036225825548172,0.05770878493785858,-0.021239636465907097,-0.03922506049275398,-0.03311242163181305,-0.042759355157613754,-0.030187582597136497,0.07264726608991623,0.05595580115914345,-0.02205510623753071,0.012131565250456333,-0.035442374646663666,-0.0036824452690780163,0.007251948118209839,-0.022369297221302986,0.044028256088495255,-0.07710838317871094,-0.05768115073442459,0.03176461160182953,0.04633264243602753,-0.07786265015602112,-0.012073320336639881,-0.024217862635850906,0.06687194108963013,-0.044265955686569214,0.04208522289991379,0.01866050250828266,0.062048494815826416,0.06550968438386917,-0.002896962221711874,0.07624271512031555,-0.016030732542276382,0.021139947697520256,0.07705710828304291,-0.0048146904446184635,0.06844860315322876,-0.038524091243743896,0.03646066412329674,-0.07202998548746109,0.06719278544187546,-0.042689140886068344,-0.06109669432044029,0.03893965482711792,-0.03102276287972927,0.0022589825093746185,-0.03654035925865173,0.042382899671792984,0.01624559424817562,-0.010794857516884804,0.010506502352654934,0.05034498870372772,0.0682755559682846,-0.024632936343550682,-0.050583623349666595,0.06676579266786575,0.00044310357770882547,-0.0414406843483448,0.01571699045598507,0.024688657373189926,0.018406962975859642,0.04311955347657204,0.02100469172000885,-0.05039375275373459,-0.03771656006574631,0.07517387717962265,-0.011780081316828728,-0.0034089470282197,-0.0014887070283293724,0.023674456402659416,-0.029037369415163994,0.07325081527233124,0.05463843420147896,0.006642201915383339,0.04540577158331871,-0.049671437591314316,0.04746508598327637,0.04669724404811859,-0.02297096513211727,-0.01680883578956127,-0.07236460596323013,-0.037047434598207474,0.013418047688901424,0.05466894432902336,0.058147020637989044,-0.03072086162865162,0.04471723362803459,-0.03756887465715408,0.0750700905919075,0.03346259891986847,0.07171642780303955,0.026829015463590622,0.044839974492788315,0.05722783878445625,-0.07276468724012375,-0.06112389266490936,-0.015672704204916954,0.019337182864546776,0.011225281283259392,-0.056082818657159805,0.040530357509851456,0.007304958067834377,0.06959715485572815,0.06696058809757233,-0.02920026145875454,-0.036753956228494644,-0.028875039890408516,-0.04657656326889992,0.059179242700338364,0.00557656679302454,-0.0514431893825531,0.06335946917533875,0.004673955962061882,0.0670900046825409,0.049058228731155396,0.03243497014045715,0.010392891243100166,0.05704383924603462,-0.010990705341100693,-0.04965318366885185,-0.034014031291007996,0.0764814019203186,-0.02574438601732254,-0.05882178246974945,-0.0014727306552231312,0.008241944946348667,-0.06391488760709763,-0.006012368947267532,0.0253223218023777,0.005822553765028715,-0.027473680675029755,0.006513621192425489,-0.04924473538994789,-0.0007331562810577452,-0.035022009164094925,0.04227990284562111,-0.036828286945819855,-0.03119019977748394,-0.011893653310835361,0.013488149270415306,0.025650566443800926,-0.07131808251142502,-0.022907713428139687,-0.042588669806718826,-0.06137043982744217,0.06551800668239594,-0.012464635074138641,-0.07783752679824829,0.07792443037033081,0.012866601347923279,-0.009625245817005634,0.024575423449277878,-0.019590074196457863,-0.059088822454214096,0.06340136379003525,0.05744413658976555,0.02187184989452362,-0.031457602977752686,0.05882742255926132,-0.059430647641420364,0.07770895957946777,-0.004278948530554771,-0.06392557173967361,-0.03634768724441528,-0.06470587849617004,0.07879403978586197,-0.056841664016246796,0.021394293755292892,-0.05548981577157974,0.05678191035985947,0.0005924856523051858,0.043034233152866364,-0.04337634891271591,0.07237046211957932,-0.027226561680436134,-0.028146736323833466,0.003555783536285162,0.024157412350177765,0.0279593113809824,0.00953689031302929,-0.0017455691704526544,-0.007886111736297607,-0.01369478926062584,0.053437232971191406,0.018807154148817062,0.0543287992477417,0.05395565554499626,0.03987904265522957,-0.003294307505711913,-0.03645411878824234,0.04803335666656494,0.049114108085632324,-0.027866387739777565,0.03528892621397972,-0.007378332782536745,0.015188176184892654,0.032500918954610825,0.001618102891370654,0.0054403506219387054,0.05225744470953941,0.046560049057006836,-0.05727511644363403,-0.037051890045404434,-0.03830229863524437,0.009217314422130585,0.06982219964265823,0.02996879629790783,-0.008377720601856709,-0.03419644013047218,0.06793170422315598,-0.05174153670668602,-0.02932528406381607,0.0671275183558464,0.07500049471855164,-0.00832111481577158,-0.012322911061346531,-0.04706016927957535,-0.007649795152246952,-0.044519539922475815,0.024874793365597725,0.06292235106229782,-0.00015748749137856066,-0.03031805343925953,-0.04981575533747673,0.004985778126865625,-0.06877128779888153,-0.0018189914990216494,-0.0076239099726080894,-0.06951148808002472,-0.06312752515077591,0.01985953375697136,-0.05207847058773041,-0.04899926483631134,0.021382566541433334,0.030028268694877625,0.0002821728412527591,0.07751915603876114,-0.0255067627876997,0.06458654254674911,-0.01182982511818409,-0.007684147916734219,-0.006073241587728262,-0.0621490404009819,-0.03807442635297775,-0.028789015486836433,0.01964276097714901,-0.04271736368536949,0.04604179412126541,-0.05773651599884033,0.03368378058075905,-0.06675070524215698,0.05004751682281494,-0.016506925225257874,-0.078299380838871,0.06104417145252228,0.05799213796854019,0.06664027273654938,-0.04749966412782669,0.04081437364220619,0.026861296966671944,-0.03861214965581894,0.04685738682746887,0.008372965268790722,0.0376458503305912,0.06035531684756279,-0.02483624778687954,-0.04026777297258377,0.032518401741981506,-0.06397655606269836,-0.05959154665470123,0.01020884606987238,0.06447277963161469,-0.0409320704638958,0.043614741414785385,-0.0736130028963089,-0.019748233258724213,0.019950877875089645,-0.006920035928487778,0.03748428821563721,-0.002223979914560914,0.019020915031433105,0.077170729637146,-0.0379682295024395,0.05593102425336838,0.04475545510649681,-0.05535825714468956,-0.07620984315872192,-0.015333915129303932,0.06187813729047775,-0.017422715201973915,0.05538800358772278,0.02305767685174942,0.0670296922326088,-0.033564526587724686,-0.013537272810935974,-0.0635601133108139,-0.013950475491583347,-0.023878641426563263,0.0641024112701416,-0.054486896842718124,-0.029480941593647003,0.03638783469796181,-0.016841761767864227,-0.06590146571397781,-0.07353030890226364,0.07825881987810135,-0.06552550941705704,-0.05960405245423317,-0.012217349372804165,-0.055722422897815704,0.010925645008683205,0.0002196838759118691,0.009254852309823036,-0.062144678086042404,-0.013645816594362259,-0.016657749190926552,-0.04601280763745308,0.05494857206940651,0.032415930181741714,0.0004211296036373824,0.05569778382778168,-0.05749964714050293,0.031793996691703796,-0.02871706523001194,0.053489673882722855,0.03886163607239723,-0.04053105041384697,0.07387212663888931,0.06876325607299805,0.07726792246103287,0.06291577965021133,0.0756550133228302,0.0529337115585804,-0.01592618227005005,0.004557400941848755,0.07202597707509995,-0.06834545731544495,-0.06282683461904526,-0.01429505180567503,0.040708452463150024,-0.06224828585982323,-0.01608610525727272,0.045839522033929825,-0.0006299112574197352,0.0557258315384388,0.02524883672595024,0.04242851957678795,-0.046635571867227554,0.055458132177591324,-0.039350468665361404,-0.07278487831354141,-0.030819786712527275,0.004605395253747702,0.02138824388384819,0.07454176992177963,-0.05174710974097252,-0.04618597403168678,-0.06998307257890701,-0.02472286857664585,-0.06657229363918304,-0.020062079653143883,-0.0400339737534523,0.019953623414039612,0.04135015606880188,-0.03508320450782776,-0.03263164684176445,-0.012260646559298038,0.07425806671380997,-0.015934372320771217,0.024244345724582672,0.05891859158873558,-0.07055772095918655,0.04743843898177147,-0.06621316820383072,0.028222370892763138,-0.04710416495800018,-0.04538663476705551,0.01683146506547928,-0.013953419402241707,0.06972724199295044,-0.012220599688589573,0.04220714420080185,-0.07000616192817688,0.03137534111738205,-0.010088120587170124,-0.03669434040784836,0.07124203443527222,0.0016047804383561015,-0.05189460515975952,0.037158675491809845,0.015099764801561832,-0.04751667380332947,0.06987280398607254,-0.017958521842956543,-0.0764983743429184,-0.00028858784935437143,0.07020936906337738,0.07877381891012192,-0.02126489207148552,0.04438745230436325,-0.018594786524772644,-0.01902308687567711,0.04662462696433067,-0.0007001487538218498,0.04924216866493225,0.0009544733911752701,-0.07730142772197723,-0.02685937099158764,-0.03871709108352661,-0.007838866673409939,-0.04563181847333908,0.06855824589729309,-0.023122917860746384,0.07566392421722412,-0.048014771193265915,-0.03603283315896988,0.06182902306318283,-0.007693419698625803,0.0013343215687200427,0.036636676639318466,-0.07335224747657776,0.07366868853569031,-0.01622307486832142,0.06902536749839783,-0.05247212573885918,-0.014392993412911892,0.028519373387098312,-0.06755435466766357,-0.070671945810318,0.06946221739053726,-0.033641036599874496,-0.02427097037434578,-0.029359564185142517,-0.04901575297117233,0.014915990643203259,-0.048268407583236694,0.018152935430407524,0.03426622226834297,0.006783037446439266,-0.0331827811896801,0.019250350072979927,0.062510646879673,0.03679222986102104,0.041142791509628296,0.04098246246576309,0.004402539227157831,-0.025813028216362,0.06674680858850479,-0.03069448098540306,0.04044147580862045,-0.03550388291478157,0.07166849076747894,-0.05105523392558098,0.025052569806575775,-0.015038006007671356,-0.025903349742293358,-0.04020041599869728,-0.050286054611206055,0.03942524641752243,0.0635937750339508,0.0011456965003162622,-0.009476854465901852,0.05582171306014061,-0.041723281145095825,-0.028431890532374382,0.02843315713107586,-0.07534060627222061,0.009637648239731789,-0.04746110364794731,-0.03549239784479141,0.04160093888640404,0.002878020517528057,0.0700220987200737,0.016316736117005348,-0.060545340180397034,-0.014855339191854,0.041278332471847534,-0.03105911798775196,0.042346153408288956,0.010379943996667862,0.012651077471673489,0.03654370456933975,-0.014857945032417774,0.07879845052957535,0.023418158292770386,-0.035825930535793304,0.0026941788382828236,0.0048652212135493755,0.0028116547036916018,0.0019744504243135452,-0.06044706329703331,-0.06652084738016129,0.07611086964607239,0.032084546983242035,0.04753660038113594,0.045289140194654465,-0.04655246436595917,0.06878156214952469,-0.012895992025732994,-0.03784078732132912,0.02276250533759594,0.07879940420389175,-0.049511585384607315,0.03181534633040428,0.029184650629758835,-0.010307015851140022,-0.040527909994125366,-0.006504724267870188,-0.01904827542603016,0.018304957076907158,-0.0425427183508873,-0.007722030393779278,-0.025616951286792755,0.04062668979167938,0.04467252641916275,-0.0008438558434136212,0.02257990464568138,-0.07647698372602463,0.01137393619865179,-0.061187658458948135,-0.03995698690414429,0.003349886741489172,-0.009390017949044704,0.05555855482816696,-0.06350260227918625,0.07366849482059479,0.03354300186038017,-0.0600854717195034,0.03630628064274788,-0.01777896098792553,0.03720066323876381,-0.03220082074403763,-0.007051112595945597,-0.01081532146781683,-0.04443098604679108,-0.012437288649380207,0.030754610896110535,-0.02936074137687683,-0.04765256121754646,-0.06982454657554626,0.05272297188639641,0.06849481165409088,0.07499941438436508,0.04675440117716789,-0.017164260149002075,0.04141809418797493,0.0037975311279296875,0.003898480674251914,0.007414937950670719,-0.037549275904893875,-0.02596205659210682,0.025032825767993927,-0.006096394266933203,-0.02937903255224228,0.06982298940420151,0.014224834740161896,0.07300128787755966,-0.05635268986225128,0.02802295796573162,-0.0319979302585125,0.02283322438597679,0.06894675642251968,-0.00012510549277067184,0.05932770296931267,0.022472118958830833,-0.04207926616072655,0.045473650097846985,0.02474374882876873,0.03292739391326904,0.026666371151804924,0.03923342376947403,-0.05141483247280121,0.0759628638625145,-0.029288912191987038,0.044831693172454834,-0.009721972979605198,-0.02614549919962883,-0.002849155105650425,-0.002422909950837493,0.07356558740139008,0.021818436682224274,0.05829398334026337,0.004795524291694164,-0.0024110060185194016,-0.04671086370944977,0.06233140453696251,-0.004102384205907583,0.06873064488172531,-0.019380254670977592,0.0648709163069725,0.0024927814956754446,0.07553708553314209,0.0791267529129982,0.03877976909279823,-0.05700742080807686,-0.04880811274051666,-0.012802326120436192,0.042459480464458466]},"cellActivationBias":{"rows":30,"columns":1,"weights":[-0.034693945199251175,-0.05978342145681381,-0.6754592061042786,0.5983939170837402,0.03982619196176529,-0.014489708468317986,-0.02192557416856289,0.06372302770614624,0.4080498516559601,-0.024312108755111694,0.8634254336357117,-0.03557621315121651,-0.36503854393959045,-0.34526750445365906,0.023951184004545212,0.02699742652475834,0.09124424308538437,-0.8626220226287842,-0.008122360333800316,-0.0002968889893963933,0.685766875743866,0.06247314065694809,-0.15976954996585846,0.17396454513072968,-0.4983198344707489,-0.7463719844818115,-0.5627872943878174,0.011646377854049206,-0.001991662895306945,-0.08796461671590805]}}],"outputConnector":{"rows":1,"columns":30,"weights":[0.014255385845899582,-0.18449994921684265,0.272481232881546,-0.2581043839454651,-0.07498542964458466,0.13187775015830994,0.31743380427360535,-0.04672152176499367,-0.2223764955997467,-0.038922958076000214,-0.5398241281509399,0.0786392092704773,0.1996479332447052,0.21805155277252197,0.05197536200284958,0.004090943839401007,1.1956958770751953,0.5672087073326111,0.10170944780111313,-0.00010468008986208588,-0.27561625838279724,0.15772131085395813,0.12712500989437103,-0.10102643072605133,0.23379121720790863,0.32223597168922424,0.2533201277256012,-0.016696380451321602,-0.1760905385017395,-0.20174573361873627]},"output":{"rows":1,"columns":1,"weights":[0.13989830017089844]},"inputLookup":null,"inputLookupLength":0,"outputLookup":null,"outputLookupLength":0}