{"type":"LSTMTimeStep","options":{"inputSize":1,"inputRange":0,"hiddenLayers":[30],"outputSize":1,"decayRate":0.999,"smoothEps":1e-8,"regc":0.000001,"clipval":5,"maxPredictionLength":100,"dataFormatter":{"indexTable":{},"characterTable":{},"characters":[],"specialIndexes":[]},"learningRate":0.1},"hiddenLayers":[{"inputMatrix":{"rows":30,"columns":1,"weights":[0.4825003147125244,-0.3018062114715576,-0.719378650188446,-1.0179800987243652,-0.7795261144638062,-0.7578893899917603,-0.17906688153743744,-0.6093728542327881,0.9981622099876404,-0.5932121276855469,-0.48861974477767944,-0.5875120162963867,-1.2062567472457886,-0.3037220537662506,-0.8003180623054504,-0.2577393352985382,-0.25897571444511414,0.19029763340950012,1.0129923820495605,-0.710617184638977,-0.63707435131073,-0.3669789433479309,0.49077630043029785,-0.2957223653793335,-0.4729565382003784,-0.3210901916027069,1.0029240846633911,-0.22915469110012054,-0.21735452115535736,-1.0638060569763184]},"inputHidden":{"rows":30,"columns":30,"weights":[-0.013960556127130985,0.07336197048425674,0.06756136566400528,0.053154394030570984,-0.031197581440210342,-0.0423743799328804,-0.0656176432967186,0.07010939717292786,0.06834250688552856,-0.022749653086066246,-0.0202102642506361,0.07549809664487839,-0.07862059772014618,-0.05447405204176903,0.006027848459780216,0.070441335439682,-0.014213175512850285,0.027283988893032074,-0.008506770245730877,-0.07287415862083435,0.0405549481511116,0.026240015402436256,-0.011837431229650974,-0.0170198492705822,-0.030921995639801025,0.03121926821768284,-0.07888765633106232,0.032079942524433136,-0.024555563926696777,-0.06808099150657654,-0.04147679731249809,-0.00441337376832962,-0.045338764786720276,-0.023314449936151505,0.02345566637814045,-0.05158787593245506,0.02231781743466854,-0.003657759167253971,0.04618256166577339,-0.0678253173828125,-0.03001183271408081,0.02186703123152256,-0.015311632305383682,0.008878488093614578,-0.03795131668448448,0.0691341757774353,-0.021426759660243988,-0.02695099636912346,0.009939413517713547,0.052540574222803116,-0.06361538916826248,-0.009426945820450783,-0.0749044418334961,0.016067922115325928,0.054911546409130096,-0.06138830631971359,0.05517223849892616,0.030848367139697075,0.055915772914886475,-0.02010934054851532,-0.040553681552410126,0.029779983684420586,0.006122001446783543,0.044643353670835495,0.0665501281619072,0.03419291228055954,0.015426425263285637,0.03917694464325905,0.02076677978038788,-0.03825928643345833,0.06818933039903641,0.061120517551898956,0.05378059670329094,-0.010369845665991306,0.011587937362492085,0.049680013209581375,-0.016268935054540634,0.023827776312828064,-0.02666802518069744,0.022154266014695168,-0.06064003333449364,0.029076863080263138,-0.024715285748243332,-0.0031639570370316505,0.045066460967063904,-0.039469312876462936,0.07085975259542465,-0.06888323277235031,0.04569701477885246,-0.03653249889612198,0.028363412246108055,-0.03595106303691864,-0.04496438428759575,0.005986685864627361,-0.0113099105656147,-0.025625599548220634,0.05774257332086563,0.014932414516806602,-0.048792168498039246,0.052040744572877884,0.06749038398265839,0.04823187366127968,0.056754935532808304,-0.0027172418776899576,-0.054122038185596466,0.03852708265185356,0.00980291422456503,-0.03347752243280411,0.005738308187574148,0.06500987708568573,-0.07768391817808151,-0.027732808142900467,0.011706392280757427,0.00621790811419487,0.07674584537744522,-0.019696421921253204,-0.041837044060230255,-0.04300154000520706,-0.041447896510362625,0.058466050773859024,-0.034687429666519165,0.0270503181964159,0.06325674057006836,-0.0021379312966018915,0.020633069798350334,0.036477893590927124,-0.049489233642816544,-0.052070457488298416,-0.02135009877383709,-0.06125801429152489,-0.07756120711565018,0.03979073464870453,0.04651836305856705,-0.010858158580958843,-0.06431116163730621,0.011538458056747913,-0.062461864203214645,0.05915835127234459,-0.01237157266587019,0.041232168674468994,-0.05978415161371231,-0.07177846133708954,0.031732894480228424,0.07188594341278076,0.0553806833922863,0.047084908932447433,0.06282059848308563,0.013577661477029324,-0.05522025749087334,0.01607029139995575,0.00815543532371521,-0.005274354014545679,-0.0565604642033577,-0.07317360490560532,-0.04158051684498787,-0.053545381873846054,0.05336843430995941,-0.014499759301543236,-0.0035413741134107113,0.016898030415177345,-0.005853034555912018,0.05970121547579765,0.05384039878845215,0.056287843734025955,-0.07527191936969757,0.01586225815117359,-0.045312248170375824,0.004173257853835821,0.04328368976712227,0.0466298833489418,-0.005252074915915728,0.04441530257463455,-0.07739053666591644,-0.016990629956126213,-0.0695086345076561,0.035541336983442307,0.029150621965527534,-0.04302973300218582,0.009071603417396545,-0.02301478013396263,0.06015821918845177,-0.07690553367137909,0.03914716839790344,0.07449309527873993,0.018736310303211212,0.07538780570030212,-0.07653013616800308,0.0016212273621931672,0.023721443489193916,0.027133353054523468,0.0022731181234121323,-0.01370814349502325,-0.003557422198355198,-0.024591147899627686,-0.047902513295412064,0.03932385519146919,0.054033804684877396,0.07146774232387543,-0.07630760967731476,0.06766799837350845,-0.003658968023955822,0.03310903534293175,-0.042909614741802216,0.017059441655874252,-0.011869402602314949,0.0051325405947864056,-0.015862969681620598,-0.023763464763760567,0.012782778590917587,0.06059597432613373,-0.03485690429806709,-0.06611614674329758,0.013954897411167622,-0.0021398041862994432,0.02138986811041832,-0.02705177292227745,0.05376329645514488,0.014919502660632133,-0.0721326470375061,-0.013867393136024475,-0.00540205417200923,0.013820149935781956,-0.022778067737817764,-0.06636770069599152,0.0759705975651741,-0.019314954057335854,0.039584022015333176,-0.0776144415140152,0.020692823454737663,0.0689336434006691,-0.05296609550714493,-0.07411206513643265,-0.03589920699596405,0.03490455448627472,0.04500417038798332,0.020138008520007133,-0.024952365085482597,0.061610203236341476,-0.05683976411819458,-0.06689590215682983,0.031225569546222687,0.05068599060177803,0.035593122243881226,-0.047948531806468964,-0.038248080760240555,0.07508621364831924,0.029115621000528336,-0.07610632479190826,0.07786703109741211,0.039707161486148834,0.010745836421847343,0.07462792098522186,-0.011620311997830868,0.051136162132024765,-0.00019081243954133242,0.04326997697353363,0.021093156188726425,0.02385699190199375,-0.05797567218542099,-0.04251355305314064,0.0724763348698616,-0.04945852980017662,-0.054253313690423965,0.06120265647768974,-0.05562235414981842,0.003954601939767599,0.03473270311951637,-0.045570287853479385,-0.016460075974464417,-0.06913462281227112,-0.009964576922357082,-0.04200568050146103,-0.057315289974212646,0.037742432206869125,0.03609996661543846,-0.06406157463788986,0.05483054369688034,-0.06718551367521286,-0.0022578921634703875,-0.042279936373233795,-0.032194800674915314,-0.02660488151013851,-0.03338009864091873,-0.07799328863620758,0.06134461238980293,-0.0787276029586792,-0.009989464655518532,0.049760039895772934,-0.05336972698569298,-0.0006317668594419956,-0.06016679108142853,0.0571243055164814,0.04828564450144768,0.05254949629306793,0.022897949442267418,0.014999340288341045,-0.032967500388622284,0.07049423456192017,-0.07794981449842453,0.039007965475320816,0.044110335409641266,-0.006884209346026182,-0.0190657339990139,0.0020522871054708958,-0.03826957941055298,0.01736166514456272,-0.033806901425123215,0.02416267618536949,0.03021935187280178,0.061304908245801926,-0.03644641116261482,-0.02360467240214348,-0.0689246878027916,0.037670034915208817,-0.03319438919425011,-0.07314898818731308,0.06551194190979004,-0.0540773831307888,0.0163104310631752,-0.007024805527180433,-0.01290265191346407,0.050892047584056854,0.016693325713276863,-0.07762359082698822,0.06141916289925575,-0.0561152920126915,-0.03841778263449669,0.07248468697071075,0.05773111805319786,-0.04896153137087822,-0.017048347741365433,0.05331824719905853,0.009601772762835026,-0.03860051557421684,-0.03234041854739189,0.004907017108052969,-0.017435822635889053,-0.03959399834275246,-0.06565728038549423,0.052403490990400314,-0.0761643573641777,-0.032647937536239624,-0.07467907667160034,0.0718306377530098,-0.07086893916130066,0.005290887784212828,-0.059741925448179245,-0.04304008185863495,0.029774943366646767,-0.028368355706334114,-0.061651598662137985,-0.06772597134113312,0.04237116500735283,-0.07906542718410492,0.060400355607271194,-0.06684974581003189,0.01847228594124317,-0.048099301755428314,-0.06394584476947784,0.05083343759179115,-0.06248778477311134,0.072735495865345,-0.06870652735233307,-0.07331662625074387,0.047909434884786606,0.018330320715904236,-0.04795831814408302,0.05213216319680214,0.004930798429995775,-0.07340727001428604,0.036155108362436295,-0.01200453657656908,0.06931642442941666,0.06106219440698624,0.058519456535577774,0.028459608554840088,0.07510416209697723,-0.07527967542409897,0.026494702324271202,0.02492697350680828,-0.04961269721388817,-0.050052277743816376,0.021749990060925484,0.07867807149887085,-0.04958387091755867,-0.029665669426321983,-0.01934088207781315,0.051702119410037994,-0.02939794771373272,-0.05753830447793007,0.06383494287729263,0.05233263596892357,0.004871661774814129,0.052377600222826004,0.05561324581503868,-0.0175566915422678,-0.048315368592739105,-0.05902298912405968,0.04831474646925926,-0.03680736571550369,-0.030592357739806175,0.06168599799275398,0.023324236273765564,0.015601458959281445,-0.07201460748910904,0.05513012781739235,-0.042165979743003845,-0.017379119992256165,0.05518475919961929,0.015673592686653137,0.06388361752033234,-0.022266637533903122,-0.05071868374943733,0.059487417340278625,0.05509442836046219,0.0398617684841156,0.04295000806450844,0.06443709880113602,-0.007322280667722225,-0.05391586199402809,0.01722176931798458,0.015348284505307674,-0.07884476333856583,0.00039166383794508874,-0.06769552826881409,0.04300123080611229,-0.0011575124226510525,0.014477360993623734,-0.009829469956457615,0.06599580496549606,-0.031040435656905174,-0.030834456905722618,0.059386249631643295,-0.011177495121955872,-0.07501130551099777,-0.06502699106931686,0.04516701400279999,0.021276645362377167,-0.0004951716982759535,0.0017228859942406416,-0.06171983852982521,-0.005016222596168518,-0.03695206716656685,-0.0600544698536396,0.0029991522897034883,-0.053712744265794754,0.06507917493581772,-0.0068304287269711494,0.009349656291306019,-0.05628403276205063,-0.0002151818189304322,-0.067483089864254,-0.026123350486159325,0.025186406448483467,-0.048576004803180695,0.026524702087044716,0.04334382712841034,0.0778462290763855,-0.006249089725315571,0.03457975760102272,0.07364899665117264,-0.06196882575750351,0.03500492498278618,0.035527970641851425,0.011797198094427586,-0.016999008134007454,-0.05816549435257912,-0.019374391064047813,0.06644776463508606,-0.04433539882302284,-0.07887911796569824,-0.052539657801389694,-0.04014647752046585,0.027427449822425842,-0.04251481220126152,-0.055496759712696075,0.043808430433273315,-0.055380646139383316,-0.014454737305641174,0.049025438725948334,-0.004793218802660704,-0.039055436849594116,0.053472504019737244,0.06934846937656403,-0.0063701956532895565,0.00037699996028095484,-0.045879341661930084,0.025154346600174904,-0.017319487407803535,-0.035341959446668625,-0.07900011539459229,-0.027102403342723846,-0.06438225507736206,-0.05630994215607643,0.07334566861391068,-0.016804508864879608,-0.03197463974356651,-0.01678723655641079,0.037381161004304886,0.04723875969648361,-0.029189717024564743,0.04872830584645271,-0.048297856003046036,0.006862742360681295,-0.021759193390607834,-0.025434602051973343,-0.04448442906141281,0.00737763661891222,-0.0034220153465867043,0.004462681710720062,-0.06433518975973129,-0.03122333250939846,0.008687883615493774,0.03170069307088852,0.06474839150905609,0.01398104801774025,0.02775297872722149,0.057951848953962326,0.0068688178434967995,-0.00741526810452342,0.011395798996090889,0.002284273039549589,0.05871299281716347,-0.06774218380451202,-0.02847413904964924,-0.01110907457768917,-0.012970956973731518,-0.061925649642944336,-0.07291208207607269,-0.07485175132751465,-0.07710974663496017,0.003168268594890833,0.06302916258573532,0.06661468744277954,0.07807856798171997,0.04509720578789711,0.04589911550283432,0.01815751940011978,0.017490075901150703,0.03077053278684616,0.02714710310101509,-0.0098210284486413,-0.04352132976055145,0.07258711010217667,0.029126746580004692,0.01893068663775921,-0.05514040216803551,-0.029978066682815552,-0.06587597727775574,0.06063859537243843,-0.05663204938173294,0.05755079910159111,0.046952832490205765,-0.028268342837691307,-0.05751945450901985,0.06210717931389809,-0.00026414773310534656,0.07097861915826797,-0.025537781417369843,0.04351390525698662,-0.031512271612882614,-0.023428667336702347,-0.06519301980733871,-0.05255502462387085,-0.07838866859674454,-0.07031721621751785,0.03616400808095932,0.027150548994541168,-0.03545752167701721,-0.04931771382689476,-0.037069790065288544,0.0780341848731041,0.014705480076372623,0.0021160370670259,-0.07748901844024658,-0.027195105329155922,-0.022584060207009315,-0.05228964239358902,0.03730849176645279,-0.013341161422431469,-0.07881085574626923,0.06092745065689087,0.06802444159984589,-0.06592757254838943,0.007680198643356562,0.034673117101192474,-0.06235900893807411,-0.04713664576411247,-0.03438994288444519,0.023351965472102165,0.04053506627678871,-0.044568922370672226,0.04306047037243843,0.045427050441503525,0.011665401048958302,0.037581514567136765,0.04166337102651596,0.03440268710255623,-0.03898704797029495,-0.005082587245851755,-0.07425864040851593,0.0298602432012558,0.07802276313304901,0.023293163627386093,0.03540271148085594,0.07654182612895966,0.05266638472676277,0.054086536169052124,0.06648749858140945,-0.0567532554268837,-0.06400088965892792,0.018819618970155716,-0.032793521881103516,-0.026758315041661263,0.029030488803982735,-0.011397133581340313,-0.07607543468475342,-0.030333038419485092,0.03315578028559685,0.004624864086508751,-0.02415844425559044,0.0459883026778698,-0.06500071287155151,0.026351062580943108,0.050103943794965744,0.05597890540957451,0.02505590207874775,-0.025261802598834038,0.03890448063611984,-0.03618606552481651,-0.031052598729729652,0.03354872763156891,0.05249747261404991,0.011216307990252972,-0.0029042197857052088,0.004077819176018238,-0.03415945544838905,0.04526669532060623,-0.010784982703626156,0.06948461383581161,-0.028360895812511444,0.03006342053413391,-0.07124342769384384,0.0611446276307106,0.01636524870991707,0.04369865730404854,0.04823344945907593,-0.0732012614607811,0.059187717735767365,0.07853686064481735,0.06803565472364426,0.04970217123627663,0.02746431529521942,-0.04967731609940529,0.023876167833805084,-0.024675099179148674,0.03913337364792824,0.04497670382261276,0.041156984865665436,0.041005734354257584,-0.019154682755470276,0.006256200838834047,0.05172988027334213,0.02037305384874344,0.04437824711203575,-0.05634649097919464,-0.009335339069366455,-0.00791141390800476,-0.05263544246554375,-0.046038176864385605,-0.07505136728286743,0.06624381244182587,0.04645008593797684,-0.06523413956165314,0.07222010940313339,-0.06810516119003296,0.03820125758647919,0.007164730224758387,0.037186380475759506,0.036543890833854675,0.05945712700486183,0.04036322236061096,-0.04862432926893234,0.03107539378106594,-0.002264581620693207,0.050092604011297226,-0.022473474964499474,-0.030467074364423752,-0.05699067935347557,0.008126837201416492,0.04558446630835533,-0.005345197860151529,0.0157733466476202,0.03367292881011963,0.004648785572499037,0.025179361924529076,0.07174935191869736,0.054625123739242554,0.031489238142967224,-0.026697175577282906,0.024237575009465218,-0.0009410508209839463,-0.028513813391327858,0.017955858260393143,-0.019867463037371635,0.010522961616516113,0.05710417032241821,-0.017990421503782272,0.0674198567867279,-0.01874491572380066,-0.0756642147898674,-0.06283921748399734,-0.07783100008964539,-0.02893744967877865,-0.05021127313375473,-0.07300472259521484,-0.0683923065662384,0.06934201717376709,0.0406925342977047,0.06604201346635818,0.06284597516059875,0.05783727392554283,-0.0585157573223114,-0.03841158002614975,-0.034665197134017944,-0.013028309680521488,0.0363788865506649,-0.056369099766016006,-0.04053409397602081,-0.057590097188949585,0.07620976120233536,-0.009872078895568848,-0.07599996775388718,0.030765686184167862,-0.008531304076313972,0.07438590377569199,0.03216062858700752,0.07790796458721161,-0.013033522292971611,0.04973861202597618,-0.02636227011680603,-0.04167937859892845,0.051782701164484024,0.07091841846704483,-0.03451848030090332,-0.06863744556903839,-0.07355917245149612,-0.020509958267211914,0.04347875714302063,-0.009652676992118359,-0.04906103014945984,0.00690205954015255,-0.053998325020074844,0.06199156120419502,0.0024413701612502337,0.02999168075621128,0.02105923369526863,-0.05643226578831673,-0.03872283920645714,-0.05694121867418289,-0.05988143011927605,-0.031500767916440964,-0.07829315215349197,0.020968832075595856,-0.04047277569770813,0.014491797424852848,-0.0021536739077419043,-0.04497605562210083,0.06375918537378311,0.05398416519165039,-0.05366762727499008,-0.07625555992126465,0.023999428376555443,0.030721569433808327,-0.047957006841897964,0.032967474311590195,-0.07127551734447479,0.053427498787641525,0.07775525748729706,0.06589226424694061,0.02066107839345932,0.06261935830116272,0.06280039995908737,-0.021378910169005394,-0.002898506121709943,-0.009279000572860241,-0.04029768705368042,0.03963693976402283,0.07907620072364807,0.01898138038814068,-0.03512409329414368,-0.028673598542809486,0.05868426710367203,-0.07034070789813995,-0.05116060748696327,-0.06291594356298447,-0.06132178381085396,-0.036675211042165756,-0.06064905971288681,-0.03215043619275093,0.03772393614053726,-0.0017819198546931148,-0.01654459536075592,0.04763517901301384,0.04974193125963211,-0.025455033406615257,-0.010307559743523598,-0.0691579133272171,0.026142558082938194,0.04271014779806137,-0.06860523670911789,-0.05797264352440834,0.0034087689127773046,-0.07220855355262756,-0.007543387822806835,-0.015044314786791801,0.012951727956533432,0.0667886734008789,0.007519163191318512,-0.027613913640379906,0.05655061826109886,0.0528704933822155,0.0027069796342402697,-0.03165312483906746,0.004394914023578167,0.02592824026942253,-0.07201580703258514,0.04332134127616882,0.056356512010097504,0.012018793262541294,0.06764286756515503,-0.05397863686084747,-0.030862540006637573,0.07225383818149567,0.021157281473279,0.03677627071738243,0.047316841781139374,0.03942721337080002,0.004110787995159626,0.032447729259729385,-0.019068393856287003,-0.06574035435914993,0.06527649611234665,0.02327936515212059,-0.044758912175893784,-0.012102648615837097,0.07226723432540894,0.05125214532017708,-0.06911174207925797,0.044894419610500336,0.06683025509119034,0.07760162651538849,0.002769121900200844,-0.05399636924266815,-0.0025372959207743406,0.02584320306777954,-0.06324591487646103,-0.027413763105869293,0.04369894042611122,0.010267790406942368,0.028734726831316948,0.009922659024596214,0.0015520926099270582,0.022994766011834145,-0.018374787643551826,0.038501933217048645,0.07456820458173752,-0.016821227967739105,-0.0693323165178299,0.012531718239188194,0.07333238422870636,0.015205773524940014,-0.05723516643047333,-0.06931192427873611,-0.03801028057932854,-0.019030898809432983,-0.06415639072656631,-0.017041927203536034,-0.005154827143996954,0.07331591099500656,0.02623678743839264,-0.04544273391366005,0.021114235743880272,0.07065612077713013,0.03411531075835228,0.054900795221328735,0.03732243552803993,0.05987349525094032,0.032312389463186264,0.007787726819515228,0.00887082889676094,-0.04362400621175766,0.013066466897726059,-0.06137876957654953,-0.014842540957033634,-0.013136385940015316,-0.06025424599647522,0.045219577848911285,0.06877180188894272,-0.046236664056777954]},"inputBias":{"rows":30,"columns":1,"weights":[-1.1284053325653076,-0.9976413249969482,-0.9709854125976562,-0.7976093888282776,-0.9774002432823181,-1.0049179792404175,-0.8548303842544556,-1.105595350265503,-0.5491696000099182,-1.0374679565429688,-1.1336610317230225,-0.9982283115386963,-0.5202375054359436,-0.9489855170249939,-0.966232180595398,-1.1100144386291504,-0.8601666688919067,-1.1910040378570557,-0.574440598487854,-1.0482138395309448,-1.0267000198364258,-1.0477038621902466,-1.1769944429397583,-0.6526879072189331,-0.9978892803192139,-0.8822924494743347,-0.7788395881652832,-1.15334951877594,-1.1614364385604858,-0.7562234997749329]},"forgetMatrix":{"rows":30,"columns":1,"weights":[0.048820942640304565,-0.006179020274430513,-0.04718133434653282,-0.03809993341565132,0.04352159798145294,-0.003392638172954321,0.004977410659193993,-0.06525029987096786,-0.0026960803661495447,-0.035259343683719635,0.06267348676919937,0.060461945831775665,-0.0476364940404892,0.007165574003010988,0.013381203636527061,-0.07891466468572617,-0.012107780203223228,0.013868250884115696,0.010251279920339584,0.05078020319342613,-0.060615893453359604,0.058721333742141724,-0.06390607357025146,-0.06689975410699844,0.05287126824259758,-0.04421447962522507,0.01108701154589653,0.002735220594331622,0.028857262805104256,0.07839561253786087]},"forgetHidden":{"rows":30,"columns":30,"weights":[-0.04515911266207695,0.018397726118564606,-0.055909644812345505,0.055045079439878464,-0.03411491587758064,0.02096324972808361,0.02878907322883606,0.05002106353640556,0.009806821122765541,-0.0027602962218225002,0.02709350548684597,-0.027526475489139557,-0.04335362836718559,-0.003942728042602539,-0.03441673144698143,0.06982283294200897,-0.013238873332738876,-0.055197931826114655,-0.060659002512693405,-0.0452975369989872,-0.02906392142176628,-0.004721860401332378,0.05527191236615181,0.05285363644361496,0.009150918573141098,-0.035535480827093124,0.027281207963824272,0.005092655774205923,-0.03856150433421135,0.03646368533372879,0.021595757454633713,-0.03140580654144287,0.00864360574632883,0.021570350974798203,0.041519805788993835,-0.016874253749847412,0.014079933054745197,-0.022629443556070328,0.07848000526428223,0.037540871649980545,-0.01741798035800457,0.04758162423968315,0.028213396668434143,-0.008143337443470955,0.062392979860305786,-0.024458883330225945,-0.07251336425542831,-0.013979865238070488,0.035618964582681656,0.042513079941272736,-0.008064639754593372,-0.053447868674993515,0.042704589664936066,-0.04511874541640282,-0.07574731111526489,0.012487062253057957,-0.05910671874880791,-0.01810145378112793,0.05758907273411751,0.033123042434453964,-0.03725013509392738,0.027500227093696594,-0.065472811460495,-0.01394185982644558,-0.042760852724313736,0.07699764519929886,-0.043661605566740036,-0.06712277978658676,-0.05823459476232529,-0.025786833837628365,0.012139763683080673,0.02195008657872677,-0.01863226108253002,0.0316583551466465,0.04095372557640076,-0.005502153187990189,0.074665367603302,0.04832877591252327,-0.035764530301094055,0.02219332568347454,0.0755155086517334,-0.0425586998462677,-0.058497946709394455,-0.022136077284812927,0.06522072106599808,0.013714349828660488,-0.05848115310072899,-0.03314117342233658,0.04877367243170738,0.04455491527915001,-0.009141535498201847,0.03945785015821457,-0.01002365630120039,-0.042264074087142944,0.012856594286859035,-0.0034018727019429207,0.029250092804431915,-0.0017989171901717782,-0.0336243100464344,0.038315072655677795,-0.0771620124578476,-0.02772320993244648,-0.06823714077472687,0.07748108357191086,-0.06668940931558609,0.03886961564421654,0.05525967851281166,0.035313934087753296,0.02489781379699707,-0.04508104920387268,-0.025329481810331345,-0.06230631098151207,-0.0005350520950742066,0.020073844119906425,0.005467007867991924,-0.029476862400770187,0.055566199123859406,-0.04898538067936897,0.060103170573711395,-0.07182276993989944,-0.0007585466955788434,0.06160954385995865,0.03011370077729225,-0.028192369267344475,0.02629431150853634,-0.050664033740758896,0.005193471908569336,-0.07552976161241531,0.0614037960767746,0.01925944909453392,-0.035472478717565536,0.000724332348909229,0.03478476405143738,0.04951899126172066,0.045727673918008804,-0.019623761996626854,0.05993851274251938,0.019364461302757263,-0.06060122698545456,0.03323600813746452,0.058701541274785995,-0.0022622528485953808,0.025322040542960167,0.02016405574977398,-0.07303221523761749,0.07682071626186371,0.0761818215250969,-0.07565409690141678,-0.057619910687208176,0.00548912025988102,0.006041723303496838,0.0633586049079895,0.050814189016819,-0.043985869735479355,0.0010947437258437276,0.0338410921394825,0.03236336633563042,0.017808914184570312,0.03918478265404701,0.016200650483369827,-0.024144213646650314,-0.06546203792095184,0.04182087257504463,-0.004071465693414211,0.027803566306829453,-0.06784234941005707,0.008931129239499569,0.0723462626338005,0.01859188638627529,0.04813707247376442,-0.07428533583879471,-0.009888270869851112,0.0006040342268534005,0.06796207278966904,-0.07829830050468445,-0.0714714378118515,0.040419623255729675,0.043487101793289185,0.05456306412816048,-0.061323221772909164,0.04749302566051483,0.0035212188959121704,-0.07908859103918076,-0.014890453778207302,0.07821599394083023,0.060502536594867706,-0.042356327176094055,-0.07629380375146866,-0.04336145520210266,-0.05057689920067787,0.043343570083379745,-0.04497186094522476,-0.05225176736712456,-0.07249251008033752,-0.05736953392624855,0.050820183008909225,-0.028722718358039856,0.008560305461287498,-0.05027206987142563,-0.0068236361257731915,-0.027695627883076668,0.053750671446323395,-0.0497165247797966,-0.032600730657577515,-0.06686510890722275,-0.07549383491277695,-0.015694448724389076,0.06778290122747421,-0.029226096346974373,-0.07231595367193222,-0.017018312588334084,0.07607101649045944,-0.06005290150642395,-0.05354319512844086,0.03703978285193443,-0.03256101533770561,-0.0032595915254205465,0.0517655573785305,0.02199181169271469,-0.07019297033548355,-0.07784219831228256,-0.01436932384967804,-0.0428633913397789,-0.010609517805278301,-0.023171430453658104,-0.016333935782313347,-0.02349524013698101,0.07843389362096786,0.06787168234586716,0.0415506437420845,-0.022785373032093048,-0.017628179863095284,-0.057742614299058914,-0.06332121789455414,-0.014360454864799976,-0.010757016949355602,-0.04543297365307808,0.05175689235329628,0.05391324311494827,0.030667871236801147,0.01572008989751339,-0.044129379093647,-0.05337027832865715,0.0768037885427475,-0.023148516193032265,0.05343823879957199,0.05935885012149811,0.008406543172895908,-0.07782027125358582,0.046727631241083145,0.06931127607822418,0.02590685710310936,0.007168712094426155,0.06629280745983124,-0.02504853717982769,-0.018618268892169,0.003800898790359497,0.03885163366794586,0.04175032675266266,0.024376707151532173,-0.01632368005812168,-0.07466395944356918,0.012976245954632759,0.029388604685664177,0.007301892153918743,-0.031441546976566315,-0.019416119903326035,0.05343620851635933,-0.045801982283592224,0.0705367848277092,-0.050931401550769806,-0.010518745519220829,-0.01674739457666874,0.04914388805627823,0.03500726446509361,0.017188966274261475,-0.00377533957362175,0.07131785154342651,-0.005316650494933128,0.062484417110681534,-0.02459014765918255,0.022228533402085304,0.017215963453054428,-0.004887389484792948,0.0354037880897522,0.03820282593369484,0.06630391627550125,0.07760993391275406,0.014283910393714905,0.007565377280116081,-0.06010448560118675,0.025565534830093384,-0.07277778536081314,-0.0007150635356083512,0.006512070074677467,-0.0775110125541687,0.028221888467669487,0.05644700303673744,0.027395790442824364,0.03047991916537285,0.006928415037691593,0.046884674578905106,0.07107292860746384,0.07380613684654236,-0.04734066501259804,-0.05280272290110588,0.0005305660306476057,0.03494520112872124,0.06712932139635086,-0.013023086823523045,-0.0689956471323967,0.019744277000427246,0.04938245192170143,-0.0074300882406532764,-0.014966785907745361,-0.03501278534531593,-0.07620716094970703,-0.07398584485054016,0.0699491798877716,0.06770332157611847,-0.02141561172902584,0.07126563787460327,0.03705951198935509,-0.02440156228840351,-0.05438271164894104,-0.03921721503138542,0.040877021849155426,0.06622157990932465,0.050055477768182755,-0.023342138156294823,-0.0006122655468061566,0.021789660677313805,0.06909782439470291,-0.02989484742283821,-0.06142657250165939,-0.007131514139473438,0.014446076937019825,-0.040928758680820465,0.036994569003582,0.004484855569899082,-0.028716927394270897,-0.06392963230609894,0.012937563471496105,-0.02568766102194786,0.03326069563627243,-0.014738311059772968,0.037191469222307205,-0.037818606942892075,0.013251199387013912,-0.044407494366168976,-0.07221829891204834,0.04676689952611923,0.013369911350309849,-0.021220460534095764,0.05257219821214676,0.037794969975948334,-0.01109902560710907,0.0033406896982342005,0.023571204394102097,0.012752318754792213,0.008857401087880135,-0.0351659394800663,0.01957552321255207,0.01231116522103548,0.03591511771082878,0.0761580541729927,-0.06604031473398209,0.0700351893901825,0.006704635918140411,0.023004114627838135,-0.03298138454556465,-0.052173737436532974,-0.07696752995252609,-0.019727163016796112,-0.06675352901220322,0.014687927439808846,-0.0312136672437191,-0.0653313621878624,0.07219435274600983,-0.002372915390878916,0.056338004767894745,-0.022413868457078934,0.07610923796892166,0.061795637011528015,0.034397631883621216,0.05175822973251343,0.07655275613069534,-0.020178362727165222,0.04534713551402092,0.06741949170827866,-0.05987109616398811,0.012310042046010494,0.0734725371003151,-0.011207344010472298,-0.027729736641049385,-0.037862859666347504,0.06830911338329315,-0.01840771734714508,0.05032580718398094,0.06052986904978752,-0.040823794901371,0.027479764074087143,-0.06941753625869751,-0.03606666252017021,-0.019681503996253014,0.06994166225194931,0.04012349992990494,0.06855437159538269,0.04803679138422012,0.06881770491600037,-0.07121410965919495,0.0488441176712513,0.04484572634100914,0.0323360376060009,-0.03592533990740776,0.021293146535754204,-0.03840681165456772,-0.06783439218997955,0.04440441355109215,-0.024298880249261856,-0.07799763232469559,0.07387663424015045,-0.029120147228240967,0.031767480075359344,0.053902026265859604,0.008089377544820309,0.023262139409780502,-0.03374072164297104,0.06355178356170654,-0.0566578209400177,-0.017254719510674477,0.07255291193723679,0.0013868837850168347,-0.032816994935274124,0.07744342088699341,-0.03992408886551857,-0.05283993482589722,-0.02636474370956421,0.016819359734654427,0.004757401999086142,-0.032454460859298706,0.05018133670091629,-0.0651787593960762,0.030497567728161812,-0.0277684535831213,-0.07531546801328659,0.054208043962717056,-0.037008900195360184,0.0517459399998188,-0.023034105077385902,0.04907840117812157,0.06372974812984467,0.03744957596063614,-0.003924213349819183,-0.06861339509487152,0.05298938602209091,0.036625124514102936,-0.053507741540670395,-0.03849399462342262,-0.07413675636053085,-0.0568898506462574,0.07715704292058945,0.03862285986542702,-0.0593976154923439,-0.009853381663560867,-0.07380163669586182,0.048098374158144,0.07495003938674927,0.03632591664791107,0.02050023525953293,-0.020650282502174377,-0.036230508238077164,-0.02563638426363468,-0.018728846684098244,-0.0602649450302124,-0.06930574774742126,0.04235256835818291,0.0006137588061392307,0.032845206558704376,0.027583926916122437,-0.019731203094124794,-0.05436483770608902,0.032240405678749084,0.03863567113876343,-0.050005391240119934,-0.036852721124887466,-0.07382483035326004,-0.04566480591893196,-0.05714687332510948,0.03155166283249855,-0.028652280569076538,0.03707880154252052,-0.06908182054758072,0.0036824808921664953,-0.03274751827120781,-0.03223496302962303,0.07705609500408173,0.07722177356481552,0.06049802526831627,-0.05149467661976814,-0.029503313824534416,-0.0692601427435875,-0.0314636267721653,0.01616971381008625,-0.02267148345708847,-0.05373378098011017,-0.0035465986002236605,-0.009074152447283268,-0.06642530858516693,0.051969014108181,-0.02505642920732498,-0.056919507682323456,-0.06767351925373077,-0.06053769588470459,-0.008784109726548195,-0.03975716233253479,-0.06425133347511292,-0.044101208448410034,-0.07915163040161133,0.016117718070745468,0.04146755114197731,-0.025618726387619972,-0.06974700838327408,0.059303540736436844,-0.053275398910045624,0.053721338510513306,0.06537261605262756,0.06536421924829483,-0.0722622200846672,0.03268171846866608,-0.0602828674018383,-0.00434739887714386,0.07238979637622833,0.044517721980810165,-0.015209048986434937,0.02611873857676983,-0.06318676471710205,-0.04138698801398277,-0.024425014853477478,0.0614473819732666,-0.008111280389130116,0.0032698458526283503,-0.048580143600702286,0.01098245196044445,0.05205022171139717,-0.03754125162959099,0.0427965484559536,0.04879773408174515,0.007272973190993071,0.030789822340011597,-0.012052326463162899,-0.011855767108500004,-0.07384047657251358,0.0590970553457737,-0.0129454480484128,0.02316451258957386,0.040041957050561905,-0.051606617867946625,0.04520333558320999,0.01046562846750021,-0.04261421412229538,-0.05352926254272461,0.028313813731074333,0.03589044511318207,0.03185982629656792,0.008320750668644905,-0.005982282571494579,-0.02880050055682659,0.018804265186190605,-0.03084222599864006,-0.07209857553243637,-0.06253626942634583,-0.03366861864924431,0.028297588229179382,0.028776610270142555,-0.07769642770290375,-0.04442353919148445,-0.0534694530069828,0.02428171969950199,-0.04297143593430519,-0.002441245364025235,0.04264594614505768,0.027314389124512672,-0.0394279770553112,-0.0609031543135643,-0.06939829885959625,0.06295977532863617,-0.055104680359363556,0.0738348737359047,0.049439918249845505,0.07294928282499313,0.07551014423370361,0.014781305566430092,-0.02314450778067112,-0.07604604214429855,0.07800176739692688,-0.01680506393313408,0.047583308070898056,0.023459352552890778,0.054006177932024,-0.03754204884171486,0.05533289909362793,-0.06340965628623962,-0.03537575900554657,-0.04895791783928871,-0.06184994801878929,0.046954695135354996,-0.0004020637134090066,-0.013688753359019756,-0.040943171828985214,-0.017965853214263916,0.016466422006487846,0.03618039935827255,-0.033807650208473206,-0.06248096749186516,0.06417304277420044,-0.03875579684972763,0.06085092946887016,-0.03738122805953026,-0.057251039892435074,0.013838477432727814,0.020279882475733757,0.015685006976127625,-0.02494196593761444,-0.038694385439157486,0.03173911198973656,-0.06503994017839432,0.025302927941083908,-0.00587853230535984,0.07457339763641357,0.030016902834177017,-0.050812069326639175,0.05110310763120651,-0.05637361854314804,-0.0644361674785614,0.04019699990749359,0.05524766072630882,0.013398122042417526,0.025077955797314644,-0.03870392218232155,0.05187586694955826,0.02222905121743679,-0.07671161741018295,0.07768993079662323,-0.06763492524623871,-0.05766381323337555,-0.044703759253025055,-0.008862987160682678,0.019483543932437897,0.03425959125161171,0.05478275567293167,0.04663507640361786,0.07840774953365326,-0.03571249544620514,0.03215925022959709,-0.00015647006512153894,0.07527884840965271,-0.046649012714624405,-0.05688133463263512,0.02175937592983246,-0.07054613530635834,-0.04271082952618599,-0.01467397902160883,0.04700794070959091,-0.013738059438765049,-0.0472366102039814,0.07069087773561478,0.04236216843128204,-0.03860060125589371,-0.0747656598687172,0.06385038793087006,-0.014098896645009518,-0.0467669814825058,0.052440542727708817,0.01219606027007103,0.05784345045685768,-0.0459173209965229,0.04794459417462349,0.045230209827423096,-0.07759152352809906,0.05238518491387367,0.06916437298059464,0.06321116536855698,0.056971434503793716,-0.05794152989983559,0.010579725727438927,-0.021215811371803284,-0.03317156434059143,0.026291653513908386,-0.04377902299165726,-0.019447775557637215,0.03732511028647423,-0.006384170148521662,0.05215607210993767,-0.04613719508051872,0.07817104458808899,0.06288377195596695,0.0028646045830100775,0.06038493290543556,0.016895493492484093,0.046327535063028336,0.06675665825605392,-0.06761462241411209,0.05887850001454353,-0.012350915931165218,0.06995479762554169,-0.006066251080483198,-0.06688059121370316,0.06230270117521286,-0.008127116598188877,0.061854369938373566,0.054953791201114655,0.07480534166097641,-0.05814390257000923,0.047457896173000336,-0.04474015533924103,0.049575891345739365,-0.01724293641746044,-0.01140147726982832,0.07369471341371536,-0.020703259855508804,-0.07071636617183685,-0.056806862354278564,0.004022491630166769,-0.041629351675510406,0.05017818883061409,-0.024800319224596024,-0.07886361330747604,0.03987596929073334,0.0426584891974926,0.008069057948887348,0.022837737575173378,0.05542001873254776,0.026943568140268326,0.010328746400773525,0.004496275447309017,0.018309438601136208,0.046254828572273254,0.02888919785618782,0.052318133413791656,-0.051315803080797195,-0.008599566295742989,0.02091195620596409,0.00234967446886003,0.05729664862155914,-0.005502474959939718,-0.054176267236471176,-0.023400986567139626,0.045650675892829895,0.030872393399477005,-0.05583535507321358,0.06319807469844818,0.02035696431994438,0.04734661057591438,0.029322104528546333,0.038050681352615356,0.07764268666505814,0.07887864857912064,0.012386130169034004,0.05991818383336067,-0.07092063874006271,-0.016558388248085976,-0.015925787389278412,0.0764436349272728,0.026797782629728317,0.024357885122299194,0.03745970502495766,-0.016682595014572144,0.025922099128365517,0.06353240460157394,0.06469261646270752,0.04633377492427826,-0.07666197419166565,-0.05088610202074051,0.011852284893393517,0.07412616163492203,-0.006236501969397068,0.010547904297709465,0.00027715309988707304,0.023114945739507675,0.06256700307130814,0.06018832325935364,-0.05445817857980728,0.028988178819417953,-0.047641899436712265,0.02252138964831829,0.012545904144644737,-0.047346923500299454,-0.06905187666416168,-0.07615481317043304,0.03962019830942154,-0.05971983075141907,0.027223758399486542,-0.004976838827133179,0.01598871685564518,0.026502273976802826,0.02806290052831173,-0.020219316706061363,0.0003569858963601291,0.03472360968589783,-0.03047526441514492,0.07574046403169632,0.04126880690455437,-0.004725748673081398,-0.008980929851531982,0.008999132551252842,-0.03535139560699463,0.00934376660734415,-0.017545444890856743,0.03822983056306839,-0.07689975202083588,-0.05853228271007538,0.042815182358026505,0.04433489963412285,0.0771397277712822,-0.008799562230706215,-0.0018923853058367968,-0.07180967926979065,0.06869396567344666,0.03699123486876488,0.07543507218360901,-0.018521009013056755,0.012725107371807098,0.06589522957801819,-0.0754479244351387,-0.05490292236208916,-0.04541613534092903,0.05228491872549057,-0.05692288652062416,-0.03564399853348732,-0.0103169409558177,0.06624724715948105,0.0010077229235321283,0.0744236409664154,-0.008917734958231449,-0.048119768500328064,-0.02728249505162239,-0.018015144392848015,-0.06028483808040619,-0.03235612064599991,0.07883502542972565,-0.06937727332115173,-0.0177039485424757,0.017433393746614456,0.03271925449371338,-0.038872916251420975,-0.07265333831310272,-0.01981181651353836,-0.070366770029068,0.03498712182044983,0.06262169778347015,-0.02718978002667427,0.00607689656317234,0.06032286211848259,0.0317443422973156,0.023490671068429947,-0.053540945053100586,0.04797595366835594,-0.06681695580482483,0.04793846979737282,0.053217265754938126,-0.012594006024301052,0.008123505860567093,-0.04605305939912796,-0.031476669013500214,-0.0013418876333162189,-0.05691921338438988,-0.025205669924616814,0.012832336127758026,0.05738391354680061,-0.053272224962711334,0.03983871266245842,-0.02583281323313713,-0.025130175054073334,0.04000015929341316,0.015476667322218418,-0.0705072358250618,-0.035752199590206146,0.009173812344670296,0.025354987010359764,-0.014213227666914463,0.04782107099890709,-0.031932029873132706,-0.07814952731132507,-0.07392221689224243,-0.02215726673603058,0.05147872492671013,-0.060089901089668274,-0.04327216371893883,-0.03461268171668053,0.05795131251215935,0.043541163206100464,-0.058214690536260605,0.01597266085445881,0.052093155682086945,0.016921421512961388,-0.05468909814953804,0.010305654257535934,-0.015651697292923927,0.027414701879024506]},"forgetBias":{"rows":30,"columns":1,"weights":[0,0,0,0,0,0,0,0,0,0,0,0,0,0,0,0,0,0,0,0,0,0,0,0,0,0,0,0,0,0]},"outputMatrix":{"rows":30,"columns":1,"weights":[0.4960100054740906,-0.3778730034828186,-0.6829327940940857,-0.9986181259155273,-0.800422191619873,-0.737088143825531,-0.18336454033851624,-0.5181384086608887,1.0977425575256348,-0.5894652605056763,-0.5081062316894531,-0.5352944731712341,-1.1543729305267334,-0.2711997330188751,-0.8295782804489136,-0.2502846419811249,-0.2812003493309021,0.2041221261024475,1.138387680053711,-0.6612381935119629,-0.710594654083252,-0.3744552433490753,0.45268478989601135,-0.33399227261543274,-0.4165128767490387,-0.40659186244010925,1.0215164422988892,-0.27532389760017395,-0.26880231499671936,-1.050419807434082]},"outputHidden":{"rows":30,"columns":30,"weights":[0.015996791422367096,0.04537585750222206,-0.07171634584665298,0.06894063949584961,-0.0019026458030566573,-0.038855358958244324,-0.04184047132730484,0.036952849477529526,0.021865051239728928,-0.035271406173706055,-0.04111865535378456,-0.05361070856451988,0.0371856763958931,-0.01930723898112774,-0.01568710245192051,0.013999945484101772,0.037892818450927734,-0.0741438940167427,0.004143027123063803,0.015909576788544655,0.03796263411641121,-0.03394799306988716,-0.04740195348858833,-0.0012802807614207268,0.01969260536134243,0.037637874484062195,0.044022686779499054,-0.019124455749988556,0.07353904098272324,0.014521894045174122,0.07752624899148941,0.06984540075063705,0.0662088692188263,-0.0690091997385025,0.06687835603952408,0.07443656027317047,0.000669429253321141,-0.012959728017449379,-0.05715532973408699,0.0007729351054877043,0.008160584606230259,0.04685869440436363,0.06629366427659988,-0.01680484227836132,0.04377744346857071,-0.04557536914944649,0.05405580997467041,-0.041517652571201324,0.029237790033221245,0.06997818499803543,0.03073570877313614,0.0368729904294014,0.0503973588347435,0.0010885352967306972,0.027785655111074448,-0.07049977034330368,-0.05331740900874138,0.0738644078373909,-0.05091772601008415,0.06258322298526764,-0.0035387848038226366,-0.07521234452724457,-0.007854364812374115,0.047397080808877945,-0.062482234090566635,0.0007438776083290577,0.006923407781869173,0.004570067394524813,-0.05297493189573288,0.07085569202899933,-0.023347189649939537,0.026698363944888115,-0.029127033427357674,-0.02498576045036316,0.04846130684018135,0.0006345444708131254,0.042607203125953674,-0.06423428654670715,-0.04757649451494217,0.07724352180957794,0.009113816544413567,-0.061011914163827896,0.01755048707127571,0.02304180897772312,0.048506878316402435,0.007315666880458593,0.058010492473840714,0.058104678988456726,-0.010661616921424866,0.06345189362764359,-0.06145288050174713,0.03983178734779358,0.041635528206825256,0.03411158546805382,0.009187739342451096,0.0007848070235922933,-0.06194046139717102,-0.0439608171582222,0.03638605773448944,-0.014964382164180279,0.032826561480760574,0.031097305938601494,-0.05624590069055557,0.04081098362803459,-0.0327981598675251,0.04349284619092941,-0.03819034621119499,0.05938275158405304,0.03542640432715416,-0.019837409257888794,0.028370186686515808,0.01888885162770748,-0.045716542750597,-0.031090958043932915,0.018318142741918564,-0.025750037282705307,0.03237290307879448,-0.050075776875019073,-0.07387151569128036,-0.062170110642910004,0.04206225275993347,-0.014774738810956478,0.03368108719587326,-0.016391605138778687,0.03029402531683445,-0.018181392922997475,0.07863541692495346,0.006055016536265612,-0.06463269144296646,0.014464064501225948,-0.0648295059800148,0.04585305601358414,-0.03508360683917999,-0.013954389840364456,0.00520040700212121,-0.03302284702658653,0.07229878753423691,0.014226339757442474,-0.04958692565560341,0.06490848958492279,0.04091617092490196,0.02049832046031952,-0.02928842231631279,-0.00021268852287903428,0.04724125564098358,-0.014452927745878696,-0.018118811771273613,0.05561603605747223,-0.01731010526418686,0.05101325362920761,0.001779321231879294,-0.05089889094233513,-0.00971139594912529,0.023500079289078712,0.07385946810245514,-0.05426963046193123,-0.014945331029593945,-0.016050543636083603,0.018173160031437874,0.052005719393491745,0.0581151507794857,0.07165076583623886,0.04786165803670883,0.011234479956328869,0.04586628079414368,-0.02663118578493595,0.02336541935801506,-0.04791905730962753,0.06718423962593079,0.01608072780072689,-0.02372036874294281,0.032995954155921936,-0.020451262593269348,0.01842513680458069,-0.02614668942987919,0.06620681285858154,0.029887467622756958,0.019175607711076736,0.03353670984506607,0.02492988482117653,-0.07853254675865173,-0.07686159014701843,-0.034350331872701645,-0.07029864937067032,-0.07424098998308182,-0.04673183709383011,0.06285220384597778,-0.05003620684146881,0.0773259848356247,-0.04330882057547569,-0.056608546525239944,-0.009466414339840412,-0.0355834886431694,0.061493486166000366,0.037423208355903625,0.0435904897749424,0.04899993911385536,-0.012874787673354149,0.04856899008154869,-0.0035101142711937428,-0.019224805757403374,-0.07164917886257172,-0.0452251099050045,-0.04221370071172714,0.00000426112183049554,-0.03745103254914284,0.0414547473192215,-0.07433290779590607,0.046391986310482025,-0.07286307960748672,-0.048521507531404495,0.023294493556022644,-0.06350498646497726,0.014938652515411377,0.018544359132647514,0.06897608935832977,0.04869196191430092,-0.05578150600194931,0.004538448061794043,-0.025690767914056778,-0.02492423541843891,0.058026768267154694,-0.03881344944238663,-0.0518304742872715,0.06130614131689072,-0.029206130653619766,-0.05904185026884079,0.02764059789478779,-0.06594541668891907,0.03323318436741829,0.03567037358880043,-0.043834444135427475,0.07654176652431488,-0.05039915814995766,-0.05875459685921669,0.02911210246384144,-0.056474123150110245,0.07280929386615753,0.06728536635637283,-0.06636310368776321,0.053588733077049255,-0.005257372744381428,0.07319207489490509,-0.04190589860081673,0.04595925286412239,-0.022121040150523186,-0.000746543169952929,-0.033793915063142776,0.009251325391232967,0.04623476043343544,-0.04395177960395813,0.01616707444190979,0.056897327303886414,-0.028019342571496964,-0.0691419467329979,-0.04445314407348633,-0.013167721219360828,0.07162252813577652,0.07276763767004013,0.04079563915729523,0.06162898615002632,-0.014415512792766094,-0.06604129821062088,-0.0031529616098850965,0.007727003190666437,-0.06292621046304703,-0.041383761912584305,0.04436219111084938,-0.05914974585175514,0.012354656122624874,-0.02396445721387863,-0.041291020810604095,-0.07475101947784424,-0.024343419820070267,0.04031464084982872,0.01402276661247015,-0.04376300796866417,0.03666480630636215,-0.02813386358320713,-0.0640595406293869,0.002173121552914381,-0.06534808874130249,-0.032672762870788574,0.07131578773260117,0.06388963758945465,0.03664996102452278,-0.07799387723207474,-0.051765188574790955,-0.018085233867168427,0.04522642120718956,-0.005808891262859106,-0.015743743628263474,-0.03861653059720993,-0.05519743263721466,0.01716632768511772,-0.01587631367146969,0.057164885103702545,0.015062420628964901,-0.05351746082305908,-0.015265832655131817,-0.004866530653089285,-0.031044255942106247,0.015089076943695545,0.019551383331418037,-0.035457104444503784,-0.010883253067731857,0.0717451348900795,-0.017673533409833908,0.051355160772800446,0.014100989326834679,-0.05077081546187401,-0.07148191332817078,-0.03991158679127693,0.00013055869203526527,-0.034596726298332214,0.05408701300621033,-0.023446882143616676,-0.0662255510687828,0.0020013651810586452,0.0572848878800869,-0.03203742578625679,0.05800442397594452,0.046628985553979874,0.07833181321620941,0.03445727005600929,0.04293107986450195,0.005073288455605507,0.059332456439733505,0.033686574548482895,0.015789398923516273,0.06987491250038147,0.0027063386514782906,-0.057700011879205704,0.02291432023048401,0.0642499029636383,0.011344688944518566,0.00774330785498023,0.03764723613858223,-0.0017296632286161184,-0.026901423931121826,0.0614931620657444,-0.03203878179192543,-0.023080937564373016,0.06451474875211716,-0.014563954435288906,-0.025750016793608665,0.032703597098588943,-0.056650836020708084,-0.03026743233203888,0.032485634088516235,-0.029637763276696205,-0.0534762479364872,-0.03068079613149166,0.0604759119451046,0.06343244761228561,-0.019475754350423813,-0.04739508777856827,0.020218292251229286,0.03153644874691963,-0.07553427666425705,-0.004949220456182957,0.06456097215414047,-0.014723673462867737,0.024212567135691643,0.06880462169647217,0.012963159941136837,-0.013985704630613327,0.055064454674720764,-0.025838131085038185,0.04479638487100601,0.006066002883017063,-0.017554741352796555,-0.051867492496967316,0.0035607097670435905,0.0445595346391201,0.039993766695261,-0.0062743606977164745,0.014021833427250385,-0.0002834281767718494,0.07848934829235077,0.013779313303530216,-0.029343657195568085,0.06954805552959442,-0.06186046823859215,-0.022968817502260208,0.0553026907145977,-0.03475986793637276,-0.0034358033444732428,-0.07209289819002151,-0.0708298310637474,0.025064758956432343,-0.0010945287067443132,-0.07725810259580612,-0.07387024164199829,0.051542457193136215,-0.01571405865252018,-0.048395879566669464,0.014348423108458519,-0.029134541749954224,0.06030267849564552,0.026491492986679077,0.0018943828763440251,0.07860689610242844,0.060323458164930344,-0.07679279893636703,0.04092671722173691,0.04736962169408798,0.008702906779944897,-0.000021883315639570355,-0.016969701275229454,-0.011262073181569576,0.026915598660707474,0.05160330608487129,0.017960820347070694,-0.036544088274240494,0.00034431921085342765,0.030724359676241875,0.04246683046221733,-0.025397758930921555,-0.029333004727959633,0.0016909216064959764,-0.04443085938692093,-0.01613401621580124,0.03328782692551613,-0.07038231194019318,0.046814266592264175,0.048192624002695084,-0.07452595978975296,0.06446395814418793,-0.05513796582818031,-0.05081326141953468,-0.009550032205879688,-0.01190971676260233,0.0654689148068428,0.03318958356976509,0.06600956618785858,0.07366123795509338,-0.053409215062856674,0.07864807546138763,0.00717612449079752,0.0736248567700386,-0.026401061564683914,-0.07647842168807983,-0.03703923523426056,-0.02934398502111435,0.0630149394273758,-0.007221851497888565,-0.04809712991118431,0.02079589292407036,0.02434268780052662,0.07634158432483673,0.04380441829562187,0.06722334772348404,-0.03752481937408447,0.03605787083506584,0.05127120018005371,0.021670151501893997,0.07308662682771683,-0.06581072509288788,0.02390064112842083,-0.04764781519770622,-0.0033897783141583204,-0.060779716819524765,-0.006220666691660881,-0.016756685450673103,0.003665989963337779,-0.019022081047296524,0.04353362321853638,-0.05954693257808685,0.04343598708510399,-0.05491039529442787,-0.0047089955769479275,0.002756653120741248,-0.050722140818834305,0.05858008563518524,-0.07165679335594177,-0.07493924349546432,-0.040387846529483795,0.05030456930398941,0.07656270265579224,0.05603012070059776,-0.011480108834803104,0.050876859575510025,-0.07898382842540741,0.06383632868528366,-0.0776284709572792,-0.037623196840286255,-0.05321330577135086,0.04326898977160454,-0.03261065110564232,0.06808889657258987,-0.025338729843497276,-0.028436100110411644,0.0041036843322217464,-0.0506017729640007,0.011808444745838642,-0.05288691818714142,0.04650689288973808,0.03323296085000038,0.05459483712911606,-0.062691830098629,-0.0005196113488636911,0.03466794639825821,0.019349684938788414,0.037754353135824203,-0.0024525425396859646,0.04206012189388275,0.05340142548084259,0.06485933065414429,-0.047480590641498566,-0.028933782130479813,-0.01994265615940094,-0.06672684848308563,-0.05819794908165932,-0.006962883751839399,0.04721570760011673,0.047568224370479584,-0.030332444235682487,-0.061702925711870193,0.04458864405751228,-0.019594786688685417,-0.008429177105426788,0.035895735025405884,0.014867836609482765,0.004226005170494318,0.02878747135400772,-0.03850323334336281,-0.007732353173196316,0.041579026728868484,0.029372522607445717,-0.06608175486326218,-0.058201778680086136,0.04984152689576149,0.05489002913236618,-0.05629430711269379,-0.06772584468126297,0.025436492636799812,0.009328018873929977,-0.013422654941678047,0.014216599054634571,-0.022484885528683662,0.07254850119352341,0.018737517297267914,-0.06706610321998596,-0.0785466879606247,0.051203880459070206,-0.03107576258480549,-0.005409381818026304,0.05247826129198074,0.013207593932747841,0.060545191168785095,0.041983116418123245,-0.07511480897665024,-0.0737091600894928,-0.0742487832903862,0.006621581502258778,0.014799796976149082,0.07668332010507584,0.0355389341711998,0.05456263944506645,0.06769446283578873,0.07726757228374481,-0.06588497012853622,0.061514414846897125,0.07217659801244736,-0.05845076963305473,0.03246929496526718,0.022316044196486473,0.05706685781478882,0.04573887214064598,-0.0025855598505586386,0.07274558395147324,0.03957067057490349,0.0014289352111518383,0.05831775441765785,0.0013682640856131911,-0.030622512102127075,-0.03406233340501785,-0.04358341544866562,-0.021514493972063065,-0.04916084557771683,-0.006077195517718792,0.012593209743499756,-0.025381116196513176,0.018353743478655815,-0.038513682782649994,-0.07570231705904007,-0.03710725158452988,-0.06690846383571625,-0.05955178663134575,0.01288575492799282,0.05940758436918259,-0.02189699374139309,0.05846209451556206,0.07053042948246002,-0.02261807955801487,0.058525435626506805,-0.05893315002322197,-0.0647958517074585,-0.05952804163098335,-0.006065782159566879,-0.0542331226170063,0.015520358458161354,-0.0563209243118763,-0.03228607028722763,0.005853177513927221,0.07238343358039856,-0.04545021429657936,-0.01878686435520649,-0.06283263117074966,-0.0005059494287706912,-0.0039289104752242565,-0.04676437750458717,0.0017248588846996427,-0.0754859670996666,0.04274142161011696,0.05388839170336723,0.05764035880565643,0.053933870047330856,-0.07166609913110733,0.02963477000594139,0.010608004406094551,-0.034373462200164795,-0.05192381516098976,-0.06467865407466888,-0.029748812317848206,0.06123076751828194,0.04239648953080177,-0.011482607573270798,-0.0778554379940033,0.060860682278871536,-0.02172352746129036,-0.04474153369665146,0.06545820832252502,-0.042303480207920074,-0.06401525437831879,-0.0719769150018692,-0.06143218278884888,-0.03949425369501114,-0.058867618441581726,-0.04665878415107727,-0.0034702972043305635,0.056909289211034775,0.04179433733224869,-0.014955311082303524,0.06640014797449112,0.06812265515327454,-0.018984965980052948,0.049986448138952255,-0.0537351593375206,0.01732342317700386,0.02445695362985134,0.03294960781931877,0.028713515028357506,0.05507993325591087,0.040693748742341995,-0.03661242127418518,0.02149868756532669,0.06981845200061798,-0.06572550535202026,-0.07864546775817871,-0.01963146962225437,-0.007982833310961723,0.0148100471124053,0.004451198037713766,0.008457927964627743,-0.048764560371637344,-0.013046764768660069,-0.049870867282152176,-0.02995479479432106,-0.0705358237028122,-0.027806978672742844,0.06378892064094543,0.04412137717008591,0.013495590537786484,-0.03762025386095047,-0.0525209866464138,-0.030694907531142235,0.0667928010225296,-0.05094357952475548,0.009796375408768654,0.0008319643093273044,0.06567445397377014,0.07758603245019913,0.0139407217502594,0.07236292213201523,-0.0550842247903347,-0.0669366642832756,0.06428290158510208,0.07778525352478027,0.06668110936880112,-0.02522151730954647,0.0736696794629097,0.013840866275131702,0.0059620109386742115,0.029352640733122826,-0.021858707070350647,0.044874053448438644,0.009731284342706203,-0.04672582447528839,-0.0342203713953495,-0.004106306470930576,0.07688087970018387,0.020425070077180862,0.06978897750377655,0.01251919288188219,0.07708704471588135,-0.04511018842458725,-0.021762650460004807,0.0690087378025055,-0.06944877654314041,0.01548958383500576,-0.03110094740986824,-0.06337110698223114,-0.07713722437620163,0.026959622278809547,0.03058476187288761,0.000816714542452246,-0.0008153046946972609,0.030343137681484222,-0.007144015282392502,0.02931269444525242,0.044801343232393265,0.010509831830859184,-0.07769797742366791,-0.056880272924900055,0.05048159137368202,-0.060175154358148575,0.038230422884225845,0.031568095088005066,-0.023815099149942398,0.06504447758197784,-0.018561603501439095,0.004153495654463768,0.07338008284568787,0.032711442559957504,0.021243467926979065,0.014649085700511932,-0.032610900700092316,-0.01809653453528881,-0.07558882236480713,-0.06292979419231415,0.055481430143117905,-0.0257136058062315,-0.04125993698835373,-0.016443002969026566,-0.0785992443561554,-0.04053843021392822,0.039440006017684937,-0.04928279295563698,-0.018924646079540253,-0.0556793138384819,-0.006476189475506544,0.017350325360894203,0.00814096163958311,0.05446550250053406,0.07135683298110962,-0.07453127205371857,-0.05059370771050453,-0.05773581564426422,0.02049977332353592,-0.06660103052854538,-0.02501579560339451,-0.0064866794273257256,-0.07353075593709946,-0.024607516825199127,-0.03409288078546524,0.01934032328426838,-0.04419854283332825,0.0190216563642025,-0.07186923921108246,-0.04805682599544525,-0.03815096244215965,-0.07187210023403168,-0.050021447241306305,0.0209195576608181,0.050200432538986206,-0.059286512434482574,-0.05790155753493309,0.031624555587768555,-0.0416860394179821,-0.06101552024483681,-0.05037672445178032,0.04394909739494324,0.019453834742307663,0.07112789154052734,-0.07083088159561157,-0.004551354795694351,-0.033581651747226715,0.02097502537071705,0.01123092882335186,0.03924770653247833,0.0331040658056736,0.03760242462158203,0.06203634291887283,0.06689967215061188,-0.009795807301998138,-0.005544116720557213,0.04271655157208443,-0.06841064989566803,0.032770849764347076,-0.07051854580640793,-0.07146505266427994,0.02439247816801071,0.06784715503454208,-0.057058367878198624,-0.07227454334497452,0.028746377676725388,-0.029456712305545807,0.04015269875526428,0.041066188365221024,0.06346215307712555,0.030989011749625206,0.04396963119506836,0.04725547879934311,-0.011292766779661179,0.008098290301859379,-0.03507649898529053,0.04988867789506912,-0.015853004530072212,0.05790694057941437,-0.02537943236529827,-0.04451247677206993,-0.016896646469831467,-0.07103508710861206,-0.07015219330787659,-0.014278361573815346,0.03708331286907196,0.007028088439255953,0.036448847502470016,-0.038496632128953934,0.07360772043466568,0.04977714270353317,0.03733334317803383,-0.030553646385669708,-0.009631188586354256,-0.025991758331656456,-0.06760991364717484,-0.029097191989421844,0.008031545206904411,0.036302950233221054,-0.02001400664448738,0.009521286003291607,-0.03088199347257614,-0.033031754195690155,0.07561558485031128,0.017949705943465233,0.019000709056854248,0.014993230812251568,-0.01245785504579544,0.06884582340717316,0.0030939499847590923,-0.03194577619433403,-0.03869865834712982,-0.019733073189854622,-0.004335296340286732,-0.00835674349218607,0.015156857669353485,-0.07229658216238022,0.05757772922515869,0.06457485258579254,0.018672429025173187,0.0691889226436615,-0.035851165652275085,0.010177252814173698,-0.03309895098209381,-0.0071554346941411495,-0.05444851145148277,-0.07114807516336441,0.030558327212929726,-0.04595670476555824,0.04207025468349457,-0.0072292182594537735,0.07348661124706268,0.044862017035484314,0.024315515533089638,0.056246068328619,0.025067614391446114,-0.060634221881628036,0.008828720077872276,-0.015774361789226532,-0.0019073858857154846,-0.02305253967642784,0.04979027435183525,0.05832443758845329,0.0025012162514030933,-0.021030059084296227,-0.040914587676525116,-0.05601606145501137,0.06545733660459518,-0.06509668380022049,-0.0617961511015892,0.021654032170772552,0.048469178378582,-0.052687738090753555,-0.01623602770268917,0.026250973343849182,0.005707675591111183,0.07309578359127045,0.013187541626393795]},"outputBias":{"rows":30,"columns":1,"weights":[-1.098781943321228,-1.0097757577896118,-0.9416423439979553,-0.7724310755729675,-0.9702247977256775,-0.9885562658309937,-0.8600478172302246,-1.083843469619751,-0.3993551731109619,-1.0127537250518799,-1.1269500255584717,-0.9669802188873291,-0.49527010321617126,-0.9470880031585693,-0.9638311862945557,-1.0764057636260986,-0.8647715449333191,-1.1607999801635742,-0.4745628237724304,-1.0310580730438232,-1.0234644412994385,-1.039571762084961,-1.0920794010162354,-0.6598328948020935,-0.990411639213562,-0.8965995907783508,-0.5935138463973999,-1.1103018522262573,-1.1164860725402832,-0.7321821451187134]},"cellActivationMatrix":{"rows":30,"columns":1,"weights":[-0.9251364469528198,0.017738351598381996,-0.8334783315658569,-1.0961309671401978,-0.8760810494422913,-0.8370752930641174,-0.0370519757270813,-0.5995288491249084,1.0960807800292969,-0.7720020413398743,-0.6215008497238159,-0.7856120467185974,-1.4997069835662842,-0.01748281717300415,0.8948606252670288,0.741344690322876,0.24612873792648315,-0.8122555017471313,1.0822863578796387,-0.7157436013221741,0.7932991981506348,0.2716752588748932,-0.912655770778656,0.06907741725444794,0.11878291517496109,-0.016183584928512573,-1.0898327827453613,-0.7190757393836975,-0.7159384489059448,-1.1576725244522095]},"cellActivationHidden":{"rows":30,"columns":30,"weights":[-0.0602257065474987,-0.06003522500395775,0.029870713129639626,-0.0042480831034481525,0.03630415350198746,-0.0038884191308170557,0.019119907170534134,0.0593736506998539,0.07374735176563263,-0.033067140728235245,-0.0770878717303276,0.013042868115007877,-0.026850881054997444,0.0008479784009978175,-0.07206126302480698,0.06450310349464417,0.05952753126621246,0.00991246197372675,0.04357050359249115,-0.016275763511657715,-0.01288063544780016,0.07568091154098511,-0.008154441602528095,0.06300091743469238,0.02039148472249508,-0.06772473454475403,-0.07426904141902924,-0.0545489676296711,0.04183146357536316,0.06378579884767532,-0.05962909385561943,0.01623043604195118,-0.06064322218298912,0.05803492292761803,0.05846704542636871,0.05699731782078743,0.025204578414559364,0.01134585402905941,-0.05453077331185341,-0.027950165793299675,-0.06892102211713791,-0.037817131727933884,-0.027526026591658592,-0.002425404964014888,-0.013657274655997753,0.013815370388329029,-0.06025686487555504,0.041325893253088,0.04919033870100975,0.05620387941598892,-0.035907141864299774,0.0070341103710234165,0.029936417937278748,0.04337828606367111,-0.07530834525823593,-0.04575726389884949,0.010660681873559952,-0.048245158046483994,0.012186041101813316,0.05917922034859657,0.0027583492919802666,0.056019604206085205,-0.011856482364237309,0.07782518118619919,0.03596986457705498,0.04428209364414215,0.05359940603375435,-0.06825587898492813,0.054906200617551804,-0.00570809468626976,-0.059523265808820724,0.02500215172767639,-0.0001853568246588111,0.05208446830511093,-0.046864964067935944,-0.0734616219997406,0.03334273025393486,0.03697932884097099,0.07575543224811554,0.021119683980941772,-0.0645044818520546,-0.016500703990459442,-0.01058702077716589,0.057137563824653625,0.01556525006890297,0.06912421435117722,-0.07855182141065598,0.013418592512607574,-0.0635012686252594,0.04941117390990257,0.05294397845864296,0.04683016240596771,0.02350289188325405,-0.029338393360376358,0.019194770604372025,-0.04478757083415985,-0.004059923347085714,-0.018938658758997917,0.04996911808848381,-0.011239809915423393,-0.07667355984449387,0.006911044474691153,0.06151154264807701,-0.00789183285087347,-0.06514713913202286,0.07764510810375214,0.04872780665755272,-0.03818443790078163,-0.06184307858347893,0.07814265042543411,0.047208644449710846,-0.056421928107738495,0.06733279675245285,-0.005533190909773111,-0.016983812674880028,0.03587055951356888,-0.008682209067046642,0.06979444622993469,-0.037764016538858414,0.06735936552286148,0.031230663880705833,0.04591739922761917,0.06044749543070793,0.05985196679830551,0.007564492989331484,-0.03498612716794014,-0.07338664680719376,-0.004699714481830597,-0.003710133256390691,0.00003956849468522705,0.04001308232545853,-0.01646430604159832,0.03090260550379753,-0.007133774925023317,0.02855672873556614,0.0659041777253151,-0.05353885889053345,0.07385554909706116,0.0566728413105011,-0.028153859078884125,0.007196932099759579,0.04879368841648102,0.009733481332659721,0.018467983230948448,-0.005714052356779575,-0.00531751336529851,0.01606574095785618,-0.008204610086977482,-0.055082403123378754,0.062086816877126694,0.04671034589409828,0.07792835682630539,0.0754912793636322,-0.036933623254299164,-0.012062559835612774,-0.009394890628755093,0.0436607226729393,-0.051372312009334564,-0.03095317631959915,-0.010737582109868526,-0.05055515840649605,-0.03230668604373932,-0.07893407344818115,0.057833969593048096,-0.04421078786253929,0.05434061586856842,0.03482571244239807,-0.003800292732194066,-0.055264800786972046,-0.07635439187288284,-0.061030175536870956,0.022176913917064667,-0.007716156076639891,-0.05391206592321396,0.0007341408636420965,-0.015351192094385624,0.06491771340370178,-0.03086419403553009,0.06797914952039719,0.04763532429933548,-0.06931649148464203,0.017670875415205956,0.02997627668082714,-0.04746697098016739,-0.055516306310892105,0.0405195876955986,-0.004802283830940723,-0.04341508820652962,-0.0028646073769778013,-0.001969860401004553,-0.0547981821000576,0.01038667093962431,-0.06440626084804535,0.042550355195999146,0.052754711359739304,0.02098759636282921,0.0038350766990333796,-0.011370283551514149,-0.06661400943994522,-0.01113766711205244,-0.036683548241853714,-0.03138625621795654,-0.05091715231537819,0.06372664123773575,-0.04697762429714203,-0.0017938384553417563,-0.0008963224245235324,0.07119559496641159,0.0032719811424613,0.054400838911533356,0.059133101254701614,0.021045636385679245,0.014919956214725971,0.04975876584649086,0.016515135765075684,0.05065888911485672,0.05781378969550133,-0.0366702564060688,-0.017951572313904762,-0.04207039996981621,-0.06227775663137436,0.03362046182155609,0.03503048047423363,-0.024604784324765205,0.05963250994682312,0.026184599846601486,0.03342088311910629,0.00020522685372270644,0.06914029270410538,0.03540507331490517,-0.00468416977673769,0.06084926798939705,0.019697509706020355,0.01304643601179123,0.056180667132139206,-0.05674527585506439,0.008446196094155312,-0.024246497079730034,0.05879751220345497,-0.04955058544874191,0.07142370939254761,0.04361989349126816,0.011067509651184082,-0.0559600405395031,-0.046687617897987366,0.0032776372972875834,0.0007100101211108267,-0.04756300523877144,0.03748781234025955,0.023200836032629013,-0.03160163015127182,0.07691407203674316,-0.02634073607623577,-0.013330942019820213,-0.0011974028311669827,-0.041230227798223495,-0.07502911239862442,0.02738559991121292,0.018721286207437515,0.04865769296884537,0.013768225908279419,-0.018996242433786392,-0.010051103308796883,0.06544854491949081,-0.05585852637887001,-0.034460607916116714,-0.04350706562399864,-0.037360526621341705,0.07791896909475327,-0.03816499188542366,0.0020968171302229166,-0.02660922147333622,-0.06670191138982773,-0.05341481789946556,-0.02596227079629898,-0.06275906413793564,0.043293628841638565,0.07817024737596512,0.05153210088610649,-0.04250408709049225,0.056305814534425735,-0.018627965822815895,0.0068052117712795734,-0.06381332129240036,-0.07604282349348068,0.026590095832943916,0.04007387161254883,0.006238431204110384,0.06393555551767349,-0.050531044602394104,-0.02469000034034252,-0.07461479306221008,0.009533023461699486,0.0006334370118565857,-0.0719897523522377,-0.06532394886016846,-0.011823137290775776,-0.0224814061075449,-0.017285721376538277,0.07153069227933884,-0.059713393449783325,0.027316661551594734,0.06801794469356537,-0.02379881963133812,-0.013527010567486286,-0.025014281272888184,0.033869579434394836,-0.021803922951221466,-0.07768773287534714,0.012494290247559547,0.021969975903630257,0.041931718587875366,0.04535817354917526,0.0038527175784111023,0.03110451065003872,-0.05456352233886719,0.07686759531497955,0.058780401945114136,-0.05605829507112503,-0.06777238845825195,0.04747679457068443,0.05994246155023575,0.0708734393119812,-0.06449656933546066,-0.01198432594537735,0.003086339682340622,0.028119312599301338,0.029955226927995682,0.005011979024857283,0.05630537122488022,0.01070393156260252,-0.040906280279159546,0.0016480195336043835,0.02935873158276081,0.01438777893781662,0.0373845137655735,-0.035721175372600555,0.009515335783362389,0.014855076558887959,-0.07550007849931717,-0.0076112751848995686,0.04777885600924492,0.01618051715195179,-0.015369568020105362,0.013585247099399567,-0.04587201401591301,-0.03529371693730354,-0.021890202537178993,-0.056834276765584946,-0.050814189016819,0.06749553233385086,-0.044770631939172745,0.03692682459950447,-0.03503698483109474,0.020205100998282433,-0.03995248302817345,-0.023362673819065094,0.0462799146771431,0.06023480370640755,0.01966925710439682,0.013255119323730469,0.07325489819049835,0.0027058422565460205,0.0011045928113162518,-0.05378644913434982,0.014050370082259178,0.02906011790037155,0.05344519019126892,0.025781000033020973,0.003811560571193695,0.019064847379922867,0.02471848390996456,0.02859976887702942,0.010550451464951038,0.03216566890478134,-0.06119164451956749,0.002846527611836791,-0.06894218921661377,0.06764508038759232,0.04403636232018471,0.07104992866516113,0.022737137973308563,-0.07323810458183289,-0.017467500641942024,-0.040999285876750946,-0.07351064682006836,-0.026614412665367126,-0.028312597423791885,0.05347490310668945,-0.04989086091518402,-0.01901286654174328,0.05537024885416031,0.07335683703422546,-0.03169768303632736,-0.04323457553982735,-0.036500465124845505,-0.005305424798280001,0.0448659211397171,-0.033739011734724045,-0.06482776999473572,0.03420943766832352,-0.046176087111234665,0.0354008674621582,-0.02165144868195057,-0.04600673168897629,0.046064168214797974,0.06351258605718613,-0.008137552067637444,-0.04939309507608414,-0.06534840166568756,0.04036303609609604,-0.02968834899365902,0.004584497306495905,0.04836411401629448,-0.0584603026509285,0.013811077922582626,0.03340146690607071,-0.0351489782333374,0.03636789321899414,0.06606904417276382,0.06451359391212463,0.047685034573078156,-0.034645967185497284,0.0205018799751997,0.03921670839190483,-0.03347703069448471,-0.04793742299079895,0.07902881503105164,0.01877475157380104,0.056699901819229126,-0.044288598001003265,0.009369689971208572,0.0187449362128973,-0.05360182747244835,-0.06832868605852127,0.03997819125652313,0.02776596136391163,0.05021200329065323,-0.07587110251188278,-0.003935597836971283,-0.03911921754479408,0.015725476667284966,-0.029879864305257797,-0.008685451932251453,-0.0033084440510720015,-0.07884398102760315,-0.033179447054862976,0.04928706958889961,-0.054291944950819016,0.07452376931905746,-0.0024744330439716578,-0.002051646588370204,-0.07235472649335861,0.05519786477088928,0.0009137734305113554,-0.0002178459835704416,0.02261260151863098,-0.007374612148851156,0.04457732290029526,-0.0769825279712677,-0.03841780126094818,-0.056675828993320465,0.04673042520880699,-0.027082344517111778,-0.05532078444957733,0.06555857509374619,0.03787592425942421,0.04038385674357414,0.06369110941886902,-0.01598462462425232,0.0725405141711235,-0.04626784846186638,-0.026754558086395264,0.008700912818312645,-0.032277610152959824,-0.07212359458208084,-0.010145716369152069,0.029754063114523888,-0.025351325049996376,0.041787829250097275,-0.0016016310546547174,0.05371110513806343,-0.07082603126764297,-0.02121681533753872,-0.030362699180841446,0.06331693381071091,0.01637512445449829,-0.0739511102437973,-0.01967673934996128,0.007006965111941099,0.05650267377495766,0.07119732350111008,0.007602317724376917,0.020881226286292076,-0.06040765345096588,0.0143166184425354,0.07159765064716339,0.04667774215340614,0.007398251444101334,0.06829477846622467,-0.04715067148208618,0.047443609684705734,-0.03503544256091118,0.03462012857198715,-0.044899553060531616,0.020971717312932014,0.06094633787870407,-0.06635455042123795,-0.04368838667869568,0.017132237553596497,-0.01740957610309124,-0.07657298445701599,0.0035529867745935917,-0.04713345691561699,-0.012699340470135212,-0.041586555540561676,-0.054612498730421066,0.06527213752269745,-0.006289354059845209,-0.06703640520572662,-0.008275993168354034,0.06273563206195831,-0.03952033445239067,0.045190732926130295,-0.04206148162484169,-0.026495523750782013,0.07213865220546722,0.034300897270441055,-0.06991533935070038,0.017479250207543373,0.04324626550078392,-0.014783254824578762,-0.05570390075445175,0.02161230519413948,-0.04368964582681656,0.027471575886011124,-0.008731147274374962,0.013773004524409771,-0.04673655703663826,-0.06449142843484879,-0.04516827315092087,-0.07790248095989227,0.050994742661714554,0.008170410990715027,0.03482303023338318,0.026413969695568085,-0.06583962589502335,0.03811955824494362,-0.028061114251613617,-0.0010803625918924809,-0.032873544842004776,0.015892688184976578,0.016532177105545998,0.028204655274748802,0.044003285467624664,-0.07046801596879959,0.038555510342121124,-0.06507326662540436,0.024310603737831116,0.05316542834043503,0.025091879069805145,0.010580040514469147,-0.025819601491093636,-0.0072182281874120235,-0.01136257778853178,0.06251879036426544,-0.045707810670137405,0.01624917797744274,0.02191532775759697,-0.019734352827072144,-0.02923058345913887,0.04505663737654686,-0.021078644320368767,-0.03969575837254524,0.06047825887799263,0.046697817742824554,0.04590771347284317,0.0774938091635704,0.038134846836328506,0.0010043990332633257,-0.013908700086176395,-0.02394004724919796,-0.0644097626209259,-0.041855912655591965,-0.04662798345088959,-0.0016072283033281565,-0.07581359893083572,-0.06343811750411987,-0.051813699305057526,-0.017260659486055374,-0.06681715697050095,0.06333254277706146,-0.05933372676372528,0.01079370453953743,-0.027562517672777176,0.029602956026792526,0.07779130339622498,0.02011420764029026,0.06182894855737686,-0.018267234787344933,0.013753888197243214,0.02715921215713024,0.026527438312768936,0.02221067249774933,0.02069094590842724,0.02650153636932373,0.07037508487701416,0.06322763115167618,0.043424174189567566,-0.05411503091454506,-0.016271332278847694,-0.054949965327978134,-0.04757816344499588,-0.010596550069749355,-0.029420526698231697,-0.07692261040210724,0.010635445825755596,-0.023558957502245903,0.007386303041130304,-0.06709139049053192,-0.0063729495741426945,-0.03480149805545807,-0.02822241187095642,0.041758909821510315,-0.00144645303953439,0.03951415419578552,0.020102886483073235,-0.05446828529238701,-0.06123286113142967,0.05772163346409798,-0.014405010268092155,0.0633847564458847,-0.03928019478917122,0.027726508677005768,-0.04072020947933197,-0.05539078637957573,0.003249123226851225,0.0010676730889827013,-0.06167762354016304,0.002175092464312911,0.06785242259502411,-0.06643951684236526,0.01705801673233509,-0.04784234240651131,0.003288100939244032,-0.07189305871725082,-0.05050637573003769,0.06825076043605804,-0.02644677273929119,-0.053969841450452805,-0.01762574166059494,0.05925654619932175,-0.05891936272382736,-0.015041387639939785,0.018381332978606224,0.0649476945400238,-0.04945661872625351,0.04224500060081482,-0.024223556742072105,0.006846275180578232,-0.036853354424238205,0.005178560968488455,0.033712126314640045,0.019915226846933365,-0.026836862787604332,0.019213730469346046,-0.03099599853157997,-0.06898416578769684,-0.00739457318559289,0.050906866788864136,0.06286981701850891,0.0136935506016016,-0.05732995644211769,-0.00949122291058302,-0.034130893647670746,0.011271844618022442,-0.03512142598628998,-0.007825720123946667,0.07323023676872253,-0.022997157648205757,0.00517798587679863,0.01843367889523506,0.04485335201025009,-0.05977338179945946,-0.07319264858961105,-0.056113146245479584,0.04410969465970993,0.050843819975852966,0.06141175702214241,-0.04036589711904526,0.054342158138751984,0.05755838006734848,0.03500441834330559,-0.002560789231210947,-0.0641348659992218,0.06390749663114548,-0.03463597595691681,0.018917266279459,-0.07675023376941681,0.049511540681123734,-0.0695715919137001,0.07396703213453293,-0.06347568333148956,-0.06200038641691208,0.023303991183638573,0.03262597694993019,-0.06245626136660576,-0.07391686737537384,-0.06526700407266617,0.0744037926197052,-0.004983918275684118,-0.0773719772696495,0.07830297201871872,0.03581973910331726,-0.04639769718050957,-0.017526188865303993,-0.04579389840364456,-0.06006554886698723,0.04439408332109451,-0.06376699358224869,-0.06320496648550034,0.027771402150392532,-0.01467200554907322,0.001190145849250257,0.026355445384979248,-0.04824741929769516,-0.016160620376467705,0.029291801154613495,-0.0341835655272007,-0.05329110100865364,-0.07535287737846375,-0.0542072132229805,-0.06826155632734299,-0.025063268840312958,0.047470491379499435,0.00639898469671607,0.057001758366823196,0.07692272216081619,0.012831893749535084,-0.012520169839262962,0.0017942170379683375,-0.052134979516267776,0.001604321994818747,-0.06206050515174866,0.03866861015558243,-0.07685822993516922,0.0033978112041950226,0.04339364543557167,0.01818668842315674,0.03874129429459572,-0.00493696378543973,0.05504223331809044,-0.054398950189352036,0.05589655414223671,-0.019010215997695923,0.029995441436767578,-0.061113692820072174,0.012993836775422096,0.03481151536107063,0.0035011875443160534,-0.046276964247226715,0.0002625629713293165,0.005454665049910545,-0.024289652705192566,-0.00033621236798353493,0.027513545006513596,0.05369982868432999,-0.06297162175178528,-0.07393933832645416,-0.07831068336963654,0.012025240808725357,0.04499896615743637,-0.0428713820874691,-0.009936720132827759,-0.019566338509321213,0.028705593198537827,0.04066340625286102,-0.028649428859353065,0.044682975858449936,-0.03616519644856453,-0.03682134672999382,0.012446364387869835,-0.014774490147829056,0.07810721546411514,0.03057657741010189,-0.004114313516765833,-0.020000195130705833,-0.054051972925662994,-0.05337144806981087,-0.04490644857287407,0.02583940140902996,-0.04614092409610748,0.01816517673432827,-0.022742316126823425,-0.0076545607298612595,0.06875168532133102,0.06996774673461914,0.05995643511414528,-0.060726508498191833,0.02775949239730835,0.07730060070753098,-0.05383456498384476,-0.06904204934835434,-0.007222069893032312,-0.07769227027893066,0.07841729372739792,-0.07908005267381668,-0.0624677799642086,-0.0518169030547142,-0.020205257460474968,0.06150742247700691,-0.0778588131070137,-0.06678365170955658,0.0032682912424206734,0.05325032398104668,0.0018579531461000443,-0.04408474266529083,-0.03067656420171261,-0.023238245397806168,0.05388423800468445,-0.049480583518743515,0.06895577907562256,0.016332382336258888,-0.07266352325677872,-0.017802394926548004,-0.027291400358080864,-0.05635152757167816,0.044242385774850845,-0.005467390641570091,0.03009059838950634,-0.03139851614832878,-0.07556666433811188,-0.07441345602273941,-0.0012812827480956912,-0.0017596329562366009,0.010305528528988361,-0.00513719255104661,0.04885489493608475,-0.05063500627875328,-0.040648266673088074,0.0014228848740458488,0.07768936455249786,-0.07114250212907791,-0.008264635689556599,-0.017539599910378456,-0.0593285895884037,0.007096036337316036,0.015413940884172916,0.03301070258021355,0.02649541199207306,-0.04302414506673813,-0.01650318130850792,0.06758598983287811,0.0711330994963646,0.07645699381828308,-0.02871667966246605,0.07408445328474045,-0.03795251622796059,0.03932952135801315,0.005288274958729744,-0.055230770260095596,0.0735727846622467,-0.02334802970290184,0.025146696716547012,-0.04764707013964653,0.028219332918524742,0.03609130531549454,-0.001151203759945929,0.03229057788848877,0.06935842335224152,0.07304684072732925,0.04590006545186043,0.00018509967776481062,-0.01400264073163271,-0.02513733133673668,-0.011197038926184177,-0.02227700874209404,0.016489708796143532,0.05720583349466324,0.04295940324664116,0.046071648597717285,-0.015018369071185589,-0.07119008898735046,0.06368239223957062,0.05076632276177406,0.07393547892570496,-0.011822033673524857,0.06290940195322037,-0.0722087025642395,0.04776236414909363,0.07594600319862366,0.03723656386137009,-0.03844943642616272,0.0592515766620636,-0.0702790766954422,-0.019071802496910095,-0.0040315561927855015,-0.05464065447449684,-0.02233440801501274,-0.05009663477540016]},"cellActivationBias":{"rows":30,"columns":1,"weights":[0.6964871883392334,-0.16002196073532104,0.44242560863494873,0.418995201587677,0.401071697473526,0.4021647274494171,-0.16017451882362366,0.36501044034957886,-0.11507578194141388,0.44358593225479126,0.38979193568229675,0.47423869371414185,0.4274270534515381,0.010174322873353958,-0.3963269889354706,-0.5264833569526672,-0.05228106305003166,0.6320689916610718,-0.14862287044525146,0.37381985783576965,-0.4138855040073395,-0.2927146852016449,0.691573977470398,0.0833037942647934,-0.19069941341876984,-0.011316332034766674,0.527820885181427,0.5111967325210571,0.5110494494438171,0.4190613031387329]}}],"outputConnector":{"rows":1,"columns":30,"weights":[-0.23541463911533356,-0.045162465423345566,-0.4245923161506653,-0.6291281580924988,-0.44526439905166626,-0.41702598333358765,-0.06668950617313385,-0.2423856407403946,0.8209807872772217,-0.35866427421569824,-0.2412777841091156,-0.36398470401763916,-0.8984772562980652,0.012312526814639568,0.4557701051235199,0.24838124215602875,0.0913897156715393,-0.18954749405384064,0.8512311577796936,-0.32857388257980347,0.3832027018070221,0.03532257303595543,-0.22686640918254852,-0.02277487702667713,0.009483668021857738,0.0021221796050667763,-0.731079638004303,-0.23470528423786163,-0.23045635223388672,-0.6710584163665771]},"output":{"rows":1,"columns":1,"weights":[0.3219352662563324]},"inputLookup":null,"inputLookupLength":0,"outputLookup":null,"outputLookupLength":0}