{"type":"LSTMTimeStep","options":{"inputSize":1,"inputRange":0,"hiddenLayers":[30],"outputSize":1,"decayRate":0.999,"smoothEps":1e-8,"regc":0.000001,"clipval":5,"maxPredictionLength":100,"dataFormatter":{"indexTable":{},"characterTable":{},"characters":[],"specialIndexes":[]},"learningRate":0.1},"hiddenLayers":[{"inputMatrix":{"rows":30,"columns":1,"weights":[-0.16756203770637512,-0.5829977989196777,-0.20584450662136078,-0.3155936896800995,-0.4658300280570984,0.16785134375095367,-0.5161899924278259,-0.10470498353242874,-0.18395622074604034,-0.3584991991519928,0.05106765031814575,-0.1906873732805252,-0.5278708338737488,-0.20060396194458008,-0.07644045352935791,1.109528660774231,-0.4460567235946655,-0.19046325981616974,-0.47356754541397095,-0.25844183564186096,-0.21584495902061462,-0.15257269144058228,-0.6091166138648987,-0.36012959480285645,-0.4376244843006134,-0.08762709051370621,-0.38245928287506104,-0.1125735267996788,-0.21029941737651825,-0.11697618663311005]},"inputHidden":{"rows":30,"columns":30,"weights":[0.00890299305319786,-0.0018716774648055434,-0.059333670884370804,0.055645111948251724,0.0386430025100708,-0.0586051307618618,-0.06774713844060898,0.07698255777359009,-0.03413259983062744,0.05248689278960228,0.07823020219802856,-0.015826836228370667,0.04495058208703995,0.06801661849021912,0.07445459812879562,-0.0383625365793705,-0.05521310865879059,0.0656411424279213,-0.018935106694698334,0.028065461665391922,0.05616595968604088,-0.06065339595079422,-0.04361030086874962,-0.014337223023176193,-0.019990991801023483,-0.04379025846719742,-0.01828763075172901,-0.032375406473875046,-0.054282695055007935,-0.043822772800922394,-0.031266577541828156,0.016925780102610588,0.031170859932899475,0.031804587692022324,0.06549648195505142,0.04130876064300537,0.04354315996170044,-0.07605534046888351,-0.029626064002513885,0.07171634584665298,0.0322854220867157,-0.06754419952630997,-0.031762272119522095,-0.06970484554767609,0.01927746646106243,0.04206710308790207,-0.07098215073347092,-0.0646338239312172,-0.014931559562683105,0.07823573052883148,-0.03519577160477638,0.04469955712556839,0.02508368343114853,-0.07198745757341385,-0.03177810460329056,-0.05650513246655464,0.05514324828982353,0.04178958386182785,-0.033741291612386703,-0.010032338090240955,-0.04123283922672272,0.04674849659204483,0.025606662034988403,0.040240176022052765,-0.07104268670082092,0.023228947073221207,0.04976322129368782,0.06843416392803192,0.07777069509029388,-0.019492778927087784,0.04945078492164612,-0.0016191188478842378,-0.07355795800685883,-0.011733940802514553,-0.06652265787124634,0.04201418161392212,-0.032022442668676376,0.02200218290090561,-0.02569611370563507,-0.03216487914323807,0.03745368495583534,0.02876349538564682,0.057655397802591324,0.03362298011779785,0.07560425996780396,0.04882657155394554,-0.07226716727018356,0.023961342871189117,0.03722608834505081,0.06377797573804855,-0.005410104524344206,0.01953062228858471,0.0773683562874794,0.051160965114831924,0.03273281827569008,0.03492631018161774,0.04567856714129448,-0.0201774500310421,-0.07757376879453659,-0.035719357430934906,-0.04623742401599884,0.048333413898944855,0.004793384112417698,0.07842230796813965,0.06156070530414581,0.04343005269765854,0.06774736940860748,-0.039563585072755814,0.04037285968661308,0.0736062303185463,0.07790956646203995,-0.04970255121588707,0.025166943669319153,0.01820746809244156,0.06141616031527519,0.06029355153441429,0.014863202348351479,-0.05788390338420868,-0.049334097653627396,0.04749347269535065,-0.0009835712844505906,-0.04128499701619148,0.05671406537294388,-0.056697748601436615,0.044106196612119675,-0.05018370971083641,-0.03432825580239296,-0.015255141071975231,-0.07066824287176132,0.05929535999894142,-0.03392315283417702,-0.03333450108766556,0.03587754815816879,-0.012621602974832058,0.07310333847999573,0.07499326020479202,-0.05696024373173714,0.009675619192421436,-0.03844654560089111,-0.020687639713287354,0.017644653096795082,0.013032120652496815,0.05492039769887924,0.06528382003307343,0.015682775527238846,0.04339766502380371,-0.043418336659669876,-0.02575034275650978,0.0033965555485337973,0.005461365450173616,0.015707917511463165,0.03131469711661339,-0.017769819125533104,-0.06960543990135193,0.0016056479653343558,0.06124502420425415,-0.02902870811522007,0.0779062807559967,0.0010621683904901147,0.03979034721851349,0.05827874317765236,-0.006458199117332697,-0.03920041769742966,-0.06185624748468399,-0.0025708526372909546,-0.047930579632520676,-0.022965865209698677,0.012305154465138912,0.015646301209926605,0.021444140002131462,-0.07796051353216171,0.037050213664770126,0.07382117211818695,-0.03598947823047638,0.014986312948167324,-0.05296402797102928,-0.04948170483112335,0.05741060525178909,0.027012666687369347,0.008292049169540405,-0.06486678123474121,0.019223911687731743,-0.06098059564828873,0.04730620235204697,-0.03151058033108711,-0.04322341829538345,-0.007629724219441414,-0.012457754462957382,-0.0736965611577034,-0.04583853483200073,-0.06276261061429977,-0.019547956064343452,-0.017926396802067757,0.055353328585624695,0.0004611210315488279,-0.008836843073368073,0.03453010693192482,-0.0005348262493498623,0.06494798511266708,0.05038600414991379,0.07054218649864197,0.00007581257523270324,0.060444366186857224,0.029489504173398018,-0.03356153145432472,-0.06426587700843811,0.04713008180260658,0.048440057784318924,0.06418623775243759,-0.01831577904522419,-0.022262899205088615,0.038109295070171356,0.00966020580381155,0.06344794481992722,-0.05875260755419731,-0.061702895909547806,0.0391780287027359,0.052610527724027634,-0.05655182525515556,0.03036283329129219,-0.06179378926753998,-0.043131887912750244,0.06213272362947464,-0.010856938548386097,-0.04378427565097809,-0.03751697763800621,0.006305674556642771,-0.05569031834602356,0.06327656656503677,-0.018397120758891106,-0.05376233160495758,0.049532387405633926,0.024891626089811325,-0.040595248341560364,0.0031239911913871765,-0.02211984619498253,-0.013093669898808002,0.028602387756109238,-0.06971315294504166,-0.07857218384742737,-0.023734068498015404,0.020291704684495926,0.06760089099407196,-0.004591821227222681,0.026089981198310852,0.04511386528611183,-0.039799805730581284,0.07037106156349182,-0.03449501469731331,0.017366381362080574,0.021890418604016304,0.03824876248836517,0.03698323667049408,-0.03014322742819786,-0.07262520492076874,-0.0449206605553627,-0.03059942089021206,0.019365062937140465,0.027743717655539513,0.06327658146619797,0.011660430580377579,-0.019682304933667183,0.05193707346916199,0.04773751273751259,0.0753016322851181,0.009913979098200798,0.0020380394998937845,0.07300709187984467,0.04261242225766182,-0.011288692243397236,-0.0113297114148736,-0.05292711779475212,-0.05681686848402023,0.028093069791793823,0.06465885043144226,-0.011642462573945522,-0.018240178003907204,-0.04200699180364609,0.02002551406621933,0.020416220650076866,0.07331480085849762,-0.059632543474435806,-0.05581926181912422,0.05379835516214371,-0.010388865135610104,-0.025110160931944847,0.009998035617172718,0.03754078969359398,-0.056397490203380585,0.07297490537166595,0.033150557428598404,0.02980663813650608,-0.03977468982338905,0.06142178922891617,0.001702634384855628,-0.04858808219432831,0.07154481112957001,0.03539517521858215,-0.04322775453329086,-0.04345455393195152,-0.07282078266143799,-0.009206877090036869,-0.023408792912960052,-0.07170961797237396,-0.007449788972735405,0.05248081311583519,0.048990849405527115,0.001374205807223916,-0.057667624205350876,-0.03454393148422241,0.0007661209092475474,0.038099415600299835,-0.0037643059622496367,-0.07643061876296997,-0.044815950095653534,0.05902088060975075,0.03958505019545555,-0.05950956419110298,-0.048895131796598434,-0.022553222253918648,-0.05329153314232826,-0.0435585118830204,-0.047672346234321594,-0.05803149938583374,-0.018151190131902695,0.054302603006362915,-0.0429563969373703,-0.02379583939909935,0.05589235946536064,0.07608330994844437,-0.05920302867889404,0.026171980425715446,0.042113665491342545,0.04294968396425247,0.013340584933757782,0.021206866949796677,0.06834562867879868,-0.02048434503376484,-0.007953557185828686,-0.036780886352062225,0.01952498033642769,-0.02093326859176159,-0.0012300905073061585,0.002501229988411069,-0.0705845057964325,0.07793141156435013,0.0075383782386779785,-0.0323810875415802,0.008825692348182201,-0.07423146069049835,0.0023253057152032852,-0.06319236010313034,0.06692329794168472,0.0022642214316874743,-0.0777130275964737,0.04201613739132881,-0.06198035180568695,0.01028748881071806,-0.05851858854293823,0.031798701733350754,-0.001377419219352305,-0.04781999811530113,0.019395682960748672,-0.0780862346291542,0.07087042927742004,0.017391106113791466,-0.04743676632642746,0.07756180316209793,-0.03645642474293709,0.015975695103406906,0.0006347812595777214,-0.0057023437693715096,0.07063102722167969,-0.04816038906574249,-0.0026098655071109533,-0.0548938624560833,0.04106937348842621,0.06978998333215714,-0.03383684903383255,0.05930563807487488,-0.008648116141557693,0.005391818471252918,-0.007235947996377945,0.04971330612897873,0.03656124696135521,0.029416585341095924,-0.05943029373884201,0.05346137285232544,-0.00822852086275816,-0.04302036389708519,0.024823874235153198,0.010765780694782734,0.011888278648257256,-0.04100441187620163,-0.023025253787636757,0.0489095076918602,0.052233096212148666,-0.006219794042408466,-0.03332259878516197,0.041633691638708115,-0.016748474910855293,-0.006004914175719023,0.017153300344944,0.023658910766243935,-0.009839650243520737,0.0533212311565876,-0.011160586029291153,-0.06778142601251602,-0.0380658321082592,-0.006778921000659466,0.014418135397136211,-0.04031090810894966,-0.03770895302295685,0.06269841641187668,0.010083247907459736,0.04921514168381691,-0.009980129078030586,0.04590427502989769,0.05042138323187828,-0.04460373520851135,-0.06343173235654831,-0.04942283779382706,-0.002924772910773754,0.002930210903286934,-0.02537701651453972,-0.01262305025011301,0.03999430686235428,-0.01884135790169239,0.04893670231103897,-0.07806004583835602,0.01206847932189703,-0.007317194249480963,0.03501225262880325,-0.03981366008520126,-0.04414279758930206,-0.03964477777481079,-0.054624930024147034,-0.005925671197474003,0.03982887417078018,0.00022004227503202856,0.01747756637632847,-0.01710391789674759,-0.06575906276702881,-0.0054520308040082455,-0.04922086372971535,0.04591742902994156,-0.0605073943734169,-0.02354245074093342,0.06029704213142395,0.04691246896982193,0.039120424538850784,-0.04956521466374397,0.059179313480854034,-0.013946781866252422,-0.02192319929599762,-0.0230178851634264,-0.042836371809244156,0.05928868427872658,-0.07807011902332306,0.013273974880576134,-0.02853010594844818,0.06729177385568619,-0.037972014397382736,-0.008384272456169128,0.06019063666462898,-0.05000109225511551,0.06957439333200455,0.06003107503056526,0.0008172549423761666,-0.004376836121082306,0.003956511616706848,-0.03573233261704445,-0.0076372697949409485,-0.0001344244956271723,-0.06250359863042831,0.009522698819637299,0.03620276227593422,0.001826570020057261,0.053336236625909805,0.03458087518811226,0.05336131528019905,0.06512340903282166,-0.012548576109111309,0.058072008192539215,0.030898969620466232,-0.03154612332582474,-0.0022745977621525526,-0.07574989646673203,-0.03526884317398071,-0.06389046460390091,-0.06909153610467911,0.040417008101940155,-0.01766183413565159,-0.06528647989034653,0.019841814413666725,0.006842652801424265,0.021470822393894196,-0.048833999782800674,0.06936977058649063,-0.0442059300839901,-0.048889391124248505,-0.04828504100441933,0.06682191044092178,0.011882244609296322,0.06260089576244354,0.042219411581754684,-0.01901697739958763,0.017040342092514038,0.05092184990644455,-0.043565887957811356,-0.018837185576558113,0.00885154027491808,-0.014291264116764069,-0.01492104958742857,-0.023322613909840584,0.05148684233427048,-0.008814306929707527,0.027918918058276176,0.03356514498591423,-0.0010370565578341484,-0.07480723410844803,-0.0033876688685268164,0.07174176722764969,0.013199886307120323,0.049369845539331436,0.022825026884675026,0.03381287679076195,-0.05716391280293465,0.07020392268896103,0.05183306336402893,0.043425094336271286,-0.060035303235054016,-0.07766356319189072,0.0236978679895401,-0.045627158135175705,0.07675962150096893,-0.06949784606695175,0.0643693134188652,0.07010117173194885,0.01800069957971573,0.0065187253057956696,0.02303641103208065,-0.0657583698630333,-0.021402882412075996,-0.07748552411794662,0.01403023675084114,0.0009264578111469746,-0.0005058188689872622,0.05454375967383385,0.01775025948882103,0.011862761341035366,-0.060663457959890366,0.01897563226521015,0.008710751309990883,0.03789758309721947,-0.05170580372214317,0.019064610823988914,0.04669129475951195,0.036499518901109695,0.05564352869987488,0.008765123784542084,-0.05849782004952431,0.04367031529545784,0.07505597174167633,-0.021109072491526604,0.0700094997882843,-0.04260290414094925,0.07420969754457474,0.03212187439203262,-0.06369417905807495,-0.06553464382886887,0.034903477877378464,-0.03846081346273422,-0.0036996041890233755,-0.01586877927184105,0.07230507582426071,0.06049307808279991,0.029676344245672226,0.051993731409311295,0.02994486503303051,-0.03156036511063576,0.023485781624913216,0.03538786619901657,0.02898659184575081,0.009791411459445953,0.02714538387954235,-0.04504695162177086,0.051636382937431335,0.01628883183002472,0.035052429884672165,0.06857361644506454,0.04167909547686577,-0.018578095361590385,0.04634867608547211,-0.037998221814632416,0.016051720827817917,0.004879670683294535,-0.024434028193354607,0.0005474608624354005,0.0037152611184865236,-0.07516758143901825,0.019934136420488358,-0.03387836366891861,0.06733029335737228,-0.04608377441763878,0.0037667404394596815,-0.00969547126442194,0.020244866609573364,-0.027445446699857712,-0.06924271583557129,0.02820461243391037,0.006282046437263489,0.06582116335630417,0.006492842920124531,-0.017088286578655243,0.033149778842926025,-0.014194010756909847,-0.05194767937064171,-0.023748796433210373,-0.048851773142814636,-0.002785027725622058,-0.05198822170495987,0.032002806663513184,-0.030027136206626892,0.06541226804256439,-0.0078113689087331295,-0.022349340841174126,0.010005323216319084,-0.051991891115903854,0.004916113335639238,-0.02028428576886654,-0.07283400744199753,0.04313313215970993,-0.021484896540641785,-0.012200003489851952,0.030995404347777367,-0.05595538392663002,-0.008762500248849392,0.07509593665599823,0.009010940790176392,0.023871934041380882,0.033192891627550125,0.0737827718257904,-0.012519742362201214,0.03322387486696243,0.05131661146879196,-0.010851667262613773,-0.02771647274494171,-0.005706237629055977,-0.030446726828813553,-0.06636078655719757,0.06636837869882584,0.06764644384384155,0.0069230725057423115,-0.046623148024082184,0.05366325005888939,-0.00783727876842022,-0.010406791232526302,0.0038545909337699413,-0.006042301654815674,0.018007755279541016,-0.0526389442384243,-0.040797099471092224,0.05255773663520813,0.03489430248737335,-0.023949161171913147,-0.040351517498493195,-0.02407073602080345,0.03154371678829193,-0.018900280818343163,0.05261105298995972,0.03035593591630459,0.00735743623226881,-0.005119407083839178,-0.03043413907289505,0.005235731136053801,0.02075931802392006,0.0382128469645977,-0.050674498081207275,0.018789855763316154,0.04920972138643265,-0.03504420816898346,-0.07194255292415619,-0.053671155124902725,-0.037418343126773834,0.07620233297348022,0.06471522897481918,-0.04312310367822647,-0.022119395434856415,0.07237861305475235,0.05220039188861847,0.004145560320466757,-0.047036394476890564,-0.01821635663509369,0.03642015531659126,-0.001607410842552781,-0.029524363577365875,-0.041116490960121155,-0.03031737357378006,0.03774509206414223,-0.06008743494749069,-0.03913823142647743,-0.021501824259757996,-0.0669839009642601,-0.045579858124256134,0.02883053570985794,0.04128018766641617,-0.04108906164765358,0.029683509841561317,-0.016141805797815323,0.06501170992851257,0.022571640089154243,0.03833051770925522,-0.04814865067601204,0.05306994915008545,-0.05882114917039871,0.04725315794348717,-0.012032242491841316,0.06968482583761215,0.0659031867980957,0.03523571044206619,-0.06445106863975525,0.06416038423776627,0.042596518993377686,-0.04909549653530121,0.010643348097801208,-0.01886371336877346,-0.005052683874964714,-0.06548159569501877,-0.011468560434877872,-0.05760082229971886,0.008914976380765438,-0.05286199226975441,0.06306853890419006,-0.03557591512799263,-0.06688760966062546,-0.020060036331415176,-0.028477367013692856,0.07295256853103638,-0.04274051636457443,0.05551528558135033,0.0021618164610117674,-0.038515396416187286,0.010684679262340069,0.021702352911233902,-0.04780467972159386,-0.019876383244991302,0.07002294063568115,-0.042983077466487885,-0.0014937801752239466,-0.05320346727967262,-0.05210990831255913,-0.05822728946805,-0.07651004940271378,-0.04579205811023712,-0.004265266470611095,-0.04963960126042366,0.020841211080551147,0.06660770624876022,-0.0632755383849144,-0.019330305978655815,-0.02703859657049179,0.06662970781326294,0.06416396796703339,0.06629595905542374,-0.005273022223263979,0.05116049945354462,0.04573088139295578,0.05172228068113327,-0.02310159057378769,-0.026442209258675575,0.06742081791162491,0.02473900094628334,-0.0164109468460083,0.0038358799647539854,-0.027446283027529716,-0.017665455117821693,0.007844964042305946,-0.029392046853899956,-0.06378766894340515,0.013917914591729641,-0.07472115755081177,0.04821944236755371,0.051993437111377716,-0.06582165509462357,0.021714311093091965,0.014666583389043808,-0.017908576875925064,0.04403812438249588,0.001107437419705093,-0.03953661024570465,-0.022468775510787964,0.024394545704126358,0.01788259483873844,-0.044668953865766525,-0.05083205923438072,-0.021732760593295097,-0.047307584434747696,0.022260621190071106,-0.04476150870323181,-0.03660757467150688,0.02750856801867485,0.0037855501286685467,0.06501246988773346,-0.020947886630892754,-0.04177110642194748,0.005673167761415243,0.06634575128555298,0.07317598164081573,0.06200794875621796,0.06507749110460281,0.05174311250448227,-0.010506325401365757,0.07148678600788116,-0.058175455778837204,0.05054919049143791,-0.013004503212869167,-0.03542482480406761,-0.020425477996468544,0.017203539609909058,-0.06650037318468094,-0.05903231352567673,0.04139912500977516,-0.04350724816322327,0.0498729906976223,-0.036619577556848526,-0.01543582696467638,-0.01146542839705944,0.057105958461761475,-0.046083807945251465,0.03630034253001213,0.019906023517251015,-0.047507189214229584,0.042792078107595444,0.034589044749736786,0.036265142261981964,-0.06312046200037003,0.04278722032904625,-0.04953623190522194,0.011593826115131378,0.0352378785610199,-0.008085304871201515,0.03345682844519615,-0.037377119064331055,-0.04389118030667305,0.02726154774427414,-0.05542156100273132,0.028151407837867737,0.016447287052869797,0.06645838916301727,0.0044082337990403175,-0.07682233303785324,0.03588217496871948,-0.0772291049361229,0.04230405017733574,-0.029101962223649025,0.01611817255616188,0.027038702741265297,0.0037967353127896786,-0.03587564080953598,0.07037731260061264,-0.06775256991386414,0.05596017837524414,0.05234335735440254,0.041088394820690155,-0.07414059340953827,0.037123437970876694,0.03301206976175308,-0.07413017749786377,0.05187678709626198,-0.0202897097915411,0.040031883865594864,-0.013386771082878113,-0.0029085681308060884,-0.04622809588909149,0.05816752463579178,0.016611916944384575,-0.023738324642181396,0.04457173869013786,0.005822684150189161,0.0014688220107927918,0.01089406106621027,0.032888155430555344,-0.030704278498888016,-0.02121748775243759,0.046875838190317154,0.07060252130031586,-0.035289131104946136,0.07072360813617706,0.0669180303812027,0.03878333419561386,0.06102628633379936,-0.04034549742937088,-0.05403415113687515,-0.04217672720551491,-0.07534416764974594,-0.0771513506770134,0.030565926805138588,0.01840098761022091,0.07251985371112823]},"inputBias":{"rows":30,"columns":1,"weights":[-0.6472682952880859,-0.9658411145210266,-0.6627430319786072,-1.0304489135742188,-0.9985507726669312,-1.025821328163147,-0.9887853264808655,-0.4164827764034271,-0.3928333520889282,-0.845146894454956,-1.09329092502594,-0.5577313303947449,-0.9574249982833862,-0.6304857730865479,-0.42744705080986023,-0.9842220544815063,-1.0173677206039429,-0.4808107018470764,-0.9977108836174011,-0.5485209822654724,-0.4414215087890625,-0.48333215713500977,-0.9380960464477539,-0.9561702013015747,-1.0022366046905518,-0.391269326210022,-1.023896336555481,-0.48173320293426514,-0.5176189541816711,-0.4150819480419159]},"forgetMatrix":{"rows":30,"columns":1,"weights":[0.038213100284338,-0.054350972175598145,0.03906601294875145,0.02497667260468006,-0.016842612996697426,0.001480238395743072,-0.06238262355327606,-0.04013919457793236,-0.00010663626017048955,0.03746914118528366,0.07738328725099564,-0.07482469826936722,0.03595700114965439,-0.06095029041171074,0.014135968871414661,-0.06983710080385208,0.054870471358299255,-0.015745263546705246,-0.020820576697587967,-0.0591062530875206,-0.058002959936857224,-0.07509252429008484,0.048068657517433167,0.061169009655714035,0.07690883427858353,0.03443438559770584,0.05102935805916786,0.014626258984208107,0.014065847732126713,0.015588984824717045]},"forgetHidden":{"rows":30,"columns":30,"weights":[-0.07002247869968414,0.07042129337787628,-0.014455064199864864,-0.04749047011137009,-0.06767608970403671,-0.03958853334188461,-0.039872005581855774,0.005399227142333984,0.0551140233874321,-0.026443008333444595,0.014385939575731754,0.07134934514760971,-0.07876213639974594,-0.0683334693312645,0.0545625202357769,-0.008325586095452309,-0.0651494562625885,0.06318111717700958,0.04808245226740837,0.032155368477106094,0.013145027682185173,0.07729765772819519,0.07085895538330078,0.0445401668548584,-0.06800126284360886,-0.015933716669678688,0.07325500249862671,-0.05742894113063812,0.06647422909736633,0.053841955959796906,-0.04229146987199783,0.06955066323280334,-0.04006978124380112,-0.0437205471098423,0.03893798962235451,0.07029283791780472,-0.0013021227205172181,0.0708136111497879,0.004437044728547335,-0.04472056403756142,-0.013005776330828667,-0.03897310420870781,0.07661472260951996,-0.0018144873902201653,-0.05495990812778473,-0.006976693402975798,-0.037348710000514984,0.0036327936686575413,0.023668888956308365,-0.0623735748231411,-0.010781175456941128,0.05060407519340515,0.011112101376056671,-0.0672905221581459,0.030805161222815514,-0.075685054063797,0.042757775634527206,-0.04754848778247833,0.0774739682674408,-0.016883844509720802,-0.03276130557060242,0.015774263069033623,0.057210568338632584,-0.021932121366262436,0.007825851440429688,-0.0749669224023819,0.05666723474860191,0.05039212107658386,-0.02816001884639263,0.07503119856119156,0.07785804569721222,0.061292726546525955,0.004577703308314085,-0.04260685667395592,-0.00008727217937121168,-0.0024071449879556894,0.05621287226676941,-0.055724699050188065,0.05200719088315964,-0.0429333858191967,-0.04046449065208435,0.0577114038169384,0.06911668181419373,-0.03811536356806755,0.03387441486120224,-0.037754639983177185,0.05131106451153755,-0.030899863690137863,-0.021481934934854507,0.03209998086094856,-0.047563500702381134,-0.07214255630970001,-0.0032341815531253815,0.06959141045808792,-0.04988349601626396,-0.07139336317777634,0.04402964934706688,-0.014559738337993622,-0.06833752989768982,0.0000010706772854973678,-0.07784240692853928,-0.0680224597454071,0.029869940131902695,0.07149931788444519,-0.06617539376020432,-0.008916934952139854,-0.006303767673671246,0.014050011523067951,-0.014894251711666584,-0.06152855604887009,0.03733808174729347,-0.0030491785146296024,0.07259747385978699,0.04925737902522087,0.05895664170384407,-0.03169440105557442,-0.0681881532073021,0.013080251403152943,-0.02910188026726246,0.02122836373746395,0.025575323030352592,-0.05854051187634468,-0.03826626390218735,-0.03169308975338936,-0.01874777115881443,0.0057314131408929825,0.014977487735450268,0.059873294085264206,0.028429022058844566,0.05208480730652809,0.03737109899520874,-0.06653499603271484,-0.03655020147562027,-0.06301500648260117,0.028591861948370934,-0.031761299818754196,-0.02156347595155239,-0.010132615454494953,-0.07092694938182831,-0.018210364505648613,-0.0008288014796562493,-0.07477647811174393,0.022258009761571884,0.021233880892395973,0.003731437958776951,0.04412297531962395,0.02029792033135891,0.04465348273515701,0.07580552995204926,0.013745218515396118,-0.03438350185751915,-0.055145714432001114,-0.06903469562530518,-0.027179181575775146,0.06473290175199509,0.02382318675518036,-0.01380517054349184,0.05350540950894356,-0.07550379633903503,0.043861024081707,-0.04061823710799217,0.008920903317630291,0.01746085099875927,0.07612211257219315,-0.035888709127902985,-0.06924569606781006,0.042400456964969635,-0.012571663595736027,0.042396243661642075,-0.011400379240512848,-0.03932211920619011,-0.05184897035360336,-0.05334315821528435,-0.0006283564725890756,0.011471227742731571,-0.04282310977578163,0.0734860748052597,-0.06220296397805214,0.014523005113005638,-0.04777954891324043,0.006341481115669012,-0.07874252647161484,0.07520156353712082,-0.005785111803561449,-0.07761619985103607,-0.07379001379013062,-0.03401217609643936,-0.05697416514158249,-0.06604278832674026,0.041519422084093094,-0.041950542479753494,0.040743421763181686,-0.029453014954924583,-0.0069351037964224815,0.0072312988340854645,0.06595313549041748,-0.03196391463279724,0.061376869678497314,0.0010408059461042285,-0.022058021277189255,0.049217626452445984,0.05452407896518707,-0.06378184258937836,0.054613012820482254,0.07696747779846191,0.02363949827849865,0.07525989413261414,-0.03072131983935833,-0.0025065045338124037,-0.034611593931913376,-0.05652739852666855,0.019887590780854225,0.03475259989500046,0.018387796357274055,0.04284961149096489,-0.011676355265080929,0.046688105911016464,-0.07028916478157043,0.059357091784477234,-0.0024982690811157227,0.06179507076740265,-0.05163609981536865,0.02429427020251751,0.07681702822446823,0.07341602444648743,-0.042495593428611755,-0.06847117841243744,-0.053942445665597916,0.045173753052949905,0.06094444915652275,-0.05561921373009682,-0.0465325303375721,-0.05864055082201958,0.05255758389830589,-0.030579257756471634,-0.04079284146428108,-0.07714483886957169,-0.059743478894233704,-0.0525829903781414,0.031397800892591476,0.0740756168961525,-0.0479808934032917,-0.02982007898390293,0.020989734679460526,-0.018154678866267204,-0.04449479654431343,-0.008233986794948578,-0.07710115611553192,-0.07276789844036102,0.061879951506853104,-0.050614770501852036,0.04411271587014198,0.003896557493135333,0.030665220692753792,-0.008154409937560558,0.07771746814250946,0.04588114097714424,0.04685787856578827,-0.034127376973629,-0.019917523488402367,0.07745015621185303,0.0716925710439682,-0.011915361508727074,0.013412851840257645,-0.05953209102153778,0.025409379974007607,-0.007501599378883839,-0.07176127284765244,-0.024861032143235207,0.004209898877888918,0.010299446061253548,0.05942447483539581,-0.05453241989016533,-0.027847209945321083,0.07167927920818329,-0.06158492714166641,0.010307862423360348,-0.003099425695836544,-0.03337671607732773,0.0020282124169170856,-0.06018257513642311,0.059138763695955276,-0.07279644906520844,0.013322674669325352,-0.07025288045406342,-0.04939240217208862,0.002961278660222888,0.04804789647459984,-0.07376331090927124,-0.038820404559373856,-0.04787171632051468,0.0738648772239685,-0.052963800728321075,-0.0021081049926579,-0.035301271826028824,-0.011887343600392342,-0.01623956859111786,-0.010531444102525711,0.0010799325536936522,0.047674085944890976,-0.03836698830127716,-0.031252384185791016,-0.017612813040614128,-0.07613617181777954,0.015862777829170227,-0.02514016442000866,0.028560934588313103,-0.04509342089295387,0.07270539551973343,0.01745743677020073,-0.04380865767598152,0.0406850203871727,-0.018992042168974876,0.05321494862437248,-0.02315577119588852,-0.02723769098520279,-0.028527626767754555,0.027301063761115074,0.016603676602244377,0.008799486793577671,-0.07021793723106384,0.051731206476688385,-0.016877949237823486,-0.0034778332337737083,0.06670115888118744,-0.07014644891023636,-0.03463892266154289,-0.014358379878103733,-0.005033938214182854,0.06382384151220322,-0.0014532537898048759,-0.06774581968784332,0.03493329882621765,0.0022131751757115126,0.07760791480541229,-0.018910111859440804,-0.04133077338337898,-0.037150610238313675,-0.04519011452794075,-0.06612236797809601,0.038505129516124725,0.06464643031358719,0.0515955314040184,0.006227641832083464,0.0375477597117424,-0.006791660096496344,-0.0024147641379386187,-0.030058598145842552,-0.0676259696483612,-0.017660949379205704,-0.0540136843919754,-0.030498292297124863,0.05215173959732056,0.06544800102710724,-0.011449272744357586,-0.028684545308351517,0.05910627171397209,0.0373753197491169,-0.05209867283701897,-0.0678873285651207,0.03227829560637474,-0.06900434195995331,0.07340899854898453,-0.0255222599953413,-0.010928690433502197,-0.040444839745759964,-0.031510062515735626,-0.07320031523704529,-0.0018487726338207722,0.028460271656513214,-0.03462995961308479,0.016548745334148407,0.06652064621448517,0.0034232973121106625,0.013014337047934532,0.009250515140593052,-0.03904823213815689,-0.029710521921515465,0.008936525322496891,0.06042200326919556,-0.03152896836400032,0.07192546129226685,0.053857430815696716,-0.03189192712306976,-0.0725606381893158,0.0493386834859848,-0.061519328504800797,-0.00008492724009556696,-0.01891898177564144,0.031618598848581314,0.024131573736667633,-0.07146520912647247,-0.06867290288209915,0.013519310392439365,0.04648332670331001,-0.058931875973939896,0.027161000296473503,0.0011012442409992218,0.024031784385442734,-0.030117874965071678,0.010060364380478859,-0.012307297438383102,0.0758923590183258,0.04702464118599892,-0.027118586003780365,0.005250239744782448,-0.05120179057121277,-0.07830053567886353,-0.016937144100666046,0.04422102868556976,0.0038819811306893826,-0.06399765610694885,-0.02524390071630478,-0.025299493223428726,-0.003529642941430211,-0.017594309523701668,-0.07189817726612091,0.07508426159620285,-0.04071179777383804,0.07757432013750076,-0.06937139481306076,-0.07815910875797272,-0.013874173164367676,0.025211619213223457,-0.007986250333487988,-0.07072983682155609,0.04754727706313133,-0.049723025411367416,0.05847403034567833,-0.07626112550497055,-0.0036088882479816675,-0.07741240411996841,0.06328549236059189,-0.06494630128145218,-0.011322694830596447,-0.07728875428438187,0.03597911819815636,-0.05750436708331108,-0.04316684976220131,0.03115120902657509,0.07685022056102753,0.031723055988550186,-0.07751259207725525,0.02400604449212551,-0.06086098402738571,0.05663652718067169,-0.011231026612222195,-0.01908917911350727,0.031058955937623978,0.03257203474640846,0.029894260689616203,0.011909162625670433,-0.03509201109409332,-0.04825747013092041,-0.06290288269519806,-0.002524404786527157,0.05688721686601639,-0.005296234507113695,-0.05344296619296074,-0.07043082267045975,0.03707559034228325,-0.02168874628841877,-0.07603459060192108,-0.014494840055704117,-0.03797439485788345,0.03804702311754227,-0.05944986641407013,-0.016583016142249107,-0.05473606660962105,0.0676708072423935,-0.011350980028510094,-0.07873620092868805,0.02638925425708294,0.02157716639339924,-0.009405256249010563,0.02587950974702835,-0.007798961829394102,0.04258429631590843,0.0241494569927454,-0.03856442868709564,0.03545866906642914,-0.012264746241271496,-0.05012938752770424,0.003961312584578991,-0.07603522390127182,-0.02633570320904255,-0.03688940033316612,-0.042210277169942856,0.0021499639842659235,0.04075782746076584,0.008833220228552818,0.0024746633134782314,-0.03516191244125366,-0.05472506955265999,0.07761910557746887,-0.037874214351177216,0.07355981320142746,-0.065681591629982,0.02693253569304943,-0.05713304132223129,0.007893644273281097,-0.07649979740381241,0.038870926946401596,-0.04210340231657028,0.07374411821365356,0.0592290535569191,0.06332778185606003,0.031180450692772865,0.04568375274538994,-0.021469149738550186,0.06973613798618317,-0.07767103612422943,-0.07596860080957413,0.034358151257038116,0.017262622714042664,0.02375115640461445,-0.00866268016397953,-0.06870780885219574,-0.006257365457713604,-0.07180236279964447,0.05579559877514839,-0.01560938823968172,-0.07280293852090836,0.017258306965231895,-0.06094411760568619,-0.06904596090316772,-0.05549490824341774,-0.012605817057192326,0.07398006319999695,-0.030511200428009033,-0.05734413117170334,0.0582815483212471,-0.03036866895854473,-0.06399988383054733,-0.017131580039858818,0.03990470990538597,-0.021173054352402687,0.037087272852659225,0.04459136724472046,-0.049833305180072784,0.03483225405216217,-0.06055182218551636,-0.007466083392500877,-0.05993470177054405,-0.02267882600426674,0.03588731959462166,-0.05434522405266762,0.0020290978718549013,-0.023927288129925728,0.04100266471505165,0.01847594417631626,0.06671715527772903,-0.04117971658706665,-0.007513523101806641,0.02125447615981102,0.07188357412815094,0.026056159287691116,-0.029127148911356926,-0.05694646015763283,0.040747758001089096,-0.028543125838041306,-0.011980238370597363,0.06940580904483795,0.05060826614499092,0.01923266053199768,-0.041405048221349716,-0.004140438977628946,0.037562716752290726,0.048835013061761856,-0.030755871906876564,-0.060794129967689514,0.04871382936835289,-0.021550508216023445,0.0023018838837742805,-0.04113082215189934,0.07699490338563919,0.050441790372133255,0.010370030999183655,-0.07815741747617722,-0.007847835309803486,-0.07249730825424194,-0.051513805985450745,-0.0684494823217392,-0.017034398391842842,0.06923019886016846,0.029414191842079163,-0.013895253650844097,0.029929790645837784,-0.055037662386894226,-0.04072728753089905,-0.03307509422302246,-0.06306704878807068,0.004382551182061434,-0.07316890358924866,0.05880364030599594,-0.04712289944291115,-0.043662965297698975,-0.008875261060893536,0.07534950226545334,0.05563392490148544,-0.06527891755104065,0.03926645219326019,0.05817524716258049,0.049222998321056366,-0.044453900307416916,0.01702180504798889,0.04216834902763367,-0.00039578319410793483,0.021198879927396774,0.039266105741262436,-0.07730098813772202,-0.04106956347823143,-0.06824640929698944,-0.07829078286886215,0.02640622854232788,-0.020061565563082695,-0.028559720143675804,-0.019385535269975662,-0.04721700772643089,-0.024338187649846077,0.06708225607872009,-0.06306404620409012,-0.002194186206907034,-0.02568037062883377,-0.023105546832084656,-0.03655204549431801,0.040493037551641464,-0.04347024857997894,0.07841445505619049,-0.009414120577275753,-0.022550983354449272,-0.0716615542769432,0.036628056317567825,-0.0040965904481709,0.04857952147722244,-0.06655658781528473,-0.05978967994451523,-0.010050849057734013,0.057772304862737656,-0.014964149333536625,0.025343837216496468,0.019573897123336792,-0.03715544939041138,-0.05048327147960663,-0.011059092357754707,-0.07833289355039597,-0.02884536422789097,0.07181260734796524,-0.028787681832909584,0.05410131812095642,0.03865392133593559,-0.07843844592571259,0.04578195884823799,-0.07153771072626114,0.05701923742890358,-0.05714120715856552,0.060614414513111115,0.07758298516273499,-0.008947188034653664,-0.016996946185827255,0.013149539940059185,0.05571052432060242,0.05363553389906883,0.004603909328579903,0.05921014025807381,-0.05207546427845955,0.002232861239463091,0.009760076180100441,-0.023300202563405037,0.000275913072982803,0.03612896800041199,-0.016890011727809906,-0.007616446353495121,0.03625045344233513,0.011315351352095604,-0.06932444870471954,0.06519714742898941,0.022487929090857506,0.06469051539897919,-0.00525458250194788,0.023648075759410858,0.04451112449169159,-0.07532227784395218,0.059519924223423004,-0.0501895397901535,-0.01721370220184326,-0.04015718400478363,-0.00964830070734024,-0.03237031400203705,0.07199572026729584,0.06758397817611694,0.06179625168442726,0.07153666019439697,-0.019976528361439705,-0.06638847291469574,0.07216686010360718,-0.030504491180181503,0.021222639828920364,0.06820487231016159,-0.0027655891608446836,0.04658551141619682,-0.0335843451321125,-0.03731066361069679,0.024642938748002052,0.03444165363907814,-0.010090567171573639,0.022123992443084717,-0.02272135391831398,0.020957930013537407,0.052692633122205734,-0.07371571660041809,0.07133211940526962,0.05173615738749504,-0.03247084468603134,-0.06621269136667252,0.0734352320432663,-0.07669756561517715,0.048884131014347076,0.07087554037570953,-0.06491915881633759,0.057788413017988205,0.022173792123794556,-0.037141453474760056,0.07676411420106888,0.04308373108506203,0.023776276037096977,-0.009511617943644524,0.0629781037569046,-0.0634106993675232,-0.018883073702454567,0.030770137906074524,0.035297758877277374,0.05018540471792221,0.026714559644460678,-0.04538159444928169,-0.0565403550863266,-0.030968980863690376,0.013249150477349758,-0.021314088255167007,-0.033270593732595444,-0.0770830363035202,-0.04507490620017052,-0.013427619822323322,-0.020567601546645164,-0.06593487411737442,-0.041992396116256714,0.0576050840318203,-0.0366288460791111,0.04620451480150223,-0.00561833381652832,-0.03930254653096199,-0.06527175009250641,-0.037711240351200104,-0.06171508505940437,-0.05874136835336685,-0.057406868785619736,-0.020623138174414635,0.060172587633132935,0.011247217655181885,-0.00981224700808525,0.012027472257614136,0.052191801369190216,-0.04829346761107445,-0.03056231141090393,0.004235631320625544,-0.025220461189746857,-0.06064661964774132,-0.005395226180553436,-0.0706416517496109,-0.025731660425662994,-0.014209946617484093,-0.059061240404844284,0.018532035872340202,-0.03537769615650177,-0.04775097221136093,0.014604056254029274,0.028754083439707756,0.07524347305297852,-0.05389120429754257,-0.014306602999567986,0.042314838618040085,-0.02391805872321129,0.057405371218919754,0.002474686363711953,0.06817444413900375,-0.0005701666232198477,0.014462304301559925,0.01620258018374443,0.0016227688174694777,-0.024235321208834648,0.0767081156373024,0.06328564137220383,-0.05198641121387482,0.05154162272810936,-0.0457034669816494,0.018552513793110847,0.024923980236053467,-0.05182407796382904,-0.049120813608169556,-0.02907554991543293,-0.03681758791208267,-0.028605269268155098,-0.008078189566731453,-0.04510587081313133,0.07325422018766403,0.052682142704725266,0.01970028318464756,-0.06445460021495819,0.038263630121946335,-0.014940137043595314,-0.06072980910539627,-0.021634038537740707,-0.04890267550945282,-0.034377168864011765,-0.07861439883708954,-0.022377600893378258,0.0599556490778923,-0.010992624796926975,0.032492637634277344,0.07801808416843414,0.0397329144179821,0.077944315969944,-0.07728319615125656,0.07304631173610687,-0.014108811505138874,0.05060096085071564,0.07174158841371536,-0.0021379985846579075,0.018142884597182274,0.029949070885777473,0.027598911896348,0.049551524221897125,-0.06536885350942612,0.019839130342006683,-0.0686228945851326,-0.03432294726371765,-0.024261342361569405,-0.02875608205795288,0.0017391443252563477,0.01172330416738987,0.07337314635515213,0.008007032796740532,-0.004472138825803995,0.03269394114613533,-0.07383313030004501,-0.05556158348917961,0.047415293753147125,0.014883359894156456,-0.07743790000677109,0.058389078825712204,-0.062104739248752594,0.02607884630560875,0.033070504665374756,0.0016797148855403066,0.05734558776021004,0.002136782044544816,0.06535906344652176,0.06631811708211899,0.02752201072871685,0.006442791782319546,-0.06424790620803833,0.036453768610954285,-0.01430273987352848,-0.07400980591773987,-0.03894934803247452,0.03528716042637825,0.07237978279590607,-0.0019000901374965906,0.05933434143662453,0.04788012430071831,-0.03166733682155609,0.021428413689136505,-0.05905935540795326,0.041260771453380585,0.000379235134460032,-0.0004161521792411804,0.04275048151612282,0.04402567446231842,-0.05870755761861801,-0.010089012794196606,-0.028287013992667198,-0.049420662224292755,-0.060976848006248474,-0.01567392610013485,0.05289512872695923,0.04631418362259865,0.05844463035464287,-0.010571927763521671,-0.0214441679418087,0.06503508239984512,0.023856354877352715,-0.0625167042016983,-0.06204641982913017,-0.008143382146954536,0.007662951480597258,-0.0011826128466054797,-0.051845256239175797,0.05341289937496185,0.04009692370891571,0.048709869384765625]},"forgetBias":{"rows":30,"columns":1,"weights":[0,0,0,0,0,0,0,0,0,0,0,0,0,0,0,0,0,0,0,0,0,0,0,0,0,0,0,0,0,0]},"outputMatrix":{"rows":30,"columns":1,"weights":[-0.21747355163097382,-0.5333653092384338,-0.19152484834194183,-0.35831061005592346,-0.5150396823883057,0.19941511750221252,-0.5204107165336609,-0.1436181664466858,-0.09894276410341263,-0.34886375069618225,0.08252181112766266,-0.13862115144729614,-0.60206538438797,-0.22488489747047424,-0.1599794328212738,1.175384283065796,-0.4162558913230896,-0.18865086138248444,-0.45506027340888977,-0.24624444544315338,-0.22887150943279266,-0.16123485565185547,-0.6342375874519348,-0.3459155857563019,-0.3877803087234497,-0.1683375984430313,-0.3243476450443268,-0.20123597979545593,-0.23670005798339844,-0.16279499232769012]},"outputHidden":{"rows":30,"columns":30,"weights":[-0.017396435141563416,-0.05228579044342041,-0.05900920182466507,0.0665244609117508,-0.049798887223005295,0.05995584651827812,0.01745467260479927,-0.045633286237716675,-0.03738415241241455,-0.04682956263422966,-0.01190081425011158,0.03256942331790924,-0.0238358024507761,0.06523454189300537,0.04336515814065933,-0.07750590890645981,0.02905048243701458,-0.07814595103263855,-0.013650872744619846,0.0771433487534523,-0.06448698043823242,0.04011773318052292,0.019931472837924957,-0.0015972547698765993,0.022417208179831505,-0.01890462636947632,0.05128279700875282,-0.024640295654535294,0.003331440966576338,0.02059227228164673,-0.0778789147734642,-0.055401574820280075,-0.021465785801410675,-0.06736944615840912,0.04072500392794609,-0.022213540971279144,-0.040580861270427704,-0.04904765635728836,0.006693101022392511,0.07215149700641632,0.06664358824491501,-0.058317314833402634,-0.006666322238743305,-0.01415835227817297,-0.0783001109957695,0.007943765260279179,0.07158330082893372,-0.048599179834127426,0.06424587219953537,0.001346792676486075,0.07876841723918915,-0.0580119825899601,0.058025091886520386,0.07444937527179718,-0.07755858451128006,0.05275882035493851,-0.05939096957445145,0.06699994951486588,0.019350798800587654,-0.054455287754535675,-0.030608514323830605,-0.07837895303964615,0.02120090462267399,0.07777618616819382,0.003973750397562981,-0.07173556834459305,0.04372556880116463,0.04089659824967384,0.07663391530513763,-0.03819560259580612,0.03423360362648964,0.058455776423215866,-0.02655036747455597,-0.014026599936187267,-0.017545023933053017,-0.010153922252357006,-0.07096199691295624,-0.05901561304926872,-0.05999450385570526,-0.03780688717961311,-0.030363382771611214,0.04999396577477455,-0.04280734434723854,0.07700497657060623,-0.01284188125282526,-0.011414221487939358,0.055002644658088684,0.06972800940275192,0.05772506445646286,0.0466708168387413,-0.05733902379870415,-0.02975490316748619,-0.011573711410164833,0.0064442576840519905,0.03685133904218674,-0.013564270921051502,-0.0483318567276001,-0.027459437027573586,-0.027777178213000298,-0.05777255818247795,0.05875537171959877,0.00823846086859703,-0.04115699604153633,0.013378228060901165,-0.06380653381347656,0.06805303692817688,-0.024587180465459824,0.014885414391756058,-0.006585337221622467,-0.03126759082078934,-0.06883814930915833,0.057167090475559235,-0.030836196616292,0.019494349136948586,-0.07602833211421967,0.0039997524581849575,-0.04589582234621048,0.00499717565253377,0.016408225521445274,0.015194959938526154,-0.03907235339283943,0.059002362191677094,-0.0748414546251297,0.00659165158867836,0.02692614123225212,0.03306527063250542,0.053107187151908875,0.0768221840262413,0.06968766450881958,0.047044847160577774,0.037732671946287155,0.013145103119313717,-0.0001829888205975294,0.028844693675637245,-0.023129085078835487,-0.020933037623763084,0.07582543045282364,0.0325172021985054,0.05076194927096367,0.07263229042291641,0.03741633892059326,-0.043651893734931946,-0.020915009081363678,0.035923078656196594,0.026875125244259834,-0.007577246055006981,0.008291102014482021,0.07026677578687668,0.07199107855558395,-0.03820796683430672,-0.03489639237523079,-0.0357629731297493,-0.06057658791542053,-0.037679120898246765,0.06083887442946434,0.0784069299697876,-0.0017381921643391252,0.02857852540910244,-0.06380649656057358,0.015150432474911213,-0.022542953491210938,0.039553821086883545,0.011511966586112976,0.06554172933101654,-0.009404406882822514,-0.026364391669631004,0.06516437977552414,-0.0028677359223365784,0.03859616443514824,-0.0725347250699997,0.054134923964738846,-0.01778670959174633,0.044944919645786285,-0.024543553590774536,-0.07301267236471176,0.012871739454567432,0.07735015451908112,-0.06628097593784332,0.0011915756622329354,-0.05887806415557861,0.04475473612546921,-0.007128504104912281,-0.06557422876358032,-0.03855562210083008,-0.0033950658980757,0.0005789560382254422,0.025025611743330956,-0.028315426781773567,-0.003251629415899515,-0.004113899078220129,0.025745121762156487,-0.06479537487030029,-0.010706916451454163,-0.06174558028578758,0.06367979198694229,-0.00047338055446743965,0.023704668506979942,0.05635258927941322,0.03495531901717186,-0.02150416560471058,0.07142235338687897,-0.061514198780059814,0.05179339647293091,0.05864465981721878,-0.0606057234108448,0.014130039140582085,-0.01468046847730875,0.035483311861753464,0.034148965030908585,0.018137000501155853,0.003941526636481285,-0.0024505697656422853,0.045997392386198044,-0.06880597770214081,0.035155296325683594,-0.05375836417078972,-0.047224510461091995,0.038401905447244644,-0.013124355114996433,0.02292366698384285,-0.07218673080205917,0.06783740967512131,0.04785729944705963,0.010705994442105293,-0.021755559369921684,-0.04099295660853386,0.04127245023846626,0.013715497218072414,-0.027582690119743347,-0.05974903330206871,0.07022720575332642,0.05622848495841026,-0.023552410304546356,-0.07045421749353409,-0.07395097613334656,0.022077398374676704,0.04054995998740196,0.055418211966753006,0.061779048293828964,0.040210314095020294,0.02843923307955265,-0.019061803817749023,-0.05047560855746269,0.04039962589740753,0.07220501452684402,0.06198492646217346,0.07572679966688156,0.015545696951448917,-0.0764540284872055,0.011737491004168987,0.007664516568183899,-0.032617826014757156,-0.054955899715423584,-0.005798394791781902,-0.044124018400907516,0.007308719679713249,-0.06532461196184158,-0.05162062868475914,-0.06162742152810097,-0.07844334840774536,0.05416318029165268,-0.06726476550102234,-0.04497838392853737,-0.03363390639424324,0.012195652350783348,0.023652220144867897,0.004368386697024107,0.03248533979058266,-0.07677831500768661,0.0019015691941604018,-0.01264461874961853,-0.025185173377394676,0.04567105695605278,-0.01617560349404812,-0.045586224645376205,0.018997294828295708,-0.041341740638017654,0.003807693487033248,0.05472373962402344,-0.03798126429319382,0.022457392886281013,0.05661504715681076,0.04700412228703499,0.01960981823503971,-0.05603020265698433,0.02520826831459999,-0.024895453825592995,-0.03333060070872307,-0.035898491740226746,-0.046098001301288605,0.05437086895108223,-0.02478734403848648,-0.001178103033453226,0.03796698898077011,0.054091792553663254,0.029208531603217125,-0.020617686212062836,0.06678250432014465,-0.005611089989542961,-0.016294410452246666,-0.01667981967329979,-0.07427272945642471,-0.016519535332918167,0.03615068271756172,-0.04486144706606865,-0.05145919322967529,-0.013767857104539871,-0.01952512189745903,0.0018862094730138779,0.02423079125583172,-0.041642043739557266,0.056828614324331284,0.044675327837467194,-0.07100027054548264,0.06216053292155266,-0.013094836845993996,-0.03822905197739601,0.016640283167362213,-0.05841215327382088,0.006593193858861923,-0.03468448296189308,0.04916057735681534,-0.031363651156425476,0.06505825370550156,-0.025263771414756775,0.02139769122004509,-0.07454083114862442,-0.012791657820343971,-0.02594917267560959,-0.006390414200723171,0.06994190812110901,-0.06760570406913757,0.04618163779377937,-0.0645856037735939,0.02392106130719185,0.04682578146457672,0.0000583675573579967,-0.06945959478616714,-0.04877287521958351,-0.07755376398563385,0.023274675011634827,0.027633216232061386,0.05540499836206436,-0.03995390236377716,-0.04175223410129547,0.0161830335855484,0.026012063026428223,0.0432865284383297,-0.052964385598897934,-0.051177799701690674,0.05094923824071884,0.057675328105688095,0.017170658335089684,-0.027519116178154945,-0.056391652673482895,-0.05046764388680458,0.02485109120607376,-0.06660287827253342,-0.03528858721256256,0.0007385394419543445,-0.02104788087308407,-0.013873443007469177,0.008675687946379185,-0.04403775930404663,0.07382389903068542,-0.012812546454370022,0.024045072495937347,0.008782587014138699,-0.07657596468925476,0.039748892188072205,-0.04582984372973442,-0.014082509092986584,0.040923960506916046,0.010396739467978477,0.06635534763336182,0.042041629552841187,-0.06335964798927307,0.04514215141534805,0.04134787619113922,0.0071787177585065365,-0.020651524886488914,-0.029058188199996948,0.05147991701960564,0.07657895237207413,0.06300237774848938,0.01345081441104412,-0.02085988037288189,0.04523275047540665,0.05735281854867935,0.056502293795347214,0.021454114466905594,-0.01643024943768978,0.075001060962677,0.07138635218143463,-0.031197598204016685,0.06556762754917145,0.05808558315038681,-0.02334538660943508,0.044119130820035934,0.02707427181303501,0.04164518415927887,-0.07759126275777817,0.025290271267294884,0.058861684054136276,0.04178673028945923,-0.06258726865053177,-0.010432885028421879,-0.07830767333507538,-0.012884560972452164,0.039221979677677155,-0.07224449515342712,-0.022836588323116302,0.038140106946229935,-0.03362593054771423,0.030842356383800507,-0.02360468916594982,0.042004045099020004,0.04620196297764778,-0.00985044427216053,-0.005142609588801861,0.028464345261454582,0.042523663491010666,-0.028905779123306274,-0.04989298805594444,-0.03348105773329735,-0.027944376692175865,-0.03637765347957611,-0.005724431946873665,0.04779207333922386,-0.062198128551244736,-0.024417275562882423,-0.03979232534766197,-0.03581558167934418,-0.04960251599550247,0.02935812436044216,-0.02776988036930561,-0.006220943294465542,0.007981622591614723,-0.035380586981773376,-0.029548242688179016,0.022998979315161705,0.03970000520348549,-0.02484055794775486,-0.016922635957598686,0.026689954102039337,0.026147471740841866,-0.0075418888591229916,0.0233100987970829,-0.011421703733503819,0.06276445090770721,-0.049534425139427185,-0.01576058939099312,-0.05611315369606018,-0.059727929532527924,0.029664726927876472,-0.0065195499919354916,-0.03321318328380585,0.009620198979973793,0.05881641432642937,-0.053715091198682785,0.006356268655508757,0.034896016120910645,-0.026752902194857597,0.06662656366825104,0.05497991666197777,0.073151133954525,-0.03371712565422058,-0.07831995189189911,0.01441989280283451,-0.05578794330358505,-0.03810814395546913,-0.03558599576354027,-0.07237270474433899,0.015471691265702248,-0.058047473430633545,0.07595221698284149,0.0780324786901474,-0.05795673280954361,0.049288246780633926,0.023395420983433723,0.07453332841396332,0.041661929339170456,-0.045182641595602036,0.07797645032405853,0.05174042657017708,0.008607289753854275,0.0008422791725024581,-0.04029694199562073,-0.015085418708622456,-0.07118198275566101,0.037082843482494354,0.011643383651971817,0.06852196156978607,-0.01908223144710064,0.006494542583823204,0.011606590822339058,-0.04151051118969917,-0.01599852740764618,0.04943816363811493,-0.06506982445716858,-0.06145612522959709,0.015872173011302948,-0.009529244154691696,-0.017393719404935837,0.012159462086856365,0.03313278406858444,0.05964210256934166,0.07224968075752258,0.05056692287325859,0.026554999873042107,-0.04236648976802826,0.06426806002855301,0.025976555421948433,0.0026712168473750353,0.022967830300331116,-0.0007030545966699719,-0.044230952858924866,-0.03761652112007141,-0.00621616980060935,0.03207703307271004,0.06033935770392418,-0.05472629889845848,-0.033891111612319946,0.01320173405110836,-0.055431246757507324,0.06558551639318466,0.053384002298116684,-0.062014900147914886,-0.067178875207901,0.07376974821090698,-0.0003396175161469728,-0.004856135230511427,-0.01717403531074524,-0.024929730221629143,-0.032901253551244736,-0.001727663679048419,0.06303848326206207,-0.07601359486579895,0.0015446317847818136,0.024297373369336128,-0.020410580560564995,-0.015575200319290161,0.015840375795960426,0.04201468825340271,-0.027214055880904198,-0.018787605687975883,-0.027838153764605522,-0.021055398508906364,-0.049460962414741516,-0.02321009896695614,0.03630533069372177,0.041428498923778534,-0.023744886741042137,0.06245408207178116,-0.048916786909103394,0.04932491481304169,-0.04310434311628342,0.014720587991178036,-0.05134714022278786,-0.05171700939536095,-0.05701837316155434,-0.007139754481613636,-0.07615766674280167,0.061110690236091614,0.06219898909330368,0.0027351616881787777,-0.016195494681596756,-0.0039434549398720264,-0.00010100366489496082,0.07845252752304077,0.021263957023620605,0.060785483568906784,0.05156842991709709,-0.027491893619298935,-0.004461935255676508,0.052262235432863235,0.04493913799524307,-0.07072706520557404,0.0008745884406380355,0.0351620614528656,0.023928120732307434,0.03463190793991089,-0.05065245181322098,-0.004533099476248026,-0.029279908165335655,0.034329842776060104,0.0403108149766922,-0.03308190405368805,0.07230430096387863,0.03064114972949028,0.022882608696818352,0.02182585932314396,0.01083020307123661,0.038557883352041245,0.0025825980119407177,-0.02227732725441456,-0.04163290932774544,-0.057552363723516464,-0.01180542167276144,0.07356544584035873,0.05318742245435715,-0.051487527787685394,0.002817806787788868,0.007617520168423653,0.0770755261182785,0.03744424507021904,0.07625216245651245,-0.04434043541550636,0.0509582981467247,0.04355514422059059,-0.07147453725337982,0.026405232027173042,-0.012765509076416492,-0.04475114494562149,-0.005195246078073978,0.031984955072402954,-0.016721701249480247,0.018503796309232712,0.021844638511538506,0.045971453189849854,-0.022997412830591202,0.018849899992346764,0.035701554268598557,-0.042590949684381485,-0.07230842113494873,-0.014636361971497536,-0.03382520005106926,0.04651260003447533,-0.06104378402233124,-0.02785409614443779,-0.044297873973846436,0.05725841596722603,-0.07741425186395645,-0.03339182212948799,-0.011859366670250893,0.026944074779748917,0.05884326994419098,-0.06585469096899033,0.021792417392134666,-0.018506502732634544,-0.005702090449631214,0.000649662921205163,0.022389110177755356,0.01566026173532009,0.00431461026892066,0.07212448120117188,0.07764376699924469,-0.06521596014499664,0.01232067123055458,0.003995744977146387,0.03528478741645813,0.05913980305194855,0.0754450187087059,-0.014608856290578842,-0.06482124328613281,-0.021754451096057892,-0.06289344280958176,0.006535946857184172,0.012931959703564644,-0.043866246938705444,-0.027264028787612915,-0.033685505390167236,0.059791069477796555,0.0667920857667923,-0.05831370875239372,0.020033247768878937,0.025628400966525078,-0.07122713327407837,0.003365444717928767,-0.011373959481716156,0.03644910454750061,0.04403882846236229,0.04781884700059891,-0.03262932971119881,-0.0314696840941906,0.052630715072155,0.03170015290379524,-0.027185499668121338,-0.05123719200491905,-0.07703875750303268,-0.05900144577026367,-0.04671619459986687,0.02119681052863598,-0.038273490965366364,0.023236269131302834,0.06219556927680969,0.032914500683546066,0.018508631736040115,0.04741155728697777,-0.0228219386190176,0.0486551932990551,-0.03408393636345863,-0.03895587474107742,-0.05058855563402176,0.07844264060258865,0.06573347002267838,0.026306550949811935,0.07564874738454819,-0.05374503508210182,0.009212840348482132,0.013090711086988449,-0.06250099092721939,-0.06538820266723633,-0.031747981905937195,-0.058011867105960846,-0.039171185344457626,0.016729457303881645,0.024175863713026047,-0.03932520002126694,-0.07374574989080429,0.07421135157346725,-0.06624816358089447,0.002418702933937311,0.07767215371131897,-0.005022137425839901,0.05635843425989151,0.017558854073286057,-0.016919655725359917,0.029411962255835533,-0.05278046429157257,0.07748148590326309,-0.056788019835948944,0.07504015415906906,-0.07820576429367065,-0.07652739435434341,-0.0412735790014267,0.04240857809782028,0.002929613459855318,0.01832558587193489,-0.02690124697983265,-0.033511605113744736,0.07017995417118073,0.07384388893842697,-0.06314927339553833,-0.02649928815662861,0.033154819160699844,0.05919233337044716,0.03211020678281784,-0.05113532766699791,-0.07211808860301971,-0.013387085869908333,0.026539210230112076,-0.05763648822903633,-0.03906126320362091,-0.053032420575618744,0.05899935960769653,-0.04598350077867508,0.06548968702554703,-0.0416705422103405,-0.04744934290647507,-0.0263588298112154,0.06476316601037979,-0.007243916392326355,0.007658789400011301,-0.010632770135998726,-0.04936381056904793,0.06122201308608055,-0.05415763333439827,0.05369533598423004,0.0067919595167040825,-0.05036209151148796,-0.0026484415866434574,0.020404638722538948,0.014645415358245373,0.011889327317476273,0.027650661766529083,-0.0037514122668653727,-0.016851266846060753,0.0740421861410141,-0.00044826220255345106,-0.04619099199771881,0.011925284750759602,0.014699562452733517,0.005239185877144337,0.044870465993881226,-0.05977610871195793,-0.05018234625458717,-0.057080138474702835,-0.058303847908973694,0.030098576098680496,-0.06339830905199051,-0.0015536649152636528,-0.012447341345250607,0.03685496747493744,-0.06698207557201385,-0.01669038087129593,0.033019762486219406,-0.021897265687584877,-0.042895641177892685,-0.06273603439331055,0.00911766942590475,0.07009585946798325,0.009689414873719215,-0.05644415691494942,0.05970350652933121,-0.01717778667807579,-0.04403877258300781,-0.04371006786823273,0.05163745954632759,-0.02949352189898491,-0.0674172192811966,0.06469850987195969,-0.050120167434215546,-0.01921304501593113,0.007165078539401293,-0.06783118844032288,-0.025037406012415886,0.036723483353853226,-0.010733936913311481,-0.03562834858894348,0.04358552396297455,-0.04689547419548035,-0.06559604406356812,-0.029441261664032936,0.0651160329580307,-0.007509514689445496,-0.048418909311294556,-0.008027344010770321,-0.004397896584123373,0.04797038808465004,-0.03967512026429176,-0.07283732295036316,0.01907053403556347,-0.017848771065473557,-0.020386258140206337,-0.008759609423577785,-0.003900331910699606,0.06324882060289383,0.004421248100697994,0.024160858243703842,0.010944397188723087,0.07272025942802429,0.012465300969779491,-0.06817219406366348,-0.0325060673058033,-0.07816798985004425,0.07723695039749146,0.03901482746005058,-0.027647634968161583,0.03434084355831146,0.004703374579548836,0.061857372522354126,0.06353878229856491,-0.07470640540122986,-0.017172029241919518,0.06054144725203514,-0.06159587576985359,0.03872434049844742,-0.003740357467904687,0.06573251634836197,0.029658405110239983,0.0003206268884241581,0.008209342136979103,-0.07598936557769775,0.03513234481215477,0.07481960952281952,-0.06951925903558731,-0.006237662862986326,-0.030691606923937798,0.03391836956143379,-0.018918894231319427,-0.002106044441461563,-0.061590343713760376,0.019530456513166428,0.0566881000995636,0.043327126652002335,-0.013597549870610237,0.07523593306541443,-0.05756639316678047,-0.05079009011387825,0.029357988387346268,0.04365013167262077,0.050718843936920166,-0.05421195179224014,-0.012019002810120583,-0.039297837764024734,0.07488716393709183,-0.01127544604241848,0.004340709187090397,0.07864879816770554,-0.0038535860367119312,-0.06335548311471939,0.014063484966754913,-0.05108848214149475,0.054903678596019745,-0.07804562151432037,0.03396109119057655,-0.02767615206539631,-0.06709979474544525,0.013679036870598793,-0.0036479055415838957,-0.013504564762115479,0.027724992483854294,-0.010380681604146957,0.04940992593765259,0.016622992232441902,0.050245143473148346,0.02185693383216858,-0.07130357623100281,0.037277109920978546]},"outputBias":{"rows":30,"columns":1,"weights":[-0.6543225646018982,-0.9554921388626099,-0.6658708453178406,-1.000038743019104,-0.9930539727210999,-0.987029492855072,-0.9835164546966553,-0.4205622971057892,-0.3920291066169739,-0.8476955890655518,-1.0648720264434814,-0.5583032965660095,-0.9647173285484314,-0.6359478831291199,-0.4337542653083801,-0.9726287126541138,-0.9970008134841919,-0.48352622985839844,-0.975991427898407,-0.5508979558944702,-0.44444119930267334,-0.48682278394699097,-0.9292750358581543,-0.9571508169174194,-0.9957461357116699,-0.39617782831192017,-1.0009541511535645,-0.48923739790916443,-0.5221376419067383,-0.419464647769928]},"cellActivationMatrix":{"rows":30,"columns":1,"weights":[0.030740967020392418,0.8808267116546631,-0.04031745716929436,0.9566914439201355,0.9485387802124023,-1.0023866891860962,-0.9120352864265442,0.002290120115503669,0.0004874437290709466,-0.29244136810302734,0.9601168632507324,-0.0006853186641819775,0.9204638004302979,-0.028327729552984238,0.001949991099536419,-1.2190322875976562,-0.961051881313324,-0.00010321317677153274,-0.9806970953941345,-0.0027174914721399546,-0.000022542733859154396,-0.0003733871562872082,-1.0414711236953735,0.5094470977783203,-0.7161332368850708,-0.0007830836111679673,-0.9560641050338745,0.0003269206208642572,-0.0004719099379144609,-0.0014153261436149478]},"cellActivationHidden":{"rows":30,"columns":30,"weights":[-0.008896205574274063,0.06730671226978302,-0.034075889736413956,0.04750727489590645,-0.044224947690963745,-0.032018013298511505,-0.022029584273695946,0.002177403075620532,-0.014064139686524868,-0.008472473360598087,0.023635249584913254,-0.06673608720302582,-0.04586241394281387,-0.022739607840776443,-0.01863514818251133,0.02806279994547367,-0.057392098009586334,0.02790900133550167,-0.032489512115716934,0.016061093658208847,-0.04923790320754051,0.02035546861588955,-0.015929993242025375,0.010025209747254848,-0.009250836446881294,-0.06751561164855957,-0.0781215950846672,0.06080293655395508,0.038588035851716995,-0.003464246168732643,0.006645819637924433,0.04770786687731743,-0.006931202486157417,-0.0737197995185852,-0.053830962628126144,-0.0496600978076458,0.05889184772968292,-0.04298561066389084,0.03789094090461731,0.03707394376397133,0.033061496913433075,0.02908899635076523,0.06696860492229462,0.020156223326921463,-0.06834027171134949,-0.004236685112118721,-0.041902754455804825,-0.06455328315496445,-0.0038137524388730526,0.07249584048986435,0.022507382556796074,-0.022120529785752296,-0.05512182042002678,0.06998301297426224,-0.06926150619983673,-0.05166253075003624,-0.013402804732322693,-0.0684564858675003,0.0543784573674202,-0.07820195704698563,0.05680608004331589,0.0011647279607132077,0.06769181042909622,0.004246769472956657,-0.003106791293248534,-0.030795538797974586,-0.02921789325773716,-0.049095019698143005,0.03337424620985985,-0.04168342053890228,0.014576155692338943,-0.029017439112067223,-0.015964599326252937,-0.030835872516036034,-0.06926459074020386,0.06374632567167282,-0.03758242353796959,0.07594100385904312,0.06784786283969879,-0.07141624391078949,0.0035980690736323595,0.002305316971614957,-0.038814373314380646,-0.0025668737944215536,-0.07133153825998306,0.040203630924224854,0.04881555587053299,0.02892662212252617,0.03032771125435829,0.030607448890805244,-0.041912540793418884,-0.0489073246717453,-0.013580518774688244,0.07465627789497375,0.031200502067804337,-0.053277112543582916,0.0709843784570694,-0.05177214369177818,0.01931213028728962,0.041126497089862823,0.0328955203294754,0.05246993899345398,-0.04193376749753952,0.0599016398191452,-0.04352147877216339,-0.03429765999317169,0.05765435844659805,0.06499103456735611,-0.0765472799539566,0.05800962820649147,0.05509579926729202,0.0016633564373478293,0.002316642552614212,0.005241531878709793,0.06319892406463623,0.026092737913131714,-0.050684183835983276,-0.07230651378631592,-0.0612870492041111,0.00886395201086998,0.00278327614068985,-0.04557538032531738,0.041452616453170776,0.016288945451378822,0.040018483996391296,0.008959370665252209,0.039581719785928726,-0.0616392083466053,0.062047798186540604,0.04725700989365578,-0.058163393288850784,0.04048774018883705,-0.07494313269853592,-0.012093083001673222,-0.0044959415681660175,-0.049494169652462006,0.05651235952973366,-0.03230114281177521,-0.07048793882131577,-0.05419483780860901,-0.06324134767055511,0.04053959622979164,0.07680199295282364,0.033563658595085144,0.06708624213933945,-0.0237940214574337,-0.017621731385588646,-0.033064600080251694,0.03037790022790432,-0.031261641532182693,0.021432384848594666,0.06335120648145676,-0.04092542454600334,-0.02569146454334259,0.04425385221838951,0.0726664662361145,0.03583198040723801,0.02999003417789936,-0.037912022322416306,0.044337693601846695,-0.05994488671422005,0.010370572097599506,0.019057972356677055,0.004708641674369574,0.038074642419815063,-0.03287062421441078,0.014202652499079704,-0.07226212322711945,-0.058840472251176834,0.018578819930553436,0.03566629812121391,0.0513586662709713,0.05618138238787651,0.008477816358208656,-0.02019578404724598,0.04071669653058052,-0.0030463358853012323,0.057496391236782074,-0.0010854755528271198,0.02738272398710251,0.07661765068769455,0.04270065948367119,-0.06169476732611656,0.0031806733459234238,0.05026780813932419,-0.030269477516412735,0.038562752306461334,0.007602088153362274,-0.03351139649748802,0.051528025418519974,-0.05863352492451668,0.03196273744106293,-0.046443626284599304,0.0464223176240921,-0.04386989399790764,0.06716960668563843,0.05071493983268738,0.000976744806393981,-0.0464349165558815,-0.06266719847917557,-0.04347739368677139,-0.040633056312799454,0.035339806228876114,-0.014258445240557194,-0.046607956290245056,0.0614033043384552,0.008454962633550167,0.03835134208202362,0.027514761313796043,-0.023011567071080208,0.013393435627222061,-0.004597896244376898,-0.04234827682375908,-0.061729881912469864,0.07759659737348557,0.04327506944537163,-0.029410630464553833,-0.07008889317512512,0.06620602309703827,-0.07008093595504761,-0.039431411772966385,0.04167168214917183,-0.05969204008579254,0.0017560210544615984,-0.04445701837539673,-0.015470299869775772,0.05375553295016289,0.03772350773215294,-0.025245970115065575,0.030960259959101677,0.008078720420598984,0.05709567666053772,0.02232925035059452,0.016025738790631294,0.05396483838558197,-0.021311437711119652,0.03719816729426384,-0.0034407961647957563,0.04630220681428909,-0.012870258651673794,0.03636236488819122,-0.018411118537187576,0.03095507062971592,-0.00007387338700937107,0.023745926097035408,-0.0076596736907958984,0.01422878261655569,-0.0250031016767025,0.041937701404094696,0.005567695014178753,-0.0026129460893571377,-0.06954161822795868,-0.014655466191470623,-0.015010441653430462,0.04186041280627251,-0.024799561128020287,-0.048923082649707794,-0.07042471319437027,-0.054786425083875656,0.009480465203523636,0.007974077947437763,-0.025142936035990715,-0.006487109232693911,-0.018690496683120728,-0.03896215930581093,0.013481436297297478,-0.031254809349775314,0.05994507297873497,-0.05643552914261818,-0.0410725474357605,-0.0150551563128829,-0.06465401500463486,-0.0260891355574131,0.01560745108872652,0.007507188245654106,-0.055770691484212875,-0.043712105602025986,0.06727881729602814,0.012031990103423595,0.01757270097732544,-0.0012788480380550027,-0.0068845986388623714,-0.051496393978595734,0.034071117639541626,0.0005303024663589895,-0.007375819608569145,0.01628164015710354,0.03506876155734062,-0.05379997566342354,0.0069524371065199375,0.03623409569263458,-0.07604799419641495,-0.035299040377140045,0.0744817927479744,0.005885572172701359,0.053912606090307236,0.039172254502773285,0.06870237737894058,-0.026693111285567284,-0.04171571508049965,-0.04298888146877289,-0.028516003862023354,-0.056376904249191284,0.0447767935693264,-0.051895055919885635,0.0524662509560585,-0.03682244196534157,-0.021660348400473595,-0.07837892323732376,-0.07005377113819122,-0.03094196692109108,-0.060837309807538986,-0.022227570414543152,0.011122794821858406,0.01712770015001297,0.03764308616518974,0.002961717313155532,0.03031005524098873,0.053513433784246445,-0.05464222654700279,0.04731886461377144,-0.07169102132320404,0.049094583839178085,-0.01152162067592144,-0.06621404737234116,0.05700843036174774,0.07068397104740143,-0.07864415645599365,0.01794963888823986,0.029344189912080765,0.05278046056628227,0.036728303879499435,-0.05875007063150406,0.05474327132105827,0.04921751469373703,-0.04394206032156944,0.07347454875707626,-0.003120151814073324,0.06708406656980515,-0.002093222225084901,-0.02744021639227867,0.01762774959206581,-0.02402571588754654,-0.01731620356440544,-0.06776930391788483,0.03268143907189369,0.007076931186020374,-0.02325380966067314,0.04830393195152283,-0.0035682732705026865,-0.024714471772313118,0.01061700563877821,0.04552837088704109,-0.014662419445812702,0.051709916442632675,0.0070228963159024715,-0.0550738163292408,-0.031761568039655685,0.04365004226565361,0.012743591330945492,0.021010354161262512,0.05773491784930229,-0.025645237416028976,0.036966294050216675,-0.015380654484033585,-0.02848891168832779,0.013856416568160057,0.016525283455848694,0.01805097796022892,0.0638238787651062,-0.005027840379625559,-0.015715181827545166,-0.030879929661750793,-0.012574974447488785,0.02014315128326416,0.02231670916080475,0.012028715573251247,-0.006806899327784777,-0.01226976327598095,0.0430418886244297,-0.07460270076990128,0.0764714851975441,-0.0013882415369153023,-0.020118406042456627,-0.0522393099963665,0.0396774522960186,0.05837473273277283,0.02972313202917576,0.05955628678202629,0.06969435513019562,0.06507226079702377,-0.01031308900564909,-0.062383685261011124,0.011517439968883991,0.02744233049452305,-0.06875569373369217,-0.04396017640829086,-0.03266074135899544,-0.02940336987376213,-0.0187930129468441,0.0728059783577919,0.013801835477352142,0.0722246915102005,-0.010506520979106426,-0.03196677938103676,-0.06844103336334229,-0.007167368661612272,0.06778671592473984,-0.003524008672684431,-0.041247934103012085,-0.016366487368941307,-0.044628243893384933,-0.05721941217780113,-0.0023893839679658413,-0.04860476776957512,-0.049582287669181824,-0.008280673995614052,0.05559782311320305,-0.006668473593890667,-0.07620028406381607,-0.07315704226493835,0.010121974162757397,-0.03687531128525734,0.023137465119361877,-0.06998072564601898,-0.044507965445518494,0.06987174600362778,0.013527393341064453,0.01519809104502201,-0.051562294363975525,0.01926448382437229,-0.025737348943948746,0.044161371886730194,-0.0379861518740654,0.07578002661466599,0.055199891328811646,0.03558947890996933,0.024984991177916527,0.00353240966796875,-0.0018688361160457134,0.06078816577792168,0.04906485229730606,-0.04013325273990631,-0.06719045341014862,0.05792941525578499,-0.00448795547708869,0.05690103769302368,-0.004365493543446064,0.058653801679611206,-0.02832646109163761,-0.013679862953722477,-0.010488147847354412,0.04932889714837074,0.059402644634246826,-0.007627673447132111,0.03893716260790825,-0.008848610334098339,0.060517601668834686,-0.04047679528594017,0.0626508891582489,0.07802437990903854,-0.06583952903747559,-0.06665027141571045,0.008348955772817135,-0.004537791945040226,-0.07244644314050674,-0.027037853375077248,-0.009501011110842228,0.06503273546695709,0.06279464811086655,0.006294833496212959,0.07734347879886627,-0.017085978761315346,-0.05305991694331169,0.018688609823584557,0.07237479090690613,-0.025184668600559235,0.005432102829217911,-0.054312050342559814,0.02852448634803295,-0.014372922480106354,0.045923035591840744,0.00041630121995694935,0.045845016837120056,0.02262437529861927,0.007586190477013588,-0.006933278404176235,0.01742013543844223,0.005146371200680733,0.040667347609996796,0.04157526046037674,0.010522516444325447,-0.06814739853143692,0.04564224183559418,0.07003457844257355,-0.07311937212944031,0.0250307135283947,-0.0372978076338768,-0.05844896659255028,0.05355578288435936,-0.05384906008839607,-0.05953489616513252,-0.05049847066402435,-0.0025361166335642338,0.06851579993963242,-0.005786884110420942,0.029680950567126274,0.07301827520132065,0.018289927393198013,0.06053204834461212,0.001461864565499127,-0.009671086445450783,-0.04090592637658119,-0.005591721273958683,0.025891762226819992,-0.01824958436191082,0.06764665246009827,0.024766677990555763,-0.028793618083000183,-0.010397601872682571,-0.05476195365190506,-0.018177611753344536,-0.022360319271683693,-0.07444650679826736,-0.049014121294021606,0.04578534513711929,-0.0022992976009845734,0.00579482689499855,-0.06843091547489166,-0.010754775255918503,0.021929411217570305,-0.03638295456767082,0.04677683487534523,0.02816059999167919,0.029194552451372147,0.023360855877399445,-0.03583507239818573,-0.012149943970143795,-0.045741092413663864,0.06827116757631302,0.07474911212921143,0.0264667309820652,-0.03499605879187584,-0.002061948413029313,0.026953119784593582,0.04662485420703888,-0.034360289573669434,-0.0036638895981013775,-0.06086432933807373,0.046148814260959625,0.03484203666448593,0.005353561136871576,0.030609816312789917,0.040624987334012985,0.01751222461462021,-0.06651968508958817,-0.06851270794868469,-0.0048986091278493404,0.04624256491661072,0.007796243764460087,0.07095225900411606,0.04321623593568802,-0.06977733224630356,0.047213535755872726,0.0766896903514862,-0.04809959605336189,-0.028723709285259247,-0.0029745011124759912,-0.0227919090539217,-0.07076180726289749,-0.06012075021862984,-0.018351348116993904,-0.07819634675979614,0.015939414501190186,-0.003726357128471136,0.06422044336795807,-0.053386390209198,-0.0060461717657744884,0.06937479972839355,0.0023967165034264326,0.0040937624871730804,-0.012960598804056644,-0.06036323681473732,-0.06773567944765091,0.056878767907619476,-0.02323600836098194,0.045406706631183624,0.028058044612407684,0.04421694576740265,-0.03903266414999962,0.044876959174871445,0.04325750470161438,0.03569774329662323,0.029177919030189514,0.05492358282208443,0.00459272088482976,-0.03746534511446953,-0.048826657235622406,-0.07797360420227051,-0.05928270146250725,-0.01611883006989956,0.03893698379397392,-0.006939242593944073,-0.00004280022039893083,-0.030772387981414795,0.001991000259295106,0.04845922440290451,0.07739799469709396,-0.05660933628678322,0.0695437416434288,0.02433953247964382,-0.017950961366295815,-0.05921892449259758,0.026167890056967735,0.07400482892990112,0.07426586002111435,-0.038261011242866516,0.02490021288394928,0.028467826545238495,0.07753422856330872,0.00031129943090490997,0.014502642676234245,0.013490600511431694,-0.06659131497144699,-0.060982584953308105,0.03801692649722099,-0.026436753571033478,0.05480773746967316,0.03143340349197388,-0.06960226595401764,-0.009602508507668972,-0.041407663375139236,0.015235714614391327,0.07816676050424576,-0.05690266564488411,0.06648103147745132,0.03072393871843815,-0.05255832150578499,0.041097428649663925,-0.03358066827058792,-0.04865402728319168,-0.023147298023104668,-0.029781196266412735,0.06468886882066727,-0.045858234167099,-0.02125709131360054,0.07331886142492294,0.04307934269309044,-0.04084153100848198,-0.062010258436203,-0.0018472252413630486,0.07406900078058243,0.06870471686124802,-0.03566953167319298,0.032451093196868896,0.06879563629627228,0.04382406920194626,-0.023637495934963226,0.027409125119447708,-0.07300221174955368,0.04611000418663025,0.037978507578372955,-0.0389464870095253,0.015804484486579895,-0.02846199832856655,-0.012436403892934322,-0.023905785754323006,0.04448659345507622,-0.029903843998908997,0.03950444608926773,0.01927397958934307,0.004803996067494154,0.017270563170313835,-0.008891589008271694,-0.04999266192317009,-0.033167604357004166,-0.05518423765897751,0.015628919005393982,-0.07857196778059006,0.007276376709342003,0.07407020032405853,-0.06289087980985641,0.02726634219288826,0.07109808921813965,-0.024261798709630966,0.06392822414636612,0.05508178845047951,-0.061169616878032684,0.05763564631342888,0.038217995315790176,0.0671098381280899,0.044260166585445404,0.015604590997099876,0.01956522837281227,0.002323789056390524,0.005223756190389395,-0.031519487500190735,0.04988297447562218,-0.0049000889994204044,-0.01923547312617302,-0.002650464652106166,-0.07475550472736359,-0.030416948720812798,0.033644899725914,0.05072680488228798,0.02209029532968998,0.06835497170686722,-0.02222306840121746,-0.023623201996088028,0.06679072231054306,0.023115362972021103,-0.06292051821947098,-0.02877865545451641,0.0074044493958354,0.07266243547201157,-0.04707906395196915,0.010346902534365654,0.04940476268529892,0.07289579510688782,-0.03254858776926994,0.07643002271652222,0.013327190652489662,0.039114318788051605,0.020050186663866043,0.022257091477513313,0.03447739779949188,-0.07739623636007309,-0.04486275091767311,0.04748434200882912,0.04926266148686409,0.018696272745728493,0.0054208626970648766,-0.004280980210751295,0.052945949137210846,0.0446464940905571,-0.07355169951915741,0.0021150268148630857,-0.0581977516412735,0.004485378973186016,0.022654207423329353,0.014856662601232529,0.03876221179962158,0.024098120629787445,-0.008672099560499191,-0.06521280109882355,0.03295231983065605,0.05057288706302643,0.06573475152254105,0.059406258165836334,-0.033820103853940964,-0.07313941419124603,0.05207158997654915,-0.03136406093835831,-0.07475554943084717,-0.07692228257656097,-0.0005667830700986087,-0.005684250500053167,-0.0540475957095623,-0.01608278602361679,0.05992528423666954,-0.04600441828370094,0.009416792541742325,-0.01391936931759119,-0.06648906320333481,0.05675037205219269,-0.04870516061782837,-0.05262845382094383,-0.020698880776762962,-0.02188252843916416,-0.04879079386591911,0.0034944405779242516,-0.06095786765217781,-0.07013067603111267,-0.01677381433546543,0.05077558755874634,0.07489912956953049,-0.06987162679433823,-0.06352385878562927,-0.055527351796627045,-0.008366353809833527,-0.07876326888799667,-0.06204376742243767,-0.04962261766195297,0.059988342225551605,-0.055927976965904236,-0.05375082790851593,0.019445892423391342,-0.0079106530174613,-0.014841722324490547,-0.0008847416029311717,-0.036948543041944504,0.02044367417693138,-0.07154390960931778,-0.01946336403489113,0.015700990334153175,0.02533106878399849,0.04442101716995239,0.01771506480872631,-0.052551668137311935,-0.055745452642440796,-0.0682179182767868,-0.04374558851122856,0.04088755324482918,-0.0644122064113617,0.06209742650389671,-0.06900212913751602,-0.008460761979222298,0.015774670988321304,0.051588624715805054,-0.03366321325302124,-0.00033026773598976433,0.054310258477926254,0.054944004863500595,0.04717683419585228,-0.00033015376538969576,0.06922432035207748,0.05284389108419418,0.012553692795336246,0.03180074319243431,0.04385577514767647,-0.019278746098279953,0.06293170154094696,-0.02215684950351715,0.046735603362321854,-0.06476812809705734,0.03282509371638298,-0.05296378955245018,-0.0037690431345254183,0.024099130183458328,0.03338855877518654,-0.021571895107626915,-0.0003506232751533389,0.0646171048283577,-0.0057149045169353485,0.03383149951696396,-0.000766776327509433,-0.023532837629318237,-0.058472536504268646,0.039088305085897446,-0.04291759803891182,0.05073966458439827,-0.012266215868294239,-0.07371275871992111,0.04405587166547775,0.03726363182067871,-0.07574941217899323,-0.036730121821165085,0.028933076187968254,-0.041426271200180054,-0.017528105527162552,-0.00886689405888319,-0.06625939905643463,0.06921537965536118,0.017572006210684776,-0.00240247487090528,-0.07480740547180176,0.06137068569660187,0.009881454519927502,0.07839186489582062,-0.04947005957365036,-0.03261112421751022,-0.006304263602942228,-0.0231071338057518,0.07870686799287796,0.013421736657619476,0.07183763384819031,0.036609381437301636,0.03861696645617485,-0.04505200311541557,-0.004913687705993652,0.05610577017068863,-0.01845882087945938,0.02278432808816433,0.06387971341609955,0.055928751826286316,0.05939790606498718,0.018773024901747704,-0.025240613147616386,0.006313501391559839,0.009534837678074837,-0.0671992227435112,-0.031407665461301804,0.07198167592287064,-0.01590750738978386,0.01570819690823555,-0.05612047016620636,-0.010424052365124226,-0.06268902122974396,-0.021193228662014008,-0.06654757261276245,0.06744866073131561,-0.06075391545891762,0.05300498381257057,0.07462780922651291,0.07164835184812546,0.038957320153713226,-0.06112810596823692,-0.05434572696685791,-0.04362548515200615,-0.05043468996882439]},"cellActivationBias":{"rows":30,"columns":1,"weights":[-0.007019685581326485,-0.29772326350212097,0.00924361776560545,-0.3899572193622589,-0.33513709902763367,0.5300158858299255,0.31416767835617065,-0.0004309929790906608,-0.00008729658293304965,0.09333674609661102,-0.48150113224983215,0.00014887229190208018,-0.30898383259773254,0.006319217849522829,-0.0003747645241674036,0.6790543794631958,0.36006203293800354,0.00002028212111326866,0.36328765749931335,0.0005536910612136126,0.00000415035174228251,0.00007537722558481619,0.3408694863319397,-0.1888551563024521,0.2607538104057312,0.000141637705382891,0.3835913836956024,-0.00006601404311368242,0.00009499764564679936,0.00026333206915296614]}}],"outputConnector":{"rows":1,"columns":30,"weights":[0.004604352172464132,0.4231311082839966,-0.006135821342468262,0.47541943192481995,0.472170889377594,-0.46527737379074097,-0.44450944662094116,0.0003124408540315926,0.00006767220475012437,-0.07173407077789307,0.43354058265686035,-0.00009453808888792992,0.45089253783226013,-0.0042196521535515785,0.00026423350209370255,-0.7659209966659546,-0.4829281270503998,-0.000014094297512201592,-0.5018601417541504,-0.00038804233190603554,-0.00000315061356559454,-0.00005063263597548939,-0.5454455018043518,0.1742676943540573,-0.30249106884002686,-0.0001082557937479578,-0.47485798597335815,0.00004432539935805835,-0.00006576459418283775,-0.00019404265913181007]},"output":{"rows":1,"columns":1,"weights":[0.10973012447357178]},"inputLookup":null,"inputLookupLength":0,"outputLookup":null,"outputLookupLength":0}