{"type":"LSTM","options":{"inputSize":34,"inputRange":34,"hiddenLayers":[20,20],"outputSize":34,"decayRate":0.999,"smoothEps":1e-8,"regc":0.000001,"clipval":5,"maxPredictionLength":100,"dataFormatter":{"indexTable":{"t":0,"i":1,"l":2,"e":3,"s":4,"A":5,"r":6,"c":7,"h":8,"u":9,"a":10,"o":11,"w":12," ":13,"m":14,"n":15,"y":16,"b":17,"f":18,"d":19,"g":20,"C":21,"v":22,"q":23,"-":24,"p":25,"k":26,"M":27,"P":28,"R":29,"W":30,"stop-input":31,"start-output":32,"unrecognized":33},"characterTable":{"0":"t","1":"i","2":"l","3":"e","4":"s","5":"A","6":"r","7":"c","8":"h","9":"u","10":"a","11":"o","12":"w","13":" ","14":"m","15":"n","16":"y","17":"b","18":"f","19":"d","20":"g","21":"C","22":"v","23":"q","24":"-","25":"p","26":"k","27":"M","28":"P","29":"R","30":"W","31":null,"32":null,"33":null},"values":[{"input":"tiles","output":"Architectural"},{"input":"how many tiles","output":"Architectural"},{"input":"number of tiles","output":"Architectural"},{"input":"calculate how many tiles","output":"Architectural"},{"input":"amount of tiles","output":"Architectural"},{"input":"determine how many tiles","output":"Architectural"},{"input":"determine the total number of tiles","output":"Architectural"},{"input":"figure out the total number of tiles","output":"Architectural"},{"input":"concrete","output":"Concreting"},{"input":"how many concrete","output":"Concreting"},{"input":"volume of concrete","output":"Concreting"},{"input":"total amount of concrete","output":"Concreting"},{"input":"calculate the amount of concrete needed","output":"Concreting"},{"input":"determine the quantity of concrete","output":"Concreting"},{"input":"figure out the quantity of concrete","output":"Concreting"},{"input":"cost estimate","output":"Construction-Cost"},{"input":"price estimate","output":"Construction-Cost"},{"input":"cost estimate for house","output":"Construction-Cost"},{"input":"could you tell me the cost of a house","output":"Construction-Cost"},{"input":"please estimate the cost of a house","output":"Construction-Cost"},{"input":"provide a cost estimate for a house","output":"Construction-Cost"},{"input":"determine the cost estimate for a house","output":"Construction-Cost"},{"input":"figure out the cost estimate for a house","output":"Construction-Cost"},{"input":"hollow blocks","output":"Masonry"},{"input":"how many chb","output":"Masonry"},{"input":"how many hollow blocks","output":"Masonry"},{"input":"calculate how many hollow block pieces are required","output":"Masonry"},{"input":"determine the quantity of hollow blocks","output":"Masonry"},{"input":"calculate the number of hollow blocks","output":"Masonry"},{"input":"figure out the number of hollow blocks","output":"Masonry"},{"input":"paint","output":"Painting"},{"input":"how many paint","output":"Painting"},{"input":"i want to paint my wall","output":"Painting"},{"input":"calculate the number of liters of paint","output":"Painting"},{"input":"i need to paint my wall","output":"Painting"},{"input":"determine how many liters of paint","output":"Painting"},{"input":"determine the total liters of paint","output":"Painting"},{"input":"figure out the total liters of paint","output":"Painting"},{"input":"steel bars","output":"Reinforcement-Works"},{"input":"determine the amount of steel bars","output":"Reinforcement-Works"},{"input":"estimate the number of steel bars","output":"Reinforcement-Works"},{"input":"calculate the quantity of steel bars","output":"Reinforcement-Works"},{"input":"determine the number of steel bars","output":"Reinforcement-Works"},{"input":"figure out the total steel bars","output":"Reinforcement-Works"}],"characters":["t","i","l","e","s","A","r","c","h","u","a","o","w"," ","m","n","y","b","f","d","g","C","v","q","-","p","k","M","P","R","W","stop-input","start-output","unrecognized"],"specialIndexes":[31,32,33]}},"trainOpts":{"iterations":1000,"errorThresh":0.009,"logPeriod":20,"learningRate":0.01,"callbackPeriod":10,"timeout":"Infinity"},"input":{"rows":35,"columns":34,"weights":[-0.3848784267902374,0.2711760699748993,-1.447250247001648,-0.8079940676689148,3.2508528232574463,-0.7238578200340271,-0.2671675682067871,0.32666894793510437,2.301435708999634,0.17573925852775574,1.8431791067123413,2.154878616333008,1.3586652278900146,0.27569299936294556,-0.6832005977630615,-1.5078697204589844,1.680076003074646,1.5562423467636108,0.6142614483833313,1.0409001111984253,1.5612666606903076,-0.9868232607841492,0.7408472299575806,1.379054307937622,1.2050431966781616,-0.07361084222793579,-0.5371888279914856,0.2044299989938736,-1.5411373376846313,-0.9877201914787292,-0.615209698677063,-1.0642796754837036,-1.520456314086914,-1.9490119218826294,0.6974616646766663,0.9263656735420227,-1.698306918144226,-0.9862496852874756,1.6960015296936035,1.892487645149231,0.6183395385742188,2.786318302154541,0.2067592740058899,-3.093494415283203,-4.367166519165039,2.3350510597229004,0.3215333819389343,2.478119134902954,-0.7727500200271606,1.5359210968017578,2.111656427383423,-0.00787263922393322,-1.4009798765182495,-3.1863768100738525,-2.8857126235961914,-1.3672348260879517,3.5692803859710693,0.24890974164009094,0.1590372920036316,1.0497387647628784,0.3322734236717224,-1.1850576400756836,1.3469889163970947,0.25947707891464233,-0.21439342200756073,-0.6324248313903809,1.8981345891952515,0.7250338196754456,1.0940048694610596,0.5618723630905151,1.237671136856079,-0.3892546594142914,0.03441765904426575,0.9071040153503418,-1.5001673698425293,-1.9296058416366577,-4.0955634117126465,-1.093078851699829,-0.5942139625549316,-2.5021586418151855,1.8405603170394897,-4.825568675994873,0.0044002230279147625,1.5292637348175049,-2.3936519622802734,-3.5290417671203613,-1.7692161798477173,-1.9926804304122925,0.31710442900657654,4.419408321380615,-1.9390296936035156,0.6482778191566467,-0.7549303770065308,0.2235427349805832,1.9558087587356567,-1.517724871635437,-0.29725855588912964,1.5146214962005615,1.4245209693908691,4.636948108673096,-3.41115665435791,-1.0551695823669434,-2.3272335529327393,1.8494269847869873,-1.2540969848632812,3.180600643157959,-1.4521369934082031,1.1169155836105347,3.4192841053009033,3.1269125938415527,0.6243400573730469,8.615272521972656,-3.4155914783477783,-2.6569676399230957,-3.6443495750427246,-2.8035430908203125,3.23708438873291,0.009355722926557064,-2.388434886932373,-1.204637885093689,-0.41946613788604736,-3.0911524295806885,-1.0632253885269165,-4.014019012451172,-2.821059465408325,-0.0929676964879036,0.7823575139045715,0.01192664448171854,-5.493104934692383,-0.593427836894989,1.724915623664856,-3.144038200378418,0.11075056344270706,0.43994957208633423,-1.633400321006775,-0.5564680099487305,1.363051176071167,1.6436461210250854,-1.006342887878418,2.2075679302215576,1.0671699047088623,0.6858817934989929,0.1734742522239685,0.8879251480102539,0.6313462257385254,5.100093364715576,1.1036057472229004,-0.4555918872356415,1.8461016416549683,-2.097386360168457,1.1166024208068848,-1.3799536228179932,1.414901852607727,2.020054340362549,2.5990219116210938,-1.4168356657028198,-0.8150936365127563,0.43463221192359924,-0.8554843068122864,0.1868681162595749,2.522362470626831,-0.986181378364563,-2.071091890335083,0.3685532510280609,-2.311192274093628,-0.7627289295196533,-3.030379056930542,-1.412886142730713,-0.1390593945980072,-1.820443034172058,0.4768446385860443,-0.37002310156822205,1.019310712814331,-0.4820558726787567,-1.2917718887329102,-0.1816920042037964,-1.2607176303863525,-0.40534791350364685,0.039487309753894806,-1.163051962852478,-0.6232101917266846,-1.2390413284301758,0.12112279236316681,-0.5914900898933411,-0.28644272685050964,-0.6483519077301025,-0.1053881123661995,0.7075558304786682,1.6366766691207886,0.2839696407318115,-1.1961545944213867,3.1004109382629395,-2.3386027812957764,-1.3036916255950928,-1.2193995714187622,-1.0151387453079224,0.06656287610530853,1.4392082691192627,0.12574361264705658,0.5710849761962891,-2.246396780014038,-2.168292284011841,0.032040972262620926,0.15599723160266876,0.04508724808692932,-3.3092691898345947,1.756083607673645,-4.724040985107422,-3.179420232772827,0.6304657459259033,2.2696332931518555,0.9020230770111084,0.6087061762809753,-2.8972575664520264,-0.9721543192863464,1.7946479320526123,0.8906220197677612,2.110621452331543,-2.1206510066986084,-4.795721054077148,0.16099730134010315,3.0047295093536377,3.1393330097198486,3.8076610565185547,4.261651039123535,-1.9726146459579468,3.5099270343780518,2.9531030654907227,-3.376643419265747,2.0920398235321045,-3.360072612762451,1.9610081911087036,-2.138450860977173,3.838683843612671,-0.8531617522239685,-1.596131443977356,6.498762130737305,-3.8820464611053467,0.788009524345398,0.12534044682979584,-0.580630362033844,-0.30961841344833374,2.3459012508392334,0.42000314593315125,0.5022166967391968,1.6148250102996826,-0.30067533254623413,-1.0301299095153809,-1.2089883089065552,-0.49828264117240906,0.37212899327278137,0.230845645070076,-0.7745456695556641,-0.18734106421470642,3.247039318084717,-0.07171317934989929,-0.3493064343929291,-0.5251618027687073,-0.7227827906608582,-0.1825898289680481,-0.022656317800283432,-0.7925642132759094,0.20632241666316986,0.6490299105644226,0.19318737089633942,-0.9973776936531067,0.10933417826890945,-1.3464628458023071,-1.2158992290496826,-0.6287043690681458,1.2225679159164429,0.38640543818473816,-1.8365271091461182,1.7970073223114014,-3.6167449951171875,-0.013046754524111748,0.812775194644928,0.05503339320421219,0.21089616417884827,-1.5606112480163574,4.142585754394531,1.9357680082321167,3.502302885055542,-0.6365724802017212,1.3575010299682617,-0.43118521571159363,-1.748656153678894,-1.4109622240066528,2.345597743988037,0.9920901656150818,0.5606886148452759,2.1792032718658447,1.241868019104004,-1.167669653892517,0.3753690719604492,-0.6384730339050293,1.459373116493225,0.3728911578655243,-0.40034356713294983,-3.2346718311309814,-2.0069358348846436,-1.4774436950683594,0.5761850476264954,0.15250034630298615,-3.4191410541534424,-4.371354579925537,1.8498854637145996,0.045771993696689606,-0.5028179883956909,-2.526156425476074,0.11564431339502335,-0.13532458245754242,0.812011182308197,-0.2059311419725418,0.7328180074691772,0.6649948358535767,0.53278648853302,-3.9379425048828125,-0.2908517122268677,1.3906097412109375,-0.9105919003486633,-0.6211222410202026,-1.259300947189331,2.721005916595459,2.2581701278686523,1.0303081274032593,0.004672538489103317,-1.437592625617981,0.8483777642250061,-4.010860443115234,-3.993126153945923,2.1780495643615723,-2.3307318687438965,-0.34168630838394165,2.5836806297302246,2.127239942550659,-0.7999905943870544,-3.54201078414917,3.804314136505127,2.567573070526123,2.03202748298645,0.6978996992111206,-2.1630098819732666,1.8943681716918945,-0.3244871199131012,-3.514286756515503,-0.07894573360681534,1.145143985748291,1.8227217197418213,0.5153400301933289,2.315040111541748,5.380775451660156,5.955031871795654,-1.1767332553863525,1.5760416984558105,-0.9517672061920166,-1.3628228902816772,-1.1469484567642212,0.4708671271800995,-0.32531607151031494,2.8897180557250977,-2.0760467052459717,0.8375834822654724,1.147623896598816,1.2528094053268433,-0.9138359427452087,-1.8093998432159424,1.6957874298095703,-3.573011636734009,1.8991202116012573,-0.20189514756202698,-2.5273706912994385,0.5164358615875244,-0.46044257283210754,0.7747626900672913,0.37546318769454956,1.386250615119934,0.18048767745494843,0.7854748368263245,-0.1561051607131958,0.3945656716823578,-0.10653914511203766,-1.1207189559936523,0.6392765641212463,0.012320669367909431,-0.193423330783844,-0.6265770792961121,0.5423772931098938,0.9785490036010742,-0.30151695013046265,-0.8945435285568237,0.5760724544525146,0.79325270652771,0.4300132095813751,0.6113647222518921,-0.05878225341439247,-2.6017982959747314,0.5355193018913269,0.24981732666492462,-0.4901205599308014,0.38621556758880615,0.9674398899078369,-0.24547868967056274,0.27086538076400757,-1.524167537689209,-1.2013444900512695,1.679435133934021,-0.1804034411907196,0.5958459377288818,-0.4809946119785309,1.185516119003296,0.09949818253517151,-0.5289208889007568,0.14970895648002625,0.18577325344085693,0.18222734332084656,-0.26415348052978516,-0.31590062379837036,-0.2363443672657013,-0.1323929727077484,-0.9229097366333008,0.18480712175369263,0.19617196917533875,0.718407392501831,-0.6263561844825745,0.4312252998352051,0.9373856782913208,-0.832222044467926,0.3514392375946045,0.5620076060295105,-1.5761027336120605,0.638554036617279,0.5349339246749878,-0.3315330147743225,0.3168692886829376,0.3764246106147766,-0.3042892813682556,-0.9337009191513062,-2.0929718017578125,-0.5883229970932007,-1.0507503747940063,-0.14744718372821808,-3.144436836242676,-0.4629358649253845,-1.8060767650604248,-2.457458257675171,4.509941101074219,-2.631241798400879,3.293710947036743,-1.216372013092041,-3.5906848907470703,-3.474108934402466,0.3573092818260193,4.015883922576904,-0.6457433700561523,3.7857255935668945,-3.1318886280059814,-2.622929811477661,-4.790528774261475,1.3898929357528687,-1.8812587261199951,-1.6518234014511108,-0.04199706390500069,0.7965615391731262,3.7235310077667236,5.220282077789307,3.6805553436279297,-4.798743724822998,1.6795694828033447,-4.656588077545166,-4.232983589172363,-2.907626152038574,0.9715338349342346,0.4625822603702545,2.4626517295837402,-0.5490279197692871,1.1224613189697266,-0.40712231397628784,-1.5118924379348755,-2.3698863983154297,-2.4065704345703125,-0.745729386806488,1.7395817041397095,-0.2813507318496704,-3.42795729637146,0.5229888558387756,-0.7168915867805481,-2.8858132362365723,0.40849801898002625,1.7940295934677124,-2.2682483196258545,-2.410339832305908,-2.65179443359375,1.6225923299789429,1.150640606880188,-0.7061558365821838,1.3308178186416626,0.534151017665863,-0.3565463125705719,-0.5675293207168579,-2.770106315612793,-0.1745031476020813,-0.5865585207939148,-1.1262463331222534,0.5524991750717163,1.28036630153656,0.0815199539065361,-1.4665915966033936,3.700636863708496,0.5059884786605835,2.339050531387329,-1.6811999082565308,2.3688297271728516,-0.641227662563324,0.8915685415267944,-0.262361079454422,-1.8345086574554443,-1.253462553024292,-1.9555230140686035,-2.9246158599853516,-0.7767048478126526,0.7912711501121521,-0.7801263332366943,0.5203453302383423,-0.9844218492507935,1.1092339754104614,-1.141440987586975,0.9920046329498291,0.3673887848854065,0.8042897582054138,-0.6610660552978516,2.4495835304260254,0.5699658989906311,1.1249738931655884,0.9190714955329895,-1.010707139968872,1.4278029203414917,0.8130881786346436,-0.6898123025894165,-0.5877549052238464,-1.2011842727661133,1.1490535736083984,0.8237475752830505,0.04566553607583046,0.00470917671918869,-0.1339150071144104,0.07295749336481094,-0.41056111454963684,-2.8604018688201904,-0.20580516755580902,1.3295667171478271,1.0415467023849487,-0.9233811497688293,1.6411415338516235,-0.27937066555023193,0.34845659136772156,-0.899482011795044,2.8598198890686035,-0.49967196583747864,-0.5361539721488953,-0.04712605103850365,2.3504652976989746,1.4644064903259277,-0.11487123370170593,2.0546200275421143,-0.20465680956840515,-0.9441866874694824,-0.7307037115097046,-1.4406989812850952,1.6581926345825195,-0.3314019739627838,1.4562702178955078,-0.06927603483200073,2.7797086238861084,-1.572930932044983,0.11259575188159943,0.6654115319252014,3.4954779148101807,-2.021185874938965,-5.7609686851501465,8.078373908996582,-6.2612433433532715,0.8792898654937744,3.289306163787842,-1.0124891996383667,0.6674843430519104,-0.49145829677581787,-6.410688877105713,-3.802487373352051,1.172184705734253,8.21522331237793,-0.22092823684215546,-6.285727024078369,0.7489748597145081,5.746709823608398,-6.440892696380615,-2.059481620788574,-5.044577598571777,1.9445858001708984,3.097543478012085,3.489790201187134,-2.823655843734741,-7.692065715789795,4.282561302185059,3.4825515747070312,0.19511355459690094,-3.709695339202881,1.758347749710083,3.385537624359131,3.8276991844177246,-1.448364496231079,-0.8462662696838379,-0.7673980593681335,2.306846857070923,-0.13955019414424896,2.531156539916992,-6.822948455810547,1.5039435625076294,1.6737794876098633,0.006045187823474407,0.7616286873817444,-0.16126039624214172,3.7585465908050537,1.939758539199829,1.8884648084640503,3.250441789627075,1.7064210176467896,-5.794579029083252,1.7128965854644775,1.9974366426467896,8.196574211120605,6.664942741394043,-0.3587874174118042,-0.19569040834903717,-0.5669113397598267,-2.543318271636963,3.272054672241211,5.591361999511719,-0.24080336093902588,3.983042001724243,-1.8323177099227905,2.282998561859131,-0.3771384656429291,-6.567126750946045,0.524285078048706,0.6821566820144653,1.9466800689697266,4.513979911804199,-1.6319319009780884,1.0735399723052979,1.9009917974472046,0.2554284930229187,1.1683695316314697,-0.9055628180503845,2.133415699005127,4.237682819366455,2.3344180583953857,0.714681088924408,-1.1429308652877808,0.5328500866889954,3.452972888946533,1.05823814868927,1.301358699798584,-1.9308754205703735,-1.70062255859375,3.812636375427246,-0.8609119653701782,-2.142956495285034,-1.7701460123062134,-0.4695325493812561,2.3590707778930664,-3.9368364810943604,-0.17548298835754395,-2.5010976791381836,2.543179512023926,-0.19157929718494415,0.30577951669692993,0.559048056602478,-1.4122182130813599,-1.9210249185562134,-3.0065670013427734,3.1528408527374268,-0.977258563041687,0.8960936069488525,-2.26360821723938,1.2526530027389526,-1.8302830457687378,-2.7037506103515625,-0.14100009202957153,1.0553879737854004,2.7348194122314453,6.336467266082764,-2.773129940032959,1.7047173976898193,-1.460606336593628,-2.531717300415039,1.360419511795044,-0.6574623584747314,3.0806002616882324,1.2750190496444702,0.832430362701416,-1.7882906198501587,1.5148954391479492,2.2309699058532715,-0.3061651587486267,0.8440204858779907,0.749003529548645,1.0997275114059448,-4.893646717071533,-2.6288654804229736,1.8443529605865479,-1.2251129150390625,2.4699089527130127,-5.368690490722656,3.035297155380249,1.93547785282135,1.3318747282028198,6.767317771911621,3.9256856441497803,-1.8963088989257812,-3.3554348945617676,-1.602948784828186,-0.5111813545227051,2.7949013710021973,2.4370036125183105,2.656130075454712,-1.2456446886062622,-0.27758219838142395,7.767104148864746,5.261650085449219,-2.208648204803467,1.3326530456542969,-5.384435653686523,-1.5864403247833252,-4.5759758949279785,-3.8555145263671875,4.050158500671387,3.0794575214385986,7.015922546386719,-5.161451816558838,-2.037959337234497,1.522470235824585,-2.0288732051849365,-1.972752332687378,-1.130470871925354,4.028008937835693,-2.2529454231262207,1.5338231325149536,-0.157457634806633,-0.8906683921813965,3.4186902046203613,-2.3197648525238037,-1.477103352546692,2.6906943321228027,3.2306718826293945,1.8605635166168213,0.0010745762847363949,1.080177664756775,-1.1701406240463257,-2.0955281257629395,0.6659355759620667,5.674515724182129,-0.9169053435325623,-2.843003988265991,0.82575923204422,2.682169198989868,3.0064327716827393,1.0308847427368164,2.826280355453491,-0.24553140997886658,-0.7526169419288635,-3.6124351024627686,-2.489750623703003,2.8425745964050293,-4.733791828155518,4.487833499908447,2.005831480026245,4.886021614074707,-1.3667562007904053,0.0615435354411602,2.710543155670166,5.43604040145874,-13.649155616760254,-4.807181358337402,-8.72792911529541,3.3938188552856445,15.754561424255371,8.63325023651123,-2.740492343902588,-6.677473068237305,12.3265380859375,1.5730515718460083,-4.614222049713135,5.733532428741455,1.1823787689208984,-1.9958691596984863,-2.0292277336120605,2.4054787158966064,-6.880677700042725,-11.246234893798828,-16.6303653717041,-12.339442253112793,-2.7069406509399414,-0.5777450203895569,7.235874652862549,5.2646636962890625,-3.1142876148223877,-7.177587032318115,0.167976513504982,-15.63058853149414,4.747829914093018,-12.016658782958984,-2.0158231258392334,15.98426342010498,-5.2325029373168945,1.5735013484954834,5.932737350463867,6.593039512634277,-0.010147197172045708,5.708868980407715,2.744734525680542,-8.071357727050781,3.5257010459899902,1.279455542564392,2.159738779067993,9.214900970458984,5.149832248687744,9.938740730285645,-2.938290596008301,-1.6844391822814941,2.1817374229431152,-2.022665500640869,-7.040600299835205,-3.574892282485962,3.449584484100342,6.907514572143555,6.258540153503418,-6.436995506286621,-1.5597035884857178,1.7676225900650024,1.960005521774292,-6.144266128540039,-4.425748825073242,0.021653641015291214,-5.664999008178711,-2.810727119445801,5.536630630493164,-0.6586959958076477,-0.0763038694858551,-7.013926029205322,-4.1044230461120605,-1.789527416229248,1.9680581092834473,-0.20466488599777222,-1.0542707443237305,-6.095855236053467,-0.23474514484405518,1.2840707302093506,2.35886549949646,-0.6137389540672302,-2.526902914047241,3.2616734504699707,1.7052136659622192,-0.2087392807006836,-2.109053373336792,0.01573094166815281,-0.586993932723999,-1.7576682567596436,-2.5443551540374756,2.407017946243286,7.059568881988525,0.6702483892440796,-4.8087592124938965,3.04626202583313,-2.197624921798706,2.06648850440979,-0.13061468303203583,2.5355846881866455,-10.471630096435547,-2.0147957801818848,2.2974157333374023,2.6972219944000244,-1.5351617336273193,-0.7657089829444885,-3.059006929397583,-4.957322120666504,0.5644955635070801,1.989287257194519,-1.2049540281295776,-4.890491008758545,0.3480437994003296,4.219916343688965,-3.1217594146728516,-1.3069913387298584,-3.0293405055999756,4.921196460723877,-0.4750877618789673,1.4068331718444824,3.0713250637054443,-2.6878504753112793,-0.9575432538986206,1.1246147155761719,-1.7866233587265015,-1.9892603158950806,5.03309965133667,-2.9149081707000732,-3.914447784423828,3.7839183807373047,1.9364051818847656,-1.358577013015747,-0.6392698884010315,3.743790864944458,-2.006958484649658,3.076555013656616,2.3628885746002197,4.83986234664917,1.599687099456787,1.3487422466278076,6.723621845245361,3.9638819694519043,2.0729808807373047,4.414819717407227,-2.337538719177246,-0.6986240744590759,0.4184298813343048,1.737198829650879,-0.20164497196674347,3.7315313816070557,2.1574180126190186,0.6799460649490356,-0.060694895684719086,-1.7814772129058838,4.006651878356934,-2.96284818649292,0.5826425552368164,6.479477405548096,2.3343780040740967,1.9472808837890625,1.2208691835403442,0.07282847166061401,-5.477909564971924,0.26930785179138184,4.0001654624938965,-1.030877947807312,-4.331523418426514,2.859236717224121,-0.9326338768005371,3.068419933319092,-1.238680124282837,-2.7464466094970703,-1.0164015293121338,1.9239567518234253,-0.028500836342573166,1.0834850072860718,-1.7727621793746948,-0.6469143033027649,0.6023966073989868,1.5658615827560425,0.38257041573524475,-3.7135353088378906,-2.6705901622772217,1.6449897289276123,7.320198059082031,-2.6995127201080322,4.158261299133301,1.1032166481018066,0.4054129123687744,-0.1818958967924118,2.0211079120635986,-3.4271225929260254,-5.239231586456299,-2.05765700340271,-3.362954616546631,5.160922527313232,5.221243858337402,-0.6710524559020996,0.6152793765068054,2.4483325481414795,2.0952296257019043,-0.6337750554084778,-5.279973983764648,2.9790639877319336,7.555459499359131,4.316378116607666,-2.19059681892395,4.241129398345947,-0.6455598473548889,-2.186929702758789,3.058894157409668,3.2809207439422607,0.24402619898319244,-2.520378828048706,-1.0528839826583862,-0.24722634255886078,-3.0946342945098877,-2.7466070652008057,2.689493179321289,6.952568531036377,0.8260961174964905,3.4733128547668457,3.2035436630249023,-8.629168510437012,4.509457588195801,4.923328876495361,3.9060442447662354,2.365837335586548,-0.45764172077178955,-1.353064775466919,-2.168466806411743,-2.8003990650177,1.5662513971328735,-0.5155634880065918,2.840575695037842,7.646392345428467,-7.545773506164551,4.076990127563477,4.377460479736328,-1.8628120422363281,5.32313346862793,3.1608469486236572,-3.6824147701263428,-3.7097504138946533,-2.909421920776367,-3.891707420349121,-0.7090855240821838,-1.3920730352401733,3.687765121459961,1.5964248180389404,0.5522939562797546,-2.8626976013183594,2.208559274673462,5.5322723388671875,6.991775989532471,6.549137115478516,-4.096834659576416,-6.613307476043701,4.047210693359375,2.1045923233032227,3.315403699874878,-2.301748514175415,3.7945077419281006,-3.5180158615112305,6.317028045654297,0.6593162417411804,-0.051512524485588074,2.124462604522705,-2.6934988498687744,2.827779769897461,-7.2630934715271,0.6735780835151672,1.60841703414917,-1.5615413188934326,6.755127906799316,-1.0822499990463257,2.4821460247039795,-1.8262360095977783,2.3212502002716064,-6.125471591949463,-2.6959614753723145,-5.063899993896484,3.1077651977539062,2.1406869888305664,-7.7068986892700195,2.536039352416992,-0.723355770111084,-2.731555461883545,-2.081317901611328,-4.591551780700684,2.8776957988739014,1.0831949710845947,2.5266363620758057,-1.4962167739868164,0.5704724192619324,-2.8272669315338135,3.9638192653656006,0.49746134877204895,-7.831616401672363,-3.185523271560669,-3.771176815032959,0.4162881374359131,-3.9896857738494873,1.0000218152999878,-1.951472282409668,7.341346263885498,5.267421722412109,-3.3639304637908936,4.925395965576172,6.322437286376953,0.9785674214363098,-0.803889811038971,0.1127377450466156,1.4103354215621948,-4.2873735427856445,-0.5281429290771484,-0.2856826186180115,-0.25369906425476074,0.30527371168136597,-0.3555389642715454,-0.45831099152565,0.8595531582832336,0.37053942680358887,2.7697136402130127,1.174746036529541,-1.4214861392974854,0.6490028500556946,3.435072898864746,1.6634231805801392,0.044694915413856506,0.3903571367263794,-0.8383517861366272,-1.7469053268432617,-1.6509143114089966,-1.975955843925476,2.888449192047119,0.04485929012298584,4.714423179626465,0.5528420805931091,5.278122425079346,-0.4773639738559723,-1.233214020729065,1.3396835327148438,4.227259635925293,-1.1696789264678955,-0.054615650326013565,-1.1688871383666992,-0.4622702896595001,-0.8260617852210999,-1.0706859827041626,0.4651467800140381,-0.4646320939064026,0.10804271697998047,0.5087359547615051,-0.13194984197616577,3.507847547531128,-0.2684081494808197,1.757624864578247,-1.704506516456604,-0.1719013899564743,0.9546138644218445,1.0500739812850952,0.8309838771820068,0.9542480111122131,0.7129278779029846,-1.6683865785598755,1.7161128520965576,-0.26117217540740967,1.4007240533828735,0.27143922448158264,-0.19173173606395721,0.6473598480224609,-1.3222955465316772,0.5634792447090149,-0.24404433369636536,-1.0697169303894043,1.373610258102417,-2.3835551738739014,-0.03579927980899811,0.06829143315553665,-0.03909992426633835,0.014910455793142319,-0.027805360034108162,-0.007104306481778622,-0.0407426580786705,0.038982465863227844,0.02711597830057144,0.029457809403538704,-0.05640329048037529,0.007281486876308918,-0.04334721341729164,0.07538443058729172,-0.06753238290548325,-0.012035173363983631,0.004387666471302509,-0.022405138239264488,0.07194630056619644,-0.02684972621500492,-0.06204733997583389,-0.040098920464515686,-0.038791075348854065,0.027192356064915657,-0.04605495184659958,-0.03522808477282524,0.04235978052020073,0.04373108595609665,0.007979746907949448,0.05460621416568756,-0.02333163470029831,-0.034572768956422806,-0.01887969672679901,-0.03551262244582176]},"hiddenLayers":[{"inputMatrix":{"rows":20,"columns":34,"weights":[0.5984101891517639,-2.168684720993042,0.9482788443565369,-1.8645144701004028,-1.5789128541946411,-0.5280940532684326,-0.21642489731311798,-0.07953701168298721,-2.4527316093444824,-0.325832724571228,-0.39261394739151,-0.10498092323541641,-0.44865795969963074,3.3536200523376465,0.053173214197158813,0.040357038378715515,1.2118936777114868,1.3606411218643188,1.9765068292617798,0.08158837258815765,-1.0068693161010742,1.038461446762085,2.7141003608703613,-1.675013542175293,-1.5933181047439575,2.312978506088257,0.49258989095687866,-0.1517603099346161,0.023848596960306168,1.7890207767486572,0.9943371415138245,-0.31836891174316406,1.672823190689087,1.8707901239395142,0.24540136754512787,0.4824029803276062,-0.08649235963821411,0.5510364174842834,0.28366655111312866,0.163634791970253,-0.31871163845062256,-0.6796129941940308,0.35741928219795227,-0.6987298130989075,0.837469756603241,1.3370249271392822,-0.4167229235172272,0.9115328788757324,-0.5427034497261047,-1.1755616664886475,-0.5267854928970337,1.7115073204040527,1.584382176399231,0.7655501961708069,-0.5523543953895569,-0.3742992877960205,0.12484318017959595,-0.7955747842788696,0.8383750319480896,-0.848888099193573,-1.5104459524154663,-0.4432355761528015,0.07445557415485382,0.23006917536258698,-1.5179797410964966,-1.5668984651565552,0.35491326451301575,-0.8351679444313049,-0.18470099568367004,-1.5761206150054932,0.10643855482339859,-1.9387682676315308,2.9172143936157227,-0.5254477858543396,-0.623822033405304,-1.3703678846359253,-0.7992594838142395,-2.504711627960205,-0.17462246119976044,-0.8471526503562927,0.0807458683848381,1.602834701538086,-1.9789071083068848,-0.03053935058414936,-0.5746802687644958,2.100865364074707,0.4322553277015686,-0.9754536747932434,0.17179057002067566,0.7680002450942993,0.5499424934387207,-0.017405660822987556,1.153404951095581,-0.4988254904747009,1.487892508506775,-1.6116664409637451,1.2919410467147827,-0.02007165364921093,-0.29726138710975647,-0.4819101095199585,-0.05765990540385246,-0.7820197939872742,2.5271618366241455,2.4084115028381348,0.3891586661338806,1.3573683500289917,-0.07247422635555267,1.017460584640503,-1.7111166715621948,-0.054095588624477386,0.5140494108200073,-0.4158760607242584,0.15469159185886383,0.43352195620536804,-0.5218780636787415,-0.6604213714599609,2.043687105178833,5.080399036407471,-0.04047280550003052,-0.006762028206139803,-0.1324472874403,0.781741201877594,-2.2557404041290283,-0.5837953686714172,0.10205332934856415,0.8817179203033447,1.6769659519195557,0.14442460238933563,0.5252672433853149,0.2477153241634369,0.8525382876396179,0.15598033368587494,-0.7180594205856323,0.6519824862480164,-0.08873649686574936,-0.2779417037963867,0.013945243321359158,-2.4534459114074707,2.8123056888580322,-0.8907798528671265,-1.8726798295974731,-0.6112112402915955,-0.005508824717253447,0.23499515652656555,-0.8256784081459045,-0.6483515501022339,-1.7187293767929077,-0.05501304194331169,-0.5751307606697083,0.497173935174942,-1.3002680540084839,1.1431903839111328,-1.120528221130371,0.12128950655460358,-0.04517165571451187,-0.2244408279657364,2.1022584438323975,0.02292471192777157,-1.6098119020462036,-0.6027798652648926,-3.246366262435913,0.8864834904670715,0.4349878132343292,0.29462096095085144,0.41161051392555237,0.8110005259513855,-1.412488341331482,1.2704838514328003,0.7596343159675598,-0.5376996397972107,-0.23687008023262024,0.04751742631196976,-1.406491756439209,0.791674017906189,-0.9597461819648743,-2.7418155670166016,2.45188570022583,0.2045854926109314,-0.3457804322242737,1.442002534866333,0.7295783162117004,-0.16704440116882324,-0.845980703830719,1.1540465354919434,-0.18665389716625214,-1.6613861322402954,-2.5690433979034424,3.8066587448120117,1.7281955480575562,1.3379755020141602,3.3282783031463623,-2.724398612976074,-0.6945591568946838,3.1670501232147217,2.021156072616577,-0.6774348616600037,-1.8986766338348389,0.8011268377304077,-1.2875006198883057,0.057562340050935745,-0.1049928218126297,-0.8961395621299744,1.1343713998794556,-1.338842511177063,-0.8537387251853943,0.5276228785514832,-0.5532240271568298,-1.3946235179901123,-2.556241750717163,0.8075166344642639,-0.9519029855728149,-2.4234774112701416,0.4952649474143982,0.18144437670707703,1.9095555543899536,-1.3030320405960083,-2.546996831893921,1.2311656475067139,-2.0174849033355713,-0.6728829145431519,-0.20141728222370148,0.4925679564476013,2.0197129249572754,0.8811196684837341,0.1860712319612503,1.4261691570281982,-0.45647934079170227,-0.8016785979270935,-1.2876619100570679,0.4767032265663147,0.08342858403921127,-0.22035552561283112,0.14854343235492706,-0.4756587743759155,0.40061816573143005,0.20863193273544312,-0.24940012395381927,0.2668454051017761,-1.511950135231018,-3.0693881511688232,0.9429876208305359,0.8391662836074829,-1.379703164100647,-1.391283631324768,0.3459433317184448,0.39442160725593567,-0.887434184551239,-1.9561731815338135,-1.6991482973098755,3.428679943084717,2.132438898086548,2.480984926223755,-0.8536356687545776,-1.4959907531738281,-0.10481713712215424,2.358686923980713,1.5425546169281006,-0.24636729061603546,2.8935110569000244,-0.11226046085357666,0.7179218530654907,3.4040544033050537,-1.1641998291015625,-0.2525172233581543,0.32196953892707825,1.2616066932678223,-2.053950786590576,0.9829321503639221,-0.7153415083885193,-0.7499241828918457,1.3157979249954224,-1.3598854541778564,0.8829824328422546,-1.3175990581512451,2.7361114025115967,0.7656672596931458,1.776708960533142,-0.9804345965385437,-3.718169689178467,-1.5582997798919678,-0.2356559932231903,-2.9260916709899902,-1.504431128501892,1.7589796781539917,0.26206591725349426,-0.8355708122253418,0.02748681977391243,1.3242486715316772,-1.0013717412948608,0.4361517131328583,-1.5607035160064697,-1.1561088562011719,-0.15761195123195648,0.03962164744734764,-0.21468521654605865,2.2391419410705566,0.3405982255935669,-1.4701911211013794,1.8266150951385498,1.622069001197815,-1.3010787963867188,-1.72065269947052,-0.9768209457397461,0.5088398456573486,0.014783383347094059,0.5041460394859314,-0.2740766406059265,-0.8297129273414612,0.15498724579811096,0.41881272196769714,-2.4951834678649902,2.2623300552368164,-1.1307438611984253,0.17921385169029236,1.0112781524658203,-0.20729084312915802,-1.0401936769485474,-1.007978081703186,-2.879075527191162,0.4618956744670868,-1.14100182056427,-0.5210517048835754,-0.00149595458060503,1.7419233322143555,1.3564693927764893,0.006263460032641888,-2.152754783630371,1.0069364309310913,-0.9170736074447632,-1.0079295635223389,-1.0592374801635742,0.9327242970466614,-1.8614634275436401,0.7035868167877197,0.7358387112617493,-0.35455963015556335,-0.065814308822155,-2.556035280227661,0.6744946837425232,1.946739673614502,2.0530266761779785,0.7373149394989014,-0.6114006042480469,-2.7330892086029053,-0.18515190482139587,0.22535006701946259,2.682389259338379,0.8371251821517944,0.24768555164337158,0.3384926915168762,-1.0959563255310059,-0.8261787295341492,-1.7817848920822144,0.9440426826477051,-0.6737200021743774,0.08045291900634766,-1.0868443250656128,1.062990427017212,1.7598365545272827,-0.6787795424461365,1.5709893703460693,-1.6591628789901733,0.967917799949646,0.7389832735061646,-2.1524364948272705,0.8979936242103577,-2.194469690322876,-0.17560534179210663,0.4096086621284485,-0.5688827633857727,-2.679734230041504,-2.9911203384399414,3.160201072692871,-0.9820017218589783,-0.920863926410675,-0.8650134205818176,0.24363557994365692,-0.3210583031177521,-0.4631715714931488,-0.17286401987075806,0.38629770278930664,-0.3016205132007599,-0.8937799334526062,-0.009580877609550953,-0.09506890177726746,-0.654029369354248,-0.1212354376912117,-0.08692628890275955,0.4642486572265625,-0.1192031055688858,-0.5713595151901245,-0.43278828263282776,-0.7939822673797607,-0.37649741768836975,-0.10776296257972717,0.8822985887527466,-0.31548917293548584,-0.17067117989063263,-0.6410629749298096,0.1632775366306305,-0.2548517882823944,0.5827813744544983,0.3697681725025177,1.608606219291687,1.4381179809570312,0.7429899573326111,0.011555957607924938,2.479816198348999,1.0664904117584229,0.09024973958730698,0.5926957130432129,1.6969612836837769,0.858905017375946,-1.1430323123931885,0.2385229617357254,2.5845396518707275,-0.8909919857978821,-0.9298274517059326,-0.49420949816703796,2.7533154487609863,0.9288530945777893,1.4616776704788208,0.7881845235824585,0.22637324035167694,1.3497906923294067,1.4673105478286743,-0.23882237076759338,-0.6100937724113464,1.5612900257110596,-1.426392912864685,-0.33040231466293335,2.480121374130249,1.8070991039276123,0.4760591983795166,0.32496532797813416,2.5253453254699707,-1.401772379875183,-1.4030907154083252,-2.0325136184692383,-0.19516612589359283,2.636841058731079,-0.026190144941210747,0.5265220999717712,0.28286921977996826,0.2437385618686676,0.12027619779109955,0.8179368376731873,-0.6574593186378479,-2.48161244392395,-3.086207866668701,-1.4358958005905151,2.1200883388519287,2.1576316356658936,-1.758597493171692,-0.3430069386959076,-2.5725488662719727,1.629696011543274,1.9021743535995483,-0.020246529951691628,-0.6643587946891785,-0.6469438672065735,-0.1177414059638977,-2.884133815765381,2.564314126968384,0.8599787354469299,-0.6782065629959106,0.749487578868866,-3.356553316116333,-0.8631786704063416,-0.4372900426387787,1.1119931936264038,2.5150187015533447,0.7862632870674133,2.713282823562622,-0.977911651134491,1.1919304132461548,0.9542945027351379,-0.21906313300132751,-0.06056234613060951,0.9981755614280701,1.8933157920837402,0.8877393007278442,-1.5543553829193115,0.6073774695396423,-0.2311255782842636,-1.5281037092208862,-0.47113218903541565,0.2127300351858139,0.17947964370250702,-0.1853100210428238,1.3731141090393066,0.49557363986968994,1.012272834777832,-0.08533430099487305,-2.0160560607910156,-1.4850412607192993,-4.088714599609375,1.053851842880249,0.035440023988485336,0.3278563320636749,1.2063542604446411,-2.905066728591919,0.45447081327438354,0.058053676038980484,-0.15944556891918182,-0.9869357347488403,-0.8700717687606812,1.0712074041366577,1.0642491579055786,0.8389022350311279,0.12918686866760254,0.2116377353668213,-1.4932928085327148,0.527158260345459,0.16592510044574738,2.580368995666504,1.0555347204208374,1.2753828763961792,0.5360711812973022,1.6394824981689453,0.6995973587036133,-1.2215311527252197,-0.6819963455200195,0.039531562477350235,2.1587977409362793,0.6519879698753357,0.818160355091095,-0.05902718007564545,-0.2289445698261261,-2.136308193206787,-2.874744415283203,0.25158238410949707,0.9760484099388123,-0.7177596092224121,0.4460256099700928,-0.0029084281995892525,-1.7124428749084473,-0.11414235830307007,2.633065938949585,0.2566773593425751,0.07393892109394073,-0.1634906530380249,-0.4971545934677124,1.197180151939392,-1.1568280458450317,-1.0046688318252563,0.6921683549880981,0.08346273005008698,-1.6950079202651978,-0.04909905791282654,0.7835796475410461,1.053720474243164,-1.5086663961410522,-1.876407265663147,-1.0760079622268677,0.4090117812156677,-0.23139594495296478,1.3091230392456055,-0.346780389547348,-0.332439661026001,0.6855549812316895,-0.48073047399520874,0.18002907931804657,-0.7167190909385681,0.6723463535308838,0.7491260170936584,-0.8771112561225891,0.19500140845775604,-0.055768538266420364,1.0681509971618652,1.419130802154541,0.41963207721710205,-1.2412073612213135,-0.163714200258255,-0.4674011766910553,-0.34076988697052,0.40058085322380066,0.2927859425544739,0.07020418345928192,0.7769879698753357,2.150587558746338,-2.4868271350860596,0.709531843662262,0.09426131099462509,-0.3203762471675873,0.5700806975364685,-1.1944079399108887,-1.7677940130233765,-0.9735490083694458,-1.163225531578064,0.7862573266029358,-0.3046378195285797,-0.8701109290122986,1.3499126434326172,1.7006279230117798,-1.4300180673599243,-1.0639541149139404,-0.44597452878952026,-0.695118248462677,0.8478889465332031,0.1063716784119606,-1.782947063446045,-1.6114968061447144,3.7934274673461914,2.247549533843994,-0.5695081949234009,0.23631355166435242,0.5411150455474854,0.8175519108772278,-1.3529741764068604,1.4010670185089111,1.5320534706115723,0.6800103187561035,-0.4911416471004486,0.59946608543396,1.5431923866271973,-0.09968012571334839,1.2731739282608032,-1.0767561197280884,-0.33848753571510315,1.7589333057403564,-2.2003910541534424,-0.1889665275812149,1.363955020904541,1.2189180850982666,0.04580976068973541,1.229592204093933,1.5248075723648071,1.9248212575912476,-0.5793656706809998,-0.8025383353233337,-0.39441975951194763,-2.1733944416046143,-0.7304562926292419,0.959487795829773,-1.3849332332611084,1.3903558254241943,1.5261231660842896,1.0730968713760376,0.8453553318977356,-0.32579487562179565,0.7041978240013123,0.286560595035553,-1.1262435913085938,-0.40070584416389465,2.019984722137451,-1.0672224760055542,-4.001587390899658,0.4618126153945923,-0.1260228455066681,-3.506866931915283,-0.4109256863594055,-2.0782241821289062,-2.413311243057251,-0.5136775374412537,-3.661588430404663,-2.020375967025757,-0.8957639932632446,-3.460141181945801,-0.3564508557319641,-3.023984909057617,0.3835316300392151,-2.838243007659912,0.5187522172927856,0.22338330745697021,-0.7226009964942932,0.6116211414337158,3.6078765392303467,-0.5631788372993469,2.6490731239318848,-1.8817405700683594,-0.02573251537978649,2.3000338077545166,-1.1700372695922852,1.0536284446716309,-1.5060794353485107,1.9469925165176392,0.7942017912864685,-3.1538450717926025,-0.29510778188705444]},"inputHidden":{"rows":20,"columns":20,"weights":[0.9616752862930298,-1.2405955791473389,1.0932499170303345,-3.069540500640869,2.300546407699585,4.0824408531188965,-2.712085485458374,-3.2471277713775635,-3.1024844646453857,-2.1951050758361816,3.2197835445404053,0.24010665714740753,1.5133870840072632,0.9799546003341675,-2.118544578552246,1.5192561149597168,0.1711340844631195,-0.23552478849887848,-3.0096511840820312,-0.5003970265388489,-2.991689443588257,1.221455454826355,6.004117012023926,-0.7507628798484802,-3.155123233795166,-1.5255306959152222,-7.603838920593262,-4.26300573348999,4.286848545074463,3.9595813751220703,1.4556547403335571,-0.6747608184814453,-0.17272011935710907,2.594599962234497,-0.443447470664978,-3.452047824859619,1.7628629207611084,6.156980514526367,2.0733485221862793,8.487462997436523,-2.382739543914795,3.128748655319214,-1.6403244733810425,-1.5882542133331299,-2.748868465423584,-0.5316013693809509,0.08789922297000885,-0.41141360998153687,0.541670024394989,2.6776180267333984,-0.4282161295413971,0.42092809081077576,-4.244205474853516,2.471111297607422,1.2271102666854858,-5.775119781494141,-0.45919185876846313,3.1766610145568848,-0.2851339280605316,2.9885411262512207,1.618904948234558,-3.0703766345977783,0.9382394552230835,-1.091475009918213,-0.0576912946999073,-0.13457922637462616,4.114974021911621,1.063463568687439,-0.8022183179855347,-1.0698574781417847,4.6200737953186035,-2.367234468460083,-4.740955352783203,1.6759920120239258,-4.076186180114746,-0.4691612720489502,-1.6510483026504517,2.0552027225494385,3.107036828994751,-3.6579196453094482,3.3361353874206543,-7.513218402862549,0.19586169719696045,-0.676021158695221,5.283907890319824,1.2741641998291016,1.3647916316986084,-2.6144068241119385,-1.3429532051086426,-0.9659016728401184,2.213458776473999,-1.8808104991912842,-3.1484155654907227,-3.2463290691375732,0.8347508311271667,0.3322007358074188,-2.905393600463867,2.2589786052703857,0.7814645171165466,-1.284852147102356,-1.2342870235443115,2.3768177032470703,1.4020248651504517,4.204065799713135,0.6166104078292847,-1.2187775373458862,2.0184216499328613,1.0539613962173462,-0.3719538748264313,2.0788400173187256,-1.7892956733703613,0.4302484691143036,1.127717137336731,-2.302107334136963,0.48966729640960693,2.070336103439331,-0.7780082821846008,0.24474462866783142,-1.1544462442398071,-1.0053547620773315,2.5230207443237305,-4.298539161682129,-1.3277759552001953,-2.7460856437683105,4.045541286468506,2.7390356063842773,-3.0988707542419434,3.2058820724487305,-2.0499696731567383,-3.503695011138916,2.22245717048645,-2.547100067138672,-4.084663391113281,2.183248996734619,-1.7647639513015747,2.3371222019195557,-2.6839470863342285,1.5346298217773438,0.3178860545158386,0.4486340880393982,-2.7900009155273438,0.4747653007507324,0.523209810256958,2.599283218383789,-1.053831696510315,1.6955815553665161,-2.299881935119629,1.7099463939666748,0.8601353764533997,2.0960824489593506,-1.6808538436889648,-2.1592490673065186,4.774368762969971,2.0624289512634277,3.4972615242004395,-1.8124576807022095,-2.0723929405212402,0.7124975919723511,-1.285834789276123,-1.4642149209976196,0.16762739419937134,1.3754212856292725,0.4333953559398651,3.4207563400268555,-0.09696841239929199,-1.6537715196609497,3.5248188972473145,1.8710284233093262,-1.95728600025177,-1.316938042640686,-1.8203245401382446,-0.418304443359375,0.14391669631004333,2.25288462638855,-0.7005290985107422,-1.108524203300476,0.1214185357093811,-0.7649475932121277,2.205066442489624,-1.7219538688659668,-3.019505023956299,-0.43486031889915466,1.4291008710861206,0.8191685676574707,0.16730189323425293,-2.34545636177063,-1.9582198858261108,0.16325172781944275,0.7951620817184448,1.22174072265625,-0.37821727991104126,-0.7316988706588745,-2.0859782695770264,3.338707685470581,-1.4974192380905151,-2.933513879776001,-1.8783900737762451,1.618645191192627,-0.07773025333881378,-0.0737171322107315,1.8179371356964111,-1.4469534158706665,3.3555409908294678,-2.4698846340179443,1.9005087614059448,-0.10774215310811996,0.20031856000423431,1.2692307233810425,-2.489408016204834,-2.8864145278930664,4.03220796585083,-4.076845169067383,-3.283430337905884,-1.2714680433273315,-1.8195914030075073,-0.14544808864593506,-2.7947299480438232,0.2124318927526474,-3.207955837249756,1.1215813159942627,4.900627136230469,-3.2407500743865967,-0.3163532316684723,-6.4591240882873535,6.149794101715088,0.09796062111854553,3.6822547912597656,3.4006764888763428,-1.0484966039657593,-2.079653263092041,7.116886615753174,0.22152084112167358,-3.8329362869262695,0.2838866412639618,-0.2720552384853363,-0.23336660861968994,-2.8551418781280518,-4.469854831695557,2.4104387760162354,-2.2361152172088623,1.2993255853652954,-1.0261038541793823,0.4056440591812134,-1.9143457412719727,1.3593862056732178,-1.8266937732696533,1.7673454284667969,1.5238056182861328,-1.670474886894226,-0.7410898208618164,-0.881131112575531,-1.309481143951416,0.3839942514896393,0.727361261844635,2.098761796951294,1.3866631984710693,-0.4437199831008911,-2.212820053100586,-1.2865139245986938,-2.343665599822998,-1.2261528968811035,-1.9128820896148682,0.5224599838256836,2.6336309909820557,-0.19339990615844727,-0.2991986870765686,-0.660667359828949,0.14611676335334778,-0.6057513356208801,-0.3572576344013214,-3.718954086303711,-1.2328342199325562,1.671463966369629,0.1791771501302719,0.7777796983718872,-0.3168705701828003,-1.297791838645935,0.21169985830783844,-1.2245042324066162,-1.9178041219711304,0.21293982863426208,-8.29882526397705,1.8473361730575562,-4.325150489807129,1.1394710540771484,-1.1355197429656982,-6.54587459564209,2.520688533782959,4.461182117462158,1.4479213953018188,5.585143089294434,-1.7814273834228516,-1.7189691066741943,-2.0462777614593506,-3.8689210414886475,0.494720458984375,0.37909162044525146,2.568822145462036,-2.4530882835388184,-1.677504539489746,-5.950277328491211,-3.6294353008270264,-2.1187844276428223,-3.14855694770813,-0.40655001997947693,3.2209696769714355,-0.397321879863739,-1.3362529277801514,2.675795555114746,3.0785295963287354,1.632277488708496,-0.6814301013946533,-6.7220258712768555,2.063577175140381,-3.524724245071411,-0.17192450165748596,-3.123128890991211,2.1077334880828857,-2.5129475593566895,-0.5830968022346497,-2.1168107986450195,-0.9789537191390991,1.523066759109497,-4.559149265289307,-0.397766649723053,-0.1588924378156662,-2.780668020248413,-1.0984699726104736,6.795403003692627,2.8217647075653076,-0.3076215982437134,1.0195115804672241,4.298528671264648,5.351385116577148,0.015258443541824818,-5.05007266998291,-1.2048441171646118,5.731574058532715,-0.5677689909934998,4.080075263977051,2.2052650451660156,-5.785214424133301,-0.7233020663261414,-3.162726879119873,2.5606303215026855,-1.4407837390899658,-0.5982053279876709,3.613448143005371,-0.2927757203578949,-3.624598503112793,5.170026779174805,0.2210371196269989,-0.9284905195236206,3.6668331623077393,-0.020024022087454796,-1.661924958229065,-3.055461883544922,0.6459590196609497,-2.443279981613159,-0.7264785766601562,7.949559688568115,-2.3943276405334473,-3.032613754272461,-0.7967967987060547,4.542784214019775,1.613922119140625,2.619082450866699,0.07391700893640518,-0.9792470932006836,1.493054986000061,5.726906776428223,-3.9965920448303223,-7.271157264709473,0.18543753027915955,-2.2761151790618896,-1.0382051467895508,0.18335142731666565,-0.6288788318634033,1.8206744194030762,-2.905978202819824,-1.0945366621017456,0.8352980017662048,-0.05573486536741257,-0.6103087663650513,-0.14759694039821625,-0.018505264073610306,0.882071316242218,-1.9212442636489868,1.7876453399658203,-0.6470097899436951,-1.5344699621200562,-2.248304843902588,-1.286529302597046,2.447221517562866,0.46551087498664856,1.004644513130188,0.5784589648246765,-1.0014491081237793,-0.749366044998169,0.4587123692035675]},"inputBias":{"rows":20,"columns":1,"weights":[-0.6996741890907288,-1.066850185394287,0.8221089839935303,-1.2364264726638794,-1.8941906690597534,0.7014917135238647,-2.3606951236724854,-0.6364290714263916,-2.050305128097534,0.33848080039024353,-0.8083317875862122,-0.43052729964256287,-1.3055319786071777,-0.7437436580657959,-1.4484676122665405,-2.5140726566314697,-1.7987056970596313,-0.4244934916496277,-2.53092098236084,-0.9106493592262268]},"forgetMatrix":{"rows":20,"columns":34,"weights":[-0.08116240054368973,0.5094591379165649,-1.0187076330184937,2.2347543239593506,-2.3942747116088867,2.0947892665863037,-0.9154173135757446,-0.21138165891170502,0.7245579957962036,0.6863370537757874,2.1061434745788574,-0.8848657011985779,-3.578023910522461,-0.3060612678527832,3.3544228076934814,0.09892872720956802,-0.5487967729568481,-0.7844151258468628,-0.5475980639457703,2.538449764251709,-2.9961130619049072,-0.7047200202941895,0.18314065039157867,-3.274853229522705,0.07311375439167023,0.31873345375061035,-0.839754045009613,1.074643850326538,3.2232067584991455,1.1993794441223145,1.9902245998382568,-2.0285024642944336,-0.36341017484664917,1.8796299695968628,-0.23946473002433777,0.25953254103660583,0.4247846305370331,-1.3212435245513916,2.6089985370635986,0.6352412104606628,1.431333303451538,0.6554500460624695,-0.9192138910293579,0.9081187844276428,-1.6629186868667603,-1.5095932483673096,1.0060436725616455,0.6625344753265381,1.0731474161148071,-1.8373422622680664,1.2754747867584229,-0.231802836060524,-2.310603618621826,-1.9096301794052124,-0.5963631272315979,-1.7133450508117676,-0.029836392030119896,-0.23700200021266937,-2.122657537460327,-0.755281388759613,-0.5754635334014893,-2.586351156234741,-0.31667837500572205,1.142439842224121,0.9542606472969055,-0.8907708525657654,2.4324395656585693,1.141327977180481,-1.1813888549804688,0.46824565529823303,-2.5837759971618652,0.5778671503067017,0.35471364855766296,0.8686073422431946,2.0862810611724854,-0.8091636300086975,2.7850208282470703,0.6638616323471069,-0.05695180967450142,1.3420135974884033,2.2736599445343018,0.7828322052955627,-2.016192674636841,2.12257719039917,-0.5536157488822937,-0.37456804513931274,0.8287529349327087,0.7975469827651978,1.4520361423492432,-2.548032760620117,2.438668727874756,1.7989481687545776,1.251297950744629,0.23331516981124878,-0.43536117672920227,-0.5436303019523621,-1.2526487112045288,-2.387068748474121,-1.944011926651001,-0.9648738503456116,-0.6732236742973328,-4.3953680992126465,-0.9942231774330139,0.8032407760620117,1.2563068866729736,-3.928679943084717,3.6057522296905518,1.0843207836151123,1.9530620574951172,-0.4326019585132599,-2.7704548835754395,-0.47163280844688416,-0.9047788381576538,-1.7223740816116333,-0.8292043209075928,1.4393867254257202,-0.7108126878738403,-1.955520749092102,-0.4040021002292633,1.1942919492721558,-0.31928208470344543,-0.45920345187187195,-1.730179786682129,0.6008614897727966,-0.02996717020869255,-1.521934986114502,-1.4012318849563599,-0.4421166479587555,2.6169090270996094,-0.9944649338722229,1.9479293823242188,-1.1734355688095093,-0.6891093850135803,-0.7603052258491516,2.8201444149017334,2.6943392753601074,-1.2171841859817505,-0.22961224615573883,-0.1596524715423584,1.3530144691467285,-1.7233635187149048,3.422149896621704,-0.23076781630516052,1.7961316108703613,1.181515097618103,0.04823734611272812,1.5771456956863403,-0.3894384801387787,-2.190885066986084,-0.13396556675434113,-1.1153576374053955,-0.43264636397361755,2.022646903991699,0.3723532557487488,1.3748985528945923,-0.5105987787246704,-0.8608719706535339,1.6912612915039062,-1.886138677597046,-2.0372793674468994,0.7192326784133911,2.7767977714538574,-0.5496929883956909,2.0874898433685303,0.20608791708946228,-3.2908315658569336,-0.9537706971168518,1.2608262300491333,-3.3753466606140137,1.4035835266113281,-0.8443775177001953,1.2455604076385498,-3.6319456100463867,1.2338234186172485,1.0917774438858032,-0.25945326685905457,1.8151699304580688,3.628061056137085,1.8146867752075195,1.6375082731246948,0.00591545645147562,0.02734074927866459,2.1507692337036133,1.6579478979110718,0.023178337141871452,0.5143941640853882,1.9887717962265015,1.1479015350341797,0.8659459352493286,0.25805845856666565,-0.4391220510005951,-4.075030326843262,-0.7651301026344299,-1.5504523515701294,3.0996906757354736,0.3742322027683258,-2.435722589492798,-0.22026069462299347,0.6009588837623596,1.0442231893539429,-0.5292282700538635,0.19991852343082428,-1.0802497863769531,1.7581706047058105,0.11616173386573792,-0.947691023349762,4.282923698425293,-0.1978701949119568,1.541623830795288,-1.006627082824707,2.2404894828796387,2.3529341220855713,0.11822875589132309,1.360748291015625,-2.0768942832946777,-1.0868107080459595,0.9284809827804565,-0.35366925597190857,1.5389983654022217,-1.1932255029678345,0.7023431658744812,-1.1260757446289062,-1.7813012599945068,-1.556881070137024,2.424661636352539,-3.812145709991455,-2.0913145542144775,1.1455788612365723,-2.1012957096099854,0.336035817861557,-1.0450981855392456,0.7247161269187927,1.5126079320907593,0.46520960330963135,-0.04628396034240723,0.20183950662612915,2.084167242050171,1.6709603071212769,3.416400671005249,0.8164131045341492,-2.5326333045959473,0.3819396197795868,-2.661074638366699,-0.6314921379089355,0.14723233878612518,1.9150534868240356,1.3789206743240356,0.409049391746521,-1.9788342714309692,-0.5771738886833191,0.43545109033584595,0.2244308888912201,1.0507798194885254,1.2690356969833374,0.8604123592376709,-1.199231505393982,0.3963668942451477,0.08631439507007599,1.8303606510162354,-1.503256916999817,-0.728950023651123,0.06493231654167175,-1.3522400856018066,0.7744286060333252,-1.6668230295181274,0.4087865352630615,-0.9820042848587036,-0.1545666754245758,-2.366060733795166,-4.363369464874268,2.6097848415374756,-2.0088436603546143,0.6072232723236084,1.483609914779663,-1.4543870687484741,0.9299547076225281,-1.6312421560287476,0.08550863713026047,0.30526870489120483,-0.19131310284137726,1.1092849969863892,2.245243549346924,0.3381347954273224,0.038855910301208496,-3.234196424484253,-0.33524054288864136,0.6130513548851013,0.23037856817245483,-0.854941725730896,1.229394555091858,1.4908307790756226,1.9343502521514893,0.3721808195114136,-0.5124239325523376,0.5249886512756348,-0.12674705684185028,1.0103517770767212,-0.10072335600852966,-1.2293109893798828,2.3242692947387695,0.6193360090255737,-0.5319697856903076,-2.112123489379883,0.462197870016098,-1.3032641410827637,-1.6484684944152832,-0.6228470206260681,-1.06028413772583,-0.6890933513641357,-1.3127696514129639,0.7042956948280334,1.6177560091018677,0.07570543885231018,0.7013305425643921,0.6452677249908447,-1.652206301689148,-2.2370493412017822,-1.4856795072555542,-1.8101803064346313,1.703019380569458,-0.5110970139503479,-0.2504715621471405,0.14534249901771545,1.8248836994171143,0.009474672377109528,-2.635713577270508,-1.8506009578704834,-0.2796708345413208,0.17679759860038757,-2.0553929805755615,-1.3800129890441895,1.2089334726333618,-0.3488661050796509,-1.4696632623672485,2.166123151779175,-1.0231789350509644,0.7256038784980774,-0.91194748878479,1.7260456085205078,2.897477149963379,-2.1298863887786865,-0.4448525607585907,-2.8593101501464844,-3.997354030609131,0.6059443354606628,1.917029857635498,3.896749496459961,0.9161224961280823,0.35942739248275757,0.6428214907646179,0.16940400004386902,-2.221527338027954,-1.4254982471466064,0.5197636485099792,-3.8793320655822754,-2.6185660362243652,0.4029744863510132,-0.11249688267707825,0.3693297505378723,-0.5579183101654053,0.02272149920463562,-0.6737009882926941,-0.09303589910268784,-2.871771812438965,-1.5733587741851807,1.202526330947876,-1.4683700799942017,-2.2566025257110596,1.0226991176605225,-2.702821731567383,0.4338412284851074,-0.28856056928634644,1.2479127645492554,1.846362829208374,-0.4638981521129608,1.354286551475525,-0.36712589859962463,1.621198296546936,-0.5471077561378479,1.9609930515289307,-1.8467469215393066,0.29454123973846436,1.3246431350708008,0.10734309256076813,-0.21551504731178284,-1.5959738492965698,-1.2520514726638794,-3.99013090133667,-2.8643507957458496,0.3035525679588318,1.7835369110107422,-2.2407147884368896,-0.3900318443775177,-0.9216325283050537,0.18173228204250336,1.012579083442688,-2.477322578430176,-0.4126254618167877,-0.8696143627166748,0.9101799726486206,0.2651519477367401,-1.4138034582138062,2.5601773262023926,-2.4238624572753906,-1.4312677383422852,0.4445207417011261,-5.1955485343933105,-1.505849003791809,-0.28222161531448364,0.8318461775779724,0.7018185257911682,-2.008615493774414,2.0924112796783447,1.4442367553710938,2.713845729827881,1.2600160837173462,-2.003030776977539,1.4075156450271606,-2.4635424613952637,-2.6109604835510254,0.7218744158744812,1.8827624320983887,-0.37234756350517273,0.004047801252454519,1.2644760608673096,-1.1102566719055176,-0.8210170269012451,-2.4817357063293457,0.12418560683727264,-0.0357213169336319,-0.7711161971092224,0.23723618686199188,-2.6417036056518555,2.5334372520446777,-0.17784973978996277,-1.556048035621643,0.8078565001487732,2.397899866104126,-0.11479190737009048,0.8449953198432922,2.102111577987671,1.3370693922042847,-0.8195034265518188,0.9825753569602966,1.3875187635421753,0.9183851480484009,-0.7933192253112793,0.8802457451820374,-0.19648563861846924,-0.00030866064480505884,0.8435645699501038,-0.5216670036315918,-0.4749303162097931,-2.8891448974609375,-0.45713260769844055,-1.3538857698440552,0.7151171565055847,0.1885729283094406,1.2400939464569092,-1.8089872598648071,-1.8811677694320679,1.130679726600647,0.7724406123161316,2.032592535018921,-1.3642067909240723,-1.1362035274505615,-1.301544427871704,0.5657870173454285,1.35875403881073,-0.09001466631889343,2.4248716831207275,2.127617835998535,1.0036606788635254,2.751293182373047,-1.6484475135803223,2.274808645248413,-2.3369927406311035,0.017117159441113472,2.1076152324676514,-0.2220604419708252,0.7680833339691162,1.3449044227600098,2.953524112701416,1.1590944528579712,-0.39148107171058655,-1.904561161994934,-3.9296791553497314,0.3891013562679291,-0.9239931702613831,0.5784927010536194,-0.944375216960907,-0.5206484794616699,-1.2791752815246582,-1.8406082391738892,-1.9986752271652222,-3.5326433181762695,0.6508711576461792,-1.413145899772644,-1.1266493797302246,1.0210745334625244,-0.7881872653961182,1.7598450183868408,1.2906211614608765,-1.424894094467163,-0.4299467206001282,-0.9480326771736145,1.411462426185608,0.40107885003089905,-0.7906038165092468,-0.18630124628543854,-0.7043821215629578,1.8939932584762573,-0.9091694355010986,0.8320677876472473,-0.5658033490180969,0.49651038646698,0.8165506720542908,0.3551829159259796,1.1272099018096924,3.316488265991211,1.6711618900299072,0.8722184300422668,-0.0782267153263092,0.892766535282135,1.3155975341796875,1.4273470640182495,0.45477938652038574,-0.20893964171409607,0.17052245140075684,0.29294681549072266,0.34240415692329407,-1.0776808261871338,0.04099888354539871,0.43317359685897827,1.2539232969284058,1.1966215372085571,-0.42751362919807434,-0.269880086183548,-0.37991559505462646,-1.4254670143127441,-0.17885702848434448,-0.5989989638328552,-0.6029583811759949,-0.6453984379768372,2.1316754817962646,3.540301561355591,0.06155216321349144,-0.7089287042617798,2.875823974609375,-0.34425950050354004,2.4841952323913574,0.6721419095993042,0.2526164650917053,2.5768516063690186,2.2208681106567383,-4.8402509689331055,2.7176084518432617,-1.2063875198364258,0.5191811323165894,-2.7706961631774902,1.7471979856491089,2.2607033252716064,-0.04121888801455498,1.6122592687606812,-0.5231943130493164,0.5374271273612976,0.18892644345760345,-1.721989631652832,0.5338510274887085,-1.5842455625534058,-0.5776997804641724,-0.38047927618026733,1.5839897394180298,1.0565184354782104,-0.6287147402763367,-1.7215335369110107,0.7173933386802673,3.5442330837249756,0.21059364080429077,0.2534126937389374,0.8282297849655151,-0.3613675832748413,0.12266776710748672,2.130443572998047,1.0536434650421143,1.5773217678070068,-0.14558210968971252,0.9897599816322327,-2.5659432411193848,-0.43183690309524536,0.14352548122406006,-1.4358010292053223,-0.6090542078018188,0.7090775966644287,0.7709780931472778,-2.655879020690918,-3.206482410430908,-1.371368169784546,-0.12625671923160553,-1.4137821197509766,-1.1797293424606323,-1.338549256324768,-0.13781224191188812,1.4087079763412476,1.5511996746063232,-1.6793104410171509,1.5982006788253784,-2.4997406005859375,1.439526081085205,1.6934903860092163,0.22484274208545685,0.8749335408210754,-0.38409101963043213,-1.2053066492080688,0.394363671541214,-0.6364699006080627,-0.00927227083593607,2.182671546936035,-0.19941645860671997,1.3134609460830688,1.404929757118225,0.06667054444551468,-2.2506208419799805,0.38489440083503723,1.9800910949707031,-2.2659218311309814,-0.9312940835952759,0.9767984747886658,1.352247714996338,-1.979967474937439,-0.021180909126996994,-0.14738239347934723,0.7824122905731201,-2.049769163131714,1.6903274059295654,-0.5345907807350159,0.9713006019592285,1.950860857963562,-0.6245478987693787,0.4844057857990265,0.2343839406967163,-2.9553515911102295,-1.0000560283660889,-0.49342983961105347,0.5287047624588013,-2.9494969844818115,0.1889544427394867,1.504686951637268,3.2515039443969727,-3.3041508197784424,1.333042860031128,-0.0020383268129080534,4.125744342803955,1.8704577684402466,-2.2749857902526855,1.1851171255111694,-0.9322592616081238,-0.3206826150417328,-0.8629453778266907,-0.2546800374984741,-0.9764989614486694,-1.5169997215270996,0.2513526976108551,1.1206697225570679,-0.7291734218597412,1.3398417234420776,-0.10799598693847656,-1.8354533910751343,-0.803686261177063,-1.285959243774414,0.07582488656044006,0.4483690857887268,-0.4648330807685852,-3.8561594486236572,2.0462934970855713,-0.7833040356636047,0.7090782523155212,-0.13816849887371063,2.0653183460235596,2.5026087760925293]},"forgetHidden":{"rows":20,"columns":20,"weights":[1.7891008853912354,-1.9977468252182007,-2.2266530990600586,1.4678170680999756,2.1319808959960938,-2.405141830444336,1.853559136390686,1.1840051412582397,0.6330512166023254,1.2508186101913452,0.18883933126926422,-1.5529663562774658,1.1609649658203125,-4.569900989532471,2.497035264968872,0.7744894027709961,1.875494122505188,-1.9891847372055054,1.9023088216781616,1.1011183261871338,1.9676073789596558,0.6069139838218689,-1.9515788555145264,1.4352588653564453,2.1633002758026123,-2.184741735458374,6.436804294586182,1.220046043395996,-3.4670557975769043,-2.918806314468384,0.970197856426239,-0.6392080187797546,-3.4869847297668457,-1.377089262008667,-0.31224164366722107,-0.3626278340816498,-0.4030991494655609,-4.412098407745361,2.44109845161438,-0.5399196743965149,1.3731486797332764,-0.238180011510849,2.5065622329711914,0.2653687000274658,-0.759223222732544,0.6864123940467834,-3.42997145652771,1.2771471738815308,0.007087393663823605,2.43996262550354,1.4650369882583618,-2.590773105621338,-1.1773344278335571,-0.14087694883346558,-2.344130039215088,-0.7938402891159058,-1.980776071548462,3.091944694519043,-2.8984580039978027,2.2736904621124268,0.1414143294095993,1.818886637687683,0.18789947032928467,3.165811777114868,0.6748113632202148,-0.939723014831543,-1.3208013772964478,-0.02888319455087185,-4.986327171325684,1.48483407497406,-2.0164785385131836,1.24545419216156,-1.1255137920379639,1.649649977684021,2.745844841003418,2.0197830200195312,0.5444263219833374,-3.6756935119628906,-0.2664670944213867,-0.7956616878509521,0.5582972168922424,1.1837315559387207,-1.2770389318466187,1.6815224885940552,-1.2082970142364502,-0.18891042470932007,2.366086006164551,1.1870946884155273,0.15841588377952576,-0.04053798317909241,1.4799573421478271,-1.5490964651107788,-1.3923766613006592,-0.8318597078323364,1.7189291715621948,-1.4642648696899414,-0.1640537530183792,-3.96755313873291,0.6322922110557556,-0.1832612007856369,-0.19307072460651398,4.887984752655029,0.8537112474441528,-1.2289422750473022,-0.8952398896217346,-1.4775359630584717,-1.595881462097168,-2.8250648975372314,-4.560828685760498,-0.8203911781311035,-1.4023939371109009,-0.6582598090171814,0.07554171979427338,3.3282470703125,-0.6804330348968506,-6.512905597686768,2.3710439205169678,-0.5125117301940918,-1.1057102680206299,1.3350157737731934,-5.705158710479736,-1.6373794078826904,1.2265255451202393,5.7193684577941895,-1.2325384616851807,3.6608974933624268,-1.6160717010498047,-1.4335321187973022,0.052500832825899124,-0.4447873830795288,-5.188378810882568,-0.3966423273086548,0.2666534185409546,-2.096738576889038,-3.791149616241455,0.9823093414306641,-0.3798745274543762,0.808250904083252,1.57707941532135,-2.774643659591675,-1.5958040952682495,1.9120346307754517,1.3227620124816895,0.24701063334941864,-0.059532854706048965,0.9615665674209595,-3.877521514892578,0.8186429142951965,1.8109124898910522,2.2295117378234863,-1.8284624814987183,-0.9863665699958801,2.9089784622192383,3.037271738052368,-0.3506210148334503,-1.3194090127944946,2.5780224800109863,-2.347198724746704,-2.7239675521850586,2.3217713832855225,1.3218330144882202,1.0801488161087036,-2.77860951423645,0.26272401213645935,-0.7908267974853516,-0.06310980021953583,-0.47530049085617065,-0.15274575352668762,-0.2183426022529602,0.06698887795209885,-1.3649795055389404,0.4323400557041168,0.40350019931793213,-0.6250609755516052,1.6703696250915527,-1.3894282579421997,0.24673426151275635,-0.29362601041793823,0.34485089778900146,0.2891491949558258,-0.4818926751613617,1.381894826889038,-0.3982605040073395,-0.2755257487297058,-0.27190735936164856,3.4162333011627197,-0.9126418828964233,1.7752035856246948,0.41873639822006226,0.04371439293026924,-1.5468040704727173,-1.7208086252212524,2.2036452293395996,1.7887672185897827,-1.1233900785446167,-0.10325775295495987,1.4597525596618652,0.8397129774093628,-0.5464365482330322,2.713736057281494,-0.7912946343421936,0.6526219844818115,0.19682101905345917,0.22756081819534302,-0.022916754707694054,1.7907968759536743,0.5792995095252991,-0.7873435020446777,0.5866307020187378,1.1673533916473389,-0.2935473620891571,0.809655487537384,-2.4946115016937256,-2.846281051635742,1.8628606796264648,-3.054868221282959,-0.9203812479972839,-0.14793449640274048,-2.585451126098633,1.5198909044265747,0.6640525460243225,0.8400987386703491,-1.9444060325622559,0.34188729524612427,0.3507987856864929,1.5268378257751465,0.7240316867828369,1.3832544088363647,-0.2753215432167053,1.2622548341751099,1.2854232788085938,-0.8841348886489868,-0.9922950863838196,-1.6888480186462402,0.3789406418800354,-3.6497137546539307,-1.4760510921478271,-1.172841191291809,0.8820129632949829,-1.537776231765747,-0.1308993250131607,-1.3001132011413574,0.2614060640335083,1.4931621551513672,-0.6999101042747498,-2.9676125049591064,1.6137349605560303,1.6804355382919312,1.4896939992904663,2.181969165802002,-3.8832669258117676,1.9220322370529175,-0.06730542331933975,0.874478280544281,2.4075028896331787,-1.5411090850830078,1.0303109884262085,-0.15062156319618225,-1.0149480104446411,1.5206708908081055,-6.3906121253967285,3.642819881439209,-3.3245327472686768,-7.314526557922363,-0.028835294768214226,0.8364473581314087,-0.253150075674057,3.0700600147247314,1.403309941291809,1.0872218608856201,-1.4013292789459229,-2.7331717014312744,3.284289836883545,-0.7584074139595032,3.4397003650665283,-2.267972946166992,2.005638360977173,1.725988745689392,-1.3443738222122192,3.0449161529541016,2.430373191833496,-1.0199741125106812,2.650120496749878,-1.2939471006393433,2.317178726196289,-3.625136137008667,-0.6067106127738953,5.778728008270264,3.389171600341797,-4.535700798034668,2.223140001296997,-2.3339266777038574,0.9463208317756653,2.2453081607818604,-0.04336230456829071,-5.650189399719238,-4.135144233703613,1.7811657190322876,0.3897446393966675,3.08785343170166,2.7700650691986084,-2.174586772918701,0.5391336679458618,-4.620759010314941,-3.239612579345703,2.9391062259674072,0.6582350134849548,-1.6033616065979004,2.2115800380706787,0.9926239252090454,-1.7770025730133057,-2.695441484451294,1.7554116249084473,4.682645320892334,1.548359990119934,-0.7721126079559326,-3.7705841064453125,0.014760583639144897,0.2028455138206482,2.443072557449341,0.9692184329032898,0.8324308395385742,1.0454108715057373,-0.21778729557991028,-0.12515315413475037,-1.396865725517273,2.08600115776062,3.8294320106506348,-0.751980185508728,0.10258342325687408,-0.2950611710548401,-0.7076151967048645,-1.9235332012176514,1.2460752725601196,0.5871294140815735,0.6796665787696838,0.01812395639717579,0.07864312082529068,-0.8102281093597412,0.1539827287197113,-5.809126853942871,-0.23507393896579742,-1.1650129556655884,-2.4384891986846924,-3.0673959255218506,0.9449576139450073,-1.3161611557006836,-3.1071338653564453,2.5288748741149902,1.9442322254180908,-1.6154500246047974,-2.005812168121338,-1.6572118997573853,1.4584375619888306,-1.8514515161514282,-1.7509077787399292,1.5081156492233276,2.653580904006958,0.03131593018770218,0.5911552906036377,-0.46359625458717346,0.07240143418312073,0.14584510028362274,-0.28401029109954834,1.5129221677780151,0.35820552706718445,0.6992044448852539,-1.160298228263855,-0.0518982969224453,0.024986490607261658,-1.2933003902435303,0.571491539478302,4.407745838165283,3.2997894287109375,3.5634548664093018,-1.9154512882232666,0.8890568614006042,0.3718104660511017,0.5287557244300842,2.753504753112793,-0.9865890145301819,2.8109493255615234,-0.7476783394813538,1.0906952619552612,-1.483330488204956,0.18868348002433777,1.9502469301223755,-2.688251495361328,-0.4571990668773651,0.6647897362709045,-0.8178794980049133,1.573049545288086,-2.0496766567230225,-0.14570903778076172,-0.20694604516029358,3.2861149311065674,-3.7061660289764404,0.06665591150522232,-0.23825781047344208,2.3057689666748047]},"forgetBias":{"rows":20,"columns":1,"weights":[0,0,0,0,0,0,0,0,0,0,0,0,0,0,0,0,0,0,0,0]},"outputMatrix":{"rows":20,"columns":34,"weights":[0.9485062956809998,0.7955885529518127,-1.0332576036453247,-0.6856237649917603,0.2234458476305008,0.8386178612709045,2.4785401821136475,0.6503587365150452,0.619828462600708,0.5893970131874084,-1.4186469316482544,-1.6422852277755737,-0.1521236151456833,0.8064364194869995,-0.1604900062084198,0.9480060338973999,1.1466172933578491,0.5695456862449646,0.4715394973754883,-0.05813167616724968,-1.5219826698303223,-1.9664956331253052,1.057120442390442,-1.1164902448654175,-1.2883739471435547,1.13469398021698,-1.2899894714355469,-0.6239427328109741,1.3138459920883179,0.9006325006484985,-1.8957302570343018,-2.11500883102417,2.0301272869110107,0.34598755836486816,0.10512915998697281,-0.94358891248703,0.2511312961578369,-0.18025605380535126,-2.45101261138916,-0.634441077709198,-1.0574407577514648,-0.17861241102218628,-0.9689975380897522,-1.2046256065368652,-0.700555682182312,-0.2233530580997467,-0.09282602369785309,1.0323115587234497,-0.5082838535308838,0.10936598479747772,-1.574981689453125,0.5785075426101685,0.9177986979484558,0.49988943338394165,0.5168900489807129,0.2591307759284973,-0.3040865659713745,-0.0844702422618866,-1.7269933223724365,0.11173450201749802,-0.14942823350429535,0.8889201879501343,1.330849289894104,1.1682698726654053,-0.2722535729408264,-0.6929370760917664,0.19865792989730835,1.1533786058425903,0.30103129148483276,0.15404082834720612,0.7956439256668091,0.7920944690704346,1.0781344175338745,-0.5676488876342773,0.7514975666999817,1.106253981590271,0.6541535258293152,-0.1155254989862442,-0.7545246481895447,3.0586700439453125,0.06639840453863144,0.3005081117153168,0.5181878209114075,-0.4005356431007385,1.6610370874404907,0.7083926200866699,0.39505380392074585,0.7555431127548218,0.4059421122074127,-2.457890510559082,0.834369957447052,2.5128374099731445,3.8265299797058105,-1.3493998050689697,-0.47149306535720825,0.07579579204320908,-1.6241291761398315,-1.8560246229171753,-0.9627061486244202,0.3373718559741974,1.6553226709365845,-2.2660582065582275,-0.2355354130268097,-0.8374432325363159,0.802149772644043,-1.5464732646942139,0.697096049785614,1.6514966487884521,0.39863404631614685,-1.5343235731124878,-1.1791456937789917,-1.474613070487976,-0.8542808890342712,-0.19697867333889008,0.056486085057258606,-0.18334606289863586,-1.8118846416473389,0.5097834467887878,-2.0370025634765625,1.154312252998352,0.6769664883613586,-0.7670609951019287,-1.415075421333313,1.419451117515564,0.23135527968406677,0.5589485168457031,-1.3312957286834717,-0.7134785056114197,1.386745810508728,-0.20402151346206665,0.17532530426979065,1.103801965713501,-1.31432044506073,-0.30110836029052734,0.6648929119110107,0.0108417347073555,-0.5339778065681458,-0.06897876411676407,0.28672465682029724,1.1283183097839355,-2.435163736343384,0.3632533550262451,3.1363325119018555,1.0552971363067627,0.37153056263923645,1.3833867311477661,-2.5523576736450195,1.4649792909622192,0.21664319932460785,2.0830368995666504,0.12067040801048279,-1.0505361557006836,0.028937606140971184,3.658679962158203,2.709524154663086,-0.6428521275520325,2.005218744277954,-3.293088674545288,-2.217851161956787,1.179295539855957,-1.4970440864562988,1.311291217803955,-1.6819170713424683,1.9079920053482056,-2.692052125930786,0.7516370415687561,-1.4177515506744385,-2.420752763748169,1.7848351001739502,-2.6137218475341797,-1.2328623533248901,-0.6800420880317688,-0.5895529985427856,0.8504238724708557,-0.9827202558517456,-0.6749643683433533,-0.10219945758581161,-0.08299434185028076,0.5226823687553406,1.8386956453323364,1.3404858112335205,0.19623729586601257,1.225045919418335,-0.6269040107727051,-0.11220329254865646,-1.7303979396820068,1.0158127546310425,1.4316250085830688,2.647360324859619,-0.4522046744823456,1.8710224628448486,-1.26335608959198,-1.403122067451477,-1.1540597677230835,-0.32460570335388184,1.198156714439392,-2.183701515197754,1.9095925092697144,-0.5221502780914307,1.5689716339111328,0.4364524483680725,-0.7126369476318359,-0.08763527870178223,1.1612412929534912,1.3987221717834473,-0.03569600358605385,0.7086409330368042,1.1142845153808594,2.1416563987731934,-0.05766374617815018,-2.4832680225372314,0.5008979439735413,1.565041184425354,-0.49934184551239014,0.43271127343177795,1.3240091800689697,-0.8596030473709106,1.022240161895752,-0.7938632965087891,0.5336558818817139,1.3531477451324463,3.424675226211548,3.6280856132507324,2.2499728202819824,0.5379540920257568,-2.3613715171813965,0.6983791589736938,-1.1531213521957397,1.7562730312347412,0.9808948040008545,-1.2494895458221436,4.088113307952881,-1.4749411344528198,-1.4362304210662842,-4.414288520812988,-1.941392183303833,1.0472978353500366,0.898335337638855,-0.017442980781197548,-0.6106954216957092,-1.0983123779296875,-1.2672933340072632,-0.9908812642097473,-0.4096831977367401,-0.9934546947479248,-0.3875022232532501,-0.08384662866592407,-0.9252319931983948,-0.484188050031662,-0.21061067283153534,0.6825874447822571,-0.2690626084804535,-0.19437670707702637,-0.7997769713401794,-0.6262533664703369,-0.35693028569221497,-1.305121660232544,-1.4131691455841064,-0.6590031981468201,0.6311708688735962,-0.0006832386716268957,-0.0622350312769413,-0.5884602069854736,-1.2863192558288574,0.01259339414536953,0.6611490845680237,1.1027315855026245,2.9566614627838135,1.8724079132080078,0.45259159803390503,1.0977578163146973,0.2479584813117981,-1.2704321146011353,0.1179143562912941,1.239551305770874,0.9877240657806396,-0.0999012216925621,-0.9357348084449768,-0.3027583658695221,-0.08354242146015167,-0.041087806224823,0.9495317339897156,-1.1336479187011719,-1.4006863832473755,-1.0085607767105103,-1.853426218032837,1.0504238605499268,-0.26891857385635376,-0.7329692840576172,-0.5244858264923096,-0.4046592116355896,-0.31018996238708496,-0.007964087650179863,-0.17117120325565338,-1.1395902633666992,1.3381311893463135,-0.8866727352142334,-0.8366507887840271,-0.7038487792015076,-0.563856840133667,0.7115833759307861,-1.0245120525360107,2.048309564590454,3.2559115886688232,-1.7774559259414673,1.019094467163086,-0.8273531794548035,-0.1700231283903122,-1.530691146850586,-0.4564620852470398,-1.8770211935043335,-0.5026811361312866,-0.00908893346786499,-2.3420486450195312,-0.1136542409658432,1.4639817476272583,1.382323145866394,-3.3613131046295166,-0.9861050248146057,-0.5571771264076233,0.7733071446418762,-0.3099711239337921,-1.2361693382263184,0.39168450236320496,0.4996105432510376,1.5395513772964478,-3.554138422012329,0.4461720585823059,-0.21078157424926758,-2.427490234375,-1.997671127319336,0.4619291424751282,-1.457497239112854,0.015822822228074074,2.3525118827819824,1.8846380710601807,2.493863105773926,-0.29862555861473083,-0.6827516555786133,3.8693692684173584,-0.5503244996070862,0.015441693365573883,-1.4657889604568481,-0.3652542531490326,-1.2524676322937012,0.09132256358861923,1.5020530223846436,0.6320247650146484,0.2927592992782593,0.31012389063835144,-1.6532994508743286,-0.170379176735878,-0.09773389995098114,0.7418432831764221,-0.33696964383125305,0.8718886971473694,-0.6769954562187195,-0.8949158191680908,-0.9539111852645874,-1.1834626197814941,1.3029327392578125,-0.3233141303062439,0.7940632104873657,0.2867072522640228,-3.4538931846618652,1.400402545928955,-1.2071393728256226,-1.770519495010376,2.415518283843994,1.8572320938110352,0.05942390486598015,0.40964794158935547,-0.22388923168182373,-0.23427876830101013,-0.8742877244949341,-0.47674572467803955,-0.953600287437439,-0.054128605872392654,-1.1524484157562256,-0.5755863189697266,1.976676344871521,1.3395274877548218,0.4579213559627533,-0.0379411019384861,-2.2964060306549072,-0.09346695989370346,-0.5557191967964172,2.3622734546661377,0.5968969464302063,-1.1887983083724976,-1.9531453847885132,0.6301031708717346,1.6915557384490967,-0.5235863924026489,2.842090129852295,-2.455010414123535,-1.8868279457092285,1.1673753261566162,-1.969775676727295,0.12621746957302094,-0.3753673732280731,0.06519604474306107,1.7304153442382812,-0.483525812625885,-0.7639290690422058,-2.5052709579467773,0.07651130110025406,-0.6462564468383789,2.3027589321136475,-1.5431398153305054,3.1063809394836426,0.20092840492725372,-0.6413399577140808,-0.8681634068489075,-1.730102777481079,-0.1447095423936844,0.06233307346701622,-2.491058349609375,-4.521695137023926,0.970781147480011,1.6664577722549438,-0.5852000713348389,0.03781154379248619,1.2334712743759155,-1.6900742053985596,-0.6995582580566406,0.18611708283424377,0.1897483468055725,1.6118804216384888,-0.6577544212341309,-1.7558162212371826,1.7327079772949219,-1.8300457000732422,0.5941606163978577,0.5174121260643005,0.034089699387550354,1.1445211172103882,0.35371464490890503,-1.33216392993927,-0.554677426815033,1.017878532409668,-1.101584553718567,0.08497065305709839,-1.239216923713684,1.53495192527771,-0.13732953369617462,0.019689247012138367,-0.6762918829917908,-1.1646877527236938,-0.422240674495697,-0.8205472230911255,-1.700421690940857,-0.7065345644950867,0.4988771378993988,0.0525590218603611,0.36153650283813477,1.7147877216339111,0.5074163675308228,0.7533916234970093,0.07388771325349808,-0.40031710267066956,-0.35392436385154724,-0.1880781203508377,1.6718140840530396,0.07205820083618164,0.09937532246112823,-1.061639428138733,-1.8919419050216675,0.39411357045173645,2.601275682449341,0.25109657645225525,3.4749934673309326,-0.11447443813085556,0.5704401135444641,-1.430070400238037,2.057748556137085,-0.21777255833148956,-0.11374311149120331,-0.6511087417602539,0.43185216188430786,-1.1576048135757446,0.8551307320594788,-1.2702139616012573,-0.7267997860908508,1.2593904733657837,-1.6482434272766113,-0.21797624230384827,0.3266615867614746,-0.28961366415023804,0.23185300827026367,-0.39474546909332275,2.28710675239563,-0.5621604323387146,0.7469456791877747,0.05919203534722328,0.5262494087219238,-0.8731871843338013,1.3341816663742065,2.4884886741638184,0.589418351650238,0.011331832036376,1.2434666156768799,-0.207243874669075,0.2020433247089386,-0.2962585985660553,-0.2247675359249115,-0.8428741693496704,-0.06877023726701736,-0.6113828420639038,0.06954258680343628,1.690183401107788,-0.35566285252571106,0.3433445692062378,1.631890058517456,-2.6646902561187744,1.3135688304901123,-1.7534620761871338,-0.49566447734832764,0.3197070360183716,2.099665641784668,-0.11052004247903824,0.09219422936439514,-3.679391622543335,-2.9505913257598877,0.3128203749656677,1.210196614265442,-1.7942414283752441,-1.1050184965133667,0.6304270625114441,0.036716707050800323,-0.06735515594482422,0.262208491563797,-2.1491148471832275,1.7307745218276978,0.28352445363998413,-2.0941343307495117,1.0712504386901855,0.7182997465133667,0.039257511496543884,-1.0793726444244385,-0.17721500992774963,1.5138437747955322,-2.4777815341949463,-1.9760799407958984,0.4125199019908905,1.1024349927902222,-0.21619033813476562,0.6085845828056335,-2.730095386505127,2.86903977394104,0.04404941946268082,1.2046093940734863,1.008656620979309,0.9522295594215393,-2.046834707260132,-1.184877872467041,1.1014819145202637,-0.4776613712310791,-2.200279712677002,1.0903820991516113,1.7634594440460205,2.1174988746643066,2.3037915229797363,0.4492171108722687,0.22620724141597748,0.1633506864309311,0.830511212348938,-0.5497974753379822,-0.44227269291877747,4.189977169036865,-0.45037275552749634,-0.11407610774040222,-0.16385418176651,-2.186549425125122,-1.8522849082946777,-1.3604801893234253,-0.00994239840656519,-1.3812562227249146,-0.2622227966785431,0.9555872082710266,-0.9450661540031433,0.26001930236816406,1.7023621797561646,1.0079023838043213,-0.49012282490730286,0.18964600563049316,1.1673640012741089,1.052634596824646,0.019886137917637825,-0.7916762232780457,0.5374001264572144,-2.2375261783599854,0.3910438120365143,-0.45036381483078003,1.02660071849823,-1.17764413356781,-1.9511711597442627,0.31035611033439636,-1.5836896896362305,0.16090524196624756,-1.4107115268707275,-0.9777641296386719,2.391770124435425,-2.184180974960327,-0.5142071843147278,-0.039531923830509186,1.2443103790283203,-1.0054740905761719,0.8152084946632385,0.47750893235206604,-1.8508250713348389,0.3524680733680725,-1.0448782444000244,0.20096886157989502,0.07455870509147644,-0.6362917423248291,-1.3933433294296265,2.286684989929199,0.2645813822746277,0.8291009664535522,0.10667574405670166,-0.8276753425598145,0.4800596833229065,0.7015451788902283,-1.3439013957977295,2.2635490894317627,-0.9685185551643372,-0.21520781517028809,2.550474166870117,-0.7115458846092224,-1.166872262954712,1.1876630783081055,-0.3168313801288605,-0.21843494474887848,1.461132526397705,-2.491424083709717,-0.5187859535217285,2.3485052585601807,0.4221647381782532,-0.2061242163181305,2.093874454498291,1.6615232229232788,0.9843406081199646,-0.12695766985416412,0.3948512375354767,2.019754409790039,1.3687764406204224,-0.7212595343589783,0.5365239977836609,0.10923217236995697,0.2539748251438141,-1.1856778860092163,0.8748084902763367,1.3636817932128906,-1.2443568706512451,-0.07032140344381332,-1.8702391386032104,-1.1272696256637573,-0.7627639174461365,-0.6869675517082214,-0.4649021029472351,-1.3594486713409424,0.13858827948570251,2.133044958114624,1.4261013269424438,-1.6781508922576904,0.34741419553756714,2.7717373371124268,-5.810156345367432,0.7026501893997192,-0.06591425836086273,-1.9061744213104248,-0.19400307536125183,1.5388365983963013,-1.1646578311920166,-1.3079360723495483,-0.46002182364463806,0.16192957758903503,-0.7473781108856201,2.386953592300415]},"outputHidden":{"rows":20,"columns":20,"weights":[4.720997333526611,-4.781560897827148,1.8686498403549194,-1.688063144683838,4.2368316650390625,-1.2645031213760376,4.314664363861084,1.9666059017181396,-2.1023776531219482,0.3069036602973938,5.4137372970581055,0.6139927506446838,-4.752023220062256,0.19462893903255463,-2.0197436809539795,0.4977428913116455,-4.32665491104126,-2.3763480186462402,-0.868260383605957,-3.8763883113861084,2.2356367111206055,-6.079840660095215,-0.20585232973098755,0.27416616678237915,3.466449022293091,3.9643290042877197,-3.9559929370880127,0.5800061225891113,3.427985191345215,-0.5162642002105713,-0.3151296377182007,-1.964133381843567,-2.635728359222412,0.12704896926879883,-3.8813869953155518,-1.1587220430374146,-3.781203031539917,4.544189453125,2.017216920852661,5.221750736236572,0.6175844073295593,-0.737567663192749,1.089882254600525,1.3683334589004517,-2.1905853748321533,-2.3131089210510254,0.23760727047920227,-0.12101781368255615,2.8146936893463135,-0.19312095642089844,-0.18914513289928436,0.411794513463974,-0.980909526348114,2.929642915725708,-2.2482333183288574,-1.5560694932937622,1.3407444953918457,4.641030311584473,-2.414807081222534,0.7357262372970581,0.4420052468776703,-8.216684341430664,-0.6532934308052063,-4.354719161987305,4.677167892456055,-1.2939378023147583,-3.078162908554077,-2.836390733718872,-3.5440409183502197,-4.58029842376709,5.198789596557617,-5.408364295959473,-4.979067325592041,0.7140166163444519,-3.6364707946777344,4.059514999389648,0.4982450008392334,1.7011932134628296,3.288879156112671,-0.8521316051483154,0.9335097074508667,0.2866192162036896,5.486454010009766,1.0092341899871826,-0.6280994415283203,0.010600055567920208,-2.8660454750061035,1.681782603263855,-2.069408655166626,-0.05567508935928345,0.4734894931316376,-1.7279828786849976,0.4971979856491089,2.754056930541992,-1.6756306886672974,-1.3183633089065552,1.2280774116516113,2.1929128170013428,1.581566572189331,-0.4273601770401001,-0.9299631714820862,4.905226230621338,2.152796745300293,6.756822109222412,-1.330801248550415,-1.0495437383651733,4.5425496101379395,1.3480037450790405,1.7677632570266724,0.10493886470794678,-1.24861478805542,1.9207783937454224,2.551034688949585,2.8252148628234863,-3.2969441413879395,-1.9860879182815552,2.7818732261657715,-0.8812766671180725,3.3964648246765137,-1.892887830734253,-0.4875262975692749,-1.0277584791183472,0.7863309979438782,4.1459197998046875,-0.2700440287590027,-1.9610507488250732,-0.8192367553710938,-0.22073271870613098,-1.9658195972442627,-2.2424612045288086,-0.8629384636878967,-4.094056606292725,1.6242483854293823,2.011685848236084,-2.4725406169891357,1.6948298215866089,0.11354009062051773,-1.7288894653320312,2.165696144104004,-0.19719523191452026,-1.780889868736267,1.0298875570297241,-3.1802852153778076,5.260239601135254,-5.2705607414245605,-0.635229766368866,-3.7710649967193604,-0.5486750602722168,2.068215847015381,4.550422668457031,-3.449331760406494,-0.7132124304771423,6.451376914978027,2.686944007873535,0.19192259013652802,-2.309027910232544,3.251227617263794,0.008062943816184998,2.2897634506225586,4.067217826843262,1.7496567964553833,-0.03778991103172302,-3.2255630493164062,-1.5889283418655396,1.331723928451538,0.6614865660667419,5.115324020385742,-0.09170499444007874,-0.2591840624809265,4.2609052658081055,-0.13317565619945526,1.8664708137512207,-0.4134531021118164,2.479168653488159,2.568115711212158,3.4667630195617676,-2.218982219696045,-1.410317301750183,2.796689033508301,-3.6542344093322754,1.2963318824768066,0.6379974484443665,-1.3728783130645752,-0.12774750590324402,1.2663984298706055,-1.1143776178359985,0.5108992457389832,1.0244141817092896,-0.6208207607269287,-1.5008710622787476,1.1820282936096191,-0.18522773683071136,-0.7972327470779419,-1.6781854629516602,1.0393202304840088,0.6979958415031433,-1.101894736289978,0.910049319267273,-0.35128894448280334,1.1969714164733887,0.3787413537502289,1.3816847801208496,-0.050222139805555344,-3.2774198055267334,2.6211016178131104,0.5897606015205383,1.629318356513977,1.373287320137024,-2.838711738586426,-1.945414662361145,3.4948694705963135,-4.334719657897949,-0.8330428004264832,-0.8522583842277527,-2.3309433460235596,3.009891986846924,-2.222405433654785,1.660685658454895,0.16928091645240784,0.05692485719919205,1.4468441009521484,-1.5218631029129028,2.116650342941284,-0.7106251120567322,3.2332863807678223,-0.3210480213165283,-0.739378809928894,1.7739818096160889,-0.16280929744243622,-1.9852917194366455,5.214308261871338,-2.628061056137085,-3.680196762084961,1.8227475881576538,-2.128836154937744,0.348398357629776,-4.000118255615234,1.751367211341858,0.3434560298919678,-1.0176377296447754,1.1142417192459106,-0.978289783000946,2.949207067489624,1.0575097799301147,0.9026391506195068,-1.9059897661209106,-2.9053070545196533,1.3596893548965454,-2.137144088745117,-1.3252134323120117,1.733220100402832,-1.558220624923706,-2.4312984943389893,1.3255665302276611,-5.830504417419434,2.383845567703247,0.16070649027824402,5.400773048400879,-0.26398035883903503,-3.947528600692749,0.8543213605880737,-0.09744960069656372,-3.4044697284698486,1.5183472633361816,0.19673451781272888,3.5051677227020264,1.298733115196228,-1.0715285539627075,-2.6182851791381836,-0.7525455355644226,-3.8261640071868896,-5.55265998840332,1.4229282140731812,1.1716452836990356,-0.18421320617198944,0.007699684705585241,1.5048478841781616,0.20651771128177643,1.8833469152450562,-4.056007385253906,1.1204655170440674,-3.5413949489593506,2.3568615913391113,-0.6275844573974609,5.132599830627441,0.10562611371278763,-5.987432479858398,2.6484851837158203,1.0438843965530396,-2.510134696960449,5.562268257141113,-2.573427438735962,-2.1864750385284424,4.460902690887451,-3.243279218673706,0.5662994980812073,-4.907110214233398,2.832071542739868,-4.7258124351501465,-2.125401020050049,0.18596647679805756,-0.755664587020874,-1.4109724760055542,2.5827372074127197,1.2840474843978882,2.2458248138427734,-2.5642242431640625,-1.0389268398284912,-0.03964889794588089,-1.508893370628357,-0.9274968504905701,0.7766685485839844,-0.9657961130142212,1.5039880275726318,-3.9472157955169678,0.5457539558410645,-1.5066550970077515,-1.0127924680709839,-0.8322634696960449,1.0539641380310059,1.6505695581436157,0.9093530178070068,1.7338190078735352,0.24696983397006989,1.055810809135437,-0.24243491888046265,-0.6150808930397034,-1.3096730709075928,-1.6898071765899658,0.013729692436754704,1.4783397912979126,-2.152632713317871,1.5677926540374756,5.177239418029785,-0.19159044325351715,-2.237179756164551,-2.610196590423584,2.746960401535034,-2.983889579772949,4.139734745025635,2.6577327251434326,-5.614241600036621,0.07993044704198837,-6.418758869171143,4.370055198669434,-3.5859179496765137,0.5727198123931885,1.8692097663879395,2.678576707839966,-0.36068078875541687,3.271594762802124,-2.0286121368408203,-4.1160454750061035,-4.02815580368042,-2.3242380619049072,-2.298330307006836,-3.1388251781463623,-0.7107396721839905,-1.8569822311401367,-0.4317881166934967,-1.1198722124099731,3.1142170429229736,0.5864822864532471,4.103038311004639,-4.616908550262451,-1.4811550378799438,-2.378572702407837,-1.9341394901275635,-1.734233021736145,1.1889934539794922,-4.914146900177002,2.3678205013275146,0.2563589811325073,-0.8797287344932556,2.9017863273620605,0.9340174794197083,4.396411895751953,0.030474377796053886,-0.08114074915647507,0.6062955260276794,-1.005277156829834,1.1926276683807373,4.03743314743042,-0.5925258994102478,-2.227788209915161,-3.9629874229431152,-4.081972599029541,-1.5739624500274658,-0.5501121282577515,0.11609392613172531,2.668785810470581,-1.5523611307144165,-1.5254873037338257,0.8875793218612671,-4.854202747344971,-2.752502202987671,2.664794445037842,1.5304163694381714,-0.5578740239143372,3.935276508331299]},"outputBias":{"rows":20,"columns":1,"weights":[-1.053275227546692,-2.229473352432251,0.47905072569847107,-1.6271573305130005,-1.6608116626739502,2.0224618911743164,-0.7021029591560364,-0.07228990644216537,-2.6444122791290283,0.2765563428401947,-2.064871072769165,-0.2365793138742447,-2.116292715072632,-0.6705712676048279,-1.9053950309753418,-1.5263530015945435,-0.8425243496894836,-0.5125737190246582,-2.199253797531128,-0.8817839026451111]},"cellActivationMatrix":{"rows":20,"columns":34,"weights":[-1.7445809841156006,-0.9553521871566772,0.7914257645606995,-1.7095576524734497,0.1487836241722107,0.9351778030395508,0.2591530382633209,-1.5659185647964478,0.8122903108596802,0.0950402244925499,-0.5927006602287292,-1.7054071426391602,-0.8084155917167664,0.10124269872903824,-0.17914198338985443,-1.1889170408248901,-1.1886777877807617,-0.8629602193832397,-1.1421996355056763,0.7280347943305969,-0.3960689902305603,2.0947299003601074,1.0052145719528198,-1.3475689888000488,0.5162851214408875,-1.9517992734909058,0.34135428071022034,-2.012164354324341,0.8359107971191406,-0.5130203366279602,3.359156608581543,1.3499277830123901,-1.2555650472640991,0.9977530241012573,2.1444051265716553,1.6356003284454346,-1.0678879022598267,1.844212293624878,-2.1970584392547607,-0.8673698306083679,0.04352281242609024,0.22170184552669525,-0.26853352785110474,1.5076416730880737,1.68930184841156,1.1459224224090576,0.2628364861011505,-1.549336552619934,1.523625135421753,-1.5576252937316895,0.1045474112033844,0.9156982898712158,1.2212378978729248,2.105480670928955,1.5747584104537964,-1.34235417842865,-0.9241032600402832,1.0682262182235718,0.25046688318252563,-0.16132119297981262,-0.05942138284444809,1.7730686664581299,-0.8037227392196655,0.833352267742157,-1.432396411895752,-0.3855152726173401,-1.2931301593780518,-1.7509368658065796,0.23590707778930664,-1.106402039527893,0.09511950612068176,-0.8359106183052063,0.5040273070335388,0.024976016953587532,-0.1917530745267868,0.42654091119766235,0.19087280333042145,-1.6097640991210938,-0.952984631061554,1.0628689527511597,-0.9106186032295227,0.06264778226613998,-0.25568485260009766,-0.5952994227409363,0.4937719702720642,-0.09783372282981873,0.4921588897705078,-0.8142783045768738,-0.5432089567184448,0.030230967327952385,0.864854097366333,1.983722448348999,-0.28608810901641846,-0.33534616231918335,-0.11316170543432236,1.0772587060928345,0.345104455947876,-1.7114078998565674,-2.367415428161621,-0.5915060043334961,1.4633164405822754,0.5410605669021606,1.9658278226852417,-0.25160008668899536,0.21867388486862183,2.4073829650878906,-1.4269574880599976,-0.848153293132782,-1.6522594690322876,-0.5122495293617249,-1.3195314407348633,-0.27292007207870483,1.0436619520187378,1.3383872509002686,0.7937036752700806,-0.24263405799865723,0.7073704600334167,-0.027029093354940414,-0.9911779165267944,0.2588886022567749,-0.2452307492494583,1.582088589668274,0.5706711411476135,0.9490545392036438,-1.0725030899047852,1.5543460845947266,1.0660173892974854,-1.4320718050003052,1.3568285703659058,1.7270748615264893,-0.23907960951328278,-0.23092420399188995,-0.4071071743965149,-0.4301620423793793,-0.6533707976341248,-2.4429521560668945,-2.826875925064087,-0.15354026854038239,-0.7346247434616089,-1.5932233333587646,-0.2232472002506256,-0.02505357563495636,0.1331498622894287,-0.597971498966217,-0.2678076922893524,-0.31790152192115784,1.052942156791687,-1.1915110349655151,-0.315380722284317,-0.9518712162971497,-0.7449292540550232,-0.18897169828414917,-0.09732281416654587,-1.344935655593872,-0.32058006525039673,-0.3565857708454132,-0.19613401591777802,2.883404493331909,0.45596879720687866,0.37646573781967163,-1.7507784366607666,0.3443393409252167,1.790750503540039,-2.3043136596679688,0.18640737235546112,0.07624713331460953,3.267460823059082,0.04825139790773392,-0.6524591445922852,0.9595847129821777,1.1810294389724731,0.8876398801803589,-0.1421993523836136,-0.32072097063064575,-1.3357793092727661,0.434275358915329,-0.20794463157653809,0.15333299338817596,-0.29717984795570374,-0.03459956869482994,-0.1869669109582901,-1.4285186529159546,-1.341602087020874,0.14364007115364075,0.8129842877388,-0.1391848623752594,0.26514631509780884,-0.7580455541610718,-0.8437507152557373,-0.35956335067749023,-0.9606828093528748,1.196220874786377,-1.8633098602294922,-2.0713584423065186,-2.1041581630706787,0.9045225381851196,0.025812165811657906,-0.3245543837547302,2.5532050132751465,0.4074039161205292,0.5024093985557556,1.3681056499481201,-0.7715256214141846,2.9043445587158203,-1.384129524230957,0.9410749673843384,-1.9402598142623901,0.18710289895534515,0.1804269403219223,-1.165211796760559,-0.623785138130188,-1.0483641624450684,0.48548623919487,0.8554846048355103,2.3114283084869385,0.11661722511053085,-1.2347733974456787,0.03202567994594574,-0.6257196068763733,-1.1634118556976318,-1.1520603895187378,-1.6856588125228882,-0.898527979850769,-0.43455666303634644,-0.9710551500320435,-0.5542976260185242,0.5449715256690979,-0.6319876313209534,0.6199501156806946,-2.1078319549560547,0.29609307646751404,-1.8167630434036255,0.6353351473808289,0.003877348965033889,0.9273592829704285,0.07647393643856049,-0.4587200880050659,-0.11514829844236374,-0.40618982911109924,-1.2991998195648193,1.0242598056793213,-1.7779724597930908,0.4682532548904419,0.34676289558410645,-0.38141384720802307,0.05953042209148407,-1.0970853567123413,-2.827450752258301,-2.017277479171753,-0.40672746300697327,-0.46497195959091187,1.0480680465698242,-1.4289865493774414,-0.45368313789367676,0.26219886541366577,0.847327709197998,-0.04193989187479019,0.960931122303009,0.055625464767217636,-0.018189214169979095,0.13736149668693542,-0.17651276290416718,-0.6445965766906738,0.12044373899698257,0.5517404079437256,-0.27821096777915955,0.12548767030239105,-0.08057276904582977,0.948154628276825,0.7037545442581177,1.4857527017593384,0.10561706125736237,-1.2242250442504883,-0.5317116975784302,-1.05846107006073,-0.029273010790348053,0.7737004160881042,-1.0461045503616333,0.680109441280365,-0.11643397808074951,1.1888319253921509,0.14734722673892975,0.8440255522727966,2.1495728492736816,1.2686176300048828,0.11184542626142502,-0.8661019206047058,-2.376283645629883,-1.2087695598602295,0.4138109087944031,-0.8400682806968689,0.19623422622680664,-0.3115828037261963,-1.3464548587799072,1.8397564888000488,1.2388874292373657,1.1693955659866333,-1.3576489686965942,-1.2021583318710327,-1.4344288110733032,-1.0692675113677979,0.3419817090034485,0.5713930726051331,0.6882941722869873,0.7625126838684082,-0.7318439483642578,0.4906558096408844,2.0484352111816406,0.8058866262435913,2.4154653549194336,-1.4922032356262207,0.52127605676651,0.5015249252319336,0.8425891995429993,1.552843451499939,3.118053674697876,1.4282536506652832,1.2696659564971924,-1.3860417604446411,0.5347171425819397,2.2303216457366943,1.0093464851379395,1.5121809244155884,0.4367964565753937,1.0572057962417603,1.7745192050933838,0.58332359790802,0.4244842529296875,-0.7510985732078552,0.2794327437877655,2.00370717048645,0.8333016037940979,-1.7961922883987427,1.8394050598144531,-0.35187622904777527,0.7287610173225403,0.4083568751811981,0.17003418505191803,-0.7882279753684998,-0.049855832010507584,0.18470008671283722,-0.020985383540391922,-0.9194536805152893,-1.82069993019104,1.8190938234329224,0.6681223511695862,0.06254681199789047,-0.2831258177757263,0.5974492430686951,-0.43446090817451477,0.5059729218482971,-0.6350834369659424,0.7264125347137451,0.08568345010280609,-2.0018537044525146,0.36032161116600037,1.0481388568878174,-0.9697400331497192,-2.2180681228637695,-1.7466051578521729,-0.6135371327400208,0.6357204914093018,1.368259310722351,-0.09709639847278595,-0.9067596197128296,0.2601490616798401,1.5964583158493042,-2.980984926223755,1.4308205842971802,-1.171667218208313,0.60081547498703,-0.3899392783641815,0.8539090752601624,1.5143946409225464,-0.49044761061668396,-0.13892918825149536,-0.8857606649398804,1.9850988388061523,0.26500433683395386,-2.1698052883148193,-1.130327582359314,-1.593772053718567,0.22645144164562225,0.22751858830451965,3.0743532180786133,0.2818513810634613,0.27320021390914917,0.622143566608429,3.602717638015747,-2.958723545074463,-0.3228714168071747,0.5555865168571472,0.4950752556324005,1.1044269800186157,-1.7543448209762573,0.22787797451019287,-0.3515841066837311,-1.1506985425949097,2.3447060585021973,-2.801204204559326,1.4258594512939453,0.5522729158401489,-0.40748369693756104,0.6692715883255005,0.7792606949806213,-0.8478996157646179,0.1749962717294693,0.04478774592280388,-0.21982590854167938,0.27617818117141724,-0.267250120639801,0.7741371393203735,-1.7692755460739136,-1.094273567199707,-0.5996893644332886,0.6098436117172241,1.2865936756134033,1.0603107213974,0.22768905758857727,0.5858389735221863,-1.7131730318069458,-1.8134596347808838,1.521634817123413,-0.014929484575986862,-1.472458004951477,1.218552827835083,0.6530308723449707,-0.15036621689796448,2.3734490871429443,-0.3513607978820801,-1.1061227321624756,1.4690251350402832,-0.09264117479324341,-0.04035841301083565,-0.8454114198684692,0.6838271617889404,0.1855224221944809,1.388272762298584,0.18732987344264984,-0.7768920063972473,-0.6137288212776184,