{"type":"LSTMTimeStep","options":{"inputSize":1,"inputRange":0,"hiddenLayers":[20],"outputSize":1,"decayRate":0.999,"smoothEps":1e-8,"regc":0.000001,"clipval":5,"maxPredictionLength":100,"dataFormatter":{"indexTable":{},"characterTable":{},"characters":[],"specialIndexes":[]},"learningRate":0.1},"hiddenLayers":[{"inputMatrix":{"rows":20,"columns":1,"weights":[0.41586413979530334,0.9251172542572021,0.2783026695251465,0.3040729761123657,-0.24735312163829803,-2.0217790603637695,-0.039815645664930344,-0.6491639018058777,0.1755250245332718,-0.261854887008667,1.0251867771148682,0.1193295270204544,0.3833124041557312,-0.11431734263896942,0.4975399971008301,0.43793144822120667,-0.08038705587387085,0.5515078902244568,0.9890248775482178,-0.009609169326722622]},"inputHidden":{"rows":20,"columns":20,"weights":[-0.010119969956576824,0.016150984913110733,-0.03871546685695648,0.015330401249229908,-0.018410949036478996,-0.06687527149915695,0.07826248556375504,-0.008048813790082932,0.07851654291152954,-0.009314630180597305,0.0016589084407314658,-0.04395439848303795,-0.013413051143288612,0.014199668541550636,-0.028103386983275414,-0.028901636600494385,0.0038217343389987946,0.00981034804135561,0.05446796491742134,-0.020493218675255775,0.060652099549770355,0.0022147695999592543,0.06566329300403595,-0.06091197952628136,-0.01758129522204399,0.030658850446343422,-0.07418104261159897,0.045980412513017654,0.01006669644266367,-0.07064151763916016,-0.06763114035129547,-0.047459568828344345,0.06786338984966278,-0.023686785250902176,0.06115555763244629,0.012535921297967434,0.060246698558330536,-0.07638479769229889,0.05128442868590355,-0.06283222138881683,0.07660331577062607,-0.046281177550554276,-0.028976500034332275,-0.0302595067769289,-0.015950003638863564,0.014417118392884731,-0.06986761093139648,-0.049547553062438965,0.057346150279045105,0.03661065548658371,-0.0241282656788826,-0.03609263896942139,0.018667072057724,0.020395133644342422,0.04302828013896942,0.03743879869580269,0.022888068109750748,-0.016386529430747032,0.007726816460490227,-0.0031991859432309866,0.011299846693873405,0.036888957023620605,-0.038919370621442795,0.044256485998630524,-0.013921639882028103,-0.06310164928436279,0.05887550860643387,0.008807823993265629,0.024734634906053543,-0.0771455317735672,0.04532858729362488,-0.059723179787397385,-0.06403744220733643,-0.02821030095219612,-0.026422010734677315,-0.06551700830459595,-0.015679849311709404,0.06710874289274216,0.06043008714914322,0.07073044031858444,0.04616914317011833,-0.06797559559345245,0.06756678223609924,-0.02601792849600315,0.01577444188296795,0.04958701133728027,0.04782840609550476,0.026574958115816116,0.04892677441239357,-0.05545613914728165,0.03731793910264969,-0.05478907376527786,0.01976759172976017,0.062351226806640625,-0.06756408512592316,0.04841046780347824,0.008941806852817535,-0.0067664943635463715,-0.017807047814130783,0.005430987104773521,0.041551265865564346,0.01822631061077118,-0.05609170347452164,0.07195236533880234,-0.020841319113969803,0.0006683721439912915,0.0011086961021646857,0.014142272062599659,-0.06906982511281967,0.010537505149841309,-0.053026869893074036,-0.07150325924158096,0.07721751928329468,-0.05502592772245407,0.01393558643758297,-0.029992803931236267,0.05608566477894783,-0.0651237964630127,0.07403451949357986,0.04729260504245758,0.0690305158495903,0.05018431693315506,0.05640531703829765,-0.057528216391801834,0.027318818494677544,-0.026729559525847435,0.04790708050131798,-0.027738356962800026,-0.014108062721788883,0.03177645802497864,0.07275720685720444,-0.0004268715565558523,0.051790621131658554,-0.06781203299760818,0.05413917824625969,-0.07308698445558548,-0.022742891684174538,0.026447799056768417,0.045601680874824524,0.05295664817094803,-0.017975125461816788,-0.035568054765462875,0.06509704887866974,0.014236469753086567,0.05148426815867424,0.03997133672237396,-0.017522193491458893,-0.03581460192799568,-0.005517162382602692,0.06228082999587059,-0.053422730416059494,0.061132971197366714,-0.015453506261110306,0.024730633944272995,0.005993787664920092,-0.04449903592467308,-0.026809098199009895,-0.051307667046785355,0.05775118246674538,-0.020290283486247063,0.03928583115339279,0.02427802048623562,0.05073626711964607,-0.02626066654920578,0.03824008256196976,-0.019744647666811943,-0.03674880415201187,-0.03237075358629227,-0.07434533536434174,-0.02792435511946678,-0.04484069347381592,-0.025409454479813576,-0.02997565269470215,0.031027821823954582,0.012423636391758919,-0.0760783702135086,-0.004889056086540222,0.03564402088522911,-0.06187262758612633,-0.05652613937854767,0.03700235113501549,0.030768701806664467,0.019371630623936653,0.02017226070165634,0.06040831282734871,-0.06811044365167618,0.023427840322256088,-0.006637541577219963,-0.04890866577625275,-0.06260673701763153,0.054339487105607986,0.0037117311730980873,0.046041298657655716,0.009479496628046036,-0.0753324031829834,0.0008271562401205301,0.050654336810112,0.05516761168837547,-0.0758344829082489,-0.01493203453719616,-0.01429832074791193,-0.011424515396356583,0.0688357725739479,-0.02014232613146305,0.005137032363563776,0.008021137677133083,-0.05016644671559334,-0.05942506343126297,-0.07398690283298492,-0.07115995138883591,-0.0669841393828392,0.031461168080568314,-0.06356246024370193,-0.03165602684020996,0.0315939225256443,0.06163709610700607,-0.0067900135181844234,-0.02246624417603016,-0.02150498703122139,-0.07716844230890274,-0.06000673770904541,-0.044553812593221664,0.03833397105336189,0.06441746652126312,-0.05764780193567276,-0.031705599278211594,0.052110396325588226,-0.0028289007022976875,-0.04445122927427292,-0.07438620924949646,0.041457172483205795,-0.07235489040613174,-0.054235026240348816,0.010197012685239315,-0.05080364644527435,0.04665382206439972,0.012266677804291248,-0.03727024793624878,0.005365197546780109,0.009489157237112522,-0.07748724520206451,-0.07395517826080322,-0.0756785199046135,0.062190163880586624,-0.0015899641439318657,0.011997407302260399,0.018168147653341293,-0.0065656015649437904,-0.07208738476037979,-0.045527227222919464,-0.056406956166028976,-0.0037198434583842754,0.07824403792619705,0.0025519966147840023,-0.05579536035656929,0.02490825764834881,0.03617417812347412,-0.03709442541003227,-0.016831759363412857,0.02953474596142769,0.04081691429018974,0.043974317610263824,-0.07852921634912491,0.04863114282488823,-0.03992908075451851,0.06085788458585739,0.046229325234889984,-0.06559236347675323,0.00879050325602293,-0.014111725613474846,0.038795992732048035,0.0179017074406147,-0.0703519806265831,-0.06654153019189835,-0.07042142003774643,-0.029421662911772728,-0.06784337759017944,-0.046026717871427536,-0.005811446812003851,-0.07594414800405502,-0.02874741703271866,0.07590262591838837,0.057450249791145325,-0.061943717300891876,-0.04539564624428749,-0.04840109497308731,0.03671501576900482,-0.06649082899093628,-0.048411767929792404,-0.018941162154078484,-0.0476999506354332,0.055061887949705124,-0.07717563211917877,0.073949433863163,-0.00967428833246231,0.05976356193423271,-0.061285242438316345,-0.043069615960121155,-0.001213878276757896,-0.07425812631845474,-0.04611252248287201,0.0023066294379532337,0.060250602662563324,0.056331995874643326,-0.06185096129775047,0.037663497030735016,-0.04249872267246246,-0.0028256752993911505,-0.07377196848392487,0.07210610061883926,-0.009778549894690514,0.018088242039084435,-0.051714517176151276,0.03254234418272972,0.03072642721235752,-0.0064574177376925945,0.0417022667825222,0.06288990378379822,-0.035522785037755966,0.07795508950948715,-0.04033409431576729,-0.04200004041194916,-0.04275749251246452,-0.012499036267399788,-0.01137141790241003,-0.0059434580616652966,-0.045780982822179794,0.03294527158141136,-0.03674931824207306,0.007234042510390282,-0.051599178463220596,-0.061692677438259125,0.06609295308589935,0.06890591233968735,0.056275464594364166,-0.029313933104276657,-0.03426636382937431,0.014746264554560184,-0.026617715135216713,0.008725482039153576,0.005886728875339031,0.011124184355139732,0.00268057594075799,-0.07151547819375992,-0.021901573985815048,0.05763573199510574,-0.018985135480761528,-0.008497990667819977,-0.013435505330562592,-0.000897997641004622,-0.058395564556121826,-0.07173121720552444,0.00862811878323555,0.0719657614827156,0.023758795112371445,0.026400478556752205,0.060149144381284714,0.044807981699705124,-0.07035903632640839,0.07580837607383728,0.021299472078680992,-0.07580067962408066,0.03960645943880081,0.040776327252388,0.042442772537469864,0.04636295139789581,-0.06019091606140137,0.03287625312805176,0.03938945382833481,0.03129982948303223,0.0067536719143390656,0.05325492471456528,-0.010257420130074024,-0.013924388214945793,0.031034644693136215,-0.07663808763027191,-0.07218166440725327,-0.05122983455657959,-0.0758369043469429,-0.052792467176914215,-0.009021062403917313,-0.06417755037546158,-0.04123101010918617,0.017570193856954575,0.001323208212852478,-0.051048919558525085,-0.014466946013271809,0.07366761565208435,-0.046278998255729675,-0.03933371230959892,0.020487627014517784,-0.04835782200098038,-0.0003732345358002931,0.05456956475973129,0.02820296585559845,0.018690235912799835,0.02468530274927616,0.052447885274887085,-0.022782381623983383,-0.03967489302158356]},"inputBias":{"rows":20,"columns":1,"weights":[-1.0253294706344604,-1.1149605512619019,-1.066118836402893,-1.0498229265213013,-1.2484606504440308,-0.07515592128038406,-1.0228075981140137,-1.1386773586273193,-1.160544514656067,-1.2537791728973389,-0.4990869462490082,-1.176756739616394,-1.1623566150665283,-1.096799373626709,-0.9595126509666443,-1.2859920263290405,-0.923971951007843,-1.0108915567398071,-0.9692081809043884,-1.0791966915130615]},"forgetMatrix":{"rows":20,"columns":1,"weights":[0.010263470001518726,0.015274248085916042,-0.07588979601860046,-0.058771681040525436,0.022442199289798737,-0.030008772388100624,-0.02239043079316616,0.0690193623304367,0.014522829093039036,-0.046203382313251495,-0.021267488598823547,-0.054352108389139175,-0.04383065924048424,-0.07707097381353378,-0.04676152020692825,0.031952448189258575,0.03913753479719162,-0.02616037428379059,0.021968619897961617,0.01660800911486149]},"forgetHidden":{"rows":20,"columns":20,"weights":[-0.058856360614299774,-0.07216419279575348,-0.011685625649988651,0.012031566351652145,0.06124953180551529,0.07872763276100159,-0.04182717576622963,0.06812338531017303,-0.03929345682263374,0.07675635814666748,0.011495914310216904,-0.05865253880620003,0.05290789157152176,0.07711134105920792,0.05844059959053993,-0.05526035651564598,-0.011978856287896633,-0.02557257190346718,-0.07740434259176254,0.023021399974822998,-0.05596774443984032,-0.02422560565173626,0.04353923350572586,0.059578076004981995,0.014422895386815071,-0.00963294692337513,0.0541037991642952,-0.07328720390796661,0.03888382017612457,0.03008868731558323,0.01642313227057457,0.0588844008743763,0.05390581116080284,0.07091458886861801,-0.027853377163410187,-0.03249016031622887,-0.07775036990642548,0.046098075807094574,-0.01646844670176506,0.05954265221953392,-0.06481003761291504,-0.04465412721037865,-0.05207955837249756,0.06744987517595291,0.018709374591708183,-0.04690821096301079,0.020684316754341125,-0.02162613347172737,-0.02636563777923584,0.06297212839126587,-0.01068530697375536,0.04459414258599281,-0.026128415018320084,0.03217216953635216,0.03426196053624153,0.053472068160772324,-0.040871381759643555,-0.0524517260491848,0.06737995147705078,0.06378941237926483,0.0011861377861350775,-0.0009762886329554021,0.005289107095450163,-0.002853130456060171,0.05399516969919205,0.0007394319400191307,0.0014613635139539838,-0.007927739061415195,-0.019511956721544266,-0.0221882201731205,-0.016144145280122757,0.07286816835403442,-0.03875070437788963,-0.06403116136789322,-0.019638512283563614,0.06652701646089554,0.07756417244672775,-0.039564505219459534,0.049893949180841446,-0.05557568371295929,-0.034883029758930206,-0.04841333627700806,0.04731233790516853,0.04482397809624672,0.030168408527970314,-0.06318330019712448,-0.0009146641241386533,0.04283008351922035,-0.024760538712143898,-0.07117561995983124,-0.050603147596120834,-0.005392707418650389,0.07822732627391815,0.01618478074669838,-0.05114441737532616,-0.016893362626433372,0.041133563965559006,0.0768832266330719,-0.006686010863631964,-0.0706007108092308,-0.01540759764611721,0.019969647750258446,-0.01469678245484829,-0.07699796557426453,0.06552750617265701,-0.027582241222262383,0.01763436757028103,-0.035481393337249756,-0.050278931856155396,0.03270772844552994,0.057408008724451065,0.031105538830161095,-0.043376728892326355,-0.0033318540081381798,-0.014407234266400337,0.0017819112399592996,0.07363023608922958,0.01464375015348196,-0.028500882908701897,0.03231917321681976,-0.04429447650909424,0.0635080486536026,-0.004175014328211546,-0.0640934482216835,-0.014346904121339321,-0.005020393058657646,0.01557923760265112,-0.0182908084243536,-0.049042314291000366,-0.04853019863367081,0.021370531991124153,0.03587222471833229,-0.005860259756445885,-0.023257683962583542,-0.06798940896987915,-0.0283049289137125,-0.003990130964666605,-0.07577341049909592,-0.05215985327959061,0.006533904001116753,-0.04673575982451439,-0.03475870192050934,0.03874819725751877,-0.03894490376114845,0.008853155188262463,0.007255057338625193,-0.03123290464282036,0.01031173299998045,0.030841469764709473,-0.02284424938261509,-0.019033607095479965,-0.052376553416252136,0.05189618095755577,0.03631112352013588,-0.0009500670712441206,0.019777951762080193,0.06381186097860336,-0.0244998000562191,-0.04650743678212166,0.012554708868265152,0.03200969845056534,-0.010927691124379635,0.03829602897167206,-0.07213924080133438,-0.03463451564311981,-0.0714254304766655,-0.03157787024974823,0.02163093537092209,0.0005623350152745843,-0.03706115856766701,-0.035351771861314774,0.05229584872722626,0.05327537655830383,-0.001668028300628066,-0.057085342705249786,-0.05567280948162079,-0.02570423297584057,0.050195809453725815,0.0318036712706089,0.04328353330492973,0.011118811555206776,0.03317487612366676,0.03503059595823288,0.06843477487564087,-0.05410802364349365,0.009139369241893291,-0.0241970494389534,-0.028720013797283173,-0.011166737414896488,0.028621187433600426,-0.027733536437153816,0.0352591946721077,0.059632521122694016,0.01591375842690468,-0.026723287999629974,-0.0052001285366714,0.017565902322530746,0.03786788508296013,0.06587100774049759,-0.046256061643362045,0.024527769535779953,-0.07529450207948685,0.024045167490839958,0.010281899012625217,0.06564876437187195,0.05522313714027405,-0.07254273444414139,0.06065593287348747,0.004688365384936333,0.042833615094423294,0.014833034947514534,0.07701008766889572,-0.03263818472623825,-0.046521544456481934,-0.07490576803684235,0.0647999569773674,0.06425497680902481,-0.03022606670856476,0.03349350392818451,-0.009573942981660366,-0.029552843421697617,-0.02559591270983219,-0.07675527036190033,-0.022472457960247993,0.07851219922304153,0.06545073539018631,0.04559171572327614,-0.011349406093358994,-0.05031479522585869,0.03650633618235588,0.06854794919490814,0.009065775200724602,-0.04999441280961037,-0.05353664979338646,0.012021812610328197,0.023849284276366234,0.03133419528603554,-0.001551941386424005,-0.0075895641930401325,-0.010689354501664639,-0.018281463533639908,-0.053813423961400986,-0.04822421818971634,-0.06690943241119385,0.02604144997894764,-0.05887098237872124,0.02469511702656746,-0.046574242413043976,-0.06627600640058517,0.05272065848112106,0.0402282290160656,-0.004924694076180458,-0.06893838196992874,0.02427259460091591,0.0037270458415150642,0.040944188833236694,0.0771220326423645,-0.023374993354082108,-0.06849084049463272,-0.0010259667178615928,0.05717841908335686,0.06609024852514267,-0.06962814182043076,0.026277802884578705,0.054376717656850815,0.01313939318060875,-0.047072600573301315,0.031051211059093475,-0.06273721903562546,0.007086458615958691,0.03929664567112923,0.004708321299403906,-0.060479991137981415,0.012612405233085155,-0.039950449019670486,-0.0720144733786583,-0.01951480470597744,-0.03609488159418106,0.026374034583568573,0.032620515674352646,0.04924774542450905,0.06419185549020767,-0.03543083369731903,-0.02300150692462921,0.05212235450744629,-0.042067527770996094,0.074007049202919,-0.0635245218873024,-0.060969218611717224,-0.06841351091861725,-0.03284576162695885,-0.05947336554527283,0.012349345721304417,0.06717690825462341,-0.06443767249584198,0.0759253278374672,-0.017415808513760567,-0.06335152685642242,0.05713702365756035,-0.05887700244784355,-0.0626528412103653,0.03219180554151535,-0.05903438478708267,0.07119162380695343,-0.06578881293535233,-0.056373145431280136,-0.04491379112005234,0.020447876304388046,0.05340049788355827,0.011649694293737411,0.018502304330468178,0.05047563090920448,-0.025014644488692284,0.048507723957300186,-0.07735520601272583,-0.03427226096391678,-0.0262569859623909,0.07728740572929382,0.07473902404308319,0.04755978286266327,-0.02395547553896904,0.046060711145401,0.029617784544825554,-0.01799168810248375,0.0608045868575573,-0.021180542185902596,-0.05669327825307846,0.043618809431791306,0.035947684198617935,-0.014023656956851482,0.016143452376127243,-0.020636238157749176,0.05149165913462639,-0.06357631087303162,0.035686738789081573,-0.05058269947767258,0.045919179916381836,-0.02403872460126877,0.04852748662233353,0.022145448252558708,0.010215576738119125,-0.06558342278003693,-0.0058639501221477985,-0.014711652882397175,-0.050761595368385315,-0.06421958655118942,-0.06002926453948021,0.01280561089515686,0.04477930814027786,-0.05620555207133293,0.0028811199590563774,-0.03936391696333885,0.04250488802790642,0.017195122316479683,0.03748244047164917,-0.07675229758024216,0.03469597175717354,0.04182299226522446,-0.021011844277381897,-0.03349464759230614,-0.003721178276464343,-0.06493183225393295,-0.07842274010181427,-0.027957426384091377,0.015105975791811943,-0.05741780623793602,-0.004718497861176729,-0.06639014929533005,-0.06957429647445679,-0.017880292609333992,-0.07546883821487427,-0.007820638827979565,-0.06189147010445595,0.016801653429865837,0.0311563890427351,-0.05178550258278847,-0.013841339386999607,-0.04791374132037163,-0.037906464189291,-0.04451362416148186,0.0721181184053421,0.018660355359315872,0.015087191015481949,0.03820604830980301,-0.06617015600204468,0.017025312408804893,-0.011946558952331543,-0.04347113147377968,0.02870294637978077,0.014374782331287861,-0.05206672102212906,-0.05410439521074295,0.051565803587436676,-0.03506181016564369,0.058225054293870926,-0.00029350578552111983,0.043447695672512054,-0.04280635714530945,-0.040843963623046875,0.055267542600631714]},"forgetBias":{"rows":20,"columns":1,"weights":[0,0,0,0,0,0,0,0,0,0,0,0,0,0,0,0,0,0,0,0]},"outputMatrix":{"rows":20,"columns":1,"weights":[0.4934489130973816,0.9520317316055298,0.34892550110816956,0.3893420100212097,-0.2102019339799881,-2.069669008255005,0.026137767359614372,-0.6507007479667664,0.20984750986099243,-0.2896181643009186,1.14048433303833,0.11498942226171494,0.4565037488937378,-0.05492840334773064,0.5777733325958252,0.45398902893066406,0.021294521167874336,0.610081672668457,1.0486009120941162,-0.034920383244752884]},"outputHidden":{"rows":20,"columns":20,"weights":[-0.002475777640938759,0.06488332897424698,0.03449450060725212,0.001989110605791211,0.03740362077951431,-0.06023829057812691,-0.027053864672780037,-0.074196957051754,-0.012992133386433125,0.05156216770410538,-0.07517363131046295,-0.018867626786231995,0.061262767761945724,-0.021875672042369843,0.07273832708597183,-0.03044184111058712,0.06068645045161247,0.05868995562195778,-0.045660194009542465,-0.06456171721220016,0.046488117426633835,-0.07452242076396942,-0.07733568549156189,-0.006246875040233135,0.03280048072338104,0.02936582826077938,-0.06395386159420013,-0.04560408741235733,-0.0018858308903872967,0.024556869640946388,-0.05731895565986633,0.07740041613578796,-0.051450785249471664,-0.05438186973333359,0.025819988921284676,0.015772338956594467,-0.021003393456339836,0.06312350928783417,-0.07795997709035873,-0.03889026865363121,-0.03158519044518471,-0.039957743138074875,-0.0017251069657504559,-0.0774175375699997,-0.05973302945494652,-0.06426363438367844,-0.00517829367890954,-0.05839826911687851,0.0031537413597106934,0.04888894781470299,0.0080361757427454,0.07751721888780594,-0.06284748762845993,0.010606913827359676,-0.019648628309369087,0.05932997912168503,-0.016816571354866028,0.009267919696867466,-0.04144666716456413,-0.015303382650017738,-0.07801717519760132,-0.015216332860291004,-0.06236038729548454,0.06050718575716019,0.03898846358060837,0.0029805805534124374,0.005858736112713814,-0.043548334389925,-0.029390064999461174,-0.07667191326618195,-0.0017666848143562675,0.012116366066038609,0.05563223734498024,-0.015499883331358433,0.03173059597611427,0.04092548042535782,-0.035542722791433334,-0.017816197127103806,0.054457131773233414,0.07658100128173828,0.015027410350739956,-0.006893259473145008,-0.011338301002979279,0.04566703736782074,0.007009726949036121,0.001436531892977655,-0.07539542764425278,-0.05925353989005089,-0.044844914227724075,-0.03481866046786308,0.06632301211357117,0.02671252004802227,0.04790263995528221,0.01676289550960064,0.0634092465043068,0.07789811491966248,0.011112681590020657,0.05246514454483986,-0.05872678756713867,0.019208014011383057,0.06280793249607086,-0.0039296820759773254,0.03549983352422714,0.04281986132264137,-0.01702139712870121,-0.031020954251289368,0.02723119966685772,-0.04897549748420715,-0.0020473087206482887,0.04590629041194916,0.06807934492826462,-0.03770053759217262,-0.058298833668231964,0.0027531369123607874,-0.06299687922000885,0.016897384077310562,-0.034021880477666855,-0.01301058754324913,0.019819630309939384,0.012769843451678753,-0.04204797372221947,0.07255041599273682,-0.02084559202194214,0.07099256664514542,-0.07310377806425095,0.03917341306805611,-0.04115106910467148,0.029492320492863655,0.07230820506811142,0.06480997055768967,-0.003506551729515195,-0.054557349532842636,-0.015055659227073193,0.05403544753789902,0.040671639144420624,-0.052917223423719406,0.017516734078526497,-0.00523356394842267,0.012005922384560108,0.07547014206647873,0.06528008729219437,0.02237088792026043,0.056731048971414566,-0.04710918664932251,0.03352610394358635,0.06161877140402794,0.06860028952360153,-0.058884017169475555,0.06952978670597076,0.03267594426870346,-0.05658502131700516,0.029720952734351158,0.04654213786125183,-0.05087731406092644,-0.06412855535745621,-0.07857029885053635,-0.026468317955732346,0.06515748798847198,0.05127108097076416,0.03243352100253105,0.03400436043739319,0.011515217833220959,-0.054360851645469666,-0.03761383891105652,0.06472566723823547,-0.022599581629037857,-0.003961140755563974,-0.034168314188718796,-0.028837105259299278,0.059599388390779495,-0.002116546966135502,0.037387020885944366,0.07840917259454727,-0.015569841489195824,-0.026068566367030144,-0.05937298387289047,0.021697023883461952,0.023086722940206528,-0.021485133096575737,-0.016128595918416977,0.07739539444446564,0.04175442084670067,0.07364261150360107,-0.03240849822759628,0.057738084346055984,-0.04480557516217232,0.07835551351308823,0.02418864518404007,0.05926470085978508,0.06564889848232269,0.03790544718503952,-0.041024100035429,-0.07635237276554108,0.06630418449640274,-0.008130811154842377,-0.04217129200696945,-0.015749141573905945,0.006863026414066553,-0.0475439578294754,0.00976111926138401,0.044221069663763046,-0.057357657700777054,-0.004641977604478598,-0.048067037016153336,0.07199504226446152,-0.05262532830238342,-0.005516888573765755,0.054223645478487015,-0.02562052570283413,-0.07222641259431839,-0.0727987214922905,-0.04701923951506615,0.024701572954654694,0.06891953945159912,0.008701401762664318,0.059986382722854614,-0.02938845567405224,0.011491836048662663,0.0566287487745285,0.03075874038040638,-0.051408931612968445,0.03890647739171982,-0.04887279123067856,0.06241457536816597,-0.06058204174041748,0.007177769672125578,-0.008255298249423504,0.06224195286631584,-0.003762331325560808,-0.06284689903259277,-0.0759192556142807,-0.008054234087467194,0.016352662816643715,0.07284004241228104,0.030854709446430206,-0.033390674740076065,-0.02512866072356701,0.03988898545503616,-0.07610634714365005,-0.054394517093896866,-0.006362433545291424,0.039197612553834915,-0.02285574935376644,-0.023013994097709656,0.02980978786945343,-0.028446843847632408,-0.028959771618247032,-0.033980004489421844,0.05367076024413109,-0.0004891004064120352,0.023627668619155884,0.06446310877799988,0.060746073722839355,-0.021967921406030655,0.03636469691991806,-0.07085741311311722,0.060559023171663284,0.01003183238208294,0.07247309386730194,-0.001189672970212996,0.04271867126226425,0.01803703047335148,0.06301847100257874,-0.06372065842151642,0.038029856979846954,-0.021624451503157616,0.02852608822286129,0.0004511592851486057,-0.07854267954826355,0.07486605644226074,0.0017995586385950446,0.0627126693725586,-0.05830378085374832,-0.03715816140174866,-0.028054339811205864,-0.07519891113042831,0.010774017311632633,-0.04151264578104019,0.01264221966266632,-0.007660022005438805,-0.013349467888474464,-0.01789265125989914,0.05406232923269272,-0.027318967506289482,-0.026206905022263527,-0.008809887804090977,0.05449499562382698,-0.019014909863471985,-0.058846622705459595,-0.03734888881444931,-0.03275752812623978,0.024397753179073334,-0.046979986131191254,0.0005147925694473088,-0.027842553332448006,0.03750825673341751,0.009820610284805298,-0.05694233253598213,0.030739499256014824,0.06919295340776443,0.00207560695707798,0.026004929095506668,-0.0556163415312767,0.014142339117825031,0.050006382167339325,0.01837693341076374,0.0547533743083477,-0.0008736408781260252,-0.05803777649998665,-0.026636168360710144,-0.029780054464936256,0.05027896538376808,0.04908380284905434,0.03207948058843613,-0.0014120455598458648,0.04231049865484238,-0.051144376397132874,0.030527060851454735,-0.0773472860455513,-0.05719992518424988,-0.05653101205825806,0.03602056950330734,0.036013100296258926,-0.04977570101618767,-0.0268852561712265,-0.04261796921491623,-0.03209737688302994,0.019780287519097328,-0.026151098310947418,-0.06852566450834274,-0.006542833521962166,0.07411511242389679,0.05443489924073219,0.001370954792946577,-0.02887156791985035,0.06715767830610275,-0.011404728516936302,0.01870107278227806,-0.0685180127620697,0.02032892405986786,-0.00041857926407828927,-0.06697913259267807,0.037553202360868454,0.0025427681393921375,-0.003414181526750326,-0.04777829349040985,0.023618130013346672,0.035634223371744156,0.04497138783335686,0.021593663841485977,-0.04079093039035797,0.06864917278289795,-0.04168061912059784,0.0274166502058506,-0.053715236485004425,0.001285859732888639,-0.056460026651620865,0.05423502251505852,-0.02302330918610096,-0.0548686683177948,0.017755959182977676,-0.026714693754911423,-0.034739941358566284,0.013832041062414646,0.02724090777337551,-0.032720595598220825,0.025909971445798874,-0.07812633365392685,0.028235238045454025,0.014341848902404308,-0.05025988817214966,-0.017731625586748123,-0.04425977170467377,0.05494767427444458,0.07555738091468811,0.022839251905679703,-0.007947217673063278,-0.04624171927571297,-0.05701214075088501,0.032725270837545395,0.008094413205981255,-0.0709148719906807,0.015105695463716984,0.0328313484787941,-0.035948753356933594,-0.07077229768037796,0.05405200645327568,-0.020617015659809113,-0.06561152637004852,0.023295272141695023,0.060420796275138855,0.024830998852849007,0.01529623195528984,0.024124085903167725,0.024775635451078415,-0.03461354970932007,-0.05238910764455795,-0.03530678525567055,0.009735295549035072,-0.004141615703701973]},"outputBias":{"rows":20,"columns":1,"weights":[-1.001884937286377,-1.096694827079773,-1.0396792888641357,-1.033014178276062,-1.2418979406356812,-0.07388155907392502,-1.0267882347106934,-1.1398264169692993,-1.1167713403701782,-1.2402113676071167,-0.518996000289917,-1.1135036945343018,-1.1721735000610352,-1.095628023147583,-0.9327550530433655,-1.2853028774261475,-0.9273675680160522,-0.966382622718811,-0.9662172198295593,-1.0738266706466675]},"cellActivationMatrix":{"rows":20,"columns":1,"weights":[-0.9484639167785645,0.9715928435325623,-0.9049621820449829,0.8808199167251587,0.5690368413925171,1.1360864639282227,-0.020983248949050903,-0.2950250208377838,0.8635260462760925,-0.5316128730773926,1.2575539350509644,0.8365896344184875,-0.8399790525436401,-0.13189910352230072,-0.9663810729980469,0.5964734554290771,-0.012815931811928749,0.9831807017326355,1.005147099494934,-0.05008658394217491]},"cellActivationHidden":{"rows":20,"columns":20,"weights":[0.012400205247104168,-0.03489753231406212,0.041894927620887756,0.03544490039348602,-0.03675474599003792,0.05114728957414627,0.02893506921827793,-0.024203892797231674,-0.0483146607875824,0.02569383941590786,-0.05071482062339783,-0.04152637720108032,-0.010258082300424576,0.06705304980278015,-0.05079841986298561,0.0013179077068343759,-0.052574124187231064,-0.04736648127436638,0.05849918723106384,-0.005609625019133091,-0.023292984813451767,0.013011873699724674,0.027035674080252647,-0.05400616675615311,-0.06065095588564873,0.012041497975587845,0.0619778111577034,-0.027457360178232193,0.05885450169444084,0.03811074420809746,0.0025900842156261206,0.06959390640258789,-0.0016358467983081937,-0.05562100559473038,0.015537576749920845,-0.006768772378563881,-0.012508527375757694,-0.07087144255638123,0.020534489303827286,-0.05715463310480118,-0.024226710200309753,-0.07836855202913284,-0.029354795813560486,-0.014964468777179718,-0.028437159955501556,0.03700963780283928,-0.022731367498636246,0.03107909858226776,-0.02153692953288555,0.011918623000383377,-0.03553915023803711,0.07315222173929214,-0.049823906272649765,0.0014053389895707369,0.033284589648246765,-0.028239767998456955,-0.00328461523167789,-0.03718341886997223,0.024028927087783813,-0.028148096054792404,0.022605998441576958,-0.019744286313652992,0.06890806555747986,-0.07402113080024719,-0.059092890471220016,0.054835811257362366,-0.07272714376449585,0.0255036149173975,-0.0346624031662941,0.0636085718870163,-0.016116652637720108,0.07615257799625397,0.026870427653193474,-0.03594382107257843,0.03425387293100357,0.050760649144649506,-0.06753522157669067,-0.004141596145927906,-0.07645497471094131,0.025385040789842606,-0.01525886356830597,0.022262582555413246,0.029486164450645447,0.018232617527246475,-0.020154332742094994,-0.014766554348170757,0.0016669282922521234,0.03530026972293854,-0.010426351800560951,-0.046509403735399246,0.05515141785144806,-0.01262702327221632,0.012792021967470646,0.05724242702126503,-0.04212410748004913,-0.03284117579460144,0.02030070684850216,0.010708059184253216,-0.004098708275705576,0.056170299649238586,0.0782913938164711,-0.037355367094278336,-0.023750921711325645,-0.0031537183094769716,-0.009100542403757572,0.015260539948940277,-0.036017853766679764,0.06254410743713379,-0.03854024037718773,-0.02267482876777649,-0.05385203659534454,-0.008039498701691628,-0.05890388414263725,-0.061295874416828156,-0.021980393677949905,0.05418229475617409,-0.05126795172691345,0.07708240300416946,0.07101473212242126,0.03197269141674042,-0.013173752464354038,0.00726165808737278,0.0681016743183136,-0.029804259538650513,-0.04303465783596039,0.013392681255936623,-0.03727994114160538,0.011358438059687614,-0.05194713547825813,0.036749277263879776,0.038817405700683594,-0.008524757809937,-0.04846787452697754,-0.026558786630630493,0.07823371887207031,0.039198052138090134,-0.056046292185783386,0.005622093100100756,0.07580991834402084,-0.01030069962143898,-0.007662821561098099,-0.04652531445026398,-0.04560435563325882,0.0029346642550081015,-0.07840495556592941,-0.03114708699285984,-0.02422155626118183,-0.016304342076182365,-0.020398207008838654,-0.05539211258292198,0.024430640041828156,0.029669493436813354,0.00984071847051382,0.0271000899374485,-0.008146227337419987,-0.009756076149642467,0.004912485834211111,-0.0377214178442955,0.061172015964984894,-0.06123614311218262,0.06881561875343323,0.06605188548564911,-0.032729241997003555,-0.017347484827041626,0.027265379205346107,-0.01872640661895275,0.0488172248005867,-0.07384821027517319,-0.06960171461105347,-0.02647562138736248,-0.01993202045559883,-0.043858107179403305,0.02839367650449276,0.06253767013549805,-0.07279299944639206,-0.05518561229109764,-0.014394339174032211,-0.014750809408724308,0.04642416909337044,0.07605686783790588,0.04865828529000282,-0.006598908454179764,0.07660505920648575,0.05478503182530403,-0.013124844990670681,-0.015896067023277283,0.0384705550968647,0.05211503803730011,-0.02547420747578144,0.034346528351306915,-0.03850726783275604,-0.03188500180840492,-0.07014492899179459,0.006222737021744251,0.04473156854510307,0.014105274342000484,-0.02693347819149494,-0.0005803561653010547,0.0036988072097301483,0.019680486992001534,0.01962624303996563,0.06266316771507263,-0.07330183684825897,-0.07447747886180878,0.07556884735822678,0.046410299837589264,0.06001446396112442,-0.06651216745376587,0.005356044974178076,0.042546048760414124,0.05340581014752388,0.008883180096745491,0.040773265063762665,0.05012793838977814,-0.007914373651146889,-0.03847598284482956,0.03661390393972397,-0.06755238026380539,-0.06280416250228882,0.01089900266379118,-0.043624963611364365,0.05826311185956001,-0.02179764397442341,0.023524310439825058,-0.012320194393396378,0.07077382504940033,0.050830692052841187,-0.017645088955760002,-0.015858815982937813,-0.007147802505642176,0.03776451200246811,-0.003774331184104085,0.0560750812292099,-0.015322896651923656,-0.06552020460367203,-0.061860617250204086,0.04181428253650665,0.05192188173532486,-0.017619766294956207,0.014618463814258575,-0.06442015618085861,-0.06307722628116608,-0.05673618242144585,-0.04867985472083092,-0.060558021068573,0.05125173181295395,0.0716257095336914,-0.055911678820848465,-0.048191137611866,-0.026824098080396652,-0.013600248843431473,0.04082933068275452,0.02838877961039543,0.046188242733478546,-0.014963328838348389,0.007279698271304369,-0.07101075351238251,0.009063918143510818,0.05765502527356148,0.06661180406808853,0.0295886117964983,0.07091675698757172,-0.012138317339122295,-0.0766257494688034,0.03761030733585358,-0.0667058676481247,0.005818039644509554,-0.05581274628639221,-0.03637127950787544,-0.036544520407915115,0.0562274344265461,0.047614190727472305,0.05384736880660057,0.06554889678955078,-0.03833858296275139,-0.06270167976617813,0.046226780861616135,-0.029743807390332222,-0.06889674067497253,-0.00881260447204113,0.030571069568395615,-0.01278637908399105,-0.003476964309811592,-0.029323777183890343,-0.040122371166944504,0.06962405890226364,0.04207349568605423,-0.02485796809196472,0.008725173771381378,0.053247276693582535,-0.012420810759067535,0.02618187852203846,0.07626423239707947,-0.010834403336048126,-0.07571600377559662,0.011582903563976288,0.0039553772658109665,0.04489755630493164,0.03937181085348129,-0.05425487086176872,-0.038501445204019547,0.0024725731927901506,-0.05786542221903801,0.030838018283247948,0.05184479057788849,-0.05946050584316254,0.02784091979265213,0.006376711186021566,0.03779781237244606,-0.016327690333127975,0.02823970839381218,0.07212572544813156,0.06496791541576385,0.011969626881182194,0.04860220104455948,-0.05632602050900459,-0.019983408972620964,0.04336785897612572,0.02730647660791874,-0.04906868189573288,0.021348826587200165,-0.053615666925907135,0.04947713389992714,0.013275692239403725,0.07261224091053009,0.02889542654156685,0.0048684352077543736,-0.02366017922759056,-0.05593116953969002,-0.0744178295135498,0.03316394239664078,-0.008235140703618526,0.0016801473684608936,-0.060587722808122635,-0.004517231602221727,-0.07662909477949142,0.007607169449329376,0.058153796941041946,0.06653998792171478,-0.0460343137383461,0.01379251666367054,0.07356155663728714,-0.023392124101519585,0.008018158376216888,-0.02050083875656128,0.03628934547305107,0.061712753027677536,-0.02548607625067234,0.07255350053310394,0.03662367910146713,-0.05164911970496178,0.04433390498161316,0.07598604261875153,-0.022406304255127907,0.01941608265042305,-0.05112907290458679,0.007972651161253452,0.04906211793422699,-0.0674261674284935,0.01756896637380123,-0.06493916362524033,0.07066600769758224,0.011088056489825249,0.025843223556876183,-0.036603640764951706,-0.0730346068739891,0.016672123223543167,0.01083841361105442,-0.052017245441675186,-0.04421965777873993,0.07798346877098083,-0.005854322575032711,-0.05872569605708122,0.041056886315345764,0.04299894720315933,0.011634323745965958,-0.03912150859832764,-0.05294313281774521,0.003055178327485919,-0.06268419325351715,-0.0717235803604126,-0.05432163178920746,0.017549559473991394,0.07535425573587418,-0.06232135370373726,-0.06295806169509888,0.017281897366046906,0.052599336951971054,-0.07811493426561356,-0.03935888782143593,0.004880502354353666,0.004048726987093687,-0.07827523350715637,0.011248151771724224,-0.04114929214119911,-0.025557124987244606,0.04510726407170296,-0.007719394750893116,0.0268266499042511,0.033012572675943375]},"cellActivationBias":{"rows":20,"columns":1,"weights":[0.6191409230232239,0.1895434856414795,0.5986627340316772,-0.5715069770812988,-0.2934685945510864,-1.001905918121338,0.0002754176966845989,0.0677381157875061,-0.5749258995056152,0.25880467891693115,-0.07399456202983856,-0.5499277114868164,0.08175564557313919,0.017274556681513786,0.6054474115371704,-0.0353638231754303,0.0003220018988940865,-0.6242895126342773,0.276767760515213,0.005163681227713823]}}],"outputConnector":{"rows":1,"columns":20,"weights":[-0.30174338817596436,0.5489363074302673,-0.24705128371715546,0.24034225940704346,0.0987127423286438,1.1682029962539673,0.000749790808185935,-0.05661727488040924,0.18819983303546906,-0.09612860530614853,0.7225341796875,0.16881972551345825,-0.3680567741394043,0.008001419715583324,-0.3507140874862671,0.25813573598861694,-0.0013726962497457862,0.3551122844219208,0.5959267616271973,0.004136059433221817]},"output":{"rows":1,"columns":1,"weights":[0.23980537056922913]},"inputLookup":null,"inputLookupLength":0,"outputLookup":null,"outputLookupLength":0}