{"type":"LSTMTimeStep","options":{"inputSize":1,"inputRange":0,"hiddenLayers":[30],"outputSize":1,"decayRate":0.999,"smoothEps":1e-8,"regc":0.000001,"clipval":5,"maxPredictionLength":100,"dataFormatter":{"indexTable":{},"characterTable":{},"characters":[],"specialIndexes":[]},"learningRate":0.1},"hiddenLayers":[{"inputMatrix":{"rows":30,"columns":1,"weights":[-0.41935643553733826,-0.1300092190504074,-0.3541751205921173,-0.22861967980861664,-0.4423882067203522,-0.17178070545196533,-0.4508134424686432,-0.1279299259185791,-0.10120602697134018,-0.3057539761066437,-0.1230238750576973,-0.11454174667596817,-0.47239047288894653,-0.11784399300813675,-0.26180121302604675,-0.08370382338762283,-0.4011012017726898,0.028592832386493683,-0.08645647019147873,-0.16942782700061798,-0.08970648050308228,-0.05648183822631836,-0.04547247663140297,-0.011210785247385502,-0.15584497153759003,-0.07095479965209961,-0.20057205855846405,1.080764651298523,-0.3808462917804718,-0.08681885153055191]},"inputHidden":{"rows":30,"columns":30,"weights":[0.0514272041618824,0.015663569793105125,0.0744120180606842,0.006436881609261036,0.01655922457575798,0.0013689983170479536,0.03750993311405182,0.01664617657661438,0.0649702176451683,0.06087638810276985,-0.036791663616895676,0.027511240914463997,0.016692159697413445,-0.06832634657621384,-0.03743578493595123,0.007320832926779985,-0.06187121942639351,-0.02744191326200962,-0.03244180232286453,0.004915167111903429,0.0712505653500557,-0.07788889110088348,0.04886360839009285,0.06631438434123993,-0.020694375038146973,-0.0704960823059082,0.07500175386667252,0.05441983789205551,-0.06960202008485794,-0.0582926981151104,-0.06733878701925278,-0.06688353419303894,-0.04174597188830376,0.07391681522130966,0.0411665253341198,0.060473039746284485,-0.07040061801671982,0.022026751190423965,-0.05931082367897034,-0.03526720032095909,-0.03468337282538414,0.023079456761479378,-0.033923741430044174,0.00789729505777359,0.045249879360198975,-0.0508187860250473,0.037558432668447495,0.03287616744637489,0.0166428554803133,0.04229498282074928,0.04511873796582222,0.03492297977209091,0.003793921321630478,0.0012043422320857644,0.01917223259806633,-0.0013313899980857968,-0.024657808244228363,-0.003065515775233507,0.030940726399421692,0.04854860529303551,-0.03155393898487091,-0.025408046320080757,-0.004335302859544754,0.07498399913311005,-0.07706967741250992,-0.02207687869668007,0.022332875058054924,-0.039777595549821854,0.0029219198040664196,-0.02435188554227352,-0.03877265006303787,-0.06793621927499771,0.024192238226532936,-0.013730731792747974,0.030373483896255493,-0.015240892767906189,0.05046467483043671,-0.07624869793653488,-0.03268453851342201,0.03713729977607727,0.06433955579996109,-0.07818131148815155,-0.01429811306297779,0.04311921074986458,0.07525592297315598,-0.02238263003528118,-0.06937801092863083,0.04143419489264488,-0.06558780372142792,-0.052009645849466324,-0.05813875049352646,0.024695008993148804,-0.04658720642328262,-0.007757218554615974,-0.01622595079243183,-0.009143111295998096,0.0067376610822975636,-0.07623226940631866,-0.060750562697649,-0.058154597878456116,-0.022618208080530167,-0.023068368434906006,0.055125150829553604,-0.05500023066997528,-0.06754853576421738,0.025507427752017975,-0.057433146983385086,-0.022620469331741333,0.07416846603155136,0.009287337772548199,-0.06659001111984253,0.0423099584877491,-0.03302837908267975,-0.01630440726876259,-0.053527213633060455,0.035701315850019455,0.016292046755552292,0.028911076486110687,-0.05934518575668335,-0.03861648216843605,0.04039497673511505,-0.06160281226038933,-0.025895550847053528,-0.021483169868588448,-0.05109262838959694,0.0008719501201994717,0.00027397050871513784,-0.06488041579723358,0.018931113183498383,-0.062499094754457474,-0.06624545902013779,-0.0029374153818935156,-0.0666252002120018,-0.027005888521671295,0.00023009632423054427,-0.030085142701864243,0.050311002880334854,-0.07049071788787842,0.07097143679857254,-0.06427043676376343,0.01545294001698494,0.043419476598501205,-0.0021346646826714277,0.0012736538192257285,0.04158646985888481,-0.07008951157331467,0.027941545471549034,0.0609092153608799,-0.06123143434524536,0.005440195556730032,-0.054760321974754333,0.060567062348127365,-0.022343620657920837,0.0532987006008625,0.007582602556794882,-0.04823687672615051,0.058200690895318985,-0.05889161676168442,-0.050103817135095596,0.04323897510766983,0.047152161598205566,-0.015287104994058609,0.046488206833601,-0.055998556315898895,-0.024582449346780777,0.04232537001371384,0.01085546426475048,0.02300032041966915,0.0528603233397007,-0.06601078808307648,-0.008185339160263538,0.004717784468084574,-0.06789607554674149,-0.006730192806571722,-0.06592117995023727,-0.021712124347686768,-0.05526876822113991,0.04557375982403755,-0.013079825788736343,0.041247859597206116,0.015864001587033272,-0.055986180901527405,-0.05850825086236,0.07557857781648636,-0.017302297055721283,-0.024675678461790085,-0.04860050231218338,0.063168466091156,-0.02220497839152813,0.025473808869719505,-0.032095033675432205,-0.006248766556382179,-0.019645506516098976,-0.04339076206088066,0.0017671693349257112,-0.061256974935531616,-0.07712047547101974,-0.057190410792827606,-0.06652798503637314,0.007725182455033064,-0.008596444502472878,0.058749619871377945,-0.04271740838885307,0.06245088577270508,0.0617821142077446,-0.04510645940899849,0.001757736667059362,-0.078171007335186,0.05918469280004501,0.04000592231750488,0.05134386569261551,0.010957879014313221,0.04018762335181236,-0.036941833794116974,-0.003061020979657769,-0.02803954854607582,0.02771632932126522,0.015086586587131023,-0.000643847743049264,-0.05029664188623428,-0.05263862386345863,0.06361521780490875,0.059114985167980194,-0.06557976454496384,-0.07203640788793564,0.010011594742536545,-0.032078228890895844,0.06483054906129837,-0.0747147649526596,0.03488580882549286,0.0449482761323452,0.07242431491613388,-0.06353743374347687,0.01993248052895069,0.05899723991751671,0.07781145721673965,-0.04430524259805679,0.027618976309895515,0.010381724685430527,0.060851044952869415,-0.02896011993288994,0.07359576225280762,0.057176850736141205,0.0741359144449234,-0.05662614107131958,-0.043779827654361725,0.03461071848869324,-0.05212775617837906,0.0008761296048760414,-0.07373685389757156,0.059333980083465576,-0.07188723236322403,0.0071643744595348835,-0.05487493425607681,-0.016691582277417183,0.05814122408628464,-0.03320804238319397,0.005448486190289259,-0.01703721471130848,-0.018554020673036575,0.025199048221111298,-0.039601944386959076,-0.03287918120622635,-0.03524496406316757,0.032168321311473846,-0.07499583065509796,0.07804607599973679,-0.012828245759010315,-0.028347790241241455,0.013317551463842392,-0.036602869629859924,0.05283394455909729,0.042890265583992004,-0.07057330757379532,-0.00659638037905097,-0.056642498821020126,0.04260082542896271,0.00020557714742608368,-0.03254367411136627,-0.05917621776461601,-0.038216497749090195,0.04907386004924774,-0.006595975253731012,0.030079947784543037,0.05245159938931465,0.017750898376107216,0.04294441640377045,-0.07349163293838501,0.05483655631542206,0.029774701222777367,-0.01986134611070156,0.0237802192568779,-0.04581193998456001,-0.03195299208164215,-0.051687490195035934,0.009971795603632927,-0.008308780379593372,0.07586142420768738,0.052720025181770325,0.007335629779845476,0.03852628543972969,0.02497287280857563,-0.07424238324165344,-0.002974697155877948,-0.028950240463018417,-0.0557737834751606,-0.0064728744328022,0.05064067617058754,-0.06203843280673027,-0.02984546683728695,-0.05032903328537941,0.03454781696200371,-0.04649248346686363,-0.0574275478720665,0.04036911576986313,-0.009677649475634098,-0.039684902876615524,0.06604590266942978,-0.05684272199869156,-0.0021524112671613693,-0.014002179726958275,-0.0058821081183850765,0.03240612894296646,-0.004034717101603746,0.07841392606496811,-0.036032550036907196,-0.008883933536708355,0.05765236169099808,-0.038698241114616394,0.07018624246120453,-0.0761776864528656,-0.004261733032763004,0.054425835609436035,-0.030314147472381592,-0.009882037527859211,0.030445558950304985,0.03984450548887253,0.012180698104202747,-0.0687277689576149,-0.040034402161836624,-0.06481907516717911,0.02026199735701084,0.018073000013828278,0.06046529486775398,0.0395062118768692,0.0007000412442721426,0.013583612628281116,-0.04861234501004219,0.052792105823755264,0.04199455678462982,0.006276302970945835,-0.02193010039627552,-0.03115912526845932,0.026185987517237663,-0.07420490682125092,0.03639530763030052,0.04133119434118271,-0.004759996198117733,-0.03440496325492859,0.04366885498166084,0.056663092225790024,-0.008547721430659294,0.04428934305906296,-0.040767304599285126,-0.030333304777741432,-0.034469883888959885,0.01670541800558567,0.013065001927316189,-0.010588942095637321,0.003869646228849888,-0.05582784488797188,-0.0775688886642456,-0.004960314836353064,0.06658446043729782,0.0002823872782755643,-0.07095689326524734,0.032744597643613815,0.046008963137865067,0.052690278738737106,0.015626689419150352,-0.039257705211639404,0.057419173419475555,-0.006462385877966881,0.06415511667728424,0.06825868785381317,0.060198284685611725,0.0026135898660868406,0.0505194291472435,0.006999296136200428,0.07873227447271347,-0.01482101809233427,-0.03271108493208885,-0.009747513569891453,0.045897699892520905,0.058998096734285355,0.011240395717322826,-0.007750231772661209,-0.07752819359302521,-0.05839923396706581,0.021760089322924614,-0.018876470625400543,0.013377520255744457,-0.07321510463953018,0.026389721781015396,-0.03153958544135094,0.008104278706014156,-0.048923131078481674,0.025750719010829926,-0.010744055733084679,-0.024581745266914368,0.010173168033361435,-0.06610936671495438,-0.048558853566646576,-0.028332611545920372,-0.01236487366259098,-0.0698188915848732,0.01877005584537983,0.051753439009189606,-0.06566464155912399,0.026832472532987595,0.028608690947294235,-0.014238962903618813,-0.048222046345472336,-0.07729465514421463,0.04239793121814728,0.0560658797621727,-0.0021490224171429873,0.02987567149102688,-0.025723431259393692,-0.06903937458992004,0.05776499956846237,0.03913087770342827,-0.04699866846203804,-0.06836183369159698,-0.008237378671765327,-0.027429450303316116,0.009198484010994434,0.037164829671382904,-0.06281197816133499,0.00752074783667922,0.016658753156661987,0.04255824163556099,0.005307785235345364,0.0426468588411808,-0.03046976588666439,-0.036539752036333084,-0.019188635051250458,0.0767102986574173,-0.04947403818368912,-0.05560290813446045,0.036561429500579834,-0.04679085686802864,-0.004833264742046595,0.046963512897491455,0.07837780565023422,0.029205458238720894,0.07473861426115036,-0.02695479989051819,0.05128169804811478,0.02120274305343628,-0.021045085042715073,-0.03152976930141449,-0.01914799027144909,0.05019575357437134,0.01271477248519659,0.03215672820806503,-0.019296670332551003,-0.03724091500043869,-0.07510259747505188,0.06001941114664078,0.029240375384688377,0.07507169991731644,-0.0029142657294869423,0.0038448567502200603,0.024578312411904335,-0.05980481579899788,-0.015030047856271267,0.04137732833623886,0.07709819078445435,0.025413604453206062,0.026278499513864517,0.014650207944214344,-0.06977145373821259,-0.04510471597313881,-0.019992204383015633,-0.040586646646261215,0.02821342647075653,0.039788298308849335,0.008652192540466785,-0.04020549729466438,-0.04338497668504715,-0.016531391069293022,0.007005990482866764,0.0706622302532196,0.020415393635630608,0.07698217034339905,0.06720789521932602,0.03201529383659363,0.0601021908223629,0.024248942732810974,0.04228570684790611,-0.0766921192407608,0.05347742512822151,0.07625695317983627,-0.06518208235502243,0.026828110218048096,0.006214137654751539,-0.042262498289346695,0.049706559628248215,-0.05291325971484184,-0.018341578543186188,-0.0531209371984005,-0.07829012721776962,0.06950026750564575,0.036844585090875626,0.01838291995227337,0.048422642052173615,0.018431728705763817,-0.07180912047624588,-0.03789345175027847,-0.056147102266550064,0.04626276344060898,-0.029658963903784752,0.04484785348176956,-0.016984548419713974,0.06678386777639389,0.0025578285567462444,0.01632281020283699,-0.05973266437649727,0.0567188635468483,-0.03358738496899605,0.007990003563463688,0.06225018575787544,0.019045935943722725,-0.058767903596162796,-0.07113320380449295,0.05119526758790016,0.06215915456414223,0.03495766967535019,0.06057010218501091,-0.04183286800980568,-0.026372995227575302,0.03736720234155655,-0.012468374334275723,-0.03892811760306358,-0.06244468688964844,0.03974861279129982,0.0003458537394180894,-0.06218544766306877,0.01979612186551094,-0.014419539831578732,-0.03489169850945473,0.07165424525737762,0.05313684046268463,0.03506693243980408,-0.031370341777801514,0.07808073610067368,-0.06982016563415527,0.05838793143630028,-0.06283167004585266,-0.030137747526168823,0.003112970618531108,0.06367891281843185,0.02910822443664074,0.02327754907310009,0.014017854817211628,0.06757470220327377,0.013507930561900139,0.022697729989886284,0.06611090898513794,0.02082148753106594,-0.014991380274295807,0.07255727052688599,-0.05744975432753563,-0.010192349553108215,-0.05413351580500603,-0.007635968271642923,-0.07390401512384415,-0.024064747616648674,0.013243444263935089,-0.047773055732250214,-0.015224107541143894,0.0780666321516037,0.04352236166596413,-0.05907706916332245,0.03311663120985031,0.015156714245676994,0.06707914918661118,0.01800970919430256,0.019839925691485405,-0.04959917441010475,-0.02141549065709114,0.04589461162686348,0.0028428423684090376,0.006590153090655804,-0.0067582386545836926,0.052031662315130234,0.00967233907431364,-0.015013618394732475,0.04839937761425972,-0.02214498445391655,-0.05820835754275322,0.004507958889007568,0.04403501749038696,-0.02544260211288929,-0.04647909849882126,0.026595134288072586,-0.0738377496600151,-0.010913222096860409,-0.05874038115143776,0.05943610519170761,0.07625449448823929,0.0471377931535244,-0.0566260851919651,-0.04994424059987068,0.04581395164132118,-0.006943211890757084,-0.05932726711034775,-0.017229678109288216,0.034133005887269974,0.04418206959962845,0.014359543099999428,0.03650762513279915,-0.014712410047650337,0.04919832572340965,-0.04977487400174141,-0.00250412430614233,-0.03189639374613762,-0.03297083452343941,-0.05646077170968056,-0.059917766600847244,-0.015839044004678726,-0.05489746853709221,0.07208745926618576,0.07177238911390305,-0.0030464581213891506,-0.05403280258178711,-0.052131153643131256,0.038338467478752136,0.047844380140304565,-0.07143329083919525,0.06203075498342514,-0.049709320068359375,0.034313760697841644,0.054165687412023544,0.04280206933617592,-0.015019984915852547,-0.015592220239341259,0.01675558090209961,-0.0016415168065577745,-0.047222331166267395,0.02545982599258423,-0.04863114282488823,0.06518982350826263,0.043547362089157104,-0.012060513719916344,-0.0633297860622406,-0.04622020944952965,0.021652573719620705,-0.07119164615869522,0.05221378058195114,0.05110594630241394,-0.010203207843005657,0.07462822645902634,-0.03781633824110031,0.04619043320417404,0.012366421520709991,-0.005303134676069021,0.017172563821077347,-0.041545264422893524,-0.06999552249908447,0.057327691465616226,0.04060475528240204,0.03048972226679325,-0.026262512430548668,-0.010299221612513065,-0.02273760735988617,-0.003804077161476016,-0.04247237741947174,-0.05970509722828865,-0.052350834012031555,0.029590224847197533,-0.06403332203626633,0.02881929837167263,0.05396516993641853,0.01320419367402792,-0.00040032053948380053,-0.07740950584411621,0.013024521060287952,0.0021484019234776497,0.03586192801594734,-0.03585141524672508,-0.053504057228565216,0.06848184764385223,0.004605524707585573,-0.001722118817269802,-0.031108804047107697,-0.05436227098107338,0.045531224459409714,-0.02370535582304001,-0.00976519100368023,-0.01151880994439125,0.03185221552848816,0.04238368198275566,0.025408897548913956,-0.04041679576039314,0.05083156004548073,-0.02090473286807537,0.04644631966948509,-0.011012591421604156,-0.015998108312487602,-0.0036175702698528767,-0.05912763625383377,-0.026801859959959984,0.038343947380781174,0.05106368288397789,-0.03495190665125847,0.009621980600059032,0.0038042496889829636,-0.016386261209845543,-0.019397201016545296,-0.06243131682276726,-0.06126514822244644,-0.04934600740671158,-0.02946571633219719,-0.06578896194696426,-0.0016397484578192234,-0.052675820887088776,0.00033827178413048387,-0.06849406659603119,0.01663140207529068,0.050082284957170486,-0.026189690455794334,0.04407825693488121,0.003922179341316223,-0.0007076918845996261,0.0028423541225492954,0.0008047983283177018,0.027341347187757492,0.007198586128652096,0.03492065891623497,0.06330002099275589,0.04865449294447899,0.06359274685382843,0.02098623849451542,-0.01474857423454523,0.056956421583890915,-0.015526962466537952,0.05361112207174301,-0.023479025810956955,0.05292150005698204,-0.04950028285384178,-0.006535730324685574,-0.0565224289894104,-0.0037613515742123127,0.0760602205991745,-0.06036200374364853,0.06796862930059433,-0.025815648958086967,-0.07420149445533752,-0.02148427627980709,0.05438675358891487,-0.017810434103012085,0.05887474864721298,0.037551864981651306,0.053983598947525024,-0.009119618684053421,-0.03174256905913353,0.049278851598501205,-0.014805284328758717,-0.04220769554376602,-0.05371718853712082,-0.01585882157087326,-0.0497361421585083,0.02609209157526493,-0.01193732488900423,-0.03236101567745209,-0.0034160814248025417,-0.06523279845714569,0.012794839218258858,0.027865324169397354,0.02850867249071598,-0.07340385764837265,-0.04965297132730484,-0.07599174976348877,-0.03153491020202637,-0.02226918749511242,-0.05177837610244751,-0.0018013190710917115,0.014957314357161522,0.031154442578554153,0.004938246216624975,0.024012481793761253,0.01747267134487629,-0.054588329046964645,0.010454779490828514,0.03145425021648407,0.06145266816020012,0.019055305048823357,0.06582813709974289,0.036251429468393326,-0.025262149050831795,-0.05072644352912903,0.002210622886195779,0.04188237711787224,0.012500490993261337,-0.044420477002859116,-0.05938585847616196,0.043676044791936874,0.04965023323893547,-0.06483229994773865,0.042133722454309464,-0.053172044456005096,0.011819629929959774,-0.018113359808921814,0.020002594217658043,-0.06996196508407593,0.02538679540157318,0.042196519672870636,-0.015905482694506645,-0.02998591586947441,-0.026243317872285843,0.03757672756910324,0.07688675820827484,-0.07747368514537811,-0.011512994766235352,-0.03759691119194031,0.027672460302710533,-0.04763678088784218,-0.06123030185699463,0.04705100879073143,-0.05977697670459747,0.07233814895153046,-0.05336451157927513,0.05443454161286354,-0.043778665363788605,-0.01860443316400051,-0.046073704957962036,0.019527617841959,-0.04753010720014572,0.0044206310994923115,0.02835095301270485,0.025112291797995567,-0.06721653789281845,-0.04812914878129959,-0.010644997470080853,-0.06450213491916656,-0.04148859158158302,0.0562274307012558,0.05606519430875778,-0.04208656772971153,-0.07866256684064865,0.027961576357483864,0.0498017780482769,-0.05714232474565506,-0.015101197175681591,0.02986794337630272,-0.05692644789814949,0.038656316697597504,-0.013782228343188763,0.04070710390806198,0.07761657983064651,0.06252068281173706,-0.07249224185943604,-0.025714825838804245,0.025411304086446762,0.006352510768920183,0.01894713006913662,0.0567735955119133,0.004541752859950066,0.008009644225239754,0.03395148366689682,0.014573019929230213,0.023941298946738243,0.0028391159139573574,0.049056604504585266,0.01909857615828514,0.03997854143381119,0.02444707788527012,0.009487851522862911,-0.05080338194966316,0.026965215802192688,-0.06116032600402832,0.07166844606399536,-0.005684487521648407,0.03695656359195709,0.0349605493247509,-0.013987640850245953,0.028736818581819534,-0.05271338298916817,-0.0414782278239727,-0.0036048139445483685,-0.008527946658432484,-0.017035674303770065,0.037545811384916306,-0.009753266349434853,-0.0016414178535342216,0.006936308927834034,0.045876748859882355,0.0014414521865546703]},"inputBias":{"rows":30,"columns":1,"weights":[-0.9951391220092773,-0.49565938115119934,-1.0397974252700806,-1.0895107984542847,-1.0134001970291138,-0.5522302389144897,-1.001747488975525,-0.5072637796401978,-0.4913071095943451,-1.0797243118286133,-0.71823650598526,-0.7561972141265869,-1.0057926177978516,-0.9226439595222473,-1.0384365320205688,-0.8105484843254089,-1.0179282426834106,-1.089565396308899,-0.5646311640739441,-0.7087380886077881,-1.0235443115234375,-0.9222727417945862,-0.48012885451316833,-0.6574883460998535,-1.0991289615631104,-0.7810336351394653,-1.0483906269073486,-0.9667487740516663,-1.0694196224212646,-0.4845743477344513]},"forgetMatrix":{"rows":30,"columns":1,"weights":[0.05584093555808067,-0.07529092580080032,-0.005168495699763298,-0.0428704172372818,0.023903902620077133,-0.040127675980329514,-0.07189036905765533,0.00425586337223649,0.014143634587526321,-0.03429211676120758,-0.06117911636829376,-0.00835580937564373,-0.0120407585054636,-0.0348610021173954,-0.016536124050617218,-0.07484447956085205,-0.0020153603982180357,-0.07594133168458939,-0.0004709961067419499,0.05097713693976402,-0.02956395410001278,-0.012078982777893543,0.051534466445446014,-0.049091558903455734,-0.027401020750403404,0.045267920941114426,-0.011717358604073524,0.010539866983890533,0.020410500466823578,0.05301889777183533]},"forgetHidden":{"rows":30,"columns":30,"weights":[-0.037974871695041656,-0.02576189860701561,-0.0007063153898343444,-0.03561894968152046,0.025713782757520676,0.05590083822607994,-0.009368758648633957,-0.07671204954385757,-0.03696521744132042,0.007567432709038258,-0.05113251507282257,-0.051830630749464035,0.026894554495811462,0.059669483453035355,-0.05306772142648697,-0.0645955428481102,-0.017338886857032776,-0.07750926911830902,-0.019589513540267944,-0.030098997056484222,-0.052872322499752045,-0.0638192743062973,0.05791492387652397,-0.06372750550508499,-0.042262133210897446,0.04724586382508278,0.07217814028263092,-0.07246571034193039,0.04885324835777283,-0.002262596506625414,0.013071045279502869,-0.017418190836906433,0.05078829824924469,0.02847905270755291,-0.049652282148599625,0.019278695806860924,0.006203440483659506,-0.04820539429783821,-0.03471687063574791,0.07232782244682312,-0.008745439350605011,0.06774627417325974,0.047851741313934326,0.0508330799639225,-0.023652205243706703,-0.04518827423453331,-0.0033424587454646826,0.031167689710855484,0.03649043291807175,-0.0291873961687088,0.05964212492108345,0.07212048768997192,0.01688545197248459,0.016775576397776604,-0.03192097693681717,0.054139379411935806,-0.0015074332477524877,-0.06905531138181686,-0.019908133894205093,-0.006476489827036858,-0.01983080990612507,-0.007547593675553799,0.03689969331026077,0.05632008984684944,-0.0567813366651535,0.036368757486343384,-0.024238629266619682,-0.02458704635500908,0.0539015531539917,0.04616579785943031,0.026575086638331413,0.0631328821182251,-0.060386404395103455,0.07595844566822052,-0.03886687383055687,-0.027716606855392456,0.06050971895456314,0.056588079780340195,0.0014921292895451188,0.010556546971201897,-0.02431153692305088,-0.026090804487466812,0.04703235253691673,0.05594724416732788,-0.0192987322807312,-0.06924354285001755,-0.05602318421006203,-0.008689801208674908,-0.010747007094323635,0.0012404352892190218,-0.07800208032131195,0.05339667946100235,0.05343562364578247,0.0007976272027008235,-0.04924321547150612,-0.001276190159842372,0.03375482186675072,-0.0002849276061169803,0.044714026153087616,0.028414448723196983,0.013250885531306267,0.0017040144884958863,0.0015932435635477304,-0.04553893208503723,0.004561960231512785,0.016019679605960846,0.07045179605484009,0.0705571174621582,0.06413218379020691,-0.04005688428878784,0.003991325851529837,0.03411847725510597,-0.006943770684301853,-0.05174115300178528,0.05883513391017914,0.059034332633018494,0.04035313054919243,0.03759736567735672,0.07670466601848602,-0.04144420474767685,0.07351137697696686,-0.0775667056441307,0.049402642995119095,0.05517825484275818,-0.06125412881374359,0.015964675694704056,0.06011706218123436,0.01767938770353794,0.044899605214595795,-0.0770748108625412,0.012554094195365906,-0.019749468192458153,0.024852417409420013,-0.01059211976826191,0.049398310482501984,-0.07379824668169022,-0.0020039062947034836,-0.019838953390717506,0.006304525304585695,0.014957361854612827,0.07513414323329926,-0.04091285914182663,0.021311430260539055,-0.0007852281560190022,0.050789229571819305,-0.010847838595509529,-0.003618422197178006,-0.06449093669652939,0.044201288372278214,0.055005718022584915,-0.04306988790631294,-0.04267468675971031,-0.02295510284602642,-0.04363283887505531,0.0023087277077138424,-0.03422044590115547,-0.03959433361887932,0.029633985832333565,-0.03304862976074219,-0.06125504896044731,-0.025555137544870377,0.014819566160440445,-0.028789084404706955,-0.04364732280373573,0.03659898787736893,-0.06606023758649826,0.023247549310326576,0.01716618612408638,0.03946486487984657,-0.053476862609386444,-0.01995883882045746,0.07635144889354706,-0.05114881321787834,0.04696712642908096,-0.020067309960722923,0.0435473658144474,0.008350320160388947,0.048003342002630234,-0.018760021775960922,0.05550939962267876,-0.04789362847805023,-0.05761211737990379,-0.0698903501033783,0.025794081389904022,-0.0644797682762146,-0.07165728509426117,-0.07285265624523163,0.05562267452478409,-0.06653901189565659,0.0466856025159359,-0.027794528752565384,-0.005274214781820774,0.05170218273997307,-0.07176291942596436,-0.018569465726614,-0.06122821941971779,-0.047424349933862686,0.02551085874438286,-0.07738460600376129,0.03733227029442787,0.04731377586722374,-0.06699295341968536,-0.01721761003136635,-0.008804521523416042,-0.0409824438393116,0.056203391402959824,-0.02554461546242237,0.022364236414432526,0.05879282206296921,0.05578125640749931,0.06243356317281723,-0.037271931767463684,-0.04453026130795479,0.022438062354922295,0.020724428817629814,0.07036446779966354,-0.07333230972290039,-0.013756295666098595,-0.033062584698200226,0.07166136056184769,0.0722985565662384,0.038317106664180756,0.013439515605568886,0.035451311618089676,-0.05668387562036514,-0.004378556273877621,0.05866387486457825,-0.02398700825870037,0.008304600603878498,0.05316784605383873,-0.013043783605098724,0.01860833540558815,-0.07109949737787247,-0.011429308913648129,0.03989149257540703,0.03462915122509003,0.07349824905395508,-0.06442253291606903,0.06963779032230377,-0.025619249790906906,0.07372716069221497,-0.025724872946739197,0.05894579738378525,-0.041287053376436234,-0.0225900299847126,-0.06863624602556229,0.01865380071103573,0.021918488666415215,-0.06919170916080475,0.02797836996614933,0.002189253456890583,-0.02361668087542057,0.0578281544148922,-0.04512527585029602,-0.018940964713692665,-0.07351911067962646,-0.042872797697782516,-0.03283014893531799,-0.00397171126678586,0.04122498258948326,-0.061002835631370544,-0.07018237560987473,-0.019240381196141243,-0.031182805076241493,-0.04586421325802803,-0.001367670949548483,0.0052351271733641624,-0.004614111501723528,-0.05896328389644623,0.021160133183002472,0.029333146288990974,0.013082422316074371,-0.00344168022274971,-0.0008146583568304777,-0.056026849895715714,0.028222432360053062,0.07604705542325974,0.016694512218236923,-0.027800964191555977,-0.057538386434316635,-0.0504511259496212,0.0488811656832695,-0.053825508803129196,0.0672474205493927,-0.0785369724035263,0.07027430832386017,0.04111325368285179,-0.059365421533584595,0.052387017756700516,0.028021998703479767,0.016407152637839317,-0.07293994724750519,0.061938025057315826,0.06830674409866333,-0.04465232044458389,0.0019407733343541622,0.052055276930332184,-0.07480113953351974,-0.018462197855114937,-0.049130987375974655,0.06951296329498291,-0.036721374839544296,0.04326219856739044,0.04515396058559418,0.022092066705226898,-0.038611382246017456,0.005145341623574495,-0.03470558673143387,0.02667350135743618,-0.07358931005001068,-0.02079385332763195,0.020171254873275757,0.006018080282956362,-0.0054193707183003426,0.07372955977916718,-0.0005467727896757424,0.02218710072338581,-0.02099825255572796,0.06287388503551483,-0.008162716403603554,0.06790546327829361,-0.026795459911227226,0.026129823178052902,-0.06463504582643509,0.07639540731906891,0.048731885850429535,-0.012153590098023415,-0.06692685931921005,-0.011601140722632408,0.039171814918518066,-0.040587395429611206,0.03352188318967819,-0.06650731712579727,0.024849293753504753,0.04932582005858421,-0.016474615782499313,0.06852535158395767,-0.03413248062133789,-0.06067541614174843,0.058070726692676544,0.02012520097196102,0.07679042220115662,0.060254015028476715,-0.0694853886961937,0.004131307825446129,0.07535235583782196,0.06384401768445969,-0.05641606077551842,0.0742216408252716,0.010934528894722462,0.07644103467464447,-0.011274184100329876,-0.05905726179480553,0.045600418001413345,-0.030486073344945908,-0.04556078091263771,-0.04982565715909004,-0.06613919138908386,-0.03829241916537285,-0.04406456649303436,0.0562836118042469,0.025292042642831802,0.02818354032933712,-0.05263065546751022,0.06939241290092468,-0.031639110296964645,-0.022244052961468697,0.0337241068482399,-0.057635702192783356,0.07046173512935638,-0.06265871971845627,0.06514632701873779,-0.02673819288611412,-0.05807768553495407,0.019766168668866158,-0.07180789113044739,0.07673156261444092,0.0453903004527092,-0.03715754672884941,-0.06641093641519547,-0.07872046530246735,0.016436956822872162,0.035296812653541565,0.03111349046230316,0.03203864395618439,0.04811834171414375,0.06502537429332733,-0.04347533360123634,-0.0718480721116066,-0.025662589818239212,0.0143444137647748,-0.03368164598941803,0.027059685438871384,-0.057314157485961914,0.024768203496932983,-0.07698363810777664,0.061857547610998154,0.0548316165804863,-0.0052595785818994045,0.020875927060842514,-0.027286717668175697,0.005471094977110624,-0.0036028255708515644,0.05730992183089256,0.019092002883553505,-0.056682247668504715,0.02802540548145771,-0.060271233320236206,-0.014437167905271053,0.06261581182479858,-0.011293335817754269,-0.025380084291100502,0.06897652894258499,-0.07692145556211472,-0.04330362007021904,-0.05716049671173096,-0.05192844569683075,-0.015172808431088924,-0.03668542951345444,-0.006269687786698341,0.028190726414322853,0.02346455678343773,0.016870994120836258,0.04389670863747597,-0.04544134810566902,0.02088615484535694,0.040752824395895004,-0.02692490816116333,-0.03426345810294151,0.06367005407810211,0.011461662128567696,0.06430168449878693,0.07127682864665985,-0.00959866214543581,0.06827892363071442,0.015355616807937622,0.02753700688481331,0.03616931289434433,0.024268507957458496,-0.01854589581489563,0.022689061239361763,-0.05315924435853958,0.06098966300487518,-0.034592967480421066,-0.009648416191339493,-0.05711647495627403,0.05709431320428848,-0.0396435484290123,0.03568406030535698,-0.07161884009838104,0.018251795321702957,0.023905739188194275,-0.025813022628426552,0.0588599257171154,-0.01223477628082037,0.03491261601448059,0.025843080133199692,0.07346607744693756,0.05043413117527962,-0.045268815010786057,0.033660586923360825,-0.0385056771337986,-0.03755148872733116,-0.04416337236762047,-0.05953025072813034,-0.017003614455461502,0.0474165678024292,-0.011342681013047695,0.05605347082018852,0.07159672677516937,0.049623824656009674,-0.03031209111213684,-0.0029324861243367195,0.004861989989876747,-0.03472236916422844,0.0429982915520668,-0.07807543873786926,0.0013905648374930024,-0.04069945588707924,0.048942554742097855,0.04807310551404953,-0.05560794100165367,-0.02122330851852894,0.03325165808200836,0.022521117702126503,-0.0010815162677317858,-0.07745251804590225,-0.04360140860080719,-0.041962020099163055,-0.04035778343677521,0.05774509161710739,0.0399259477853775,-0.04117964208126068,-0.07200371474027634,0.038821205496788025,-0.03296779468655586,0.01974586583673954,-0.03941743075847626,-0.03329881653189659,-0.009559073485434055,-0.07745126634836197,-0.07867184281349182,-0.05129198357462883,0.038762129843235016,0.013271315023303032,-0.057383354753255844,-0.04387453570961952,-0.011173213832080364,0.06321794539690018,0.0740148276090622,-0.06927937269210815,-0.0692281648516655,-0.0009987169178202748,0.049115292727947235,0.07110776007175446,0.06740471720695496,0.03872814401984215,0.005699201952666044,-0.042504336684942245,-0.019406335428357124,-0.019099699333310127,-0.0018614133587107062,-0.014257791452109814,-0.0535903200507164,-0.025093138217926025,0.07452882081270218,-0.0048272497951984406,0.029196085408329964,-0.07139942795038223,-0.002629069611430168,0.04099590703845024,0.05189019814133644,-0.0716162919998169,-0.059387993067502975,0.06122133508324623,-0.023311259225010872,0.03474990651011467,-0.04505288973450661,-0.0738668367266655,-0.06800154596567154,-0.021533481776714325,0.07679439336061478,0.03989255428314209,0.07098953425884247,0.019739843904972076,0.04576290771365166,-0.06971023976802826,0.0561758391559124,0.07489146292209625,0.05059805512428284,-0.048574332147836685,0.03152938187122345,0.015048148110508919,-0.033027179539203644,0.0713004544377327,0.03229398652911186,-0.01793619990348816,0.05766284093260765,-0.0682155042886734,-0.03510230779647827,0.06137258931994438,0.03423503786325455,-0.02677008882164955,-0.005718591157346964,-0.007621335797011852,0.019597956910729408,-0.017471447587013245,0.02734156884253025,0.028355363756418228,0.0718681737780571,0.03890334814786911,-0.021288258954882622,0.053171418607234955,-0.0440794937312603,-0.013327410444617271,-0.05995730683207512,0.04053625464439392,0.045708004385232925,0.0538208931684494,-0.01999146305024624,-0.012991966679692268,-0.07155923545360565,-0.040439777076244354,-0.037932541221380234,-0.010352273471653461,0.04897897690534592,0.027415797114372253,0.033628951758146286,-0.016438176855444908,-0.009795088320970535,0.05366610363125801,0.025841526687145233,-0.05266416817903519,-0.06726522743701935,-0.0009413586230948567,0.06550848484039307,0.0386192612349987,-0.05040540546178818,-0.04988280311226845,0.05182894319295883,0.053304336965084076,-0.0006234354805201292,0.07669948041439056,0.07654872536659241,-0.05523303151130676,0.018880287185311317,-0.04606229066848755,0.005897815339267254,-0.023884356021881104,-0.006671236827969551,0.0011815862962976098,-0.015279042534530163,-0.07373139262199402,0.007699246052652597,0.01722022145986557,0.03918905556201935,-0.04532906785607338,-0.07591994851827621,-0.01606355793774128,-0.07145274430513382,-0.0680408850312233,-0.0362103208899498,-0.016380447894334793,0.011955417692661285,0.0053108916617929935,-0.015311643481254578,-0.023919187486171722,0.019725844264030457,0.05000217258930206,-0.0569583997130394,0.042282834649086,0.07330658286809921,0.054251283407211304,0.06277640908956528,-0.03343777358531952,0.0777370035648346,-0.017738843336701393,0.042486321181058884,0.02969903126358986,-0.03971412777900696,-0.04191478341817856,0.0017002532258629799,-0.016511984169483185,0.06727290153503418,-0.043391820043325424,0.03807290270924568,-0.022187767550349236,-0.05088118836283684,-0.007759902160614729,-0.014794236049056053,0.030869191512465477,0.03914334997534752,0.07432291656732559,0.017099004238843918,-0.019161367788910866,-0.04458063095808029,-0.059565041214227676,-0.031329698860645294,-0.07574586570262909,-0.07338672876358032,-0.04958271607756615,0.04120783507823944,0.04102233052253723,0.03847843036055565,-0.007986548356711864,-0.018635805696249008,0.0651756003499031,0.02591690607368946,-0.054199472069740295,-0.011576847173273563,0.02493421547114849,-0.06605218350887299,0.021576805040240288,-0.043784067034721375,0.0010371232638135552,-0.07225418835878372,-0.057105034589767456,0.02947101555764675,-0.07036010175943375,0.02226346731185913,-0.02091430127620697,-0.007965863682329655,-0.03846082091331482,-0.007954787462949753,0.006172904744744301,0.05670467019081116,0.04001874849200249,-0.0007712081423960626,0.03962932527065277,-0.045010436326265335,-0.078305684030056,0.00964297540485859,0.045985858887434006,-0.07303480058908463,0.07296723127365112,0.055067840963602066,0.07283437997102737,-0.012083267793059349,0.05805998295545578,0.07522059977054596,0.05042006075382233,0.07758816331624985,0.06385365128517151,-0.07861022651195526,0.0555211640894413,0.0334307923913002,0.034244053065776825,-0.020367229357361794,0.06019369140267372,-0.05439411476254463,-0.002884484129026532,0.0012733228504657745,0.0603218674659729,0.05851207301020622,0.008776946924626827,-0.03975479304790497,0.05778990685939789,-0.021220020949840546,0.0575723871588707,0.04691189527511597,-0.0437413714826107,-0.03738974407315254,0.07699857652187347,0.061833061277866364,-0.05752438306808472,0.05091557279229164,-0.04685051366686821,0.06292814016342163,0.06909587234258652,0.07065759599208832,0.0299385879188776,0.03969463333487511,0.05117170512676239,0.04125996306538582,-0.010300099849700928,-0.0401095375418663,0.02895457297563553,-0.046561747789382935,0.07753907144069672,0.06645184755325317,-0.05392017215490341,-0.0054770042188465595,0.042987581342458725,0.06787719577550888,0.07757455110549927,-0.057939182966947556,0.012391124852001667,0.057109687477350235,-0.0611422173678875,0.03747431933879852,0.049046773463487625,-0.05163881182670593,-0.012854968197643757,-0.04096983000636101,-0.06894667446613312,0.010487672872841358,0.01940343715250492,-0.0709424838423729,0.07557158917188644,0.04396430775523186,0.0648375004529953,0.024049388244748116,0.045567575842142105,0.02478538267314434,0.07242167741060257,-0.02410285919904709,-0.006563266739249229,0.04277147352695465,0.05033080652356148,-0.06084823235869408,-0.06787484884262085,0.030292419716715813,0.02443445287644863,0.03785407543182373,-0.05455254390835762,-0.027099600061774254,0.04448157176375389,-0.04106254130601883,-0.031066305935382843,0.05606730282306671,0.03126336634159088,-0.02274121530354023,0.01591453328728676,-0.06409913301467896,0.06522493064403534,-0.019510408863425255,0.02991042472422123,-0.025551732629537582,-0.025285519659519196,0.019017642363905907,-0.06141774728894234,-0.033268604427576065,0.015573565848171711,0.03948075324296951,-0.05365411937236786,-0.032445795834064484,0.06666330993175507,0.04192351922392845,-0.06328675150871277,0.014611178077757359,0.05080807954072952,-0.03403283655643463,-0.01835322566330433,0.03877922520041466,-0.005145149305462837,-0.07536906003952026,0.028390469029545784,0.030759310349822044,0.07436447590589523,0.0331464521586895,0.000933063100092113,0.06742841005325317,-0.0029439455829560757,0.0770387202501297,-0.05601143091917038,-0.010096676647663116,0.07019241154193878,-0.01842637173831463,0.02125355415046215,0.05030322074890137,0.05189380794763565,-0.05736464634537697,-0.032607272267341614,-0.021400902420282364,-0.001314992900006473,0.03790362924337387,0.04378032311797142,-0.039812248200178146,-0.038363583385944366,0.05018480122089386,0.031658023595809937,-0.05743817612528801,0.056948646903038025,0.04453679919242859,0.0772271379828453,-0.012260439805686474,-0.07871502637863159,0.014202187769114971,-0.00998390931636095,0.0651632621884346,0.07065640389919281,-0.055944278836250305,-0.03592284396290779,0.04813417047262192,-0.060914572328329086,-0.020683234557509422,-0.06535757333040237,0.03474254161119461,-0.0027496700640767813,0.023779572919011116,0.04526067525148392,0.0056075737811625,0.027784314006567,0.03777949884533882,0.03407561406493187,-0.029942860826849937,-0.039657432585954666,0.07847186177968979,0.04664699733257294,0.03619552031159401,-0.03750552982091904,-0.0569569431245327,-0.06819744408130646,0.030942773446440697,0.03454151004552841,0.015885066241025925,0.07875453680753708,-0.034603819251060486,-0.06607944518327713,-0.0002005692949751392,-0.04678502678871155,-0.03841230645775795,-0.012635993771255016,0.0033479377161711454,0.05905109643936157,0.0411185659468174,-0.07550367712974548,-0.06075052544474602,-0.0047742752358317375,-0.07524491846561432,-0.012367313727736473,-0.03349488601088524,-0.0697321966290474,0.004701168742030859,0.07048371434211731,-0.058691322803497314,-0.0605258010327816,0.05901874229311943,-0.011826436035335064,-0.042430561035871506,-0.07609201222658157,0.07189280539751053,0.029787002131342888,-0.05002688989043236,0.028209829702973366,-0.03176448866724968,0.021458951756358147,0.059701330959796906,0.06361260265111923,0.03494245931506157]},"forgetBias":{"rows":30,"columns":1,"weights":[0,0,0,0,0,0,0,0,0,0,0,0,0,0,0,0,0,0,0,0,0,0,0,0,0,0,0,0,0,0]},"outputMatrix":{"rows":30,"columns":1,"weights":[-0.4642413258552551,-0.08563419431447983,-0.4588109850883484,-0.3016146421432495,-0.5087012648582458,-0.12399922311306,-0.5379776358604431,-0.17235344648361206,-0.1822148710489273,-0.2970690429210663,-0.12207075953483582,-0.0832643210887909,-0.4727853536605835,-0.10229521244764328,-0.23452359437942505,-0.1456691473722458,-0.39219051599502563,0.04442854970693588,-0.14744685590267181,-0.07983717322349548,-0.14847326278686523,-0.06997358053922653,-0.14768819510936737,-0.018254490569233894,-0.13811835646629333,-0.05846292898058891,-0.2184833437204361,1.073609709739685,-0.3029029369354248,-0.14747923612594604]},"outputHidden":{"rows":30,"columns":30,"weights":[0.05959853157401085,0.021722648292779922,0.017383314669132233,0.005448211450129747,0.03144124150276184,-0.060469623655080795,0.04336044564843178,0.05426463484764099,-0.019188348203897476,0.039186734706163406,0.07418982684612274,-0.0646301731467247,0.00919706653803587,-0.010060355998575687,-0.061396148055791855,-0.06149804964661598,0.06213482841849327,0.06054060161113739,0.06024450063705444,-0.03470797464251518,0.040345530956983566,-0.06042464077472687,0.037237539887428284,-0.04738009348511696,0.07628463208675385,-0.003553033107891679,0.015518546104431152,0.07648108154535294,0.00429408997297287,0.05311558023095131,0.037052594125270844,0.04626860469579697,0.02665061689913273,0.009964738972485065,-0.04375390335917473,-0.014974049292504787,0.052822988480329514,-0.04163512960076332,-0.0733361691236496,-0.010501766577363014,-0.042986173182725906,-0.03398946300148964,0.054126840084791183,-0.035619836300611496,-0.04564651846885681,0.060185596346855164,0.013470035046339035,0.011539606377482414,0.06761658936738968,0.042990751564502716,-0.07031767070293427,-0.04671058803796768,0.07498062402009964,0.06067071110010147,-0.05811236798763275,-0.057005129754543304,-0.05577458441257477,0.05753432586789131,-0.025734301656484604,-0.002344684209674597,0.0047446549870073795,0.07471964508295059,-0.0033764916006475687,-0.009841621853411198,0.042666587978601456,-0.0666176825761795,0.05235749110579491,0.006185008212924004,-0.05310184136033058,0.07590176910161972,-0.023238157853484154,0.03279872611165047,-0.0003606886602938175,0.07793806493282318,0.024001525714993477,0.05832983925938606,-0.014845926314592361,0.04482496529817581,-0.05709359422326088,-0.00862755998969078,-0.02384517714381218,-0.038274168968200684,-0.008265109732747078,-0.03643050417304039,0.03178051486611366,0.03281044214963913,0.0033915697131305933,0.010334129445254803,-0.07647955417633057,-0.037707697600126266,-0.06214357540011406,-0.06894850730895996,-0.0714990645647049,-0.002270365599542856,-0.041428130120038986,0.0007085311808623374,-0.05479513481259346,0.07026844471693039,0.07699774205684662,-0.06192489713430405,-0.019812889397144318,0.06112207472324371,-0.01786162704229355,-0.05229447782039642,-0.0442839115858078,0.029471993446350098,0.04257029667496681,0.06752525269985199,-0.06604355573654175,0.02768866904079914,0.031229665502905846,0.04467026889324188,0.04679805412888527,0.018551066517829895,0.07037350535392761,-0.06094219908118248,0.051280319690704346,0.031175807118415833,-0.06912600249052048,0.041478231549263,0.03333418443799019,0.02698792889714241,0.07429001480340958,0.06795702874660492,-0.07460039854049683,0.07311598211526871,-0.012754029594361782,-0.06128394231200218,-0.0036161853931844234,-0.06913496553897858,-0.03587177023291588,-0.054061874747276306,-0.06113147735595703,0.03273050859570503,-0.0376560240983963,-0.04885460436344147,0.04203426465392113,0.07731401175260544,0.042788680642843246,0.024718619883060455,-0.027882959693670273,-0.040548183023929596,-0.06809107214212418,-0.02670547552406788,0.03243892267346382,-0.06377194821834564,-0.024620477110147476,-0.061967067420482635,0.043806616216897964,0.028830569237470627,0.0006181596545502543,-0.011639448814094067,-0.039462290704250336,-0.056818585842847824,0.012226331047713757,0.03442006930708885,0.0558483824133873,-0.06469057500362396,0.05604665353894234,0.001874570152722299,-0.05938981473445892,0.05830059573054314,0.017205500975251198,0.07080333679914474,0.04396124556660652,0.02274039201438427,-0.04137825220823288,-0.04202153906226158,-0.06783823668956757,-0.07750184834003448,0.023075759410858154,0.02167634665966034,-0.04398762807250023,0.06402790546417236,-0.07693873345851898,0.01754162088036537,0.019186144694685936,-0.07396954298019409,0.0625133290886879,-0.05734527111053467,0.009416542947292328,0.04589151591062546,-0.020073387771844864,0.01035729143768549,0.06504248827695847,0.05360658839344978,-0.05630870163440704,-0.024423224851489067,-0.0024065959732979536,0.005362017545849085,-0.0032211297657340765,0.0029233377426862717,-0.07599096745252609,0.04034154489636421,-0.017009731382131577,0.05123754218220711,0.015332946553826332,-0.07857941836118698,-0.043561555445194244,0.059773631393909454,-0.05417909100651741,-0.02610013261437416,-0.00041850534034892917,-0.014353979378938675,0.07159477472305298,0.04964163154363632,-0.008120018988847733,0.06239951029419899,-0.06674898415803909,-0.012817773036658764,0.06998804211616516,0.05832594260573387,0.010781129822134972,0.015549775213003159,0.014766404405236244,0.013814225792884827,-0.07114500552415848,-0.0035784863866865635,0.07770060747861862,0.045737553387880325,0.023671353235840797,-0.009447263553738594,-0.02844308502972126,0.008645093999803066,-0.006876109633594751,-0.05281294882297516,0.018397660925984383,-0.06581707298755646,-0.02432234212756157,-0.07872525602579117,0.06681786477565765,-0.03917047008872032,-0.07494563609361649,0.05848408862948418,-0.03587407246232033,-0.03748751059174538,0.05658804997801781,0.017674239352345467,0.029848163947463036,0.06951458752155304,0.031009456142783165,-0.06078485772013664,-0.07003673911094666,-0.02162139117717743,-0.021501118317246437,0.06676987558603287,-0.03294520825147629,0.023419896140694618,-0.03160099685192108,0.042115699499845505,0.005222219042479992,0.0007887064712122083,-0.01696760207414627,0.03190203011035919,0.001309990999288857,-0.051094766706228256,-0.018529506400227547,-0.017110219225287437,0.04556914418935776,0.003538943827152252,-0.07101688534021378,0.04137317091226578,-0.017030004411935806,0.035278528928756714,-0.021960437297821045,0.029854580760002136,-0.019517675042152405,0.030791914090514183,0.012905452400445938,-0.020957665517926216,0.032657191157341,-0.05587810277938843,-0.008327280171215534,0.036152783781290054,-0.04933223873376846,-0.07790517807006836,-0.05697740986943245,0.07341612130403519,-0.023538388311862946,-0.03269241005182266,0.06509915739297867,-0.013232462108135223,0.006094477139413357,-0.03731623664498329,0.023416966199874878,0.06344866752624512,-0.07423435151576996,-0.07205317169427872,-0.023473180830478668,0.026153968647122383,0.07029037922620773,0.010079882107675076,-0.013094750232994556,-0.05442521721124649,-0.019952576607465744,-0.0523407943546772,-0.07785702496767044,-0.02136307954788208,0.06695761531591415,0.02937215007841587,-0.0025347063783556223,0.05648541823029518,0.027473056688904762,-0.006148095242679119,0.05576625093817711,0.04541700705885887,0.07330389320850372,0.002490893704816699,-0.03668168932199478,0.018756769597530365,-0.012558432295918465,-0.059216998517513275,0.020345106720924377,-0.02183084562420845,-0.036181382834911346,-0.03500175103545189,0.022329531610012054,0.002414574846625328,0.004377346020191908,-0.031185049563646317,0.0642499327659607,-0.004519729875028133,-0.0011271388502791524,0.06952464580535889,0.003940905444324017,0.005373048130422831,-0.01104256696999073,0.06871519982814789,0.009067665785551071,0.06800014525651932,0.044033631682395935,-0.04791539907455444,0.0016919169574975967,0.046359241008758545,-0.013585654087364674,-0.011858095414936543,0.02510850690305233,0.00899017509073019,-0.029308969154953957,-0.023699387907981873,0.015625452622771263,0.0343162976205349,0.04077645018696785,0.012322700582444668,-0.05357123166322708,0.022035421803593636,-0.05744689330458641,0.07489537447690964,0.03764884173870087,-0.007240475155413151,-0.004774001892656088,0.07066544145345688,-0.07809102535247803,-0.018268166109919548,-0.07421174645423889,-0.05072714015841484,0.04116068407893181,0.06832659989595413,-0.03086923249065876,-0.04795767739415169,0.029553323984146118,-0.003035939298570156,0.02446850761771202,-0.07839924097061157,-0.045222170650959015,-0.018786072731018066,0.06543375551700592,-0.07834534347057343,0.03814949840307236,-0.05487833172082901,-0.05595874786376953,0.06682609021663666,0.060656655579805374,0.041586365550756454,0.0028827302157878876,-0.021941104903817177,-0.01143190823495388,-0.06303133070468903,0.017723092809319496,-0.06682518124580383,0.03329767286777496,0.061175670474767685,-0.05659488961100578,0.07147057354450226,-0.07373078167438507,0.04879303649067879,0.0017401119694113731,-0.0023261213209480047,0.0173178818076849,-0.05053841695189476,-0.013369398191571236,-0.00263585289940238,0.036951709538698196,0.057476695626974106,0.02763456664979458,0.02547393925487995,-0.034527044743299484,0.026199063286185265,-0.05934347212314606,0.02836928330361843,0.06179006025195122,-0.015982765704393387,0.05804871395230293,0.010256681591272354,0.06785623729228973,-0.044588230550289154,-0.0581686794757843,0.020959671586751938,-0.04039796069264412,0.012440158985555172,0.001960411202162504,0.02471158467233181,-0.023408900946378708,-0.014681427739560604,-0.020411744713783264,-0.0007134705083444715,0.026238322257995605,-0.0057286228984594345,0.009671492502093315,0.02324322611093521,0.03855662792921066,0.033650483936071396,0.051255002617836,0.055359505116939545,-0.05623063072562218,0.028427518904209137,-0.023140929639339447,0.06790038198232651,0.01592448353767395,0.03390116989612579,-0.030364617705345154,-0.044901732355356216,0.02867695689201355,0.020312098786234856,0.05612073093652725,-0.034051962196826935,0.029587147757411003,0.06907281279563904,0.03361348807811737,0.005904027260839939,-0.06781721860170364,0.04122127220034599,-0.042472291737794876,-0.02638852223753929,0.03245452418923378,0.02982175536453724,-0.018865741789340973,-0.03719763830304146,-0.011463291943073273,-0.025105049833655357,-0.005483649671077728,-0.012629600241780281,-0.009653810411691666,0.015206160955131054,0.008213016204535961,-0.0650615245103836,0.070073202252388,0.05622056871652603,-0.008464448153972626,0.040702130645513535,0.0724128857254982,-0.02438376657664776,-0.03089260868728161,0.009743317030370235,0.06926391273736954,-0.01426411047577858,-0.034720249474048615,0.058864668011665344,0.05345946550369263,0.045931149274110794,0.008501582778990269,-0.04458277300000191,-0.03692116215825081,0.052477553486824036,0.07232285290956497,-0.02615838497877121,-0.03507869690656662,0.03647557646036148,0.0560864619910717,-0.025805702432990074,0.020093705505132675,-0.04695767164230347,-0.011094855144619942,-0.05462200567126274,-0.044548556208610535,-0.031205620616674423,-0.02706936188042164,0.05338588356971741,-0.02952590398490429,0.016207380220294,0.026547595858573914,0.0015357115771621466,0.06697306782007217,-0.017587721347808838,0.0581253319978714,-0.004539053421467543,-0.06642910093069077,0.048094894737005234,-0.025731690227985382,0.015069489367306232,0.03204456716775894,0.03452969342470169,-0.00437355088070035,-0.01721789874136448,-0.02073090523481369,0.016403961926698685,0.04590502381324768,0.05449627339839935,0.028932861983776093,0.007146521937102079,0.07556474953889847,-0.04772819206118584,-0.01916135661303997,-0.04513998702168465,0.0039001929108053446,-0.014478080905973911,0.03567679226398468,-0.05516154691576958,0.06281404197216034,0.05062451213598251,-0.01407894678413868,0.04393511265516281,0.04208085685968399,0.04514649510383606,-0.061732906848192215,0.06739501655101776,0.03050285577774048,-0.0384833924472332,0.023896586149930954,-0.0023720995523035526,-0.07829374074935913,0.046297185122966766,-0.06484679877758026,-0.006185905542224646,-0.026926599442958832,-0.026816880330443382,0.02682412788271904,-0.052801020443439484,0.030365778133273125,0.054213255643844604,0.04356827586889267,-0.06277339905500412,-0.007571872789412737,0.012628518976271152,0.021713735535740852,0.006293540820479393,-0.02418486773967743,0.07787857204675674,-0.06805284321308136,0.02841172367334366,0.023103496059775352,-0.01584300957620144,0.0393572598695755,0.038946427404880524,-0.039258044213056564,0.042354241013526917,0.07225684821605682,-0.03330105543136597,-0.0026175128296017647,-0.04796691983938217,-0.021754374727606773,-0.03760160505771637,-0.037990909069776535,0.023957207798957825,-0.01522323302924633,0.060764580965042114,-0.01927558332681656,0.04314018413424492,-0.059342846274375916,-0.016016172245144844,-0.07313563674688339,-0.031899407505989075,-0.028201032429933548,0.059651948511600494,-0.04152532294392586,-0.011684814468026161,0.008139077574014664,-0.031150491908192635,0.019560376182198524,-0.020078662782907486,-0.001329390681348741,-0.01958567462861538,-0.06871909648180008,-0.033946774899959564,-0.0480976402759552,-0.0764424055814743,0.06160623952746391,-0.05018530786037445,-0.05269196629524231,-0.0035979284439235926,0.059226144105196,0.00000804261344455881,0.012944604270160198,0.06857430934906006,-0.05580351501703262,-0.02075117453932762,0.058218661695718765,0.01091007236391306,-0.07526397705078125,0.0471637025475502,0.05516660213470459,-0.01935008354485035,0.048036590218544006,0.07376168668270111,-0.04414752498269081,0.037032730877399445,0.07733659446239471,0.027971921488642693,-0.04819762706756592,0.008968026377260685,-0.06538224965333939,0.010042770765721798,0.0547286793589592,-0.06860373169183731,-0.07845582813024521,0.013721183873713017,-0.003085512202233076,0.03638770058751106,0.03350159153342247,0.05464991554617882,-0.07054761052131653,0.04699329659342766,-0.0632593035697937,0.039248786866664886,-0.030380208045244217,0.07754780352115631,-0.06401403248310089,-0.0029580509290099144,-0.06186918541789055,0.06970495730638504,0.06569668650627136,-0.033476609736680984,0.05307750403881073,0.01587948575615883,-0.07221689075231552,0.06290510296821594,-0.05209164693951607,-0.011961571872234344,0.007830791175365448,0.05767387896776199,0.04080333560705185,0.062433406710624695,0.010017110034823418,-0.0755825936794281,-0.06334733963012695,0.025018569082021713,-0.00464626494795084,0.04447927325963974,0.03968585655093193,-0.0371227040886879,-0.03416849300265312,-0.02973112463951111,0.035015229135751724,-0.053078070282936096,0.022115593776106834,0.015707723796367645,-0.07684896886348724,-0.07845461368560791,-0.04601377248764038,0.02094011940062046,0.01847109943628311,-0.012081664986908436,0.04370429739356041,0.02948737144470215,0.02368289604783058,-0.06479417532682419,-0.06056072190403938,0.014346752315759659,-0.009001308120787144,-0.058492206037044525,-0.07193095982074738,-0.0123770572245121,0.014342342503368855,-0.07732346653938293,0.04566528648138046,0.04699186608195305,0.04434020072221756,-0.07002130150794983,-0.01668878085911274,-0.006343229673802853,0.03498261421918869,0.07336682081222534,0.0009451557998545468,0.03738880157470703,-0.0748353973031044,-0.06689966470003128,0.07786859571933746,0.03819214552640915,0.03878162428736687,-0.062206994742155075,-0.06504754722118378,-0.027023162692785263,0.038903556764125824,0.01141325756907463,-0.06833136081695557,-0.019494643434882164,-0.0016549723222851753,0.014655300416052341,-0.03509379178285599,-0.03845740482211113,0.04418637230992317,0.019028466194868088,0.05806872248649597,0.0021421206183731556,-0.02695721946656704,0.04750934988260269,0.06791754066944122,-0.06912621110677719,0.024709174409508705,0.06906633079051971,-0.07487276196479797,-0.01685027778148651,0.04222475364804268,0.02345886267721653,0.020544614642858505,0.048197779804468155,-0.018943719565868378,0.01602832041680813,0.05988697335124016,-0.06841009855270386,0.024936242029070854,0.02697215974330902,0.02026541344821453,-0.002852636156603694,0.07058973610401154,0.07328461855649948,0.06869541853666306,0.0016670040786266327,-0.07113774865865707,-0.07604047656059265,0.04461517930030823,0.051210299134254456,-0.066649429500103,0.011712777428328991,0.06816118210554123,-0.006918559782207012,-0.058273300528526306,0.04209863767027855,0.049646925181150436,0.06269753724336624,0.02232399769127369,-0.06233985349535942,-0.03809385746717453,0.002956018317490816,-0.05850202590227127,-0.05758093670010567,0.028719477355480194,0.06905817240476608,-0.04758485034108162,-0.06649935990571976,-0.0041098929941654205,0.018735209479928017,0.04684259742498398,-0.0049904161132872105,0.030210677534341812,-0.014247201383113861,-0.029141273349523544,-0.017440147697925568,-0.0006997943855822086,0.07388153672218323,0.07711620628833771,0.021114423871040344,0.0362236425280571,-0.07160185277462006,-0.02412632293999195,-0.061252351850271225,-0.03005778230726719,-0.048775169998407364,0.005973266903311014,-0.03786091133952141,0.06743020564317703,0.036892227828502655,-0.06769391149282455,-0.03600288927555084,-0.06407339870929718,-0.05186876282095909,-0.02092594839632511,0.05899405851960182,0.05316581204533577,-0.04405377432703972,0.02191299758851528,0.05473657697439194,-0.021381407976150513,-0.03231935575604439,-0.0210163202136755,0.01370401680469513,0.039781998842954636,0.033927321434020996,-0.05772634968161583,0.0498298816382885,0.0540492981672287,-0.01940131187438965,0.06166141480207443,0.004436460789293051,-0.06959084421396255,0.040411677211523056,0.0704081803560257,0.059581659734249115,0.014006389304995537,-0.06252358853816986,-0.06696619093418121,-0.00045296334428712726,0.0771164745092392,-0.059056155383586884,-0.00016106567636597902,-0.03775257244706154,-0.02908710576593876,0.07855359464883804,-0.017223313450813293,0.05643785372376442,-0.019194578751921654,-0.015581193380057812,-0.03596402704715729,0.04073292389512062,0.07246015220880508,-0.029722653329372406,-0.05723659321665764,-0.020336007699370384,0.011478688567876816,-0.026233455166220665,0.03168680518865585,-0.0488036572933197,-0.06694107502698898,-0.020070843398571014,-0.06923472136259079,0.001430019154213369,0.035717304795980453,0.045309364795684814,-0.06521216034889221,-0.030619507655501366,-0.0178487841039896,0.03505033254623413,-0.009846566244959831,0.013405307196080685,-0.0006242168601602316,-0.005460202228277922,0.07213465124368668,-0.01842629723250866,0.05459600314497948,0.03518248349428177,0.024372439831495285,-0.06397736817598343,0.00393166858702898,-0.06998227536678314,-0.06807058304548264,-0.002835642546415329,-0.03719285875558853,0.04613068327307701,0.01517312228679657,-0.07076038420200348,-0.05428529530763626,-0.046051207929849625,-0.0639236569404602,0.052621617913246155,0.051820058375597,-0.06197270378470421,-0.029743995517492294,-0.01678907871246338,-0.03598630055785179,0.009413765743374825,0.056809477508068085,0.03663366287946701,-0.024696899577975273,-0.036394987255334854,-0.04046068713068962,0.044335220009088516,-0.04830395430326462,0.07860448956489563,0.030975662171840668,0.002370963105931878,0.07377052307128906,-0.06607172638177872,0.005604627542197704,0.06918882578611374,0.010269971564412117,0.005027152597904205,0.0465683713555336,0.029390458017587662,0.02571132592856884,0.0020860207732766867,0.041787877678871155,0.039993781596422195,0.031154489144682884,0.053712863475084305,0.049727413803339005,0.0030493573285639286,-0.0023150022607296705,-0.025508908554911613,-0.019589489325881004,-0.013512197881937027,-0.07526964694261551,0.05290061980485916,-0.01464081835001707,-0.05019811540842056,-0.03160921111702919,0.0020760141778737307,0.045222945511341095,0.07749614119529724,0.052826426923274994,0.06807167828083038]},"outputBias":{"rows":30,"columns":1,"weights":[-0.9814109206199646,-0.4965638816356659,-1.0367923974990845,-1.0996237993240356,-1.0191007852554321,-0.5529015064239502,-1.012711524963379,-0.5096583366394043,-0.49438223242759705,-1.0678707361221313,-0.7241751551628113,-0.7572528123855591,-0.9961801171302795,-0.9273279309272766,-1.0400984287261963,-0.8146792054176331,-1.00232994556427,-1.0611138343811035,-0.5696046948432922,-0.7084518074989319,-1.0201427936553955,-0.9230650067329407,-0.48640328645706177,-0.6601108908653259,-1.0803781747817993,-0.7835257649421692,-1.0552150011062622,-0.8735648989677429,-1.0677721500396729,-0.4892806112766266]},"cellActivationMatrix":{"rows":30,"columns":1,"weights":[1.0490329265594482,-0.015712939202785492,-1.0142892599105835,0.6981175541877747,-1.0007082223892212,-0.017101557925343513,-0.9912515878677368,-0.012853801250457764,-0.007145573850721121,-0.9812663793563843,-0.027589403092861176,0.04613576829433441,1.0546042919158936,0.13567782938480377,0.5558995008468628,0.04868754744529724,-1.0254799127578735,-0.9877546429634094,-0.000484332354972139,-0.026623958721756935,-0.46598342061042786,0.20983481407165527,0.000011778024600062054,0.02905501239001751,0.9766771793365479,-0.035919640213251114,0.46493035554885864,-1.2509366273880005,-0.8851340413093567,0.0003520545142237097]},"cellActivationHidden":{"rows":30,"columns":30,"weights":[0.06519803404808044,-0.01740347035229206,-0.02824927307665348,-0.04041067883372307,-0.0470360703766346,0.07136650383472443,0.028520936146378517,-0.04891844838857651,0.0022977269254624844,0.05440668389201164,0.05596466362476349,0.009901064448058605,0.033093564212322235,0.04205307736992836,-0.04637333005666733,0.001357990549877286,0.07745283842086792,0.00611921725794673,-0.012948626652359962,-0.011822337284684181,0.062217023223638535,0.01929008960723877,-0.05089498683810234,0.06504663079977036,0.02296772226691246,-0.05788378790020943,-0.07288041710853577,-0.06119074299931526,-0.05949941650032997,0.02557920105755329,-0.07732055336236954,0.0005879097734577954,-0.050507958978414536,0.07414858788251877,-0.03699828311800957,-0.015440652146935463,-0.04204699024558067,0.06835289299488068,-0.05588945001363754,-0.0035184044390916824,-0.027857672423124313,-0.025266526266932487,0.036252401769161224,-0.034711841493844986,-0.05306069552898407,0.005489661358296871,0.07458379119634628,-0.05078395828604698,-0.015799567103385925,0.07155963778495789,-0.07559634745121002,-0.05321246385574341,-0.05893510580062866,-0.07383560389280319,-0.02028791978955269,0.0271487794816494,-0.057461611926555634,-0.06953743100166321,0.04363536089658737,0.06360587477684021,0.07485952228307724,0.06986729800701141,0.028659772127866745,0.03184716776013374,-0.0081581836566329,-0.06471870094537735,-0.055848490446805954,0.02122535929083824,0.012162372469902039,-0.06498844921588898,-0.07052989304065704,-0.036411527544260025,0.03438583016395569,-0.022440781816840172,-0.03325403481721878,0.07323658466339111,0.012059701606631279,-0.07805243879556656,-0.03871363773941994,-0.01637575589120388,-0.00003730834214366041,-0.06592629849910736,-0.01389848068356514,0.060421172529459,-0.0442621223628521,0.038972556591033936,-0.038843028247356415,-0.07851138710975647,-0.07725165039300919,0.006800639443099499,0.03170885145664215,0.007081823889166117,-0.00008090552728390321,0.044401589781045914,-0.008270462974905968,0.05105765908956528,0.042096517980098724,-0.06772736459970474,0.044036440551280975,-0.028202053159475327,-0.05480245500802994,-0.00570891285315156,0.024779129773378372,0.047014277428388596,-0.03815627843141556,0.024358658120036125,-0.03612704202532768,-0.018265534192323685,0.03593335673213005,-0.03355894610285759,0.011732805520296097,-0.06680022925138474,0.06737442314624786,0.02468533255159855,0.017355218529701233,0.04808759689331055,-0.07117137312889099,0.04847976937890053,-0.041388995945453644,0.002354526659473777,-0.07640660554170609,-0.07179681211709976,0.025380665436387062,0.06652706116437912,0.00858814176172018,-0.051207028329372406,-0.0723392590880394,0.04223324730992317,0.02101326175034046,-0.024195095524191856,0.05878416448831558,-0.0136024234816432,0.05889803543686867,0.05597127974033356,0.06015067920088768,0.01545284129679203,0.07037203013896942,0.038516100496053696,-0.021320372819900513,0.05026339367032051,0.06936130672693253,0.011184360831975937,-0.07426246255636215,0.031133202835917473,0.015821130946278572,0.03836306929588318,0.05367402732372284,-0.05576866865158081,-0.0014240799937397242,-0.008335133083164692,-0.017203349620103836,-0.04054102301597595,-0.06910145282745361,0.004227158147841692,-0.06496337801218033,-0.002516153734177351,0.010630176402628422,-0.021489202976226807,-0.04502623900771141,0.0006938286242075264,-0.046916648745536804,-0.016127998009324074,-0.0014728668611496687,-0.009516341611742973,-0.0012229436542838812,0.056866083294153214,0.03237899765372276,-0.014017537236213684,0.015335677191615105,-0.04628954827785492,-0.04418747127056122,-0.04880056157708168,-0.07485847920179367,0.022818097844719887,-0.03074079006910324,-0.05292796343564987,-0.009672698564827442,0.036740340292453766,-0.0751672238111496,0.032354142516851425,0.07260534912347794,0.04759455844759941,0.071223184466362,-0.034164272248744965,-0.02755628526210785,-0.019588951021432877,0.07165537029504776,-0.039758048951625824,-0.022553391754627228,0.052398111671209335,-0.04781279340386391,-0.05508458986878395,-0.014079993590712547,-0.05640692263841629,-0.0025520443450659513,-0.05859126150608063,-0.004986562766134739,-0.047746993601322174,-0.04288563132286072,-0.07729297876358032,-0.02776382304728031,-0.006873010657727718,-0.05026672035455704,0.06596676260232925,-0.04548482596874237,0.06669776886701584,-0.020158465951681137,0.025511212646961212,-0.07457444071769714,-0.034759271889925,0.026615144684910774,-0.04567922279238701,-0.07859373837709427,0.011339999735355377,-0.07018721848726273,0.004074043594300747,0.033094942569732666,-0.04153887555003166,0.007621234282851219,-0.025479035452008247,0.06081436201930046,0.04463465139269829,0.03575465455651283,0.032369814813137054,0.03435610979795456,0.06461919099092484,-0.023502960801124573,0.0701218917965889,0.03989087790250778,0.014209295623004436,-0.05153590813279152,0.041768550872802734,0.059611570090055466,0.04534158110618591,-0.07328522205352783,-0.008588208816945553,-0.05772234499454498,0.001657010754570365,-0.04501041769981384,0.05777985230088234,-0.04820631444454193,0.040960054844617844,0.008740019053220749,0.06639908254146576,0.0471801720559597,0.011497260071337223,-0.06001313775777817,0.03822348639369011,-0.02424510009586811,0.04876575991511345,-0.06381004303693771,-0.0035646657925099134,0.05647331848740578,-0.06720920652151108,-0.0672975480556488,0.03248099237680435,-0.052436310797929764,-0.02777884528040886,0.059170715510845184,0.04343630373477936,-0.050702158361673355,0.003653616877272725,0.015103215351700783,-0.05361127108335495,0.001205666339956224,-0.06085929647088051,-0.015085244551301003,-0.06204809248447418,-0.005176232196390629,-0.07691729813814163,0.05248754471540451,0.04717041179537773,0.006790092680603266,0.06061885878443718,0.04290198162198067,0.06712603569030762,0.04413029924035072,-0.007565789856016636,0.018105139955878258,0.02073471061885357,0.058991603553295135,0.006742135155946016,0.03679792582988739,0.02134491503238678,0.04163065552711487,-0.026338500902056694,-0.030970202758908272,-0.05482678487896919,0.06433340162038803,0.07079148292541504,0.06620841473340988,-0.06437117606401443,0.003445375245064497,0.036694951355457306,-0.008233774453401566,-0.06890704482793808,0.06931093335151672,-0.027712300419807434,-0.05676699057221413,-0.039484310895204544,0.0050579882226884365,0.007103540003299713,0.05019663646817207,-0.04827502369880676,-0.018428746610879898,0.05187230929732323,0.06239887699484825,0.04934760928153992,0.05171329900622368,0.05718148872256279,-0.004727066494524479,0.02584684081375599,-0.07017463445663452,0.05184653773903847,0.0488583967089653,0.00864026602357626,-0.020976783707737923,0.07197613269090652,-0.06810735166072845,0.016785066574811935,0.06030148267745972,0.03340506926178932,0.06206795200705528,0.05248298496007919,0.046829815953969955,-0.02592405118048191,0.07432428002357483,-0.0014762496575713158,-0.0006936397403478622,-0.029145091772079468,0.03507556393742561,0.021356116980314255,-0.002385474042966962,0.02939535118639469,0.023798303678631783,0.014906937256455421,0.05143238604068756,0.069881372153759,0.003930370323359966,-0.07194695621728897,-0.06449617445468903,0.04535311833024025,-0.06329723447561264,-0.028419453650712967,-0.009784300811588764,-0.02347678318619728,-0.060564495623111725,-0.013868779875338078,-0.03857824578881264,0.003950970247387886,-0.018479498103260994,0.03122759982943535,-0.0155028086155653,-0.06442809849977493,-0.054190680384635925,0.0778002068400383,-0.058568134903907776,-0.0033140922896564007,-0.02993149682879448,0.04101492837071419,-0.05309480056166649,-0.06383322924375534,-0.037352364510297775,-0.03888136148452759,-0.013188089244067669,0.03448214381933212,0.0007885645027272403,0.022870853543281555,-0.07215774804353714,-0.0740138366818428,-0.016123581677675247,0.01661515049636364,0.008110611699521542,0.019399959594011307,-0.0054966751486063,-0.02864757552742958,-0.03488389402627945,0.06874144822359085,-0.07397427409887314,0.03178661689162254,-0.07139596343040466,-0.022389430552721024,-0.035067055374383926,0.004150136839598417,-0.056019969284534454,-0.07674624770879745,0.008718068711459637,0.027019109576940536,-0.04272909089922905,-0.04515508934855461,0.06500612944364548,0.04848077893257141,0.016418669372797012,-0.07831626385450363,-0.03721117600798607,-0.06913984566926956,-0.03457462042570114,0.046482786536216736,0.02287902869284153,0.060444630682468414,-0.0425172857940197,0.004321374464780092,-0.031540073454380035,-0.06092402711510658,0.06625836342573166,0.03416423872113228,0.001780593185685575,-0.010232066735625267,0.012492497451603413,0.04781748354434967,0.059621959924697876,-0.07244476675987244,-0.034892432391643524,-0.04633936285972595,0.06250439584255219,-0.03732987493276596,-0.004988324362784624,0.05488177388906479,-0.02011682093143463,-0.01128091849386692,-0.06837649643421173,0.0428420715034008,-0.028995761647820473,-0.03319883346557617,0.031232360750436783,0.02029930241405964,-0.0696791559457779,-0.03310525789856911,-0.0662856325507164,-0.06550344824790955,-0.05225048586726189,0.005695518106222153,-0.022332532331347466,0.011647677980363369,0.007077962625771761,-0.03824847936630249,0.0298374742269516,-0.05070475488901138,-0.05171853303909302,0.03497330844402313,-0.03964409604668617,0.042651645839214325,-0.005510404706001282,-0.07098782807588577,0.03650998696684837,0.015269613824784756,-0.06915688514709473,0.05530593916773796,-0.031284578144550323,0.024207482114434242,0.014385034330189228,0.010097293183207512,-0.03298907354474068,-0.07259621471166611,-0.006383683066815138,-0.020315716043114662,-0.006996450014412403,-0.05486121401190758,-0.03873799741268158,-0.06883514672517776,-0.05454201251268387,-0.019012494012713432,0.06707727909088135,-0.01806405372917652,0.00408703088760376,0.07627619802951813,0.015600764192640781,-0.0005921196425333619,-0.07331103086471558,0.009554896503686905,-0.06212910637259483,0.04853518307209015,-0.056946299970149994,-0.07358630001544952,0.031515005975961685,0.05976143479347229,-0.041710566729307175,-0.004759411793202162,0.0326366201043129,0.03795146197080612,-0.04386124759912491,0.050235167145729065,-0.00981456320732832,-0.05943211168050766,-0.07342061400413513,0.02769802324473858,-0.015810281038284302,-0.046208929270505905,0.06335913389921188,-0.06935243308544159,0.006025593262165785,0.04902518168091774,0.07694008201360703,-0.07699049264192581,0.07050658762454987,-0.004241839982569218,-0.029192136600613594,-0.03647878021001816,0.008146777749061584,0.07118548452854156,0.07010073959827423,-0.06914679706096649,-0.07445841282606125,0.06037573888897896,0.006167652551084757,0.0627361536026001,-0.01159142330288887,-0.06375740468502045,0.07153983414173126,0.0764579251408577,-0.018298856914043427,-0.07681618630886078,-0.04688334837555885,-0.005486739799380302,-0.027801061049103737,0.07644897699356079,-0.07144419848918915,0.06780679523944855,0.029743267223238945,-0.0026328410021960735,-0.07735995203256607,0.01017279177904129,0.06715229153633118,-0.024162232875823975,-0.03996545448899269,-0.02926027774810791,-0.018053999170660973,0.020052876323461533,-0.00658379215747118,0.014691514894366264,0.06002054363489151,-0.06414623558521271,0.06582820415496826,0.06289178878068924,-0.04856725409626961,0.03366079553961754,0.05231860652565956,-0.014039738103747368,-0.052352480590343475,-0.04621661454439163,-0.057845283299684525,0.07822145521640778,-0.034758687019348145,-0.04385422170162201,-0.061662957072257996,-0.004333071410655975,0.025099314749240875,0.026506226509809494,0.029972290620207787,0.0100062545388937,-0.00038118514930829406,-0.03746434301137924,0.04629155248403549,-0.003304816782474518,0.0787133276462555,0.04791460558772087,0.03543689101934433,-0.07275090366601944,0.05194951593875885,-0.06609613448381424,0.051419515162706375,-0.016680484637618065,0.0725056529045105,-0.022954445332288742,0.06631145626306534,0.014304079115390778,0.01782967522740364,0.0498952679336071,-0.007308675441890955,-0.029618579894304276,-0.013631121255457401,-0.030433587729930878,0.011306583881378174,-0.04961574822664261,-0.003146491013467312,0.02609175071120262,-0.008064452558755875,-0.054354965686798096,-0.026380524039268494,-0.02729368582367897,0.010738898068666458,-0.05303725227713585,-0.014246734790503979,-0.0456533282995224,0.008989040739834309,0.07661189138889313,-0.06056548282504082,0.06224321201443672,0.07561144232749939,-0.06271439790725708,0.041651468724012375,-0.06204042211174965,-0.03371641784906387,-0.050867002457380295,0.0024627058301120996,0.030610956251621246,0.05280350148677826,-0.06127746030688286,0.00958414189517498,-0.0704411044716835,0.0313698910176754,0.041887395083904266,-0.028602052479982376,-0.024217553436756134,0.047861211001873016,0.04346258193254471,-0.05574723333120346,-0.04503389075398445,0.010847939178347588,-0.07828659564256668,0.06185748428106308,0.07792197167873383,0.006386234425008297,0.038221947848796844,-0.006897670216858387,-0.06929375976324081,0.03742727264761925,-0.06248992681503296,-0.031700342893600464,-0.030622100457549095,-0.04749515280127525,0.044444188475608826,0.06803460419178009,-0.06378944963216782,0.06263991445302963,0.07816930115222931,-0.07369638979434967,-0.05925518274307251,0.04352837800979614,-0.027270924299955368,-0.047223519533872604,-0.046462077647447586,0.0530017651617527,-0.046040862798690796,-0.06562020629644394,0.06581391394138336,0.07015073299407959,-0.04812273010611534,-0.03259514272212982,0.004653680603951216,-0.049688685685396194,0.04777691885828972,0.0686226412653923,-0.047763995826244354,-0.02041735127568245,0.016736743971705437,0.041665028780698776,-0.023416901007294655,-0.06747785955667496,0.004759019706398249,-0.07024364173412323,0.07850603759288788,-0.031221816316246986,0.06549022346735,-0.05095697194337845,0.04947756230831146,0.06693971157073975,0.0246785469353199,-0.03230389952659607,-0.029847370460629463,0.0327698215842247,0.07066521793603897,-0.07220155745744705,0.06282787024974823,0.06464894860982895,-0.0422002449631691,-0.026540253311395645,0.05895331874489784,0.02693151868879795,0.03159213438630104,-0.051760103553533554,-0.04408443719148636,0.04682615026831627,-0.013678857125341892,0.04824875667691231,0.016011174768209457,-0.017401564866304398,-0.05426015332341194,-0.05247917026281357,0.04082386568188667,-0.005609070882201195,0.004888701718300581,0.04371902346611023,-0.03632156550884247,-0.012890857644379139,0.04062394052743912,-0.00529170548543334,-0.00026310389512218535,0.0000013059448065178003,-0.02080806903541088,-0.07472676038742065,-0.005145559087395668,-0.047262243926525116,-0.07730916887521744,-0.057408031076192856,0.017132220789790154,-0.02889697439968586,0.04798645153641701,-0.06341399997472763,0.0033275478053838015,-0.029330076649785042,-0.018037183210253716,0.022147664800286293,0.014249955303966999,-0.04626870155334473,-0.0032424102537333965,-0.04312515631318092,-0.071731798350811,0.003162121633067727,0.02936406433582306,0.0097468551248312,-0.03750213235616684,0.0569024421274662,0.030151551589369774,0.04330311715602875,-0.0590791255235672,0.06725247949361801,0.038096439093351364,-0.0749427005648613,0.022064780816435814,-0.033508412539958954,0.03407270833849907,-0.02676881104707718,-0.052935708314180374,-0.024805719032883644,-0.07391959428787231,-0.07677467167377472,-0.06591889262199402,0.022855082526803017,0.020189587026834488,-0.025277020409703255,-0.06270641088485718,-0.03114045411348343,-0.07421045005321503,0.0253742802888155,-0.06113973259925842,-0.0736587643623352,0.026344679296016693,0.015412403270602226,0.0004336620040703565,0.0245707668364048,-0.019857926294207573,0.06654156744480133,-0.029926881194114685,-0.031679246574640274,-0.03180935978889465,-0.04579729959368706,0.003966276068240404,-0.025677992030978203,-0.009466765448451042,0.039421144872903824,0.03192727640271187,0.0296375323086977,-0.06057552993297577,0.07208621501922607,-0.019402403384447098,0.05485669896006584,0.07692877948284149,-0.03918046876788139,0.045752525329589844,-0.0646466463804245,-0.004241341724991798,-0.055204953998327255,0.028258653357625008,0.07833964377641678,-0.012009739875793457,-0.06367157399654388,0.07637647539377213,-0.019699934870004654,0.023581715300679207,-0.025248175486922264,0.011168104596436024,-0.04690946638584137,0.028835589066147804,0.000634261523373425,-0.07654682546854019,-0.038517922163009644,0.03939817473292351,0.0076612308621406555,-0.045033346861600876,0.07665786147117615,-0.07827522605657578,0.05247639864683151,-0.0340743288397789,0.00833988655358553,0.05088845267891884,-0.07081384211778641,-0.02056816592812538,0.03909281641244888,-0.010371261276304722,-0.05264679715037346,-0.03674587607383728,-0.030671054497361183,-0.04454625025391579,0.00831493642181158,-0.05396623536944389,-0.0027719473000615835,0.04654727876186371,0.03898453339934349,-0.033154573291540146,-0.07198086380958557,0.028699973598122597,-0.025040218606591225,-0.019148120656609535,-0.00976917240768671,-0.03937660530209541,0.018331017345190048,0.0055198632180690765,0.05980926379561424,-0.027412015944719315,0.07059221714735031,0.02255147695541382,0.03847704082727432,-0.03822478652000427,0.047753531485795975,0.0489426851272583,0.031262289732694626,-0.0672498568892479,-0.009599551558494568,-0.07533128559589386,0.05859702453017235,0.07718322426080704,-0.07457615435123444,0.027300314977765083,0.06370764970779419,-0.009438391774892807,0.07685864716768265,0.045050106942653656,-0.026001907885074615,-0.0710325762629509,-0.04500458389520645,-0.0036525737959891558,-0.005716576240956783,-0.0025535081513226032,-0.05836009606719017,-0.04628564789891243,-0.016625937074422836,0.04594257101416588,-0.02475532703101635,-0.03867502510547638,0.009821166284382343,0.06252342462539673,-0.060848742723464966,0.03257593512535095,-0.03585485741496086,0.04115506261587143,0.02917298674583435,0.02041728049516678,0.045633021742105484,-0.06643257290124893,0.07438177615404129,-0.016315437853336334,-0.022359296679496765,-0.04686424136161804,-0.0023648045025765896,-0.04643149673938751,0.06301078200340271,0.013716582208871841,-0.00684224721044302,0.05362650007009506,-0.0535397045314312,0.0553249716758728,-0.0214692335575819,0.010756989009678364,0.020101072266697884,-0.024517033249139786,-0.02245432324707508,-0.05580144003033638,0.005765789188444614,0.04285412281751633,0.0023649740032851696,0.02033786103129387,0.034935712814331055,-0.03218577429652214,0.06582538038492203,0.007491584867238998,0.0021044148597866297,-0.07689182460308075,0.03543642535805702,0.017909426242113113,0.0055440738797187805,-0.05428370460867882,0.050667453557252884,0.02515193074941635,-0.046352729201316833,-0.07007778435945511,0.004611256066709757,0.005594850052148104,-0.02776224911212921,-0.02059013769030571,0.03781726583838463,-0.010206581093370914,-0.020156005397439003,-0.035578109323978424,0.07068557292222977,0.05672462657094002,-0.006041811313480139,0.05596701055765152,-0.0035584759898483753,-0.04655912145972252]},"cellActivationBias":{"rows":30,"columns":1,"weights":[-0.3808107376098633,0.0013138997601345181,0.35863593220710754,-0.2544615566730499,0.3335983157157898,0.0015789521858096123,0.32745227217674255,0.001143806497566402,0.0006184263038448989,0.3708495795726776,0.0010359875159338117,-0.0015445390017703176,-0.362806499004364,-0.016561981290578842,-0.20481063425540924,-0.0017317264573648572,0.37863218784332275,0.4833719730377197,0.00004391296170069836,0.0010114515898749232,0.1772967278957367,-0.041533928364515305,-9.454877840653353e-7,-0.003607671707868576,-0.42173656821250916,0.001221872167661786,-0.166825070977211,0.7543141841888428,0.3120841681957245,-0.000029268961952766404]}}],"outputConnector":{"rows":1,"columns":30,"weights":[0.5597259998321533,-0.005347656551748514,-0.5277467370033264,0.31026750802993774,-0.5175509452819824,-0.006124029867351055,-0.5117436647415161,-0.004502875730395317,-0.0024697566404938698,-0.5005804300308228,-0.00867406465113163,0.01362193189561367,0.5593403577804565,0.03343003988265991,0.2205875962972641,0.01395451370626688,-0.5396451354026794,-0.471001535654068,-0.00017211464000865817,-0.008402258157730103,-0.15279769897460938,0.046319808810949326,0.000003940215265174629,0.011013713665306568,0.4836789667606354,-0.010450372472405434,0.17145679891109467,-0.7310572862625122,-0.43106207251548767,0.00011952460772590712]},"output":{"rows":1,"columns":1,"weights":[0.11014317721128464]},"inputLookup":null,"inputLookupLength":0,"outputLookup":null,"outputLookupLength":0}