{"type":"LSTMTimeStep","options":{"inputSize":1,"inputRange":0,"hiddenLayers":[20],"outputSize":1,"decayRate":0.999,"smoothEps":1e-8,"regc":0.000001,"clipval":5,"maxPredictionLength":100,"dataFormatter":{"indexTable":{},"characterTable":{},"characters":[],"specialIndexes":[]},"learningRate":0.1},"hiddenLayers":[{"inputMatrix":{"rows":20,"columns":1,"weights":[-0.12046416103839874,-0.1961350440979004,-0.21796609461307526,-0.860877513885498,1.1327728033065796,-1.3850635290145874,1.3516252040863037,-0.6688194274902344,-0.2880210280418396,-0.6402574777603149,-0.23873485624790192,-0.2024301141500473,-0.21055959165096283,-0.1942739635705948,-1.1940910816192627,-0.510434627532959,-0.3157319128513336,-0.7134954929351807,-0.26458612084388733,-0.290101557970047]},"inputHidden":{"rows":20,"columns":20,"weights":[-0.008468984626233578,0.03228141367435455,-0.03365383669734001,0.03856681287288666,0.019022975116968155,0.021676039323210716,-0.02588532865047455,-0.07732837647199631,0.02156025357544422,0.045446012169122696,0.03939219191670418,0.06836812198162079,0.020048271864652634,0.07076200097799301,0.013108203187584877,0.03988543152809143,0.06491696089506149,0.028822731226682663,-0.06922129541635513,0.013681636191904545,-0.05104140192270279,-0.015656709671020508,-0.015240519307553768,0.059449344873428345,0.03613075241446495,0.043509695678949356,-0.00817288737744093,-0.04016456753015518,-0.04044647514820099,-0.00048642666661180556,-0.03891536593437195,0.038152698427438736,-0.034136660397052765,-0.07855930924415588,0.06229737401008606,0.05907242000102997,-0.078209288418293,0.07201619446277618,-0.014363400638103485,0.023960264399647713,0.0710129663348198,-0.0013565215049311519,-0.0022068643011152744,0.0699935331940651,0.011811308562755585,-0.04008835181593895,-0.07134963572025299,-0.03381152078509331,-0.058892834931612015,-0.009637122973799706,-0.011310355737805367,0.048892006278038025,-0.06685001403093338,-0.03406418487429619,-0.015544164925813675,0.07549746334552765,0.06683502346277237,-0.0059351809322834015,-0.06872173398733139,0.021828079596161842,-0.056478701531887054,0.028645412996411324,0.07117849588394165,0.05385373905301094,0.023682912811636925,0.06309430301189423,0.06031331419944763,-0.04212450608611107,-0.04071515426039696,0.04870191961526871,0.0785570740699768,-0.07049783319234848,0.046647388488054276,-0.053343452513217926,0.034190237522125244,-0.0670793354511261,0.03631463646888733,0.03236820176243782,-0.05478368699550629,-0.043952424079179764,0.031067417934536934,0.003277453361079097,-0.007806038949638605,0.002785861026495695,-0.07108666747808456,0.03409954160451889,-0.015470690093934536,0.02557162381708622,0.05377509817481041,0.034233734011650085,0.04558538645505905,-0.01959526352584362,-0.011176335625350475,-0.0037381635047495365,0.015374599024653435,-0.061136022210121155,0.04775594174861908,0.04787611961364746,0.06289631128311157,-0.0036387930158525705,-0.061132870614528656,-0.022410240024328232,0.036734022200107574,0.015426763333380222,0.07135985791683197,0.07297012209892273,0.015033761970698833,-0.041311271488666534,-0.0186166875064373,0.056837696582078934,-0.011452003382146358,0.07749520242214203,0.019486434757709503,0.051836930215358734,0.04559200257062912,-0.04648038372397423,0.01537556853145361,-0.052534766495227814,0.041122741997241974,0.029698606580495834,0.05118640512228012,-0.06703392416238785,-0.06814265996217728,0.023939834907650948,0.07088649272918701,-0.035413239151239395,0.02925451472401619,-0.016183774918317795,0.05172247812151909,0.012024912051856518,0.01692597009241581,0.07559323310852051,-0.02362140640616417,-0.06861454248428345,0.04033895954489708,0.02030906267464161,-0.06923733651638031,-0.010069787502288818,0.0023782693315297365,-0.041578974574804306,-0.0383070707321167,-0.03493902459740639,0.027289843186736107,0.07086057215929031,0.07155874371528625,0.04829952493309975,-0.020758742466568947,0.05909033492207527,0.039797764271497726,-0.02324502542614937,0.013019153848290443,0.0013619089731946588,0.01232561282813549,-0.072942815721035,-0.07379008829593658,0.05097265541553497,-0.07643916457891464,0.06437761336565018,-0.009784051217138767,0.004362831357866526,0.05984846130013466,0.07674577832221985,-0.04388643801212311,-0.06676416099071503,-0.06593626737594604,-0.0007573032635264099,-0.012912017293274403,0.0129059674218297,0.0399230420589447,0.07777654379606247,-0.07797025889158249,-0.015463925898075104,-0.06910998374223709,-0.03129878267645836,0.01703016832470894,-0.02677028812468052,0.07791627198457718,0.024655651301145554,0.035533443093299866,-0.07333967834711075,-0.07427045702934265,0.04005631431937218,0.04744534194469452,-0.02373923920094967,0.0067963385954499245,-0.053283195942640305,-0.02231941744685173,-0.005362811964005232,0.02471841312944889,0.05556163936853409,-0.03672518953680992,-0.029874689877033234,-0.01836862415075302,-0.040092919021844864,-0.07302908599376678,0.03363129496574402,-0.009212911128997803,-0.002914565382525325,-0.03181750327348709,-0.0762898325920105,0.05421479791402817,0.0662098079919815,-0.0569540411233902,0.03588331490755081,-0.035103101283311844,0.019097495824098587,-0.019076436758041382,0.06848739087581635,0.05268773436546326,-0.01217855978757143,0.04065778851509094,0.0354674868285656,0.0733221098780632,-0.0706738531589508,-0.03133978322148323,-0.04996822774410248,-0.019154516980051994,0.03068937174975872,0.046060144901275635,-0.027032144367694855,0.07812798023223877,0.0179868433624506,-0.029395539313554764,0.07667247205972672,-0.048920415341854095,-0.0035314210690557957,0.04200098291039467,0.05260871350765228,0.018736781552433968,-0.035249851644039154,-0.03764444589614868,-0.0712471529841423,0.04020773246884346,-0.010259456932544708,0.07835404574871063,-0.015378681942820549,0.02336052805185318,0.07733878493309021,-0.06281957775354385,0.06044893339276314,0.0384908989071846,0.0068824500776827335,-0.04753965884447098,0.07749742269515991,0.04756085202097893,0.024804333224892616,0.017589831724762917,0.018104610964655876,0.04425831511616707,-0.021993163973093033,-0.0026562761049717665,0.053433675318956375,0.07607351243495941,-0.016964305192232132,-0.041521452367305756,0.007038738112896681,-0.07021940499544144,-0.008375010453164577,-0.06093371659517288,-0.06958750635385513,0.020742282271385193,-0.0512978695333004,0.04630938172340393,-0.015208093449473381,-0.02293979562819004,-0.074924036860466,0.043396495282649994,-0.05271610990166664,-0.008212034590542316,-0.046220194548368454,0.017101751640439034,0.007505185902118683,-0.033498428761959076,0.07209571450948715,0.024338137358427048,-0.03449182212352753,-0.0580134242773056,-0.065908282995224,0.04825771972537041,0.052637506276369095,-0.05158853530883789,-0.06685060262680054,-0.05819861963391304,0.05785726383328438,0.015059640631079674,-0.036157336086034775,0.030782299116253853,-0.012307262048125267,0.012864205986261368,0.003551625180989504,0.008086706511676311,-0.02455182746052742,0.004282955080270767,0.012455538846552372,0.05317673459649086,0.05840287730097771,0.017183983698487282,-0.00992674846202135,0.04219107702374458,0.06183425709605217,-0.06377076357603073,-0.0412953719496727,-0.012936387211084366,-0.02027662843465805,-0.012678130529820919,-0.06034507602453232,-0.05890608951449394,0.0731985941529274,0.0019831706304103136,0.020084479823708534,-0.04737993702292442,-0.0261398758739233,0.00580196175724268,0.030870696529746056,-0.05346206575632095,0.039439525455236435,0.013708687387406826,-0.060728661715984344,-0.07574503123760223,0.022533493116497993,-0.07474187761545181,0.020908724516630173,-0.04906730353832245,-0.0629214346408844,-0.04780440032482147,0.0003592408320400864,-0.008155173622071743,0.025064239278435707,-0.06919168680906296,0.003636360401287675,-0.047454122453927994,0.0043061263859272,-0.02334463596343994,0.022958025336265564,0.008456862531602383,-0.02771458774805069,-0.05602249503135681,0.05028316751122475,0.03913966938853264,0.009441081434488297,0.0603567473590374,0.07525274157524109,-0.053431570529937744,-0.03223015367984772,-0.06955395638942719,0.03751271590590477,0.05561206117272377,-0.05396348983049393,-0.0025056719314306974,-0.07584428787231445,-0.015926958993077278,-0.020571138709783554,-0.043839920312166214,-0.073026642203331,-0.06473810970783234,0.00531846983358264,-0.030734041705727577,0.07609647512435913,-0.03596179559826851,0.031176820397377014,0.04356015846133232,-0.03890157863497734,-0.031764205545186996,0.04525478929281235,0.0642782598733902,-0.06422459334135056,0.055945247411727905,0.0657932460308075,0.057259365916252136,-0.07514955848455429,-0.06528571993112564,-0.031094251200556755,-0.04002033546566963,-0.04784923791885376,-0.037538137286901474,0.030840547755360603,-0.05314193665981293,0.015276551246643066,-0.0043646181002259254,-0.028760695829987526,0.05897577106952667,-0.053435068577528,-0.059822503477334976,-0.07823058217763901,-0.07710465788841248,0.00651793135330081,-0.03974044695496559,-0.03778791055083275,0.0035849472042173147,-0.012762697413563728,-0.00822929572314024,0.007780729793012142,-0.05351754277944565,-0.05902683734893799,-0.005679999478161335,0.03698113560676575,0.046074386686086655,0.06850782781839371,0.023982690647244453,0.03377538546919823]},"inputBias":{"rows":20,"columns":1,"weights":[-0.6631397604942322,-0.3634813129901886,-0.3716346323490143,-1.154319167137146,-1.6172151565551758,-0.8345143795013428,-0.899734377861023,-1.1735646724700928,-0.5383883714675903,-1.208490014076233,-0.4921656847000122,-0.49672362208366394,-0.4227495491504669,-0.4341687858104706,-0.9343221187591553,-1.100271224975586,-0.4672897160053253,-1.1383874416351318,-0.43851739168167114,-0.4867177903652191]},"forgetMatrix":{"rows":20,"columns":1,"weights":[0.004401617683470249,0.04792672023177147,-0.05540274828672409,0.05874679982662201,-0.07840093970298767,0.07143084704875946,-0.03352602198719978,-0.005709267221391201,-0.06828372180461884,-0.03317328914999962,-0.005778965540230274,-0.07072103023529053,-0.0736064538359642,-0.05863361060619354,-0.05567873269319534,-0.019732169806957245,-0.07076580822467804,0.048548948019742966,-0.021225135773420334,-0.045090291649103165]},"forgetHidden":{"rows":20,"columns":20,"weights":[-0.027302661910653114,-0.06893257796764374,-0.014195448718965054,-0.018076714128255844,0.03264382854104042,0.05673594027757645,-0.036581069231033325,0.06161610037088394,0.07830844074487686,0.053109340369701385,-0.03799671679735184,0.060037221759557724,-0.037394482642412186,0.0402829572558403,0.06668417155742645,0.03785700350999832,0.049072857946157455,0.07573993504047394,0.005873213522136211,-0.07150928676128387,0.03631729260087013,0.015329942107200623,0.011841073632240295,-0.03782011941075325,-0.03347790241241455,0.07677729427814484,-0.04493724927306175,-0.05805214121937752,0.06015937775373459,0.0371285118162632,0.059468913823366165,0.033178381621837616,0.044935647398233414,0.0625816211104393,-0.05230606347322464,0.0656437873840332,0.06342513859272003,0.01933825947344303,-0.038605574518442154,0.025720931589603424,0.007009909488260746,0.06479096412658691,-0.025800665840506554,0.049282222986221313,0.012563006021082401,0.04509813338518143,-0.043045904487371445,-0.00045068556210026145,0.0077870977111160755,-0.047922488301992416,0.044287968426942825,-0.004650847055017948,-0.034514881670475006,-0.019595850259065628,0.002937956480309367,0.054524581879377365,0.06943926960229874,-0.0022564618848264217,0.034916408360004425,0.054007772356271744,-0.060470856726169586,-0.004500601906329393,-0.06924200803041458,-0.07288221269845963,-0.07514401525259018,-0.007368436548858881,-0.0330754779279232,-0.002404052298516035,-0.03158765658736229,-0.030191507190465927,0.02274690382182598,0.043620750308036804,-0.008357156068086624,0.02386343479156494,0.041011251509189606,-0.0037074615247547626,-0.0773870199918747,-0.0016526588005945086,0.02923690527677536,-0.039360612630844116,-0.07167274504899979,-0.004976531490683556,0.03649361804127693,-0.040072303265333176,0.07007832080125809,-0.012100047431886196,-0.03936998173594475,0.06477955728769302,-0.06458486616611481,0.06847617775201797,-0.004282710142433643,0.0033877366222441196,0.03971599414944649,-0.07598385214805603,-0.0145797124132514,-0.04763418063521385,-0.07262463122606277,0.033077552914619446,0.0688331201672554,0.07814539223909378,-0.03504452109336853,0.07541638612747192,0.07334033399820328,0.07526787370443344,-0.02219451777637005,-0.016516756266355515,-0.01939929649233818,0.033285800367593765,0.06677468866109848,0.03548131138086319,0.020547833293676376,-0.015262163244187832,0.06712852418422699,0.006230724509805441,0.0455789789557457,0.002263120375573635,0.07004377245903015,0.06431921571493149,0.03760130703449249,0.06744162738323212,0.016133923083543777,-0.028095301240682602,-0.0052335564978420734,-0.06285638362169266,-0.04372265189886093,0.06436001509428024,0.012644840404391289,0.052541255950927734,0.04992394894361496,0.03230263665318489,-0.04904163256287575,-0.032263632863759995,-0.04134739935398102,0.06496754288673401,0.04759819805622101,0.009945475496351719,0.05815640464425087,-0.029712963849306107,0.06162719428539276,-0.0437573604285717,0.05762128531932831,-0.024790974333882332,0.008305010385811329,0.03819206357002258,0.04929453507065773,-0.060704708099365234,0.07593327760696411,-0.01749381050467491,0.02581349015235901,0.02063649520277977,-0.012384027242660522,0.041644319891929626,0.057606544345617294,-0.025521714240312576,0.05048638582229614,0.0632934719324112,0.05981570854783058,-0.001545978826470673,-0.026040026918053627,-0.03817688673734665,-0.028197266161441803,-0.031847886741161346,0.014647770673036575,0.019311463460326195,0.025714373216032982,0.022776352241635323,-0.0253666453063488,-0.004465032368898392,-0.016393186524510384,-0.07668913900852203,0.06541752070188522,-0.06300711631774902,-0.016631657257676125,-0.04800117760896683,-0.017952654510736465,0.05500560253858566,0.07821574807167053,0.014695991761982441,0.0354667566716671,-0.020733963698148727,-0.04842129722237587,0.044848233461380005,0.06527553498744965,-0.006157826632261276,-0.07389095425605774,-0.07428134977817535,0.05239866301417351,0.010849607177078724,-0.06984033435583115,0.017250755801796913,0.06267452239990234,-0.03670128807425499,-0.025303175672888756,0.012732259929180145,0.0390123575925827,-0.004678764846175909,0.04600304365158081,0.008837603032588959,-0.0018030466744676232,0.001139877480454743,0.06135767325758934,0.03255439177155495,-0.012740351259708405,0.046351633965969086,0.011017109267413616,-0.003780216444283724,-0.0016953727463260293,0.03211171180009842,0.04971817135810852,0.07149086147546768,-0.07314406335353851,0.07161994278430939,-0.02916659042239189,0.029927464202046394,-0.027424419298768044,0.05493960157036781,-0.028408965095877647,0.05670912563800812,0.004244440235197544,-0.04152904823422432,-0.07136552780866623,0.02698245272040367,-0.06960954517126083,0.07272069901227951,-0.012329483404755592,-0.02322116494178772,0.031030675396323204,-0.07622689753770828,-0.05686961114406586,0.0008135532843880355,0.013228507712483406,0.06568025052547455,-0.04588819667696953,-0.04609496891498566,0.014694673009216785,-0.0035660676658153534,-0.019465269520878792,-0.06003139540553093,-0.02314763516187668,0.05786540359258652,-0.03484423831105232,-0.07260505855083466,-0.03874056786298752,0.03568137437105179,0.0014529814943671227,-0.05688653886318207,0.05566069856286049,0.0007939423667266965,0.01249539852142334,0.04944641515612602,0.04900796711444855,-0.028424212709069252,0.04941951110959053,-0.04653092101216316,0.062098778784275055,-0.0685601457953453,-0.06870295852422714,-0.0016108790878206491,-0.0011066986480727792,0.014947311952710152,0.06625010818243027,-0.03648417443037033,0.03088090382516384,-0.04989020153880119,-0.028395699337124825,-0.035973671823740005,-0.06107064336538315,0.03373588249087334,0.004521008115261793,0.03493712842464447,-0.017763404175639153,-0.00463707372546196,0.02610650658607483,0.07639254629611969,-0.030620131641626358,-0.027085592970252037,0.018991582095623016,0.014407138340175152,-0.01943732053041458,0.025644978508353233,-0.030854040756821632,0.03982551023364067,-0.058588262647390366,-0.007767898496240377,-0.0671684741973877,0.04886287823319435,0.01270278636366129,-0.05702727288007736,-0.06866325438022614,0.06687802821397781,0.05878450721502304,0.03834904357790947,-0.012914648279547691,-0.0628429502248764,0.020086443051695824,0.05467114597558975,0.03385297209024429,-0.04968906566500664,0.07781340926885605,-0.02773110568523407,0.0048670987598598,-0.012109620496630669,0.07095622271299362,-0.009729770012199879,-0.02131618745625019,0.0687759518623352,-0.013963044621050358,0.05666598305106163,-0.03833654150366783,-0.03975370526313782,-0.009448464028537273,0.05136195942759514,0.0314006470143795,-0.062153346836566925,-0.0006795146036893129,0.04134853929281235,0.027101634070277214,-0.05323202908039093,-0.07859046757221222,0.06754637509584427,-0.0661185011267662,0.05076918378472328,-0.016301380470395088,-0.02215149626135826,0.050260622054338455,0.06699585169553757,-0.061125464737415314,-0.0699983537197113,0.019767150282859802,-0.07155448943376541,-0.07310453057289124,-0.018836727365851402,-0.027352292090654373,0.03841814771294594,0.013715916313230991,-0.05069988593459129,0.07410388439893723,0.04184361919760704,-0.04423144459724426,0.03041452169418335,0.004484270233660936,-0.029909200966358185,0.05443151667714119,-0.037001628428697586,-0.05149039253592491,-0.0038068394642323256,-0.043449901044368744,-0.04184158518910408,-0.06737958639860153,-0.06301360577344894,-0.06610110402107239,-0.00556551618501544,0.0024082213640213013,0.01936247944831848,0.027162546291947365,-0.0294351689517498,-0.02745257131755352,-0.03697606176137924,0.03842928633093834,-0.030549319460988045,0.022794220596551895,-0.02691665105521679,0.04766553267836571,-0.0335298553109169,-0.0014153094962239265,-0.06067570671439171,0.011720973066985607,-0.012947400100529194,0.06804544478654861,-0.04552625119686127,-0.035179343074560165,0.052116621285676956,-0.044501740485429764,0.03949824720621109,-0.012183742597699165,-0.06167525053024292,-0.024180736392736435,0.02405550144612789,-0.020533060654997826,-0.04830767959356308,0.030388807877898216,0.04374369978904724,0.03181426227092743,-0.05729317292571068,0.042870309203863144,-0.052186232060194016,0.011861192062497139,-0.0593087300658226,0.009933971799910069,-0.054108839482069016,0.05640826374292374,0.009733418934047222,-0.06192305311560631,0.012095654383301735,-0.062198493629693985,0.06047338247299194,0.052802152931690216,0.048380400985479355,0.061992891132831573,0.03831285983324051]},"forgetBias":{"rows":20,"columns":1,"weights":[0,0,0,0,0,0,0,0,0,0,0,0,0,0,0,0,0,0,0,0]},"outputMatrix":{"rows":20,"columns":1,"weights":[-0.11775300651788712,-0.23996520042419434,-0.09446685761213303,-0.781462550163269,1.1406025886535645,-1.2942224740982056,1.5322883129119873,-0.6840739250183105,-0.26649487018585205,-0.609970211982727,-0.25025033950805664,-0.261623740196228,-0.3408939242362976,-0.2217651903629303,-1.133440613746643,-0.3800520598888397,-0.20922255516052246,-0.680955171585083,-0.27163800597190857,-0.21830283105373383]},"outputHidden":{"rows":20,"columns":20,"weights":[-0.05396750196814537,0.02441452629864216,-0.028182433918118477,-0.07180819660425186,-0.04428541287779808,-0.005637388676404953,-0.00805964507162571,-0.021351024508476257,-0.011579958721995354,0.05870683491230011,0.07375762611627579,-0.03479859232902527,-0.002419359516352415,0.05008602887392044,-0.03807137906551361,0.03858444467186928,-0.023377390578389168,0.013627070933580399,-0.02343997173011303,-0.02535809576511383,0.021604346111416817,0.06161842867732048,0.06736622750759125,-0.0019390906672924757,0.020100068300962448,0.02126806043088436,0.005881335120648146,-0.016321128234267235,-0.026675062254071236,0.05151190236210823,-0.02908184379339218,0.026688318699598312,0.0476459339261055,-0.06290098279714584,0.010079668834805489,0.07213538885116577,-0.025550955906510353,0.015537305735051632,0.03101808950304985,-0.026095250621438026,0.07692589610815048,0.0357142798602581,0.07332449406385422,-0.0521242693066597,-0.03136155381798744,0.012768430635333061,0.00622708210721612,0.013881856575608253,-0.0678221806883812,0.047479432076215744,0.013811871409416199,0.017724918201565742,0.061474740505218506,-0.043944746255874634,0.07043743133544922,0.02231748029589653,0.07627897709608078,0.015963710844516754,-0.053491562604904175,0.05201541259884834,0.03093773126602173,-0.009197131730616093,0.06501157581806183,-0.009167304262518883,0.03751338645815849,0.06567969918251038,0.0764922946691513,-0.07333115488290787,-0.06591039150953293,0.00515997689217329,0.052759792655706406,0.005563919898122549,0.023540843278169632,0.07284045219421387,-0.0445592887699604,0.008667927235364914,-0.044598538428545,-0.06322269141674042,-0.059352852404117584,0.0719420537352562,0.07638920843601227,-0.03992234170436859,0.05297686159610748,-0.06665105372667313,0.011653116904199123,0.057049140334129333,0.07367867231369019,-0.0637587234377861,-0.011582313105463982,0.04042370617389679,0.011306855827569962,-0.07275154441595078,-0.06612715125083923,-0.003178586717694998,-0.06250868737697601,-0.02827274799346924,0.0708651915192604,-0.033244095742702484,-0.033604927361011505,0.02519151195883751,-0.0029196031391620636,0.07580170780420303,0.01980442926287651,-0.02913711406290531,0.04917563498020172,0.013111832551658154,-0.009055967442691326,0.07129818946123123,0.0318576842546463,0.06734423339366913,-0.03972286731004715,0.06873193383216858,0.06764861941337585,-0.018706034868955612,0.05320223793387413,0.023801961913704872,0.03460252285003662,-0.0625428706407547,-0.0412830151617527,0.05463052913546562,-0.059314269572496414,-0.07382810115814209,-0.009133229963481426,0.07733067870140076,-0.034284137189388275,-0.02633318491280079,-0.00712378928437829,0.017724230885505676,-0.007587246596813202,-0.07715367525815964,-0.003002431010827422,0.03734591603279114,-0.014082619920372963,0.015508630312979221,-0.07108090072870255,0.05439639091491699,-0.06204277276992798,-0.0664096474647522,-0.010545243509113789,-0.0291945431381464,0.004582187160849571,-0.06117602065205574,0.008257499895989895,0.0489078089594841,0.052763935178518295,-0.013402372598648071,0.052881691604852676,0.07807072252035141,0.054204218089580536,0.04198182001709938,-0.062214940786361694,0.06641191244125366,0.03762495145201683,-0.001260257326066494,0.0753919929265976,0.027620187029242516,-0.03426234796643257,0.004419347271323204,0.05021091550588608,0.025152726098895073,-0.027458524331450462,0.020777009427547455,0.07534296810626984,-0.011258228681981564,0.04133739322423935,0.04663461074233055,-0.049261078238487244,0.017630435526371002,-0.011121783405542374,0.007070431485772133,0.05915515869855881,0.036633215844631195,0.007686236873269081,0.060586508363485336,0.0041237021796405315,-0.07292341440916061,0.07112953066825867,0.05481981858611107,0.038994431495666504,-0.01871187798678875,0.07294470816850662,0.07436281442642212,0.04465664550662041,-0.004255896899849176,0.018802959471940994,-0.028728920966386795,-0.06199982762336731,-0.01256057620048523,-0.04849058389663696,0.06725159287452698,-0.07654601335525513,0.04612331464886665,-0.047016799449920654,-0.024271918460726738,0.042781274765729904,0.03077913261950016,-0.035398341715335846,-0.056260667741298676,0.04529386758804321,-0.07373993843793869,-0.05271969363093376,0.07438961416482925,-0.05049442872405052,0.013310170732438564,-0.05422060936689377,-0.0057577043771743774,0.027389775961637497,0.05438549444079399,-0.05345067009329796,0.06846198439598083,-0.01429357286542654,-0.014064914546906948,0.030245032161474228,0.07045449316501617,-0.047818105667829514,-0.06070897728204727,-0.047861143946647644,0.004481229931116104,0.024014897644519806,0.05170908197760582,0.04318716377019882,-0.012762719765305519,0.07328788191080093,-0.06754894554615021,-0.04749548062682152,0.0252157524228096,0.03503452613949776,-0.07015001028776169,-0.002358725294470787,-0.05089336261153221,-0.0539356991648674,0.03936035931110382,0.07552758604288101,-0.0662609413266182,-0.023044206202030182,0.04476884752511978,0.019713258370757103,-0.050168219953775406,0.02531345933675766,-0.05707955360412598,0.0008238795562647283,0.035559918731451035,0.01840505562722683,0.04642147198319435,-0.042998697608709335,0.040176790207624435,-0.05659880116581917,-0.048393335193395615,0.03700117766857147,0.07026900351047516,0.07791142910718918,0.06841257959604263,-0.0007935435860417783,-0.026616811752319336,-0.0749744102358818,-0.0571863129734993,0.06680380553007126,-0.04955539107322693,0.0218871608376503,0.058683134615421295,-0.011042528785765171,0.0712188258767128,0.028964504599571228,-0.05906358361244202,-0.0306306891143322,-0.03007909469306469,0.07397707551717758,0.06261835992336273,-0.016866587102413177,-0.07155347615480423,-0.05237731710076332,0.033812377601861954,0.02342541515827179,0.022237051278352737,0.05492599308490753,0.04535171762108803,-0.016617050394415855,-0.05579545348882675,-0.011332596652209759,0.0755552127957344,-0.033914145082235336,-0.028566714376211166,0.01942363940179348,-0.01572597026824951,-0.02705513685941696,0.060403648763895035,-0.012258199974894524,0.017605740576982498,0.04945768415927887,-0.07514595240354538,-0.020881973206996918,-0.024686187505722046,-0.0685526430606842,-0.06459876149892807,0.025859829038381577,0.05085942521691322,-0.0024589139502495527,-0.05706445127725601,-0.011140125803649426,-0.004706242121756077,-0.031567417085170746,0.019497472792863846,-0.07801526039838791,-0.025369994342327118,0.049516309052705765,-0.06605488061904907,-0.04059787094593048,-0.007422435563057661,0.0007147176074795425,0.06981323659420013,0.02496035397052765,0.00047486062976531684,0.017155248671770096,0.019614292308688164,0.03740794211626053,0.027814799919724464,0.007138470653444529,0.011443144641816616,-0.018324507400393486,0.025726212188601494,-0.04830534756183624,0.007881497964262962,0.010621973313391209,0.021125148981809616,-0.02189706452190876,0.0013339855941012502,-0.0622892826795578,-0.035102006047964096,-0.07517480850219727,-0.04077013209462166,0.004528266843408346,0.055037565529346466,0.03197721019387245,-0.024393482133746147,-0.0049463314935564995,0.031057344749569893,0.018735861405730247,0.008726253174245358,-0.0008549792692065239,0.05608906224370003,-0.04559759050607681,0.05698049068450928,-0.03882773965597153,0.05849972367286682,-0.06050825119018555,0.0025044477079063654,-0.014378826133906841,-0.011012308299541473,0.06851893663406372,0.03603056073188782,-0.011574042961001396,-0.07158133387565613,-0.05812510475516319,0.035694222897291183,-0.006842037662863731,0.009836636483669281,0.06723947077989578,0.0630994513630867,0.010154996067285538,-0.034833502024412155,0.06815482676029205,-0.0522729828953743,0.03660610690712929,-0.033792972564697266,0.039515893906354904,-0.014050171710550785,-0.032362040132284164,-0.0010138055076822639,0.004666891880333424,0.005252270959317684,-0.01337079331278801,-0.00741365784779191,0.03906148299574852,0.012909849174320698,0.05445217341184616,0.0523686558008194,0.026246391236782074,0.021630823612213135,0.031219106167554855,-0.07283728569746017,-0.07744859158992767,0.048641569912433624,0.07389747351408005,0.07157865911722183,0.025137869641184807,0.03203057870268822,0.07363509386777878,0.05899646133184433,0.07386381924152374,0.014558259397745132,0.009038802236318588,0.023148758336901665,0.07808248698711395,-0.004636301193386316,0.07500281929969788,0.057248394936323166,0.06099892035126686,-0.0016277633840218186,-0.01612185314297676,0.059170302003622055]},"outputBias":{"rows":20,"columns":1,"weights":[-0.6669327616691589,-0.36939552426338196,-0.3679555654525757,-1.1262781620025635,-1.5198205709457397,-0.7753522992134094,-0.8178303837776184,-1.1275506019592285,-0.5391524434089661,-1.1639481782913208,-0.49924349784851074,-0.5050944089889526,-0.43941423296928406,-0.44052305817604065,-0.8893278241157532,-1.0758962631225586,-0.46179041266441345,-1.0755196809768677,-0.44346752762794495,-0.48465877771377563]},"cellActivationMatrix":{"rows":20,"columns":1,"weights":[0.01889779418706894,0.03345995023846626,0.0330703929066658,-1.0209038257598877,-1.0984588861465454,1.4140007495880127,-1.2812626361846924,-0.9835177063941956,-0.03894123062491417,0.9632391333580017,-0.018099699169397354,0.030721018090844154,0.007334170863032341,-0.04216663911938667,1.2679648399353027,0.4272100627422333,-0.01061299443244934,0.9842280149459839,0.051901642233133316,-0.019956285133957863]},"cellActivationHidden":{"rows":20,"columns":20,"weights":[-0.015076066367328167,0.06869281083345413,0.061285603791475296,0.02314007841050625,-0.04428911209106445,0.006849248427897692,-0.012650598771870136,0.07587670534849167,0.007871292531490326,-0.01618441380560398,0.010599826462566853,0.01437743753194809,0.07256514579057693,0.0584375336766243,-0.06747788190841675,-0.005214388016611338,0.0636596754193306,-0.022392529994249344,-0.07120954245328903,-0.07080181688070297,0.0441080704331398,0.06995269656181335,-0.07137827575206757,-0.0622377023100853,0.056288719177246094,-0.050415635108947754,-0.00987405888736248,-0.05316247418522835,0.019700778648257256,-0.005359684117138386,0.02554621919989586,0.039747100323438644,-0.07223527878522873,0.058528557419776917,-0.054227642714977264,0.01540752686560154,-0.01603964902460575,0.010222837328910828,-0.07852157950401306,-0.05139021947979927,-0.06783761084079742,0.07027249783277512,0.00760927377268672,0.0026715032290667295,0.0008400593651458621,-0.03728653863072395,-0.04948486387729645,0.05844048783183098,0.03890204057097435,0.06337616592645645,-0.06388804316520691,0.062191739678382874,0.015731684863567352,0.026662610471248627,0.025987105444073677,-0.07238110154867172,0.0442846454679966,0.06059035286307335,0.0256277397274971,-0.05738120526075363,0.03293677791953087,0.06252308934926987,-0.0680336058139801,0.04338410869240761,-0.07751046121120453,-0.0403258241713047,-0.058405760675668716,-0.06512347608804703,0.007032537832856178,0.05005619302392006,-0.03955132141709328,-0.04646456241607666,-0.004943739622831345,-0.015456822700798512,0.04372303560376167,-0.03900811821222305,0.02905399538576603,-0.04655540734529495,-0.06121573597192764,-0.07729804515838623,-0.013668481260538101,0.04237089306116104,0.01688786782324314,0.05772218108177185,-0.03358893841505051,-0.029828570783138275,-0.06356023252010345,-0.024660399183630943,0.055032819509506226,0.046339645981788635,-0.0749213695526123,0.04744976758956909,-0.008363609202206135,0.024468103423714638,0.048370104283094406,-0.0666198804974556,-0.017206396907567978,-0.03562922403216362,-0.060735736042261124,-0.03300405293703079,0.048682861030101776,0.06430652737617493,-0.029366808012127876,0.005910167470574379,-0.023961098864674568,0.05549114570021629,-0.0237649604678154,-0.03411249443888664,-0.04298500716686249,-0.050903186202049255,-0.06230756267905235,-0.05344243347644806,-0.0697702094912529,0.018865929916501045,0.04365256801247597,-0.008510104380548,-0.06496860831975937,0.05231357365846634,0.00917739886790514,-0.029959524050354958,-0.0028723583091050386,-0.06278419494628906,-0.06268204003572464,-0.07436962425708771,0.07791562378406525,-0.04146488010883331,-0.06492095440626144,0.06419678777456284,-0.07254576683044434,0.06655809283256531,0.03190334886312485,0.014154039323329926,0.06547585874795914,-0.05007936432957649,-0.016300255432724953,0.037946123629808426,-0.028603611513972282,-0.022913742810487747,-0.01941864565014839,0.014723151922225952,-0.053361061960458755,0.04372415319085121,0.03209417685866356,-0.011988744139671326,-0.03195023164153099,-0.017372841015458107,-0.039989519864320755,0.0629098042845726,0.025409385561943054,-0.035332731902599335,-0.05736842751502991,0.0028194196056574583,-0.059257399290800095,0.00824250839650631,-0.07782339304685593,0.037937507033348083,-0.010627323761582375,0.033639416098594666,0.04163459315896034,0.06667748093605042,0.04598049074411392,-0.03506459295749664,-0.06009545177221298,0.07459959387779236,0.03116385079920292,0.04647548124194145,0.0408349484205246,0.048921968787908554,-0.004346683621406555,0.0499059334397316,0.0761260986328125,0.05175137147307396,0.006094425916671753,0.05251380428671837,-0.06683795154094696,-0.07375337183475494,0.01562611386179924,0.019636103883385658,-0.03287495672702789,0.015813147649168968,-0.030896373093128204,-0.015687908977270126,0.04222530499100685,0.058445271104574203,0.005651500541716814,-0.021915555000305176,-0.03501252457499504,0.06082552298903465,-0.024367861449718475,0.029623758047819138,-0.03529376909136772,0.02521311677992344,0.06232747808098793,-0.03048323467373848,-0.05555853992700577,-0.040951065719127655,-0.07675877213478088,0.028040554374456406,0.007643376477062702,0.04907751828432083,-0.07138760387897491,-0.004285299684852362,0.01829548552632332,-0.06626705080270767,-0.0237636249512434,-0.06792715936899185,-0.004567025229334831,-0.020252419635653496,-0.07200507074594498,0.01565009169280529,-0.045984864234924316,0.0023258801084011793,0.028834935277700424,-0.05219166353344917,0.05789801478385925,0.018075862899422646,-0.07419174909591675,0.0026292044203728437,-0.05490732938051224,-0.005745308473706245,-0.052970901131629944,-0.04416126385331154,-0.03628384321928024,0.07004749029874802,0.01008685678243637,-0.022592030465602875,0.06962843239307404,0.06438751518726349,-0.04942180961370468,0.07531818002462387,0.0020843937527388334,0.03801516443490982,0.04417242854833603,-0.05902104452252388,0.030474409461021423,-0.07724761962890625,0.02289476990699768,0.06091064214706421,0.03275222331285477,-0.06923998892307281,0.000463966658571735,-0.0684109702706337,-0.05782391130924225,0.04014546424150467,-0.05191727727651596,0.04754088446497917,0.05342577397823334,-0.013977453112602234,0.02014126628637314,0.06158871948719025,0.027837466448545456,-0.00134612200781703,-0.009037995710968971,-0.009444965049624443,0.02828305773437023,-0.030534008517861366,-0.02021954581141472,0.02045108750462532,0.02854202501475811,-0.021457385271787643,0.05795540288090706,-0.06908322125673294,0.02475828118622303,0.0426444411277771,-0.07804563641548157,-0.06500284373760223,0.05839196592569351,-0.03993085026741028,-0.01705995388329029,0.006604988127946854,0.008412210270762444,0.05969972535967827,0.011203357949852943,-0.014109295792877674,-0.008492930792272091,0.009385781362652779,0.06699495017528534,0.06131412833929062,-0.05968576297163963,-0.045015767216682434,0.0666152834892273,-0.02516060881316662,0.00735654728487134,-0.047221001237630844,-0.015352326445281506,0.04921571537852287,0.006110268644988537,-0.05694614723324776,0.06728950887918472,0.0447457991540432,-0.004081277642399073,0.027139591053128242,0.048729315400123596,0.04913349077105522,-0.04864134266972542,-0.003913917578756809,0.07271944731473923,-0.009076493792235851,-0.049429621547460556,-0.006502144038677216,0.028861165046691895,-0.024356873705983162,0.07735060155391693,0.06672164797782898,-0.04602300748229027,-0.04539214074611664,0.0694330558180809,0.005152037367224693,-0.06697182357311249,0.06129832938313484,-0.017436819151043892,-0.07702149450778961,-0.01140227448195219,-0.020254632458090782,0.04271326959133148,0.02578940987586975,0.008747044019401073,-0.041256897151470184,-0.04880252480506897,0.0400981605052948,-0.04441281780600548,0.018455330282449722,0.06615795195102692,0.07822955399751663,-0.01797940954566002,0.01492138858884573,-0.07031778246164322,-0.03725547716021538,-0.043482303619384766,-0.06182529032230377,-0.07650641351938248,-0.020944958552718163,0.05268949270248413,-0.038773033767938614,0.009604869410395622,-0.05682064965367317,-0.0387285016477108,-0.019763050600886345,-0.020930347964167595,0.06138703599572182,-0.025877002626657486,0.02762148156762123,-0.06869783252477646,-0.0628858208656311,-0.004105328116565943,-0.06933630257844925,-0.0025104305241256952,0.060249872505664825,0.04440997913479805,0.0691797211766243,0.02218591421842575,-0.010328587144613266,-0.027882490307092667,-0.007587018422782421,0.06175253912806511,0.0011537560494616628,0.002344090025871992,-0.013627569191157818,0.047026149928569794,0.00816842820495367,-0.007971277460455894,0.040375784039497375,-0.005360127426683903,0.07352063804864883,-0.06359650194644928,0.07484765350818634,0.020821964368224144,0.0002915351069532335,0.013776001520454884,-0.020393352955579758,0.07078216224908829,0.016133129596710205,0.03938915953040123,0.024834660813212395,0.02077306993305683,0.01948997937142849,0.008433884009718895,-0.0011312777642160654,-0.015197859145700932,-0.04875738546252251,0.06827658414840698,-0.01070284005254507,-0.004624288063496351,0.052981872111558914,0.05772237852215767,-0.05253439024090767,0.03550872951745987,0.00038752990076318383,0.04918203875422478,-0.023586943745613098,0.052727214992046356,-0.008962339721620083,0.04847346991300583,-0.027752287685871124,-0.07253812998533249,-0.0630190297961235,-0.045748621225357056,0.02914334274828434,0.06962324678897858,0.03841765597462654]},"cellActivationBias":{"rows":20,"columns":1,"weights":[-0.0016854982823133469,-0.004104450810700655,-0.003485526191070676,0.5040702819824219,0.7564669847488403,-0.6346798539161682,-0.2235928475856781,0.503487229347229,0.0038222000002861023,-0.48762309551239014,0.002104284707456827,-0.003381176386028528,-0.0010226825252175331,0.004805519245564938,-0.615647554397583,-0.1283225119113922,0.0013661888660863042,-0.511283278465271,-0.006028593983501196,0.0023909281007945538]}}],"outputConnector":{"rows":1,"columns":20,"weights":[0.00041522152605466545,0.009879805147647858,0.007782700005918741,-0.5365012288093567,-0.5255388021469116,0.8749406337738037,-1.2697640657424927,-0.5096338987350464,-0.006866193376481533,0.48169103264808655,-0.0043455553241074085,0.006781688425689936,0.0023133920039981604,-0.010355638340115547,0.7764708399772644,0.09177703410387039,-0.0029865328688174486,0.5200641751289368,0.013089822605252266,-0.005054084584116936]},"output":{"rows":1,"columns":1,"weights":[0.07925886660814285]},"inputLookup":null,"inputLookupLength":0,"outputLookup":null,"outputLookupLength":0}