{"type":"LSTMTimeStep","options":{"inputSize":1,"inputRange":0,"hiddenLayers":[20],"outputSize":1,"decayRate":0.999,"smoothEps":1e-8,"regc":0.000001,"clipval":5,"maxPredictionLength":100,"dataFormatter":{"indexTable":{},"characterTable":{},"characters":[],"specialIndexes":[]},"learningRate":0.1},"hiddenLayers":[{"inputMatrix":{"rows":20,"columns":1,"weights":[2.5287954807281494,1.543724536895752,3.202786684036255,2.4527688026428223,2.5786688327789307,0.8844326734542847,0.9923544526100159,0.9887757897377014,2.3051154613494873,1.3141882419586182,2.9188952445983887,0.9579943418502808,0.9133339524269104,2.2727601528167725,1.264507532119751,2.513853073120117,1.360939860343933,1.5075510740280151,2.5176029205322266,1.7748448848724365]},"inputHidden":{"rows":20,"columns":20,"weights":[-0.017135389149188995,-0.006018855608999729,-0.061073727905750275,0.025329560041427612,-0.06185218691825867,0.06748216599225998,-0.03455384075641632,-0.010394391603767872,-0.02745012938976288,-0.009116146713495255,0.06407559663057327,0.02589944377541542,0.00390829099342227,-0.05409371480345726,0.0011476589133962989,-0.0545395128428936,0.03469144180417061,-0.028538929298520088,-0.06714107096195221,-0.017259888350963593,-0.030573002994060516,-0.041449084877967834,0.015373585745692253,0.043349530547857285,-0.04282601550221443,-0.004350617062300444,0.005642411299049854,-0.058206599205732346,-0.010534035041928291,-0.003244821447879076,0.058334656059741974,-0.026483114808797836,-0.007445485331118107,0.0636364072561264,0.013729438185691833,0.010350573807954788,-0.05016300082206726,-0.034432847052812576,-0.03758104518055916,-0.02773764729499817,-0.004376276861876249,0.07368416339159012,-0.07353002578020096,0.020436342805624008,-0.04313764348626137,-0.06882919371128082,0.05575020983815193,-0.03575901314616203,0.023796170949935913,-0.03320582956075668,0.03368691727519035,0.02686820924282074,-0.050034645944833755,-0.05024717003107071,-0.017895402386784554,0.018074696883559227,-0.06607905775308609,0.06818333268165588,-0.04919513314962387,0.059117693454027176,-0.07277368009090424,0.05393027141690254,0.04957849904894829,0.05321623012423515,-0.02561359852552414,0.008351275697350502,-0.06513233482837677,0.012690646573901176,-0.07211988419294357,-0.01606667973101139,-0.029204117134213448,0.059498533606529236,0.07294005900621414,-0.02681463025510311,0.042699672281742096,0.06604103744029999,-0.04422835260629654,-0.06354965269565582,-0.008384705521166325,0.06546236574649811,-0.026436012238264084,0.046488434076309204,-0.021017858758568764,0.0392862968146801,0.007468598894774914,0.02421729639172554,0.017791397869586945,0.002090445486828685,-0.024400105699896812,-0.06392976641654968,0.04783249646425247,-0.07149945944547653,0.005414904095232487,-0.06082142889499664,-0.04241109639406204,0.06932957470417023,-0.03548071160912514,-0.03531915321946144,-0.019502565264701843,-0.0019916235469281673,0.059066250920295715,-0.062498558312654495,-0.0051472424529492855,-0.03135034814476967,-0.01536247506737709,-0.021913200616836548,0.01840466447174549,0.032368410378694534,0.029213134199380875,0.038502030074596405,-0.03435106575489044,0.06477629393339157,-0.06662715971469879,0.04742908477783203,0.059562742710113525,-0.06094104051589966,0.04721323028206825,-0.04318946227431297,0.04304778575897217,-0.0618252269923687,-0.05260828137397766,-0.02013089507818222,-0.052160412073135376,0.03015758842229843,-0.06813129782676697,0.05580579489469528,-0.037485722452402115,-0.020343748852610588,-0.023253045976161957,0.0688726156949997,-0.0026979439426213503,-0.06669311970472336,-0.025953911244869232,-0.05254265293478966,0.06723994016647339,0.049067750573158264,-0.0549212209880352,-0.025624657049775124,0.04628985747694969,0.07181388884782791,-0.009543986059725285,-0.03086460940539837,0.009946484118700027,0.019338704645633698,0.037040695548057556,0.07141142338514328,0.04507267475128174,0.05743420869112015,-0.06619288772344589,-0.026330502703785896,0.038859762251377106,-0.0018560849130153656,0.009684029035270214,0.058174438774585724,0.0500439777970314,0.05510755255818367,0.008136975578963757,-0.020139828324317932,0.07397445291280746,0.009068548679351807,0.04635089635848999,0.0564548596739769,-0.019799208268523216,-0.0007407066877931356,-0.00023049581795930862,-0.07530636340379715,0.013197912834584713,-0.05573376640677452,0.06188833341002464,-0.02448619343340397,-0.07438186556100845,0.042963601648807526,-0.07537757605314255,-0.01039376575499773,-0.03161369636654854,0.03986230865120888,-0.0525907501578331,0.00957110058516264,-0.07474967837333679,-0.015966448932886124,0.06722578406333923,-0.062166400253772736,-0.013318423181772232,0.035372983664274216,-0.0007343612960539758,-0.05288992449641228,0.013976830057799816,-0.02162148244678974,0.02723642811179161,0.012475673109292984,0.04961105063557625,-0.074724480509758,-0.022586889564990997,0.06277013570070267,-0.031901367008686066,-0.02117818407714367,0.002825381699949503,0.034070681780576706,-0.0027813510969281197,-0.0273958258330822,0.04115687683224678,0.00389037374407053,-0.026794660836458206,0.06655486673116684,0.012559442780911922,-0.0451030507683754,0.06520282477140427,-0.0209498330950737,-0.023232929408550262,-0.06035704165697098,-0.036467891186475754,0.02120628021657467,-0.027856523171067238,-0.0653497651219368,-0.05511074885725975,0.05402064323425293,0.06766250729560852,0.048114608973264694,-0.06424231827259064,-0.06710193306207657,0.009591772221028805,0.03785272687673569,0.03625904768705368,0.017588872462511063,-0.013358411379158497,-0.022636203095316887,0.026149550452828407,-0.07524415850639343,-0.026530038565397263,-0.023571385070681572,0.046627551317214966,0.07095423340797424,0.003248210996389389,0.026636241003870964,-0.03380351513624191,0.014335310086607933,-0.022376880049705505,-0.009792191907763481,-0.01884264126420021,-0.0021067310590296984,0.05147580802440643,0.06658107787370682,-0.020201638340950012,-0.07596840709447861,0.03273766115307808,0.052984051406383514,0.030199211090803146,-0.06344736367464066,-0.03442251682281494,-0.018138382583856583,0.0537123903632164,-0.009489167481660843,-0.05316392332315445,0.021932395175099373,0.00789891928434372,-0.03010191023349762,0.0543242022395134,-0.046480804681777954,0.04207557439804077,0.05602278187870979,0.042108021676540375,0.02950569987297058,-0.061119839549064636,-0.038220398128032684,-0.0017733119893819094,-0.06245354562997818,-0.04139450937509537,-0.003473960794508457,-0.04964258894324303,0.014879285357892513,0.010648050345480442,0.019702047109603882,-0.0702478215098381,-0.008235292509198189,0.04499193653464317,-0.06893821060657501,0.0244916845113039,-0.004347212612628937,0.04330907016992569,-0.03675246983766556,0.013039924204349518,-0.04226027429103851,0.014074917882680893,-0.05180702358484268,-0.05716576427221298,-0.03855070844292641,0.05990435928106308,0.005509603302925825,0.049923259764909744,0.04218008741736412,-0.0623573400080204,-0.03253486379981041,-0.06970882415771484,0.00283424137160182,-0.04104858264327049,-0.01070397812873125,-0.07139193266630173,0.06900988519191742,0.013389399275183678,-0.008249059319496155,-0.05946063995361328,0.013540799729526043,-0.024486616253852844,0.05144652724266052,0.023362094536423683,-0.06991447508335114,-0.019213158637285233,0.03964608535170555,0.029603492468595505,-0.016505368053913116,0.0740947276353836,0.005045744590461254,0.07272092998027802,0.07315383851528168,-0.01897665672004223,0.06203608959913254,-0.011480315588414669,-0.04450828582048416,-0.022731393575668335,0.016821319237351418,0.04887346178293228,0.005732555873692036,-0.0452578067779541,0.031162001192569733,0.018977150321006775,0.020007945597171783,-0.03723642975091934,-0.024990178644657135,-0.05623139813542366,-0.06884105503559113,-0.006650442723184824,-0.0191568024456501,0.040824539959430695,0.06002934277057648,-0.0503501370549202,0.012643483467400074,-0.04867814853787422,0.031064003705978394,0.027603304013609886,0.05197184160351753,-0.01488487422466278,-0.02021745964884758,-0.0320388600230217,-0.008774184621870518,0.03261936083436012,-0.04867340996861458,-0.051667220890522,-0.024063169956207275,-0.04299722984433174,-0.042815614491701126,0.024521585553884506,-0.06644466519355774,0.013815493322908878,-0.02057294175028801,-0.018687080591917038,-0.03771592304110527,0.04172592610120773,-0.017939528450369835,-0.05196594074368477,-0.029947776347398758,-0.035631369799375534,0.005122258327901363,0.058875489979982376,0.0531652607023716,-0.00714226346462965,-0.04035845771431923,-0.02521887794137001,-0.060922831296920776,0.04422103986144066,-0.0419531874358654,0.049526821821928024,-0.003592259716242552,0.06259763240814209,0.032890502363443375,-0.06656264513731003,-0.044855747371912,0.03613247722387314,0.062247153371572495,-0.004536453168839216,-0.057169001549482346,0.027544090524315834,0.04029635712504387,-0.001011454383842647,-0.0030029660556465387,0.032923318445682526,0.037369512021541595,-0.0027210870757699013,-0.03138350322842598,0.035222895443439484,-0.03283833712339401,0.008574764244258404,0.05765395611524582,0.06638933718204498,-0.02064356952905655,0.017326153814792633,-0.045043740421533585,-0.025439178571105003,0.06630449742078781,0.008745511062443256,0.04815675690770149]},"inputBias":{"rows":20,"columns":1,"weights":[-1.1049745082855225,-2.0775537490844727,-4.4270548820495605,-1.1803001165390015,-1.2061293125152588,-2.9340195655822754,-0.8972724080085754,-3.2634968757629395,-1.3418986797332764,-2.58328914642334,-4.348327159881592,-2.7400965690612793,-2.7897558212280273,-3.0747756958007812,-2.3137917518615723,-1.184590458869934,1.2579758167266846,-2.255579948425293,-2.2153940200805664,-1.8782718181610107]},"forgetMatrix":{"rows":20,"columns":1,"weights":[-0.06987682729959488,0.013499573804438114,-0.05697266012430191,-0.0012050794903188944,-0.026784604415297508,0.02240050956606865,0.006608214229345322,-0.0003401594585739076,-0.0413355827331543,0.06154382601380348,0.03998791053891182,-0.05169949308037758,-0.07268065214157104,-0.0038239257410168648,-0.007641978561878204,-0.047087203711271286,0.05280628427863121,0.051134366542100906,0.05581515282392502,-0.00799043383449316]},"forgetHidden":{"rows":20,"columns":20,"weights":[-0.02053898572921753,-0.06554243713617325,-0.010225702077150345,-0.0174113716930151,0.0043460954912006855,0.003214743686839938,-0.0690755546092987,0.006853379774838686,0.02366877719759941,0.03781881555914879,-0.05033499002456665,-0.0016254211077466607,0.059709332883358,0.004905669018626213,0.0190749391913414,-0.021408911794424057,-0.013074536807835102,-0.03224929794669151,-0.05696192383766174,0.04699498042464256,0.02037607878446579,0.06929532438516617,-0.05768295377492905,0.01924850046634674,0.028876515105366707,0.052081409841775894,0.07211259752511978,-0.0011814540484920144,0.04302669316530228,0.04488307237625122,0.07274399697780609,-0.04460891708731651,0.03364801034331322,0.02602257765829563,0.046268343925476074,-0.004456040449440479,0.07561320066452026,0.04880862310528755,-0.0612645298242569,0.018045945093035698,-0.06271617114543915,-0.06244156137108803,-0.03610285744071007,0.03477006033062935,0.002498600399121642,-0.022967364639043808,-0.033564239740371704,0.0451425239443779,0.05642261356115341,0.03801080211997032,0.04783762991428375,-0.036315299570560455,-0.015191864222288132,-0.0507839061319828,0.00798843614757061,-0.001530839828774333,-0.03811737895011902,0.025314437225461006,-0.012584120035171509,0.042758502066135406,0.025184528902173042,-0.04900141805410385,0.012532149441540241,0.04060567170381546,0.0739823579788208,0.0014432631433010101,0.034535154700279236,-0.06938735395669937,-0.026995055377483368,-0.051203858107328415,0.05740591511130333,0.046517543494701385,-0.06691502779722214,-0.02537223882973194,0.07294981181621552,0.07264566421508789,-0.07042958587408066,0.05962468683719635,-0.03906141594052315,-0.054300833493471146,-0.011804604902863503,0.0495549738407135,-0.055990345776081085,0.0018036888213828206,-0.048427216708660126,0.051040682941675186,-0.06922350823879242,-0.0026962878182530403,-0.036779873073101044,-0.04582584276795387,-0.00660580163821578,0.06221086531877518,0.06317006796598434,0.054423894733190536,0.03915916383266449,-0.013123102486133575,-0.007064451463520527,0.07007882744073868,-0.06060190498828888,0.07495684921741486,-0.000056289030908374116,0.012941337190568447,0.015493908897042274,-0.0369098000228405,0.00701746204867959,0.0669921487569809,0.037524137645959854,-0.06924597173929214,-0.0502651147544384,-0.05173354595899582,0.012637155130505562,-0.014072841964662075,-0.07376004010438919,0.03158363699913025,-0.07544919103384018,0.06690773367881775,-0.07586020231246948,-0.05294343829154968,0.038306720554828644,0.06513208150863647,-0.05171583220362663,-0.07563021779060364,-0.02662517875432968,0.0071734157390892506,-0.050094638019800186,0.04280678182840347,-0.03747764229774475,0.03544986620545387,-0.0251147598028183,-0.0638435110449791,0.06981051713228226,-0.03190918266773224,-0.016611546277999878,-0.07243433594703674,-0.05959603190422058,0.059124402701854706,0.019487682729959488,0.07294213026762009,-0.010991247370839119,0.06071963906288147,-0.03375638648867607,0.07418281584978104,0.018115920946002007,-0.02837877720594406,-0.03017129749059677,-0.06651269644498825,-0.026329942047595978,0.01674925908446312,0.0702003687620163,-0.04789023846387863,0.01003942172974348,-0.07390494644641876,-0.04948375001549721,0.014092700555920601,-0.02191982977092266,0.004803488962352276,0.07196231186389923,0.049025483429431915,0.03375370055437088,0.0032330541871488094,0.04320883750915527,-0.055598873645067215,0.0061515518464148045,0.07189498841762543,-0.029849857091903687,0.02604118175804615,0.026874901726841927,-0.054735515266656876,0.01637570932507515,0.043868500739336014,0.026464348658919334,-0.06257668882608414,0.07483433187007904,0.04376349598169327,-0.033718541264534,0.06770429760217667,0.04921036586165428,0.03372616320848465,0.0033951885998249054,0.03913719207048416,0.05502917245030403,0.006295904982835054,0.01620560698211193,-0.024171296507120132,0.07037758827209473,0.021833844482898712,-0.009868398308753967,0.034853510558605194,-0.07116591930389404,0.0394187830388546,0.04100862890481949,-0.006008324678987265,0.026227442547678947,0.07519309967756271,-0.016948198899626732,-0.015970557928085327,0.008386668749153614,-0.06086812913417816,-0.04558654502034187,-0.07397614419460297,-0.06666621565818787,-0.021231504157185555,-0.015011711977422237,0.06034015119075775,0.020805373787879944,-0.02927226573228836,0.04598213732242584,-0.005350749008357525,0.045016370713710785,0.05937603488564491,0.05865180492401123,-0.05077463388442993,0.03966377675533295,-0.0011002335231751204,-0.049653057008981705,-0.06471166014671326,0.04791542887687683,-0.04926958680152893,0.027997823432087898,-0.016797080636024475,0.06084690988063812,0.022592641413211823,-0.07489249110221863,0.06886690109968185,-0.030445139855146408,-0.025121521204710007,0.029566628858447075,-0.06706493347883224,0.0065668192692101,-0.03740127757191658,-0.042385462671518326,-0.03641560673713684,0.05590761452913284,-0.07589570432901382,-0.049660537391901016,-0.056401327252388,0.01921830140054226,-0.047028716653585434,-0.014732111245393753,0.052865225821733475,-0.003947615623474121,-0.051192507147789,0.06103996932506561,0.008313438855111599,0.01598731242120266,0.035646311938762665,0.019792433828115463,0.026951812207698822,-0.0041015855967998505,0.0021359999664127827,0.059424661099910736,-0.041743356734514236,0.07264319807291031,-0.05309576913714409,-0.04340014606714249,-0.06683596968650818,-0.04277072101831436,-0.07332182675600052,-0.013906160369515419,-0.03927455097436905,0.007763436064124107,0.02053169533610344,0.040472567081451416,0.051964662969112396,-0.0002564225869718939,-0.02227753959596157,0.051700182259082794,-0.06356130540370941,-0.04522591456770897,-0.06033637374639511,0.04512946307659149,0.010859820991754532,0.033190447837114334,-0.07476349174976349,-0.0381922721862793,0.06783318519592285,0.06702865660190582,0.008841939270496368,-0.057073500007390976,-0.03307534381747246,0.048667751252651215,-0.05089997500181198,-0.07073220610618591,-0.0211966373026371,-0.037447739392519,-0.004032254684716463,0.034230638295412064,-0.03324092552065849,-0.010480750352144241,0.02813490480184555,0.007628539577126503,-0.009380977600812912,0.015017196536064148,0.05383608117699623,-0.05936465784907341,0.03260184824466705,0.07119718194007874,0.053450267761945724,-0.04727643355727196,0.062223806977272034,0.012412265874445438,-0.02760070376098156,-0.04975812882184982,-0.03946397453546524,-0.03698384016752243,-0.0009399760747328401,-0.049976397305727005,-0.05367448180913925,0.014762729406356812,0.03627784177660942,0.010725018568336964,0.07028708606958389,-0.023072246462106705,-0.016527708619832993,0.0709262490272522,-0.07324826717376709,-0.031015891581773758,0.07115858793258667,-0.027630319818854332,0.05999922379851341,0.07005586475133896,0.02641056478023529,-0.029608657583594322,-0.06990322470664978,-0.027363253757357597,0.05343206971883774,0.05863803252577782,-0.030945753678679466,-0.06470447778701782,-0.05413780361413956,-0.06289297342300415,-0.015942370519042015,0.04343845695257187,-0.03901763632893562,-0.04432128369808197,-0.04290279746055603,-0.025725385174155235,-0.0018984763883054256,-0.04545188695192337,-0.05175468698143959,0.02875022403895855,-0.016424231231212616,-0.03359992429614067,-0.021270595490932465,-0.06101573258638382,-0.012965702451765537,-0.049427613615989685,-0.07364187389612198,-0.05048872530460358,0.0037683160044252872,0.0619734488427639,-0.0056531536392867565,-0.06912247836589813,0.0009450343786738813,0.04357697814702988,0.04131375253200531,-0.06183243542909622,-0.039570488035678864,0.07173634320497513,-0.0011444761184975505,-0.02098817005753517,0.017328308895230293,-0.0043923621997237206,0.04407643526792526,-0.004661442246288061,-0.016228634864091873,-0.049228083342313766,0.05033130571246147,0.0028832699172198772,-0.01759764552116394,-0.008987261913716793,0.012463720515370369,0.00311442487873137,0.01854746602475643,-0.03522912785410881,-0.06663352996110916,0.014731855131685734,0.031212855130434036,-0.03001628816127777,0.053131408989429474,-0.011688131839036942,0.05082211643457413,0.02532317489385605,0.05924362689256668,-0.05723518133163452,-0.05243460834026337,0.010215399786829948,-0.006944597233086824,-0.02757367677986622,0.04565911367535591,-0.016085771843791008,0.036945223808288574,0.05543002858757973,-0.04356745257973671,-0.009658891707658768,0.054238416254520416,-0.017256509512662888,-0.023460304364562035,0.003425759728997946,0.03230004757642746]},"forgetBias":{"rows":20,"columns":1,"weights":[0,0,0,0,0,0,0,0,0,0,0,0,0,0,0,0,0,0,0,0]},"outputMatrix":{"rows":20,"columns":1,"weights":[2.7708425521850586,1.6385385990142822,3.04341197013855,2.660292625427246,2.7705936431884766,0.9653562903404236,1.0019015073776245,1.0405176877975464,2.4631283283233643,1.3438153266906738,2.776733636856079,1.0365664958953857,0.9876976013183594,2.0379445552825928,1.321081280708313,2.7158522605895996,2.013176441192627,1.5881141424179077,2.9570930004119873,1.8762356042861938]},"outputHidden":{"rows":20,"columns":20,"weights":[-0.016581667587161064,0.020803924649953842,0.03955606743693352,-0.040365081280469894,-0.02043158747255802,-0.009766994044184685,-0.030326006934046745,0.055987998843193054,0.04463156312704086,-0.03405129164457321,0.0760449469089508,-0.012360919266939163,-0.01604655757546425,-0.05682354047894478,0.04796508699655533,-0.06799564510583878,-0.0033067967742681503,-0.05188044160604477,0.05244914069771767,0.01069375779479742,-0.03325590863823891,0.055216699838638306,0.0653778463602066,0.04968227073550224,-0.02577732875943184,0.01484761293977499,0.01909719780087471,0.040089819580316544,-0.06493765115737915,-0.03485414758324623,-0.06491545587778091,-0.04546011984348297,-0.07323189079761505,0.006054023280739784,0.025849347934126854,0.06631150096654892,0.061524897813797,0.07525549829006195,0.03888371214270592,0.013213805854320526,0.06214242801070213,-0.07470972090959549,0.04277326166629791,0.05500335991382599,-0.0654359757900238,0.03350019082427025,0.06589197367429733,-0.04829573258757591,0.05084656551480293,-0.058516401797533035,-0.03914005681872368,0.0003758487000595778,0.046475913375616074,0.009891975671052933,-0.0075194817036390305,0.03740273416042328,0.07042775303125381,-0.038630496710538864,0.06109614670276642,-0.07352479547262192,-0.07089581340551376,-0.0449548065662384,-0.00783238559961319,-0.013080098666250706,0.038565270602703094,0.0047564455308020115,-0.014497497119009495,0.006824510172009468,0.04246342554688454,-0.06547918915748596,-0.04465943202376366,0.018614094704389572,0.046243682503700256,-0.07235508412122726,0.028387458994984627,-0.07513545453548431,0.02084294520318508,0.013157579116523266,0.03851453959941864,0.014757939614355564,0.03706826642155647,-0.062405724078416824,0.024420620873570442,-0.06424582004547119,-0.03698907420039177,0.018363794311881065,-0.05436984449625015,0.03116871416568756,0.02741151861846447,0.05111446604132652,0.02139096148312092,0.016781512647867203,-0.00983690656721592,-0.027024807408452034,0.024708613753318787,-0.03906957432627678,-0.07220032811164856,0.06848486512899399,0.004031965509057045,-0.06727267056703568,0.04472917318344116,0.06942225992679596,0.07497420161962509,-0.058495450764894485,0.05298340693116188,0.07207713276147842,-0.02350723184645176,0.016853826120495796,0.04940776899456978,0.04058196395635605,-0.0026280286256223917,-0.05012927204370499,0.051358599215745926,-0.057932380586862564,0.0728486031293869,-0.07017580419778824,0.01826283149421215,-0.049864042550325394,0.041641976684331894,-0.011698020622134209,-0.050330519676208496,0.058852266520261765,0.015977516770362854,0.06366755068302155,-0.002981116995215416,-0.05527428537607193,-0.008728595450520515,0.0435141958296299,-0.06690391898155212,-0.06223432719707489,0.07019306719303131,-0.04241420701146126,0.05784769356250763,0.07349517196416855,0.06578729301691055,0.018316524103283882,0.03606005758047104,-0.05528298765420914,-0.037426553666591644,0.06392603367567062,-0.04356300085783005,-0.05605281889438629,0.006686544511467218,0.056334029883146286,0.012330077588558197,0.04969917982816696,-0.002847445895895362,0.023570088669657707,0.021414680406451225,-0.07206425815820694,-0.009829897433519363,-0.047924917191267014,0.05197543278336525,-0.0023318722378462553,0.015204157680273056,0.038308702409267426,-0.061993103474378586,0.04500477761030197,-0.011593914590775967,-0.039724819362163544,0.0699489563703537,-0.03675919026136398,0.050125978887081146,0.046066440641880035,-0.024730542674660683,0.0489266999065876,-0.05729375779628754,-0.026831429451704025,-0.018526529893279076,0.02843613736331463,-0.05805181711912155,0.04690384492278099,-0.026279626414179802,-0.04721975699067116,-0.04388168826699257,0.020246481522917747,0.01390899159014225,0.06740526854991913,-0.05473000183701515,-0.029590625315904617,0.07396560907363892,-0.05165842920541763,-0.022906145080924034,-0.0744701400399208,-0.014125478453934193,0.04045138880610466,-0.0755891352891922,-0.038699671626091,0.07018069922924042,-0.07351785153150558,-0.05200066789984703,0.03665268421173096,-0.019005535170435905,0.017575973644852638,-0.029145075008273125,0.017154494300484657,-0.03991182520985603,0.07117076218128204,-0.005573192145675421,-0.015532489866018295,-0.01679161563515663,0.06724563241004944,0.020127110183238983,0.002483424497768283,-0.014501594938337803,-0.06751218438148499,0.03592495992779732,-0.010830121114850044,0.001956518040969968,-0.017641568556427956,0.04639939218759537,-0.00896167941391468,-0.0020992292556911707,-0.03537418320775032,0.045527033507823944,-0.0049315886572003365,0.004285175818949938,-0.030570872128009796,0.01727510429918766,-0.03372592106461525,-0.015714868903160095,-0.04643303528428078,-0.0455041378736496,-0.037922490388154984,0.008953632786870003,-0.059860020875930786,0.04890236631035805,0.0370834581553936,-0.02563544176518917,-0.06289204210042953,0.07424871623516083,-0.03156914934515953,0.07220544666051865,-0.012884870171546936,-0.01777360774576664,-0.016813568770885468,0.07359109073877335,-0.055565573275089264,-0.001618162845261395,-0.03756958618760109,0.04426621273159981,0.04647643864154816,0.06750472635030746,0.07480309158563614,0.03703679144382477,0.030443964526057243,0.03798893839120865,-0.031043535098433495,0.07276254147291183,-0.01637239195406437,0.05468074604868889,0.0035342846531420946,-0.05887255445122719,0.052487194538116455,-0.045956309884786606,-0.04647419974207878,-0.041337303817272186,-0.06072869896888733,0.07579036802053452,0.0036583018954843283,0.03864997252821922,0.057473864406347275,-0.06140582263469696,-0.05645538493990898,-0.03574255481362343,-0.012061634100973606,0.0494307205080986,-0.07426165789365768,-0.059561751782894135,-0.0748143345117569,-0.0014016397763043642,-0.017126968130469322,-0.027756232768297195,0.07603742182254791,-0.044951945543289185,0.004858784843236208,0.03705136850476265,-0.03453674539923668,0.001955367624759674,-0.042044591158628464,0.007491947151720524,0.06945977360010147,-0.046018507331609726,-0.04343829303979874,-0.02486094832420349,0.07410549372434616,-0.022923583164811134,0.049678124487400055,0.05526072904467583,-0.005613022483885288,-0.0337250716984272,0.07352793216705322,-0.06976086646318436,0.014763658866286278,0.06449076533317566,-0.0027767419815063477,0.015188558958470821,0.05097376927733421,-0.06295787543058395,-0.039791759103536606,-0.04414242506027222,0.07113825529813766,0.021853668615221977,0.00238216295838356,0.011677597649395466,-0.031892091035842896,-0.04937177896499634,0.04727053642272949,0.019939715042710304,0.06089530140161514,-0.022488107904791832,-0.0015498101711273193,0.05469697341322899,-0.04190773144364357,0.06690575927495956,0.047826364636421204,0.006456117611378431,-0.0016544873360544443,0.05021606758236885,0.008161134086549282,-0.02196272276341915,-0.013919707387685776,-0.034858062863349915,-0.03992311656475067,-0.04106556996703148,0.0351526215672493,-0.0745401531457901,0.036361213773489,0.022489923983812332,-0.01668226718902588,0.049965206533670425,-0.02999405935406685,0.05383777245879173,0.008542708121240139,0.07179558277130127,-0.0414029061794281,0.03509080037474632,-0.0627182349562645,-0.030465958639979362,-0.027645712718367577,0.05784774571657181,-0.07184112071990967,-0.01324810553342104,0.06415974348783493,-0.030453650280833244,-0.038325387984514236,-0.07483338564634323,-0.011762912385165691,0.021824417635798454,0.006067262496799231,0.005488056689500809,-0.057783495634794235,0.059495002031326294,-0.045093268156051636,-0.016327152028679848,-0.024580374360084534,-0.03566700592637062,-0.05405654013156891,0.012964529916644096,-0.07333364337682724,-0.046708911657333374,-0.007886894047260284,-0.02740315906703472,0.07410544157028198,-0.020169241353869438,-0.052288297563791275,-0.03241754695773125,-0.03606242313981056,0.028940977528691292,0.06549457460641861,-0.04019942879676819,-0.03523564711213112,-0.01053857896476984,0.022022778168320656,-0.059785328805446625,0.052626073360443115,0.014196190983057022,-0.023374564945697784,0.05933987721800804,0.06569238752126694,-0.06971435248851776,0.038227468729019165,0.01089392602443695,0.046541448682546616,0.004040747415274382,0.04720877483487129,-0.00656581437215209,-0.003299976931884885,-0.04152386263012886,-0.028393585234880447,-0.03864608705043793,-0.0703076422214508,-0.013491781428456306,0.0600280836224556,0.012760704383254051,0.07048363238573074,-0.03269575536251068,0.04094153270125389,-0.052180275321006775,0.051518041640520096]},"outputBias":{"rows":20,"columns":1,"weights":[-1.0969310998916626,-1.9364206790924072,-4.2151947021484375,-1.0719366073608398,-1.1567091941833496,-2.8250598907470703,-0.4961332082748413,-3.0862090587615967,-1.1641783714294434,-2.5468647480010986,-4.128391265869141,-2.5984444618225098,-2.6234614849090576,-2.7822136878967285,-2.088249683380127,-1.1065386533737183,1.6981087923049927,-2.0609161853790283,-2.877657413482666,-1.7226982116699219]},"cellActivationMatrix":{"rows":20,"columns":1,"weights":[1.6565598249435425,-1.4430146217346191,-2.3174538612365723,-1.6471498012542725,1.6854197978973389,-1.1118589639663696,1.5276587009429932,-1.0852504968643188,-1.6459314823150635,-1.6537885665893555,-2.027089834213257,1.1301110982894897,1.1209795475006104,1.9650546312332153,1.3655728101730347,-1.6626423597335815,-3.09354829788208,1.4258278608322144,-2.771413803100586,1.548855185508728]},"cellActivationHidden":{"rows":20,"columns":20,"weights":[-0.05225396528840065,-0.04710163176059723,-0.0065583521500229836,-0.010924109257757664,-0.05349769443273544,0.0036697445902973413,-0.06038614362478256,0.021694153547286987,-0.06523023545742035,-0.06977629661560059,-0.07118416577577591,0.03883202001452446,0.01630220375955105,0.022000374272465706,0.001162433298304677,-0.0042752777226269245,-0.052109330892562866,0.042039621621370316,-0.04508168250322342,-0.04239324480295181,0.015418759547173977,0.008330984972417355,0.016906723380088806,-0.039556290954351425,0.06722194701433182,-0.007892362773418427,0.030006347224116325,0.05632021650671959,-0.07143581658601761,-0.05172662436962128,-0.013457443565130234,0.02061089314520359,-0.004187221173197031,-0.015480089001357555,0.05087968707084656,0.03842315077781677,0.0013020429760217667,-0.041946884244680405,-0.052683912217617035,-0.057209618389606476,0.01202569343149662,-0.07588791847229004,0.003790736198425293,0.036005228757858276,-0.06605345755815506,0.022720055654644966,0.021857991814613342,0.012814176268875599,-0.02669389732182026,0.045541875064373016,-0.028451131656765938,-0.00872073695063591,-0.029010649770498276,0.018813753500580788,-0.027874836698174477,-0.06839744001626968,0.05923311412334442,0.03930685669183731,-0.03805210441350937,-0.016155308112502098,-0.028248809278011322,0.01813645474612713,-0.021375009790062904,-0.04844924062490463,-0.0708233043551445,-0.002730949781835079,0.028194045647978783,-0.06165541335940361,-0.018932433798909187,0.024021286517381668,0.043699465692043304,0.001845957012847066,0.019378626719117165,-0.03608952462673187,-0.072714664041996,0.021496297791600227,-0.07603428512811661,-0.0631784200668335,0.04449165612459183,0.0341147854924202,0.04529022425413132,-0.024573057889938354,0.012065053917467594,-0.07572302967309952,-0.06951944530010223,0.032094329595565796,-0.040677864104509354,-0.020644905045628548,-0.03309471532702446,-0.013382315635681152,0.05644463747739792,0.042681701481342316,-0.060754939913749695,0.009138799272477627,-0.020586511120200157,-0.02762356773018837,-0.031615592539310455,0.009075384587049484,0.03226550668478012,0.031363364309072495,0.0015727622667327523,0.07135916501283646,-0.02142026461660862,-0.0596601665019989,-0.028620749711990356,0.048370540142059326,-0.03189244493842125,-0.027835922315716743,0.06610457599163055,-0.06449512392282486,-0.03612815961241722,-0.040861036628484726,0.07463227957487106,0.06811290234327316,0.05342700332403183,-0.028858298435807228,0.027257882058620453,0.04840211570262909,-0.051759835332632065,0.05919551104307175,0.04269513860344887,0.004743361845612526,0.015094984322786331,-0.020447906106710434,-0.04833527281880379,0.07540572434663773,0.025050029158592224,-0.032776229083538055,-0.04875851422548294,0.00741934310644865,0.07381977140903473,0.023550420999526978,0.030240528285503387,0.018504397943615913,-0.011227499693632126,0.0734148696064949,-0.05723187327384949,0.05973786860704422,0.041523151099681854,0.0011844874825328588,-0.014995042234659195,-0.055959731340408325,-0.008689970709383488,0.05847113952040672,-0.07231899350881577,0.06071530282497406,-0.04398049786686897,-0.028365200385451317,0.07002972811460495,0.039868153631687164,-0.05250762775540352,0.03953903540968895,-0.05969373136758804,0.033889561891555786,-0.009772026911377907,-0.050363603979349136,-0.019259782508015633,-0.07275522500276566,0.004730811808258295,-0.047765009105205536,-0.010612611658871174,0.043566782027482986,0.062482234090566635,0.07329066097736359,0.04360514506697655,-0.046300582587718964,-0.027128223329782486,0.002300460357218981,0.003364172298461199,0.04139725863933563,0.03856242075562477,-0.023320676758885384,-0.03242354467511177,0.010330931283533573,-0.06914487481117249,0.05175131931900978,0.0728086605668068,0.020018933340907097,0.028601743280887604,-0.037299394607543945,0.019044119864702225,0.05685044080018997,0.028400788083672523,0.019360488280653954,0.05008834972977638,0.016800833866000175,0.029658347368240356,0.022066842764616013,-0.005370572209358215,0.05524842441082001,-0.00522196339443326,-0.032260313630104065,-0.013679630123078823,0.0530015267431736,0.018902122974395752,-0.007226191461086273,-0.07277710735797882,0.021815568208694458,-0.00399991637095809,-0.05902018025517464,0.039000093936920166,0.022450299933552742,-0.03096013329923153,0.03390783071517944,0.01670524850487709,0.051169950515031815,-0.04666243493556976,0.0626382902264595,0.034856054931879044,0.006167145911604166,0.0749724879860878,0.06350602209568024,-0.07498899102210999,0.07586684823036194,-0.004391198046505451,0.04905737563967705,-0.06738264113664627,0.01157600898295641,0.033805739134550095,-0.023450735956430435,-0.04603759944438934,0.014756901189684868,0.07482658326625824,-0.015842793509364128,0.07328944653272629,-0.062999427318573,0.009797764010727406,0.013960205018520355,-0.05064268410205841,-0.02267708070576191,-0.05433619022369385,0.05264338105916977,0.05554463341832161,0.07409760355949402,0.006352650001645088,-0.05667916312813759,0.04777224361896515,0.061306752264499664,0.002953894203528762,0.013918808661401272,0.05512870475649834,-0.06854970008134842,0.07106795907020569,-0.021190201863646507,0.022106405347585678,-0.06904826313257217,-0.04265958443284035,0.0708255022764206,-0.005420757923275232,0.07117122411727905,0.018065165728330612,-0.06973158568143845,0.04425540938973427,0.022756505757570267,0.000932765135075897,-0.02287355624139309,-0.04764896258711815,0.06688807159662247,-0.06122434139251709,-0.031875014305114746,-0.004830184858292341,-0.07467977702617645,0.011300480924546719,-0.039511535316705704,0.06087963283061981,-0.04609265178442001,-0.05647548288106918,-0.06970146298408508,0.020696595311164856,0.0673065185546875,-0.05242970213294029,-0.016700763255357742,-0.05153732746839523,-0.03221743181347847,-0.03666316345334053,-0.07402100414037704,0.07379301637411118,-0.04448291286826134,-0.0005357329500839114,0.01285814493894577,-0.03669395670294762,0.016173915937542915,0.06264793872833252,0.04059777781367302,-0.002459445735439658,-0.05847420543432236,0.04278143122792244,-0.012918214313685894,0.07567283511161804,0.07256734371185303,0.04134129360318184,0.0028732207138091326,0.047590188682079315,-0.043254490941762924,0.04907320812344551,0.015145519748330116,0.0635971873998642,0.010164611972868443,-0.001974076498299837,-0.04788031056523323,-0.0530414804816246,-0.0035361500922590494,0.04563554748892784,0.07046724855899811,-0.0015808917814865708,-0.043140023946762085,-0.04750111326575279,-0.015523580834269524,0.04491855204105377,-0.03911374881863594,-0.041979361325502396,0.056995127350091934,-0.013809382915496826,-0.020363982766866684,-0.044485144317150116,-0.0046024685725569725,-0.0463888980448246,-0.04906246438622475,-0.025012360885739326,0.052340105175971985,0.04046950116753578,-0.001260446268133819,0.05524367466568947,-0.008876306936144829,0.06712036579847336,0.05168351158499718,0.009418239817023277,-0.026795053854584694,0.056606125086545944,-0.061464808881282806,0.03169948235154152,-0.06496115028858185,0.058440424501895905,0.05281047895550728,-0.009299499914050102,0.07508797943592072,-0.030903393402695656,0.059254880994558334,-0.07418429851531982,0.026722658425569534,-0.024165794253349304,0.059335462749004364,-0.062252290546894073,-0.04318898543715477,-0.029406320303678513,-0.021422522142529488,-0.0637056902050972,-0.0011995411477982998,-0.06592953205108643,0.01874958537518978,-0.06315538287162781,-0.06347200274467468,0.048454124480485916,-0.0021518603898584843,0.044864337891340256,0.013184494338929653,0.005958627909421921,-0.029591329395771027,0.02549375593662262,0.03874585032463074,0.07261160016059875,0.02087554521858692,0.0409521646797657,-0.030183207243680954,-0.0034061388578265905,-0.03693317994475365,-0.0014377523912116885,-0.044110555201768875,-0.043607864528894424,-0.048353634774684906,0.02507130242884159,-0.009924709796905518,0.044696226716041565,0.0707198977470398,-0.00022163547691889107,0.03709175065159798,0.04508845880627632,0.009117563255131245,0.03379799425601959,0.03825879469513893,0.012771605513989925,-0.037741195410490036,-0.055633194744586945,-0.06061546504497528,-0.0002906566660385579,-0.03711633011698723,0.06542164832353592,0.053964901715517044,0.0223278496414423,0.040284231305122375,-0.009831304661929607,-0.044365957379341125,-0.06622519344091415,-0.03417179360985756,0.06957324594259262,-0.039424505084753036,-0.028724364936351776,-0.07369350641965866,0.03485484421253204,-0.045342788100242615]},"cellActivationBias":{"rows":20,"columns":1,"weights":[0.19581542909145355,0.35785189270973206,1.9819462299346924,-0.18972040712833405,0.5073532462120056,0.9513038992881775,-1.1176713705062866,0.9575130343437195,-0.18744203448295593,1.5464411973953247,1.762451410293579,-0.91038978099823,-0.9454363584518433,-1.591864824295044,-1.1520739793777466,-0.3294791579246521,0.1825709044933319,-0.37615302205085754,2.761699914932251,-0.1367112696170807]}}],"outputConnector":{"rows":1,"columns":20,"weights":[2.0021581649780273,-0.9406378269195557,-2.368138313293457,-1.8749502897262573,1.9546068906784058,0.05555618554353714,1.6999419927597046,0.07067173719406128,-1.670851469039917,-0.271190345287323,-1.3686003684997559,0.3165179491043091,0.20901095867156982,-0.5172709226608276,0.7359623908996582,-1.9040509462356567,-2.766407012939453,0.8990269303321838,-0.6065326929092407,1.1481815576553345]},"output":{"rows":1,"columns":1,"weights":[1.1509768962860107]},"inputLookup":null,"inputLookupLength":0,"outputLookup":null,"outputLookupLength":0}