{"type":"LSTMTimeStep","options":{"inputSize":1,"inputRange":0,"hiddenLayers":[20],"outputSize":1,"decayRate":0.999,"smoothEps":1e-8,"regc":0.000001,"clipval":5,"maxPredictionLength":100,"dataFormatter":{"indexTable":{},"characterTable":{},"characters":[],"specialIndexes":[]},"learningRate":0.1},"hiddenLayers":[{"inputMatrix":{"rows":20,"columns":1,"weights":[-0.4029875099658966,0.9430981874465942,1.4536964893341064,-0.006804618984460831,0.6270044445991516,-0.27829980850219727,-0.4066627621650696,2.8213040828704834,-0.2790360450744629,0.6917703747749329,0.9231075048446655,-0.2641731798648834,-0.33646485209465027,-0.39910709857940674,-0.378517746925354,-0.38038209080696106,-2.9358456134796143,-0.33058467507362366,0.7723733186721802,1.5200352668762207]},"inputHidden":{"rows":20,"columns":20,"weights":[-0.03985172137618065,0.010237432084977627,-0.004402574151754379,0.041969623416662216,-0.058044593781232834,-0.04703349992632866,0.06392642110586166,-0.05024319887161255,-0.040158502757549286,0.06536445021629333,0.050756458193063736,0.046866223216056824,0.04352865740656853,0.04570120573043823,-0.07527289539575577,0.006864694878458977,-0.03375597670674324,0.05668685957789421,0.008069103583693504,0.04306642711162567,0.02436242066323757,-0.0627044215798378,0.0018082510214298964,0.05303814634680748,-0.04872782900929451,-0.003141948953270912,-0.04942617937922478,0.05008212476968765,-0.07533833384513855,0.011021259240806103,-0.052780572324991226,0.06794468313455582,-0.029786793515086174,-0.00794718787074089,-0.002182252472266555,0.005571876186877489,-0.07310324907302856,-0.018112296238541603,-0.045499011874198914,0.07327920943498611,-0.03219402953982353,-0.03678756207227707,-0.06304403394460678,-0.04808229207992554,0.007592400535941124,-0.017977697774767876,-0.05408685281872749,-0.048731762915849686,0.07333377003669739,0.06750620901584625,0.03443457931280136,-0.07523395866155624,-0.051546938717365265,-0.05051973834633827,0.06019379943609238,0.0692606270313263,0.04768796265125275,0.026531631126999855,-0.052167657762765884,-0.04434361308813095,0.028544820845127106,0.000512594822794199,-0.026611242443323135,0.021795649081468582,-0.06142454966902733,0.05138867720961571,-0.06312055140733719,-0.05188475549221039,0.039403535425662994,0.06659625470638275,-0.07095535844564438,-0.043276626616716385,-0.026095930486917496,0.02475030906498432,-0.044375479221343994,0.02889513410627842,-0.06260442733764648,0.036027941852808,0.07531017810106277,-0.05487141013145447,0.0355643667280674,-0.0016620043898001313,0.03418195620179176,0.00048477694508619606,-0.014554980210959911,0.0011972106294706464,0.016457198187708855,-0.05712205544114113,-0.01143061276525259,-0.008767342194914818,0.0067654806189239025,-0.02094668336212635,0.0641142874956131,-0.05686015263199806,0.01587972603738308,0.032671842724084854,0.05577526241540909,-0.05390920490026474,-0.03485896810889244,0.05929049849510193,-0.013883299194276333,0.053461816161870956,-0.0010494538582861423,-0.030770357698202133,-0.06485714763402939,0.04826657846570015,-0.036429695785045624,0.0328860767185688,-0.03363580256700516,0.027860388159751892,0.06420520693063736,-0.01626700535416603,-0.058072078973054886,-0.014785119332373142,-0.006485068239271641,0.0077029005624353886,0.06278238445520401,-0.031441714614629745,-0.013599473983049393,-0.07157707959413528,-0.028236709535121918,0.06377103179693222,-0.0393965058028698,-0.03460213169455528,0.0645512044429779,-0.009895339608192444,0.04290667921304703,-0.05234375223517418,0.01982460729777813,0.015484175644814968,0.024823345243930817,0.0016635102219879627,0.03702690824866295,0.03166087344288826,0.07554589211940765,0.039284318685531616,-0.06853184849023819,-0.0645090639591217,0.03818803280591965,-0.010848415084183216,0.03935454413294792,-0.011639743112027645,-0.00800597108900547,-0.0373709574341774,0.04330161213874817,-0.002507041674107313,0.07135400176048279,0.04172995686531067,-0.025284409523010254,-0.06618786603212357,0.07126301527023315,0.024009181186556816,-0.04568324610590935,-0.05008144676685333,-0.029522808268666267,0.022978035733103752,-0.050381213426589966,0.007627076935023069,0.06426610797643661,0.008262258023023605,0.02900857664644718,0.007608693093061447,-0.02154531143605709,-0.022440316155552864,-0.05362936109304428,-0.05753616243600845,-0.03450511023402214,-0.021204940974712372,-0.07450280338525772,-0.008801637217402458,0.03550465777516365,0.01671278104186058,-0.06462866812944412,-0.01358638796955347,0.027527550235390663,0.058477748185396194,-0.018846839666366577,-0.013170216232538223,-0.009409446269273758,-0.024043865501880646,0.052354905754327774,0.04710273817181587,-0.021155308932065964,0.003426777198910713,-0.04168875887989998,-0.032912127673625946,0.008536766283214092,0.025736916810274124,-0.038510460406541824,-0.052745625376701355,0.05696388706564903,0.01915573514997959,-0.013735310174524784,-0.05119145289063454,0.056794673204422,-0.005212755873799324,0.05244895815849304,0.044614821672439575,-0.053113531321287155,0.04216489940881729,-0.029186902567744255,-0.06729244440793991,0.07610546052455902,-0.039445120841264725,0.015652885660529137,0.020323678851127625,0.06940922886133194,-0.04758888855576515,0.01736999675631523,0.04336795583367348,0.05471828952431679,0.01404990628361702,0.03607738018035889,0.03975675627589226,0.06558716297149658,-0.009421516209840775,-0.021330159157514572,-0.03289205580949783,0.04020391404628754,-0.06902922689914703,-0.00031568625126965344,0.036730870604515076,-0.025383643805980682,0.07528068125247955,-0.01904945634305477,0.04123936966061592,-0.05271027237176895,-0.06682077050209045,-0.032151393592357635,-0.02972453646361828,-0.0499996691942215,-0.06989456713199615,-0.030149132013320923,-0.04519917815923691,-0.043017640709877014,0.06773962080478668,-0.02300410345196724,0.008818157017230988,-0.024517172947525978,-0.043937236070632935,-0.013572728261351585,0.02413669414818287,0.005919630639255047,0.07044100761413574,-0.008058286271989346,0.05254288390278816,0.018887698650360107,0.06922278553247452,0.04790617898106575,-0.008462054654955864,-0.02049611322581768,-0.0020534233190119267,0.012218956835567951,-0.017270591109991074,-0.020133979618549347,-0.0076419394463300705,-0.021765228360891342,-0.00958799384534359,-0.06969603151082993,-0.07098745554685593,0.026298144832253456,-0.036267124116420746,0.016831515356898308,-0.05158549174666405,0.06301025301218033,0.04690929129719734,0.016683854162693024,-0.014305365271866322,-0.041257064789533615,0.05024388059973717,0.031123580411076546,0.017326509580016136,-0.0516880638897419,0.0689641535282135,0.04971526563167572,0.01779826357960701,0.022507861256599426,0.0367581807076931,-0.028801757842302322,0.04150155931711197,-0.06533636152744293,-0.06292141228914261,-0.015799034386873245,0.00721316784620285,0.061852630227804184,-0.04375982657074928,-0.06871145218610764,0.04937059059739113,-0.01476692408323288,-0.01068683061748743,-0.0663018748164177,-0.02386774681508541,0.02898765541613102,-0.026433004066348076,0.01403819303959608,-0.03735458478331566,-0.03322537988424301,0.023015959188342094,0.03759785741567612,-0.06784195452928543,0.002243245719000697,-0.04087662696838379,-0.05437307432293892,0.06946466118097305,0.04970931634306908,-0.03400636836886406,-0.05530339851975441,0.017281638458371162,0.026440851390361786,-0.053801290690898895,-0.04707466438412666,-0.023934710770845413,-0.0469394214451313,-0.07500043511390686,-0.043169450014829636,-0.06286638975143433,0.03880806267261505,-0.019239608198404312,-0.030982904136180878,0.024595478549599648,0.026742706075310707,0.02142789587378502,-0.0032269589137285948,-0.050294939428567886,0.012786084786057472,0.02926742099225521,-0.062279339879751205,-0.05682247877120972,-0.04594452679157257,0.071717269718647,-0.07403039187192917,0.06432273238897324,-0.011542683467268944,0.05464326962828636,0.054084453731775284,0.003846662351861596,-0.037856899201869965,-0.07126101851463318,-0.05650588870048523,0.03618016093969345,0.06492508202791214,0.04542608931660652,-0.05375335365533829,0.020983241498470306,-0.009484517388045788,0.03284835442900658,0.04375062137842178,-0.0054272753186523914,0.057345472276210785,0.07397506386041641,-0.052592020481824875,-0.02166539616882801,0.05657516419887543,0.010943569242954254,-0.008874925784766674,0.06597982347011566,-0.004410983994603157,-0.0757843628525734,-0.035429392009973526,0.055158719420433044,-0.03830362856388092,0.04401717334985733,-0.04462110623717308,0.0448002852499485,-0.03946758806705475,-0.023865485563874245,-0.006787535268813372,-0.04593943804502487,-0.01106521487236023,-0.03423075005412102,0.027391955256462097,-0.0721021220088005,-0.004424651153385639,0.07317770272493362,-0.0611247718334198,0.056122418493032455,-0.0630299374461174,-0.07023300230503082,-0.04556011036038399,-0.04306860640645027,0.008059785701334476,-0.07002530992031097,0.034632373601198196,-0.07203839719295502,-0.025569051504135132,-0.056235700845718384,0.001086012227460742,0.052066680043935776,0.06975948065519333,-0.01960580050945282,-0.05922195687890053,0.023571860045194626,0.006138388998806477,0.015500562265515327,0.03780420497059822,0.05728164315223694,0.044849589467048645,-0.00857560709118843,-0.07597577571868896,0.07508310675621033]},"inputBias":{"rows":20,"columns":1,"weights":[-1.161924123764038,-2.857734203338623,-2.114100933074951,-1.4365519285202026,-2.462416887283325,-1.2188715934753418,-1.1085560321807861,-4.279050827026367,-1.2005482912063599,-2.738645076751709,-2.848587989807129,-1.141784906387329,-1.2008795738220215,-1.161335825920105,-1.157631516456604,-1.1174023151397705,-0.48600175976753235,-1.1696982383728027,-2.744509220123291,-0.44357505440711975]},"forgetMatrix":{"rows":20,"columns":1,"weights":[-0.04022499918937683,-0.017178751528263092,0.06520312279462814,0.05211105942726135,-0.016549479216337204,0.03488852456212044,-0.03448124974966049,-0.026821566745638847,0.05284358188509941,-0.04666540399193764,-0.05902062729001045,0.047954197973012924,-0.007702155038714409,-0.051798656582832336,0.028540605679154396,0.04688616096973419,-0.018853534013032913,0.07591564208269119,0.05028177797794342,0.029097702354192734]},"forgetHidden":{"rows":20,"columns":20,"weights":[-0.06960597634315491,-0.03739175200462341,0.010137870907783508,0.01935574971139431,0.07595163583755493,0.06478453427553177,-0.0020424348767846823,0.06623426824808121,-0.05544433742761612,0.035786595195531845,-0.043819576501846313,0.018269823864102364,0.011232879012823105,0.036294009536504745,0.050370048731565475,-0.0020632315427064896,-0.06832296401262283,-0.029354659840464592,0.07064053416252136,0.02837652899324894,0.05095767602324486,-0.07345546782016754,0.00002149766805814579,-0.027537213638424873,-0.05807802453637123,-0.027407964691519737,0.03992701694369316,-0.05308365076780319,-0.05943986400961876,0.0054357959888875484,-0.01432128343731165,0.05792371928691864,0.07207107543945312,-0.051286373287439346,0.07247294485569,-0.07337876409292221,0.042216286063194275,0.03522134944796562,-0.03252922371029854,0.03522302582859993,-0.0020883996039628983,0.05910874903202057,0.014522428624331951,-0.005565422121435404,-0.05777408555150032,-0.04355499520897865,0.018019039183855057,0.06226969137787819,-0.06021502614021301,-0.062420960515737534,0.03074164129793644,-0.019009750336408615,0.027694234624505043,-0.014645393006503582,0.03612070530653,-0.019474871456623077,0.04232157766819,-0.026036269962787628,-0.06994212418794632,0.06060897931456566,0.06862303614616394,-0.0054914699867367744,-0.06829915195703506,0.050625648349523544,-0.0578998401761055,-0.07029055804014206,0.015915894880890846,-0.01580044999718666,-0.03924696519970894,-0.05568670481443405,0.03602349013090134,-0.05625121667981148,-0.04649823531508446,0.027228880673646927,0.0040875584818422794,-0.030779773369431496,0.030242793262004852,0.005567016080021858,0.05676411837339401,0.009243235923349857,0.05214357003569603,0.07403083890676498,-0.02068871073424816,0.06216476112604141,0.05955833941698074,0.0359322614967823,-0.042593058198690414,0.008656690828502178,0.03015769273042679,0.0656018778681755,-0.006596845109015703,-0.012928500771522522,0.022247832268476486,-0.052334289997816086,-0.02567092515528202,-0.00546689098700881,-0.028652841225266457,0.014796873554587364,-0.002231861464679241,-0.0552578866481781,0.05120648816227913,-0.005311855114996433,0.007179804611951113,-0.07058925181627274,-0.020713863894343376,-0.02210361883044243,0.06652253121137619,0.05059022083878517,-0.028172224760055542,-0.03788966313004494,-0.06436029076576233,0.014141875319182873,0.06085316836833954,-0.03500300273299217,0.0035775741562247276,-0.05715889483690262,0.06133800745010376,0.03189999982714653,-0.001298427814617753,0.04752033203840256,-0.012039604596793652,0.010807901620864868,0.00043175541213713586,0.06129069626331329,0.052383847534656525,-0.024981824681162834,0.05279155820608139,0.042430032044649124,-0.05222655087709427,0.047148361802101135,-0.05961620435118675,0.02507524937391281,-0.03275305777788162,-0.042760249227285385,-0.07030314207077026,0.00012286705896258354,-0.04840534180402756,0.01704593375325203,-0.06390149891376495,0.053127214312553406,-0.05812786519527435,0.06084751710295677,-0.06842856109142303,-0.05539906024932861,0.06568154692649841,-0.032024629414081573,0.039871037006378174,-0.04006380960345268,-0.0052529857493937016,-0.00815704558044672,0.06671645492315292,0.035738907754421234,-0.06735682487487793,-0.051018744707107544,0.01894260384142399,0.031708914786577225,0.021686015650629997,-0.015211369842290878,0.043659716844558716,-0.06646163761615753,0.02894432842731476,-0.06227729097008705,-0.041314344853162766,0.04030923917889595,0.022158462554216385,-0.005841098725795746,0.05729549005627632,-0.0019385855412110686,0.06803137809038162,0.02847847156226635,-0.0012326228898018599,0.07189305871725082,-0.008180644363164902,0.03351529315114021,0.043813351541757584,0.03391549363732338,0.009459617547690868,-0.020500758662819862,0.06067097187042236,-0.07152001559734344,0.05202562361955643,-0.057749275118112564,0.05075276270508766,-0.018490051850676537,-0.031903330236673355,-0.005158767569810152,-0.016690928488969803,0.01976235955953598,-0.01255960576236248,-0.06135573238134384,-0.051655903458595276,-0.05813657492399216,0.05394043028354645,-0.07477857917547226,0.001497511169873178,-0.015575443394482136,-0.0045899259857833385,-0.030580848455429077,-0.057966288179159164,-0.03274151310324669,-0.02754700928926468,-0.06552144140005112,0.05424867942929268,-0.03997372090816498,0.005010961554944515,0.020528076216578484,-0.009315572679042816,-0.07395539432764053,-0.01931724324822426,0.02086312137544155,0.0023762097116559744,0.01374664157629013,-0.057359322905540466,0.06057296693325043,-0.038512635976076126,-0.023766325786709785,0.03256800025701523,-0.0183370653539896,-0.008776549249887466,-0.024313781410455704,-0.07466620206832886,0.07408457249403,-0.06520354747772217,0.046453844755887985,0.01986663043498993,-0.06257276982069016,-0.03570718318223953,0.055868059396743774,0.0733693316578865,0.001321713556535542,-0.008987787179648876,0.05221151188015938,0.035411909222602844,-0.01915605552494526,-0.060305483639240265,-0.03185867890715599,0.002747547347098589,-0.003740474581718445,-0.0257257167249918,-0.026418160647153854,-0.07277215272188187,-0.0038701938465237617,-0.06489946693181992,0.07031303644180298,0.028198326006531715,-0.0384025014936924,-0.06729377806186676,-0.031989894807338715,-0.04480312392115593,0.04666251316666603,0.021586906164884567,-0.06659189611673355,0.06283707916736603,0.06789548695087433,-0.07411158084869385,0.0696176066994667,-0.004177248105406761,-0.06293799728155136,-0.049413323402404785,0.018994072452187538,-0.01941077411174774,0.054859843105077744,-0.01967926323413849,-0.01489250734448433,-0.012793293222784996,-0.03751445561647415,0.06193280592560768,-0.04867051541805267,0.0315527580678463,-0.031611327081918716,0.04794931411743164,-0.05161217972636223,0.032891955226659775,-0.052210696041584015,0.02277478016912937,0.020426861941814423,-0.013377705588936806,0.021613897755742073,0.029482485726475716,0.00978120882064104,-0.005914106499403715,-0.03731929510831833,0.026067128404974937,-0.052070293575525284,0.07366422563791275,0.02686687558889389,-0.0040092370472848415,0.049472626298666,0.05355442315340042,0.043127406388521194,0.045877449214458466,-0.00405252818018198,0.042803600430488586,0.02499416097998619,0.05434378236532211,-0.003754124976694584,-0.008530281484127045,-0.0507013164460659,0.03288441151380539,-0.07467761635780334,-0.051798176020383835,0.03609497845172882,0.04528539255261421,-0.03986898064613342,-0.03589277341961861,-0.05087045580148697,0.048456232994794846,-0.016324521973729134,0.0397074818611145,0.006714218761771917,0.00583661301061511,-0.00619136868044734,-0.0012349807657301426,0.012114902026951313,0.018403232097625732,0.06511054188013077,0.03184889256954193,-0.04119286686182022,-0.07587900757789612,-0.00744578056037426,0.03325971961021423,0.002165610436350107,0.033202968537807465,-0.06934479624032974,0.05284392833709717,0.0570332370698452,-0.005877312272787094,-0.01613795943558216,0.0035931027960032225,-0.03533774986863136,0.04432576149702072,-0.024688521400094032,0.07414393872022629,0.07180757075548172,-0.020346559584140778,-0.014972122386097908,0.04980284720659256,-0.05698516219854355,0.032160256057977676,0.028526073321700096,-0.028947843238711357,0.06391744315624237,-0.042625557631254196,0.0448758639395237,0.03884444385766983,-0.069354347884655,0.05877993255853653,-0.04668495059013367,-0.01680261641740799,-0.04588061198592186,0.05137387663125992,-0.03183221071958542,-0.03842295706272125,0.0367000475525856,0.025132006034255028,0.007281024008989334,0.05233984440565109,0.009724249131977558,-0.03078017756342888,0.06215337663888931,-0.001708421972580254,-0.052085548639297485,0.049732595682144165,-0.060448482632637024,-0.07320123165845871,0.021240387111902237,-0.030937528237700462,-0.039968669414520264,0.0067807091400027275,0.018819760531187057,-0.07603762298822403,0.03587619587779045,0.04444657638669014,0.05396036431193352,0.06120551377534866,-0.028784286230802536,-0.01189807802438736,-0.04521767050027847,0.005216590128839016,-0.0072290413081645966,-0.0703139528632164,-0.018832119181752205,0.0199754498898983,0.06098594516515732,-0.017611844465136528,-0.024537233635783195,0.04703719913959503,-0.026354890316724777,-0.016463752835989,-0.0355520099401474,0.04222423583269119,-0.04996645078063011,-0.006859852932393551,0.006203772034496069,0.05264702066779137,-0.03900101035833359,-0.028569310903549194,-0.018968947231769562,0.04908379539847374,0.018905159085989]},"forgetBias":{"rows":20,"columns":1,"weights":[0,0,0,0,0,0,0,0,0,0,0,0,0,0,0,0,0,0,0,0]},"outputMatrix":{"rows":20,"columns":1,"weights":[-0.34571555256843567,0.9940869212150574,1.5391407012939453,-0.05113552510738373,0.7342114448547363,-0.28349506855010986,-0.5034946799278259,2.7924418449401855,-0.3755629360675812,0.7266029119491577,0.9496262073516846,-0.2506728172302246,-0.27860715985298157,-0.3327628970146179,-0.433939665555954,-0.38189420104026794,-2.945949077606201,-0.31759560108184814,0.7956764101982117,1.7552756071090698]},"outputHidden":{"rows":20,"columns":20,"weights":[-0.04181415215134621,-0.004814073443412781,-0.07368599623441696,0.014477547258138657,-0.039075497537851334,-0.02593301609158516,-0.03677094727754593,-0.025221392512321472,-0.057292334735393524,-0.05982886254787445,0.01773936301469803,-0.048297762870788574,0.07070889323949814,0.028287038207054138,0.014505772851407528,0.04576380178332329,0.0062354933470487595,0.06781933456659317,0.023940328508615494,-0.05201097950339317,0.021434219554066658,-0.06360214203596115,-0.07415494322776794,-0.025320516899228096,0.04169170558452606,-0.02997368946671486,-0.0728045254945755,0.03061598353087902,-0.06396864354610443,0.05975101888179779,0.030639857053756714,-0.06769812852144241,-0.07532715052366257,0.003108777804300189,-0.0709662064909935,-0.022597940638661385,0.021907256916165352,0.014810584485530853,0.025403674691915512,0.004676900804042816,0.05394118279218674,0.026296190917491913,-0.06110020726919174,-0.022241640836000443,0.07238896191120148,-0.014475683681666851,0.06478237360715866,0.0324263870716095,0.000748183170799166,0.016725050285458565,0.03202980011701584,0.0277048759162426,-0.02171611785888672,-0.06261089444160461,-0.03365959972143173,0.06382682174444199,-0.0652589425444603,-0.046955645084381104,-0.05200837180018425,0.06072012335062027,0.036993734538555145,0.02653028443455696,0.05981136113405228,-0.00874804425984621,-0.00867809820920229,0.0057552107609808445,-0.0622783899307251,-0.02482619136571884,0.03711780160665512,-0.05115469917654991,-0.054102323949337006,0.014997383579611778,-0.06850205361843109,-0.027024192735552788,-0.04411306604743004,0.028130600228905678,0.002763231284916401,0.07043830305337906,-0.039702240377664566,-0.052386324852705,0.0013099110219627619,0.036120716482400894,0.047699447721242905,-0.001955595798790455,-0.06287112832069397,-0.03385554999113083,-0.05285941809415817,-0.01954742521047592,0.027788780629634857,-0.07451949268579483,0.02573934756219387,-0.05597207322716713,0.03358790650963783,-0.04382472485303879,0.05004965886473656,-0.04301955923438072,-0.021601060405373573,0.009943857789039612,-0.06202617287635803,-0.00707855774089694,-0.06659645587205887,-0.06085924804210663,-0.026652401313185692,0.036296993494033813,0.03621509671211243,-0.0737098753452301,-0.06235741823911667,0.03911372274160385,-0.008908124640583992,0.04739788919687271,-0.0054772524163126945,-0.0038603837601840496,-0.014951225370168686,-0.06359069049358368,0.057944443076848984,-0.03438454866409302,0.007500357925891876,0.03990047797560692,-0.04304111376404762,0.03780469670891762,0.025656715035438538,-0.06014049053192139,-0.015977036207914352,0.03548829257488251,-0.02291938289999962,-0.03762877359986305,0.06246974319219589,-0.0619514174759388,-0.06143675744533539,0.011987046338617802,0.006111093331128359,0.07554695010185242,0.05190643295645714,-0.04208901524543762,-0.06652142852544785,-0.06821542978286743,0.027552511543035507,0.05773678794503212,0.026256347075104713,-0.021221822127699852,0.016539691016077995,0.02009163796901703,0.009906104765832424,-0.015862204134464264,0.012328105047345161,-0.024305151775479317,0.06264832615852356,-0.0760962963104248,-0.013634727336466312,0.01268398854881525,0.026417355984449387,0.06225905194878578,-0.036182474344968796,0.03164030238986015,0.04964451119303703,0.00033499475102871656,0.048003409057855606,0.005675213411450386,-0.06939437240362167,0.0034353756345808506,0.06833700090646744,0.04911988228559494,0.07011641561985016,-0.059438515454530716,-0.07322771847248077,0.007289873901754618,0.037284716963768005,-0.07425630837678909,-0.026396363973617554,0.0354350209236145,-0.03804972395300865,0.04001524671912193,0.014677378349006176,-0.03844841569662094,-0.06305333226919174,-0.03589993342757225,-0.015909738838672638,0.0406915657222271,0.0006770147592760623,-0.059727273881435394,0.024859558790922165,-0.05892747640609741,-0.05124707520008087,0.0654907375574112,0.006273332051932812,-0.03303537890315056,0.05550597235560417,0.04022631421685219,0.057897794991731644,-0.04378018155694008,-0.04197242110967636,0.024821097031235695,-0.011005423031747341,-0.014600617811083794,-0.009301423095166683,-0.0567011758685112,-0.01309782825410366,-0.02816806361079216,0.039738237857818604,0.03631753847002983,-0.019265884533524513,0.013481827452778816,0.024294666945934296,-0.05769992247223854,0.06235699728131294,0.004031183663755655,0.03373825177550316,0.012860295362770557,-0.05079061910510063,-0.06122123822569847,0.001597580499947071,-0.002823225688189268,-0.07507161796092987,0.03905296325683594,0.06981012970209122,-0.0240508783608675,-0.022453179582953453,0.008377778343856335,0.0035483769606798887,0.013814660720527172,-0.013536442071199417,-0.008350634947419167,0.07053304463624954,0.03644973412156105,0.016351981088519096,0.024804996326565742,-0.05498628318309784,0.05684162676334381,-0.07363322377204895,-0.0009558913297951221,-0.0613793283700943,0.00791388750076294,-0.013142692856490612,-0.01880502700805664,-0.03016943857073784,0.02616291679441929,0.010745174251496792,0.014212075620889664,-0.0677742063999176,-0.012103380635380745,-0.01095295138657093,0.03397397696971893,0.03236039727926254,0.022014807909727097,-0.02493383176624775,-0.022354958578944206,-0.04660777375102043,0.02803836762905121,0.04025395214557648,-0.013574655167758465,-0.013138620182871819,-0.03495807573199272,-0.06361773610115051,0.0033946905750781298,-0.026847004890441895,-0.0626147985458374,-0.008068220689892769,-0.021166587248444557,-0.0393204502761364,-0.022671405225992203,0.02960682474076748,0.0026016077026724815,-0.023451194167137146,-0.029884926974773407,-0.0751078724861145,0.007152545731514692,0.002320738509297371,0.0014827778795734048,0.06270325183868408,0.04493515565991402,-0.05266275256872177,-0.0304173044860363,-0.029108596965670586,-0.06449515372514725,0.03774109110236168,-0.06696447730064392,-0.06424997746944427,-0.0478910394012928,-0.04915858805179596,0.008373239077627659,-0.06534633785486221,-0.009883682243525982,-0.007048533298075199,-0.06179557740688324,0.0017958825919777155,0.04098532721400261,0.0113146360963583,-0.06133969873189926,-0.001236414653249085,-0.007829948328435421,-0.022563546895980835,-0.016832569614052773,0.008260651491582394,0.043884117156267166,-0.05842204391956329,0.06486452370882034,0.06961622089147568,0.06209179759025574,-0.07472769916057587,-0.05550104007124901,0.030704595148563385,-0.015934482216835022,0.025210822001099586,-0.001108122756704688,-0.010328025557100773,0.06405177712440491,0.07129646092653275,-0.06071598082780838,0.012095382437109947,0.044394880533218384,-0.060821786522865295,0.00046372166252695024,0.05427836999297142,0.019115813076496124,0.002415440510958433,-0.06568987667560577,-0.06906263530254364,-0.012129460461437702,-0.06286994367837906,0.026150746271014214,0.03991454467177391,0.010573233477771282,-0.05936474725604057,-0.05774857476353645,0.021172529086470604,-0.02570516988635063,-0.016291314736008644,0.0015614012954756618,-0.06470797955989838,0.07259782403707504,-0.07476833462715149,-0.06725779920816422,-0.027409715577960014,0.07455773651599884,0.07008825987577438,-0.0628802552819252,0.003643107833340764,0.06613453477621078,-0.06153358146548271,0.04303739219903946,-0.039033111184835434,0.07342582195997238,0.012457411736249924,0.014028152450919151,0.00047125446144491434,-0.005284634418785572,-0.0672222450375557,0.06017661094665527,-0.015198602341115475,0.01663922891020775,-0.046438511461019516,0.04872332885861397,-0.052091922610998154,0.04342076554894447,-0.02549087442457676,0.03695319965481758,-0.04748975858092308,-0.06433985382318497,-0.05464516952633858,0.051298029720783234,-0.012643351219594479,0.04288946092128754,-0.04883416369557381,0.07438582926988602,-0.0049814339727163315,-0.04738842323422432,0.05424923449754715,-0.035589125007390976,0.0685775876045227,0.02883661538362503,0.006674246862530708,0.008051472716033459,-0.05824317783117294,0.05722114443778992,0.05805278941988945,0.07557206600904465,0.04675677791237831,0.04035719111561775,-0.04577534645795822,-0.030778665095567703,-0.041360002011060715,-0.027371171861886978,-0.0013231869088485837,-0.009967694990336895,-0.06639207154512405,0.06056202948093414,-0.04019417613744736,0.04427170753479004,0.06272196024656296,0.022422799840569496,0.04404592514038086,0.0072738961316645145,-0.03324221447110176,0.04574223607778549,0.03879329562187195,-0.05040924251079559,0.023574691265821457,-0.0010318654822185636,0.034980591386556625,-0.003271084511652589]},"outputBias":{"rows":20,"columns":1,"weights":[-1.1608614921569824,-2.8873636722564697,-2.1346852779388428,-1.433001160621643,-2.5220727920532227,-1.2182778120040894,-1.1147149801254272,-4.288207530975342,-1.2013039588928223,-2.7269325256347656,-2.830656051635742,-1.1416436433792114,-1.1998012065887451,-1.159652829170227,-1.1616075038909912,-1.119046926498413,-0.5179249048233032,-1.1693062782287598,-2.694739818572998,0.04963592067360878]},"cellActivationMatrix":{"rows":20,"columns":1,"weights":[0.000014172996088746004,-1.5538499355316162,-1.5584304332733154,0.0004156069189775735,1.0920881032943726,-0.000019105293176835403,0.000014416487829294056,-2.483376979827881,0.00002835457053151913,-1.391409993171692,1.5174052715301514,-9.951288149068205e-8,-0.00001502213672210928,-0.000008957201316661667,-0.00004345373599790037,0.0000012338473425188567,3.8168160915374756,0.0000015890354916336946,1.3811756372451782,1.5427805185317993]},"cellActivationHidden":{"rows":20,"columns":20,"weights":[0.016992149874567986,-0.05263669416308403,0.005548471584916115,0.0204548891633749,-0.05899191275238991,0.013034175150096416,-0.03715751692652702,-0.039014872163534164,-0.055384550243616104,0.028030822053551674,0.006439016200602055,-0.026413053274154663,0.04460388049483299,-0.0756061002612114,0.015925902873277664,0.058315496891736984,0.006197132170200348,0.0017158943228423595,-0.054396409541368484,0.07047689706087112,0.0024187928065657616,-0.0003076879947911948,-0.03212621062994003,-0.006869143340736628,0.024787072092294693,-0.006873356178402901,0.029406515881419182,-0.01738348975777626,0.06396253407001495,-0.05854053422808647,-0.00518016517162323,0.05652933567762375,-0.051941998302936554,0.07249867916107178,0.01964098960161209,0.03166379779577255,0.06100964546203613,0.0037063302006572485,-0.050405099987983704,0.06503034383058548,0.051595404744148254,0.029140634462237358,0.03959735482931137,-0.029259443283081055,0.003752429038286209,0.06646484136581421,0.019625717774033546,-0.02938530594110489,-0.015037855133414268,-0.005391010083258152,0.03895353525876999,-0.013250378891825676,0.033472105860710144,-0.05429539829492569,-0.04590693116188049,-0.04104584828019142,0.010701804421842098,0.06330927461385727,-0.037562351673841476,-0.07113185524940491,-0.07377970218658447,0.022906042635440826,-0.02890823595225811,0.03636791557073593,-0.0684858113527298,-0.025650477036833763,0.0741388127207756,-0.008146276697516441,-0.032644759863615036,-0.0070743137039244175,-0.07345797121524811,0.0015340596437454224,0.016458947211503983,-0.0000678324286127463,-0.022380679845809937,0.010706299915909767,0.057784922420978546,0.0559348501265049,0.02610194683074951,0.06124740466475487,0.03945258632302284,0.0006176791503094137,-0.036554884165525436,-0.054450392723083496,0.00016741060244385153,0.024879073724150658,0.03872937336564064,0.041424691677093506,-0.04910633713006973,-0.006040503270924091,-0.018395740538835526,0.03217792510986328,-0.018294470384716988,-0.020288515836000443,0.0280326958745718,0.07460447400808334,-0.05977572500705719,-0.034850023686885834,0.053296901285648346,0.06934788078069687,-0.017384784296154976,0.024249110370874405,-0.04022318124771118,-0.06526701152324677,0.061647679656744,-0.026618555188179016,-0.03411709517240524,-0.051175784319639206,-0.04339435696601868,0.031127622351050377,-0.07054505497217178,-0.04137744382023811,0.02309173345565796,0.04929273948073387,0.027193119749426842,0.018685635179281235,-0.026131728664040565,-0.01574738696217537,0.030998531728982925,-0.04548078030347824,0.017670178785920143,0.008283719420433044,0.044382866472005844,0.014896668493747711,-0.048394620418548584,0.039283305406570435,-0.032649893313646317,0.011425312608480453,0.008893475867807865,-0.06105230748653412,-0.06363077461719513,0.06397557258605957,-0.04712722823023796,-0.01097782887518406,0.05439022183418274,-0.04058612138032913,-0.06589104980230331,0.06244456022977829,-0.04320048540830612,0.014736728742718697,0.00839932356029749,0.042248278856277466,0.014791060239076614,-0.023798149079084396,-0.020324410870671272,0.00045087182661518455,0.003323975717648864,0.06682296097278595,0.034311410039663315,0.053525906056165695,-0.05903684347867966,-0.002225852105766535,0.057377856224775314,0.013908813707530499,-0.07245010137557983,-0.05637485161423683,-0.05598517134785652,0.07224471122026443,-0.05058414861559868,0.013545420952141285,0.07060324400663376,0.058471404016017914,0.03444192558526993,0.04493666812777519,0.03640303760766983,-0.06460932642221451,-0.037284091114997864,-0.052637841552495956,-0.031982675194740295,-0.06895437091588974,-0.012349827215075493,-0.07033940404653549,-0.034008756279945374,0.072461798787117,-0.05701026692986488,0.07241133600473404,0.046456485986709595,-0.036368414759635925,0.03120352327823639,0.07364463061094284,0.040827278047800064,-0.05755302682518959,-0.031990066170692444,-0.05527813360095024,0.05808648094534874,0.05459340661764145,-0.029117345809936523,-0.06498637050390244,0.004820247180759907,0.06519830971956253,-0.013106963597238064,0.02708597108721733,0.01615961268544197,-0.001487911562435329,-0.01563572883605957,0.0630359798669815,-0.05714257434010506,0.04338361322879791,0.06871116906404495,-0.07445240765810013,-0.048058465123176575,-0.018458854407072067,0.07368429750204086,-0.015190880745649338,-0.03163552284240723,0.058389678597450256,-0.03708089515566826,-0.07444082200527191,-0.06597764045000076,-0.017411887645721436,0.05869556590914726,0.020495031028985977,0.024281250312924385,0.05288732051849365,0.044974084943532944,0.06829670816659927,-0.0749754011631012,-0.07038881629705429,0.06049376353621483,-0.04644970968365669,-0.07047241181135178,-0.04221346974372864,-0.05883657932281494,-0.03043743222951889,-0.02258835919201374,0.022841760888695717,-0.021998532116413116,-0.049635712057352066,-0.02044135145843029,0.05500289052724838,-0.016358179971575737,-0.024861538782715797,0.01042097620666027,-0.0004625000583473593,0.02897888794541359,-0.04364054650068283,0.018077926710247993,-0.05182945355772972,-0.00751910824328661,-0.019787846133112907,-0.004841798450797796,-0.04106104373931885,-0.061375752091407776,-0.015347227454185486,-0.045613229274749756,-0.015049170702695847,-0.07270733267068863,-0.06768661737442017,-0.028203392401337624,0.017435941845178604,-0.03773310407996178,0.009039817377924919,0.014303898438811302,-0.0583990104496479,-0.06761553138494492,0.0451880544424057,-0.03460542857646942,-0.030830422416329384,-0.06793736666440964,0.016387587413191795,-0.006021210923790932,-0.011651958338916302,0.0399915874004364,-0.017250176519155502,0.04226054251194,0.05409132316708565,0.06106184422969818,-0.06136852502822876,0.06186768785119057,-0.010911093093454838,0.03317605331540108,-0.02103632688522339,-0.044879283756017685,0.004197875969111919,-0.016231685876846313,0.03718822821974754,-0.024854037910699844,-0.06548900157213211,-0.023214086890220642,-0.06567852944135666,0.04245150461792946,-0.044713884592056274,0.07144616544246674,-0.04244324564933777,0.007328048348426819,-0.03557797893881798,-0.07307061553001404,0.02713145688176155,0.0693790391087532,0.04627411440014839,0.05749509483575821,-0.044582050293684006,-0.04749336093664169,0.013923699967563152,-0.04832937940955162,0.07224766910076141,-0.05335240066051483,-0.0685136541724205,0.025382578372955322,-0.03292857110500336,-0.07522863149642944,-0.031135177239775658,-0.0018164629582315683,0.0606883242726326,-0.022730236873030663,-0.04622578248381615,-0.00126661267131567,0.04461700841784477,-0.0051365382969379425,0.009952634572982788,-0.07111779600381851,0.05049857124686241,0.011124865151941776,-0.07295715808868408,-0.05443456396460533,0.028110915794968605,-0.05638884752988815,-0.025387339293956757,0.008114000782370567,-0.03940941393375397,-0.06909243017435074,0.03310506418347359,-0.04998823627829552,0.05737006291747093,0.031175067648291588,0.030790532007813454,0.055835504084825516,0.013273411430418491,-0.027385972440242767,-0.0408255010843277,-0.04943707585334778,-0.006429538130760193,-0.006466214079409838,-0.043473076075315475,-0.047652099281549454,0.06834062188863754,0.0009641826036386192,-0.015620391815900803,0.016681712120771408,-0.025201721116900444,0.028843937441706657,-0.03282321244478226,0.013561484403908253,0.008806349709630013,-0.03271568566560745,0.07007919251918793,0.037706293165683746,0.03242045268416405,0.04732518643140793,0.04421686381101608,-0.04043498635292053,0.016045553609728813,0.012643251568078995,-0.023782845586538315,-0.027505727484822273,0.05699761584401131,-0.002761951880529523,0.0410938523709774,-0.053950317203998566,0.0041439831256866455,0.03535245731472969,-0.010977093130350113,-0.013823987916111946,0.02398582547903061,0.02872581221163273,0.019958149641752243,-0.04524834081530571,-0.029843628406524658,-0.05546587333083153,0.020168205723166466,0.0692601129412651,-0.009011073969304562,-0.06491926312446594,-0.05400969460606575,0.050793059170246124,0.042322222143411636,-0.03445389121770859,0.003943322692066431,0.0502721406519413,0.07300259172916412,0.034483712166547775,0.056621670722961426,0.021584052592515945,0.03910746052861214,0.06507853418588638,-0.017321305349469185,-0.06906861066818237,-0.04543584585189819,-0.008260117843747139,0.025974614545702934,0.048364777117967606,0.006874368526041508,0.011867971159517765,-0.07483217120170593,0.05717572197318077,0.03747934103012085,0.024890867993235588,0.013785547576844692,-0.0700632855296135,0.023346779868006706]},"cellActivationBias":{"rows":20,"columns":1,"weights":[-8.974652700999286e-7,1.1619893312454224,0.8304805159568787,-0.0002888008311856538,-0.9495059847831726,0.0000045817096179234795,0.0000013287286719787517,1.548427939414978,-0.00000517944090461242,0.9931309819221497,-1.1467022895812988,-8.841089638167432e-9,0.0000027739722554542823,5.250520871413755e-7,0.0000027122755454911385,1.4958250460495037e-7,-1.579306721687317,-1.3286094713294005e-7,-1.0585874319076538,-0.4034453332424164]}}],"outputConnector":{"rows":1,"columns":20,"weights":[-0.00000753375798012712,-0.4352554380893707,-0.8158680200576782,-0.00005927875099587254,0.14127397537231445,0.00000850670494401129,-0.000008780552889220417,-1.515589714050293,-0.000012680378858931363,-0.4364885091781616,0.40752336382865906,9.343006723838698e-8,0.000007164853741414845,0.000004931844614475267,0.000021098307115607895,-9.320504545939912e-7,2.1097168922424316,-9.303761316914461e-7,0.3446855843067169,1.6838276386260986]},"output":{"rows":1,"columns":1,"weights":[0.4391121566295624]},"inputLookup":null,"inputLookupLength":0,"outputLookup":null,"outputLookupLength":0}