{"type":"LSTMTimeStep","options":{"inputSize":1,"inputRange":0,"hiddenLayers":[20],"outputSize":1,"decayRate":0.999,"smoothEps":1e-8,"regc":0.000001,"clipval":5,"maxPredictionLength":100,"dataFormatter":{"indexTable":{},"characterTable":{},"characters":[],"specialIndexes":[]},"learningRate":0.1},"hiddenLayers":[{"inputMatrix":{"rows":20,"columns":1,"weights":[-0.3087712228298187,-0.3244699239730835,-0.7785956859588623,-0.3390663266181946,-0.5059546232223511,-0.23108598589897156,0.172499880194664,-0.4008561074733734,-0.4760470688343048,-0.31817883253097534,0.02720772661268711,-0.6691917181015015,-0.7438216805458069,-2.997676134109497,-0.2887226641178131,1.4839612245559692,2.2524797916412354,-0.7753655314445496,1.9067796468734741,-0.3804619312286377]},"inputHidden":{"rows":20,"columns":20,"weights":[0.026058873161673546,-0.014927590265870094,-0.058392949402332306,-0.05476980656385422,-0.00518060615286231,0.010487907566130161,-0.04573830962181091,-0.03477708250284195,0.022975273430347443,0.01319053489714861,0.03345903381705284,0.014135544188320637,0.029624521732330322,0.04699540510773659,-0.07257100939750671,0.06768160313367844,0.052540119737386703,0.010627026669681072,0.019211040809750557,0.03572176396846771,-0.06335452198982239,-0.008579152636229992,-0.04291008412837982,0.047888413071632385,-0.01502673514187336,0.0034604163374751806,0.05263541266322136,-0.0452885627746582,0.0037882328033447266,0.046699341386556625,-0.058507561683654785,0.00958840362727642,-0.014819266274571419,-0.003467733971774578,-0.03975440934300423,0.04093051701784134,0.056825295090675354,-0.0735887810587883,0.04671600088477135,-0.04131022468209267,0.06334203481674194,-0.03311049938201904,0.03969462215900421,0.025207648053765297,0.009048916399478912,-0.01526038907468319,0.007510318886488676,0.010283532552421093,-0.003657444380223751,-0.06507657468318939,-0.04657761752605438,-0.03453068807721138,0.0375978983938694,0.06434203684329987,0.06418278813362122,0.059472955763339996,0.02852298691868782,0.05837460979819298,-0.025790881365537643,-0.03612624853849411,-0.059216853231191635,-0.02901395596563816,-0.04517155513167381,0.017734790220856667,-0.03040846437215805,-0.021472714841365814,-0.058833103626966476,-0.06288952380418777,0.005742234643548727,-0.07482574880123138,0.06070580333471298,-0.004333861637860537,0.005902670789510012,-0.022077858448028564,0.04823003336787224,-0.01843753643333912,0.04044699668884277,-0.06394887715578079,-0.06372745335102081,-0.025517163798213005,-0.034933533519506454,0.04440592974424362,-0.016446910798549652,0.06319274753332138,0.05147877335548401,-0.0315791554749012,0.06581053137779236,-0.05892934650182724,0.05946645885705948,0.005589656997472048,0.06209366396069527,0.037517063319683075,-0.040303509682416916,0.06033092364668846,-0.05158691108226776,0.04194846376776695,-0.03146148845553398,0.024493379518389702,-0.025081727653741837,-0.01719919592142105,-0.038253284990787506,0.002657161792740226,0.01348123513162136,0.0460955984890461,0.025779450312256813,0.07018564641475677,0.0564500093460083,0.04323389753699303,-0.023378318175673485,0.06072143465280533,0.04786469042301178,0.05862489715218544,0.05439028888940811,-0.03549480810761452,-0.027532868087291718,-0.021331338211894035,0.039355866611003876,0.0064952177926898,0.06974530965089798,0.04954151436686516,0.021349342539906502,-0.03593781590461731,0.010208087973296642,-0.022300293669104576,-0.030330685898661613,-0.008728042244911194,0.014573347754776478,0.03447858616709709,-0.025267088785767555,0.019182922318577766,0.048578713089227676,0.022268539294600487,0.012457333505153656,-0.043398600071668625,0.045374058187007904,-0.06724961847066879,0.0016704096924513578,-0.048714280128479004,-0.07456313818693161,0.04186973348259926,-0.05320978909730911,0.06287218630313873,-0.07103986293077469,0.019823424518108368,0.012131101451814175,-0.051127854734659195,0.009344452060759068,0.05971580743789673,-0.06805941462516785,-0.017386307939887047,0.029374677687883377,-0.05731428414583206,-0.053167570382356644,-0.006644355598837137,-0.03418124467134476,-0.04271192103624344,0.02955850027501583,0.015117622911930084,0.01811789721250534,-0.04224267974495888,-0.04283374175429344,0.017661036923527718,0.07355796545743942,-0.042309731245040894,0.030310235917568207,0.06836947053670883,0.050038471817970276,0.005627433769404888,0.01323571614921093,-0.058102741837501526,0.06283550709486008,-0.03677541762590408,-0.052269235253334045,-0.06464878469705582,0.07349438220262527,0.041035521775484085,-0.02879912778735161,-0.024576976895332336,-0.04209735617041588,-0.024162938818335533,0.0629488006234169,-0.033103398978710175,0.054392989724874496,0.037413083016872406,-0.04806271195411682,-0.045410238206386566,0.068690724670887,-0.0685206949710846,-0.06507976353168488,0.02516026236116886,0.013639451935887337,0.021944768726825714,0.05703137814998627,-0.021390892565250397,-0.026428870856761932,0.05794646963477135,0.023966316133737564,0.05820552259683609,0.025605840608477592,0.024210423231124878,0.04732081666588783,0.02269149385392666,0.04847417399287224,-0.014761801809072495,0.045510243624448776,-0.0026417819317430258,-0.07599736005067825,-0.06545186042785645,0.0006333560450002551,-0.045172855257987976,-0.02766050398349762,-0.05545477196574211,0.005922085605561733,-0.04779461771249771,0.05862639844417572,-0.0008483024430461228,0.03962862864136696,0.019241664558649063,-0.013263620436191559,0.02829628251492977,-0.015096383169293404,0.04906220734119415,-0.016517942771315575,0.0508929006755352,0.05420994013547897,0.03726152703166008,-0.03924399986863136,-0.07377374917268753,0.006190380081534386,-0.032464247196912766,0.05401095002889633,-0.03694923222064972,-0.029275916516780853,-0.05315709486603737,-0.03138216957449913,-0.03631917014718056,-0.049375034868717194,-0.011728739365935326,-0.027170196175575256,-0.046482980251312256,-0.04872696474194527,-0.008023794740438461,-0.07162979245185852,0.07376905530691147,0.057079728692770004,0.060150809586048126,-0.061514291912317276,-0.023942939937114716,0.013038708828389645,0.03905622661113739,0.02757543884217739,0.02463722415268421,0.022804364562034607,0.06444850564002991,-0.0349501334130764,0.008764821104705334,-0.0016353758983314037,0.07077300548553467,0.0680999755859375,0.02686394192278385,0.07103792577981949,0.028069859370589256,-0.001552636967971921,-0.052202075719833374,0.00248790648765862,0.0733296349644661,-0.05780185014009476,-0.02158064767718315,0.074239581823349,-0.05438286066055298,-0.017926562577486038,0.06485287845134735,0.026918940246105194,0.044500961899757385,-0.05874619260430336,-0.04315343126654625,0.0034105570521205664,0.07277955859899521,-0.0596085861325264,0.07463367283344269,0.01648229919373989,-0.022272709757089615,-0.02431809902191162,0.07269106805324554,-0.034351859241724014,-0.0015300092054530978,-0.01681727170944214,0.03830448538064957,0.006826202850788832,-0.03550199046730995,-0.0006179969641380012,-0.043754033744335175,0.02965220808982849,0.0609327107667923,-0.017327982932329178,0.009569462388753891,-0.06221532076597214,0.056499142199754715,-0.017270298674702644,0.012437041848897934,-0.012422274798154831,-0.034414175897836685,-0.03515683859586716,-0.025118112564086914,0.07203669100999832,-0.07015441358089447,-0.0680302232503891,0.02809637226164341,0.03746151179075241,-0.035133786499500275,-0.0004853572463616729,0.027435921132564545,0.007821394130587578,-0.06445244699716568,0.014022807590663433,0.007397821173071861,-0.06141539663076401,0.045860182493925095,0.018479427322745323,0.04989219084382057,-0.03529372811317444,-0.06940729171037674,0.04910830035805702,0.07226966321468353,-0.06499651819467545,0.05682923272252083,0.03904780000448227,-0.009377125650644302,-0.0215695071965456,0.0025586539413779974,0.06009439378976822,-0.07461082935333252,0.03028137981891632,0.04626467451453209,0.07005872577428818,0.019678300246596336,-0.04878172278404236,0.053088974207639694,-0.015572269447147846,0.029253937304019928,0.0009133134153671563,-0.033764325082302094,-0.038619063794612885,0.057895977050065994,-0.003036601934581995,-0.01661912351846695,0.014574185013771057,-0.036697253584861755,0.055593572556972504,0.017845304682850838,0.04567261040210724,-0.03164036571979523,0.034177057445049286,-0.033699676394462585,-0.014606378972530365,-0.05115196481347084,0.04109039157629013,-0.04668329283595085,0.027889711782336235,0.043853119015693665,-0.012887226417660713,-0.028026999905705452,-0.02336362935602665,-0.032872963696718216,-0.03641102835536003,0.03272955119609833,-0.055912721902132034,0.017079129815101624,-0.03958379104733467,-0.002456841990351677,0.027416318655014038,0.07540029287338257,-0.06286279112100601,-0.03313424438238144,-0.07030229270458221,-0.05857705697417259,-0.06505004316568375,-0.060890235006809235,0.053964193910360336,-0.00021219362679403275,0.06328945606946945,0.009192181751132011,0.07102631032466888,0.07187069207429886,-0.04697686433792114,0.031567152589559555,0.07297931611537933,-0.038689661771059036,-0.042746346443891525,-0.06333339214324951,0.038932837545871735,0.0591033510863781,0.029180079698562622,0.023268578574061394,-0.021836718544363976,0.03717416897416115,-0.015344798564910889,-0.00374514888972044,0.02387275919318199,-0.06365980207920074]},"inputBias":{"rows":20,"columns":1,"weights":[-1.0612925291061401,-0.7236373424530029,-1.886083960533142,-0.7514432668685913,-1.301229476928711,-1.012825846672058,-2.388756036758423,-0.7245535850524902,-0.889082133769989,-0.8400700092315674,-2.2958269119262695,-2.0371527671813965,-1.9380515813827515,-0.20917606353759766,-2.1377243995666504,-0.6094132661819458,-3.5680954456329346,-1.8924822807312012,-3.5513856410980225,-0.7336031794548035]},"forgetMatrix":{"rows":20,"columns":1,"weights":[-0.0648486539721489,0.021938664838671684,0.054253026843070984,0.03543051704764366,0.04674786701798439,0.006392291281372309,-0.04305292293429375,0.03588902950286865,-0.0381644070148468,-0.029131587594747543,0.019168002530932426,-0.05941081792116165,-0.05710536241531372,-0.03223150596022606,-0.041419617831707,0.06672642379999161,0.053864724934101105,-0.01962868869304657,0.059369683265686035,-0.014392400160431862]},"forgetHidden":{"rows":20,"columns":20,"weights":[-0.04452657699584961,0.057921402156353,0.00029460329096764326,-0.027617620304226875,0.06739030033349991,-0.06268882006406784,-0.016723942011594772,-0.055768515914678574,-0.020225219428539276,-0.05052141100168228,-0.020820561796426773,-0.04649222269654274,-0.054548271000385284,-0.04276610165834427,0.02881774492561817,0.045182690024375916,-0.02019401453435421,0.051798757165670395,-0.02483818121254444,-0.00964856706559658,-0.02523830719292164,0.043420858681201935,-0.01109605748206377,0.06074526906013489,0.035448797047138214,-0.03983186185359955,-0.007164174225181341,0.04578004404902458,0.01331970002502203,0.00544928340241313,0.04459458217024803,0.06078211963176727,0.06974148005247116,-0.024619901552796364,0.013250861316919327,0.03106597438454628,-0.04289006069302559,-0.06029774248600006,0.010896661318838596,-0.027456721290946007,0.03562658652663231,0.06872197985649109,0.059453051537275314,0.029977474361658096,0.017036141827702522,0.018828369677066803,0.029915813356637955,0.04997232183814049,0.013545033521950245,-0.04288574308156967,0.01806165836751461,-0.011336439289152622,-0.02543666772544384,0.05733077973127365,0.014447053894400597,-0.06843972951173782,-0.010743029415607452,-0.004903415217995644,0.032050859183073044,-0.032200541347265244,-0.013253908604383469,0.05202866718173027,-0.029355615377426147,-0.06836165487766266,-0.026264751330018044,0.04582631587982178,0.053916674107313156,-0.0010899667395278811,0.05548297241330147,0.009775027632713318,0.007091928273439407,-0.016949757933616638,0.04646831750869751,-0.06562471389770508,0.06141863763332367,0.06325080990791321,-0.055206917226314545,-0.03396940603852272,0.0609249472618103,-0.07068392634391785,0.06964842230081558,0.013814818114042282,0.024403933435678482,-0.04634970426559448,-0.05687699466943741,-0.040009114891290665,-0.0029013357125222683,0.0486467145383358,-0.03827529400587082,-0.03297313302755356,-0.07414482533931732,-0.0018907948397099972,0.07230011373758316,0.034318286925554276,0.04946955293416977,-0.003522102255374193,-0.06653618067502975,0.06024432182312012,0.037901245057582855,-0.03977075219154358,0.044566262513399124,0.054253268986940384,0.07563470304012299,-0.05771229788661003,-0.07366380095481873,-0.013081979937851429,0.05771375820040703,-0.03337910771369934,0.013217571191489697,0.050430893898010254,0.06293091177940369,-0.0540313646197319,-0.051337189972400665,0.03519316762685776,-0.008351639844477177,0.003552095964550972,0.05280488729476929,0.003793936688452959,-0.06711006909608841,0.013751637190580368,-0.030150793492794037,-0.00925928633660078,0.0005830525187775493,0.0012790141627192497,0.06845784932374954,-0.05775626376271248,-0.0015476527623832226,0.0219282153993845,0.051934175193309784,-0.056219037622213364,-0.03406362980604172,0.05399445816874504,0.03819940611720085,0.06871218234300613,-0.0424928292632103,0.012998129241168499,0.0706351026892662,0.0022122643422335386,0.028875213116407394,0.06642962992191315,-0.03231663256883621,-0.06101115792989731,-0.023436764255166054,-0.02448221854865551,-0.010130446404218674,-0.01627737656235695,-0.0015163590433076024,-0.00336545892059803,-0.046055182814598083,-0.045430101454257965,-0.05396095663309097,-0.014885365031659603,0.04877246171236038,-0.03461676836013794,0.026339951902627945,-0.013342865742743015,-0.054612401872873306,-0.04976800084114075,0.0021725501865148544,-0.021165594458580017,0.024363970384001732,-0.0685640349984169,0.0025336886756122112,-0.045473020523786545,0.02294781059026718,-0.05489705875515938,-0.0669146180152893,0.04255680367350578,-0.049761369824409485,0.013076584786176682,0.05966026335954666,0.05699169263243675,-0.003474373370409012,-0.034644268453121185,-0.018579091876745224,0.06653506308794022,0.002045820001512766,-0.028300758451223373,0.07130318880081177,0.04876236617565155,-0.0436757355928421,0.0660233423113823,-0.003713323036208749,0.05304804816842079,0.04519151523709297,0.031256791204214096,-0.029285887256264687,0.035212524235248566,0.01765209063887596,0.04742490500211716,-0.05982586741447449,0.06310924887657166,-0.07212331146001816,-0.005137519910931587,0.022473175078630447,-0.016792558133602142,0.031401410698890686,-0.03556974604725838,0.034797102212905884,0.01952841505408287,-0.043708864599466324,-0.068117156624794,-0.04884812980890274,0.04813814535737038,-0.009950656443834305,-0.04280008375644684,-0.02441466972231865,-0.042777255177497864,0.07504653930664062,0.021978162229061127,-0.05708097666501999,-0.06349784880876541,0.024135323241353035,-0.05657337233424187,-0.03743961453437805,-0.062110163271427155,0.03939073160290718,-0.025855515152215958,-0.01885931007564068,-0.06489180773496628,0.05163441598415375,0.0010729884961619973,0.03256813436746597,-0.02464037388563156,0.045638199895620346,0.032522305846214294,0.022103235125541687,0.014409251511096954,-0.022021863609552383,0.0302436426281929,0.034827813506126404,0.06712346524000168,0.003991822712123394,-0.005665479693561792,-0.03851033002138138,-0.003339524846524,-0.005826466716825962,0.007338589522987604,0.06264929473400116,-0.06300259381532669,0.06903564184904099,0.0528198778629303,-0.01789931394159794,-0.0648435577750206,0.057775985449552536,0.07150023430585861,0.01524839736521244,-0.050388868898153305,-0.005177800543606281,-0.06095618009567261,-0.01942485384643078,-0.010330972261726856,0.036607690155506134,0.03427990525960922,0.06920266896486282,-0.010434863157570362,0.04926029220223427,0.05279835686087608,0.04843604564666748,-0.0427653044462204,0.003787256544455886,-0.04480037838220596,-0.07356280833482742,-0.02618006244301796,0.007132484577596188,0.015180542133748531,-0.017834767699241638,0.025065647438168526,0.002055075019598007,-0.03067569062113762,-0.0520486943423748,0.0572064109146595,-0.03962629660964012,-0.028308209031820297,-0.0012346840230748057,0.051135867834091187,-0.04607079178094864,0.03090977482497692,0.04911953955888748,-0.06678751856088638,-0.031297340989112854,0.03974213823676109,-0.030564922839403152,-0.05896482244133949,0.06829120963811874,-0.04732687026262283,0.035499636083841324,-0.006467267870903015,-0.033573415130376816,-0.027688514441251755,-0.001960065681487322,-0.0686398595571518,0.046159304678440094,-0.04832223802804947,0.03509454056620598,0.013124944642186165,0.05085737630724907,-0.041281163692474365,-0.044910937547683716,0.07207625359296799,0.012124958448112011,-0.04530395567417145,-0.03439146652817726,0.07505976408720016,0.052726417779922485,0.06748608499765396,0.01359065342694521,0.019560430198907852,0.0542307011783123,-0.021048905327916145,0.004035810008645058,0.021120373159646988,-0.06798014789819717,-0.05584186315536499,0.01676422916352749,-0.00617246562615037,0.05414113774895668,0.0002364228421356529,-0.06773174554109573,-0.03923739120364189,0.07069344073534012,-0.07334243506193161,-0.009532901458442211,0.03542766720056534,0.03463561460375786,0.029926396906375885,-0.05749402195215225,0.0008722767233848572,0.07409252226352692,0.01886170171201229,-0.052869945764541626,0.056875407695770264,0.02742760069668293,-0.00235745613463223,-0.005506380461156368,0.06654138118028641,0.015146307647228241,0.008114534430205822,-0.04168069362640381,-0.037231288850307465,0.07141120731830597,0.03594033792614937,-0.06229255348443985,0.06907370686531067,0.005142643116414547,0.02134942077100277,0.05683838203549385,-0.029507212340831757,-0.03656173497438431,-0.03104131855070591,0.012467937543988228,0.04985470697283745,0.00953585747629404,0.07382660359144211,-0.06969092041254044,-0.07187402248382568,0.04310987889766693,0.07545376569032669,0.07539712637662888,-0.030590055510401726,0.0414760559797287,-0.03645486757159233,0.02814164012670517,-0.027933215722441673,0.04202363267540932,-0.045981332659721375,0.02578054741024971,-0.016969885677099228,0.023414094001054764,-0.05167270079255104,-0.07144376635551453,-0.02266155742108822,0.06362471729516983,-0.02267353981733322,0.06080687791109085,-0.03726458549499512,-0.04675669223070145,0.013675590977072716,0.04074396938085556,0.007748263422399759,0.04661906138062477,-0.07402649521827698,-0.04651488736271858,-0.04148034751415253,-0.00437422189861536,0.030126653611660004,-0.009721138514578342,-0.03675135597586632,0.03841383382678032,-0.05746854841709137,-0.013283315114676952,-0.027896210551261902,0.029280604794621468,-0.018201930448412895,-0.023491915315389633,-0.0468440018594265,0.028563600033521652,-0.040723979473114014,-0.02378041483461857,-0.050163138657808304]},"forgetBias":{"rows":20,"columns":1,"weights":[0,0,0,0,0,0,0,0,0,0,0,0,0,0,0,0,0,0,0,0]},"outputMatrix":{"rows":20,"columns":1,"weights":[-0.3108122944831848,-0.3978041410446167,-0.737488329410553,-0.3592850863933563,-0.5220668315887451,-0.2382674515247345,0.22178618609905243,-0.3127240836620331,-0.3491446077823639,-0.28216496109962463,0.08227512240409851,-0.6750115156173706,-0.7559954524040222,-3.037796974182129,-0.2616681754589081,1.564247727394104,2.2459559440612793,-0.7176092863082886,1.8757909536361694,-0.3308582007884979]},"outputHidden":{"rows":20,"columns":20,"weights":[0.008530717343091965,0.02700987458229065,-0.05097109079360962,0.06537294387817383,0.07037636637687683,0.010333502665162086,0.035312216728925705,0.04983437433838844,-0.06596485525369644,0.053879089653491974,-0.008648626506328583,-0.0679626613855362,0.0014973630895838141,-0.07039482891559601,-0.0035532715264707804,0.001820871839299798,0.044101499021053314,0.025966444984078407,-0.002267577452585101,-0.07388047873973846,-0.03877786919474602,0.061643775552511215,0.035318028181791306,-0.03652672842144966,-0.0687895119190216,-0.042045965790748596,0.03879604488611221,-0.06849338859319687,0.04392344504594803,-0.046036627143621445,0.06396182626485825,0.04513540863990784,0.003317201044410467,0.06690815836191177,-0.028682563453912735,-0.05372954159975052,-0.04060092568397522,-0.031429555267095566,0.014051505364477634,-0.024127615615725517,0.016863083466887474,0.0281839519739151,-0.01766943372786045,-0.012873747386038303,-0.07145394384860992,-0.04928984120488167,-0.046447064727544785,-0.03328767791390419,-0.001706587616354227,0.029551852494478226,0.0009060648735612631,0.002413787879049778,-0.06481366604566574,0.03388844430446625,0.07012192159891129,0.009336086921393871,0.006111127324402332,0.011147547513246536,0.0009331784676760435,0.00008658746810397133,-0.05401524901390076,0.03293141350150108,-0.012119974941015244,-0.02117331512272358,0.006071202922612429,-0.03210374340415001,-0.05525542050600052,-0.058493971824645996,-0.060907527804374695,0.028024202212691307,0.058714449405670166,-0.034436434507369995,0.04370853304862976,0.01612241379916668,0.024779075756669044,-0.00920895952731371,0.07230132073163986,-0.06977745145559311,0.05557024106383324,-0.003489833325147629,-0.06984178721904755,-0.06895970553159714,0.027434052899479866,-0.0155946034938097,-0.02704569324851036,0.04274909198284149,-0.07415273785591125,-0.01989489421248436,-0.018923914059996605,-0.06459405273199081,0.07587592303752899,-0.07423765957355499,0.053236015141010284,0.023390939459204674,0.030711550265550613,-0.05611022561788559,-0.07568024098873138,0.0513332225382328,0.010943897068500519,0.03942834213376045,-0.008346675895154476,0.019791319966316223,0.002129270462319255,-0.05197041854262352,-0.05740029364824295,0.021989913657307625,-0.016055656597018242,-0.06555963307619095,-0.016810217872262,0.02472294680774212,-0.06773305684328079,-0.004189506638795137,-0.06183072552084923,-0.07455769926309586,-0.07575904577970505,0.03368423506617546,0.005239902995526791,-0.039428599178791046,-0.026491498574614525,-0.0074982354417443275,0.021084459498524666,-0.04143466427922249,0.06546694040298462,-0.0677703469991684,0.06450112909078598,0.03349778428673744,0.07006900012493134,-0.051381032913923264,0.021814532577991486,0.0181594081223011,0.01939968951046467,0.00029344874201342463,-0.028284931555390358,0.017990974709391594,-0.02186463586986065,0.002379031851887703,0.05270206183195114,0.03582331910729408,-0.03865593671798706,0.049867622554302216,-0.055934589356184006,-0.0008719597826711833,0.06404273211956024,0.04281550645828247,-0.007070379331707954,0.04007849842309952,0.025036543607711792,-0.06273233890533447,-0.02174568921327591,-0.053839169442653656,0.035546865314245224,0.014906562864780426,-0.006325260270386934,-0.07213139533996582,0.07392511516809464,0.015367072075605392,-0.07335267961025238,0.0700414627790451,0.005414639133960009,-0.07548841834068298,0.035302888602018356,-0.05504828318953514,0.0738050788640976,-0.04323863238096237,0.03463086858391762,-0.07227752357721329,-0.03884987533092499,0.013414593413472176,0.0572219081223011,0.03456098958849907,-0.058966584503650665,0.03150125965476036,-0.021318405866622925,0.0400773286819458,-0.03956803306937218,0.07530422508716583,0.06580592691898346,-0.01300080306828022,0.07578746974468231,-0.051614172756671906,0.06305941939353943,0.048168860375881195,-0.03732554242014885,0.035078711807727814,-0.05071263015270233,-0.062481459230184555,-0.030711226165294647,-0.05164326727390289,-0.0588657483458519,0.03170020878314972,0.017537778243422508,0.01617981679737568,-0.0336606428027153,-0.015483477152884007,0.06517506390810013,-0.02948388271033764,0.07305306941270828,0.00992688536643982,-0.07501044869422913,0.07067587226629257,-0.005877291783690453,-0.0749068483710289,-0.04090471565723419,-0.07274693250656128,-0.04885344207286835,0.07313862442970276,0.03826870024204254,-0.0628645271062851,-0.018680959939956665,-0.04433538019657135,0.017128650099039078,-0.06390192359685898,-0.06728233397006989,0.024905137717723846,0.0037720194086432457,-0.041600216180086136,0.007307833526283503,-0.02205536514520645,0.06511564552783966,0.024099113419651985,0.040417224168777466,0.06159811466932297,0.036544881761074066,-0.010752578265964985,0.013034799136221409,0.05111454799771309,0.05380028858780861,-0.030779199674725533,0.018719501793384552,0.0005637254216708243,0.04416991025209427,0.017195479944348335,0.06237972527742386,0.05710829421877861,0.06110107898712158,-0.019342850893735886,-0.047009244561195374,0.009932661429047585,-0.0433809831738472,-0.07226495444774628,0.03927082195878029,-0.07443313300609589,0.03409327566623688,0.03805311769247055,-0.03830637410283089,-0.033719222992658615,-0.035657625645399094,-0.023789063096046448,0.040135134011507034,0.03330241143703461,0.032955802977085114,-0.031161557883024216,0.022675974294543266,-0.07166789472103119,0.07425721734762192,-0.0484624058008194,-0.05146137252449989,0.03523850440979004,0.0079025998711586,-0.008288118056952953,-0.07016833126544952,0.023537527769804,0.057288073003292084,-0.03289356827735901,-0.05064092203974724,0.06874705851078033,0.05262007936835289,-0.042060066014528275,0.01705680415034294,0.011875037103891373,0.036850154399871826,0.03270675614476204,-0.07353516668081284,0.04644320160150528,0.026538215577602386,-0.07323732227087021,0.02522769197821617,-0.04299268499016762,0.07571882754564285,0.056400809437036514,-0.06372632086277008,-0.0016279169358313084,-0.07461123168468475,-0.06917478144168854,-0.032099515199661255,0.005702977534383535,0.04365004599094391,0.0524623803794384,-0.007853169925510883,-0.00027754262555390596,-0.005881392862647772,-0.016982819885015488,-0.032257080078125,-0.02347536012530327,0.07056483626365662,0.016022050753235817,0.06311840564012527,-0.05416281148791313,0.0164687167853117,-0.018274478614330292,0.03689493238925934,-0.015136715024709702,0.05622730404138565,-0.06028895080089569,-0.02512064203619957,0.02747458778321743,-0.007317208684980869,0.05261773243546486,0.06568117439746857,0.0566534698009491,-0.03790603578090668,-0.01340507622808218,-0.0130849564447999,0.014531843364238739,-0.021628428250551224,-0.00789495650678873,0.037419386208057404,0.06020084023475647,-0.05958525836467743,-0.05334492400288582,0.00927891954779625,-0.03482232987880707,0.05309411138296127,-0.028063606470823288,-0.06945037096738815,-0.06562430411577225,0.031557321548461914,0.06778287887573242,0.02016565203666687,-0.03759966790676117,0.036380961537361145,0.07607335597276688,-0.06407216191291809,-0.01346831675618887,0.014263237826526165,-0.03320912644267082,-0.01813831552863121,-0.07082678377628326,-0.02046755887567997,0.0339212641119957,-0.028737235814332962,0.02508505806326866,0.0630691796541214,-0.0582803450524807,-0.04680067300796509,-0.06202404201030731,0.058276306837797165,0.052128180861473083,0.0641547292470932,0.0760309025645256,0.04291950911283493,-0.005759143270552158,0.023063328117132187,-0.011113420128822327,-0.05255952477455139,-0.0674431324005127,-0.04026802256703377,0.04970215633511543,-0.06053825467824936,-0.06592502444982529,0.007855762727558613,0.010317075997591019,-0.05649353936314583,-0.020251048728823662,-0.05173487588763237,-0.02058669552206993,-0.07606164366006851,-0.0679861530661583,0.03438227251172066,0.0024359391536563635,0.05797935277223587,0.02338993363082409,0.00010303339513484389,-0.06243796646595001,0.05464572831988335,0.04904334619641304,0.0059538912028074265,0.038326554000377655,0.03438342735171318,0.02679320052266121,-0.054960351437330246,-0.06926722079515457,-0.026542561128735542,0.053638022392988205,-0.05812046676874161,-0.008786831051111221,0.012081293389201164,0.03360654413700104,0.016918879002332687,-0.06569728255271912,-0.0006839560810476542,0.016318542882800102,0.012257526628673077,0.05763699859380722,0.010303260758519173,-0.016819698736071587,0.051598772406578064,-0.014934737235307693,-0.03888509422540665,-0.06188520789146423]},"outputBias":{"rows":20,"columns":1,"weights":[-1.061344861984253,-0.7320266366004944,-1.8720223903656006,-0.7566614747047424,-1.3015472888946533,-1.0144999027252197,-2.224653959274292,-0.7219889760017395,-0.8836195468902588,-0.8412826657295227,-2.1666369438171387,-1.9825899600982666,-1.8996145725250244,-0.25706759095191956,-2.0178651809692383,0.2931987941265106,-3.4908759593963623,-1.8727869987487793,-3.4890801906585693,-0.7326744794845581]},"cellActivationMatrix":{"rows":20,"columns":1,"weights":[-3.2679796646561954e-9,-1.1153410833797395e-10,1.019415020942688,2.5734090206008808e-11,-0.0128957973793149,3.540428394899209e-8,-0.9828129410743713,-2.084608319297132e-10,-1.450252279378006e-10,3.699235015530711e-11,-0.9404641389846802,-1.2746524810791016,-1.1359809637069702,-3.476945400238037,0.9368663430213928,-1.7032899856567383,2.21622896194458,-1.012628197669983,-2.206169366836548,-1.0594951305176181e-10]},"cellActivationHidden":{"rows":20,"columns":20,"weights":[0.047224175184965134,0.02228732965886593,0.05644933506846428,0.024102509021759033,0.04682145267724991,-0.04571080207824707,0.06854091584682465,0.05652739480137825,-0.06401755660772324,0.04151584208011627,-0.0480315275490284,0.0015811527846381068,0.037371862679719925,0.042828768491744995,-0.0436219647526741,0.06038225442171097,-0.0307026244699955,0.03997553884983063,0.030434727668762207,-0.04527981951832771,-0.02501169592142105,-0.07502935826778412,0.04703644663095474,-0.05653627961874008,0.010555792599916458,-0.009197047911584377,-0.01316299568861723,-0.057311058044433594,0.036633141338825226,-0.024710144847631454,0.023335108533501625,-0.07156454771757126,0.03147284314036369,0.06229579076170921,-0.05577375367283821,-0.026188086718320847,0.06923747062683105,0.041106805205345154,0.06878116726875305,0.04704883322119713,-0.032694872468709946,0.0344030000269413,0.020170772448182106,0.05675077810883522,-0.024117369204759598,-0.0008559459238313138,-0.05608294531702995,-0.05157077684998512,-0.0481514073908329,-0.015881754457950592,-0.027417024597525597,0.007085972931236029,-0.04442489519715309,-0.06239977106451988,-0.07223972678184509,-0.025086695328354836,-0.022069497033953667,0.07184375077486038,0.012402594089508057,-0.05756781995296478,-0.06399887800216675,0.017103979364037514,0.01722073368728161,-0.04479805752635002,-0.06279430538415909,0.0524151474237442,-0.04354008659720421,0.07270877063274384,0.009180530905723572,0.05981150269508362,-0.07600712776184082,0.03847769647836685,-0.06422809511423111,0.04370784014463425,0.03928215429186821,-0.026507316157221794,0.0226682610809803,-0.01102061290293932,0.041308410465717316,0.02942013554275036,0.0324944332242012,0.02134520187973976,0.017093077301979065,-0.028984365984797478,0.06387006491422653,0.012063107453286648,-0.03315046429634094,0.07056496292352676,0.07316289097070694,0.04662739858031273,0.022013870999217033,-0.01580105721950531,0.06670045852661133,-0.017344176769256592,-0.004084906540811062,0.038884472101926804,0.02849622629582882,0.028543518856167793,-0.011319102719426155,-0.0005726715316995978,-0.02119903638958931,0.028664803132414818,0.0564374141395092,-0.01251990906894207,-0.018027305603027344,-0.0009455354884266853,-0.04581204056739807,-0.06813189387321472,0.05984305962920189,-0.062244247645139694,-0.010172689333558083,-0.03531030938029289,-0.05238027125597,0.026803631335496902,0.048279449343681335,0.07001259177923203,0.0023528733290731907,-0.05112844333052635,0.05487655848264694,-0.03733224794268608,-0.044818878173828125,-0.04750693589448929,0.00778091698884964,-0.050318486988544464,-0.05262524634599686,0.03021138161420822,-0.030782338231801987,-0.019049929454922676,0.06598290801048279,-0.014580166898667812,-0.03800446540117264,0.0423448421061039,0.06640325486660004,0.03456591069698334,-0.03823177516460419,0.0027750530280172825,0.025217145681381226,0.03779204562306404,0.023884737864136696,0.036640021950006485,0.009486937895417213,0.042335107922554016,0.05569300428032875,-0.026361946016550064,0.035690974444150925,-0.07200164347887039,0.0680517703294754,-0.041958101093769073,0.030521132051944733,-0.0023205666802823544,-0.05862049013376236,-0.0565088614821434,-0.009246761910617352,0.0318528413772583,0.06937165558338165,-0.05869097262620926,0.05355002358555794,-0.03734244778752327,0.04064379632472992,-0.013558425940573215,0.022742027416825294,0.05567335709929466,0.023929161950945854,0.07484501600265503,-0.0656580999493599,0.007030999753624201,-0.06419666856527328,-0.015254899859428406,-0.042766012251377106,0.007664084434509277,-0.05589711666107178,-0.019382983446121216,0.07247806340456009,0.04165374115109444,-0.041962798684835434,0.03413551673293114,-0.03360762819647789,-0.07466812431812286,0.07527954876422882,0.02056722901761532,0.048851292580366135,-0.034330688416957855,0.0012093603145331144,0.016942476853728294,-0.04275568202137947,0.026589229702949524,-0.034970153123140335,0.0369974710047245,0.015308257192373276,-0.06793484091758728,0.060743555426597595,0.049187444150447845,-0.008432701230049133,-0.02716151997447014,0.05748271569609642,-0.025619540363550186,0.0728643387556076,0.05439264327287674,-0.0588131919503212,0.04796351492404938,0.023757264018058777,-0.049624402076005936,-0.023596318438649178,0.02108992263674736,-0.04696458950638771,-0.044506754726171494,-0.06940464675426483,-0.02464202046394348,-0.056771088391542435,0.01746019907295704,0.0016317615518346429,0.0055870539508759975,0.05849767476320267,-0.0035760861355811357,0.0017556175589561462,-0.03038061410188675,0.010839109309017658,0.0705229863524437,-0.021435795351862907,-0.011404839344322681,0.034589823335409164,-0.06903880834579468,0.05715181306004524,-0.05721155181527138,0.03343827649950981,-0.04098501428961754,0.004272846970707178,-0.01719840243458748,0.03344579041004181,0.012966263107955456,0.028408275917172432,-0.003469152143225074,-0.06718038022518158,-0.06644333899021149,0.059668973088264465,-0.007230056915432215,0.007230393588542938,-0.0719386413693428,-0.04058707132935524,0.05247680842876434,0.031660668551921844,0.009001919068396091,-0.04645257815718651,-0.03972218558192253,0.05766339227557182,0.0643724650144577,-0.0605478435754776,-0.040504537522792816,-0.032981183379888535,0.0077004036866128445,0.059616945683956146,0.046802643686532974,0.0008908847812563181,-0.05409351736307144,0.003962646704167128,0.04770996794104576,0.006484746467322111,-0.03973012417554855,-0.03395399823784828,0.039960917085409164,-0.012325619347393513,0.07219445705413818,-0.05014370381832123,0.0666903480887413,-0.03163262829184532,-0.014718164689838886,-0.07272633165121078,-0.04186901077628136,-0.009994319640100002,0.04905271902680397,-0.06760206818580627,-0.07092366367578506,0.04851827770471573,0.06351331621408463,-0.0611407607793808,0.004743480123579502,-0.02504662238061428,-0.019341444596648216,-0.013954493217170238,-0.07156073302030563,-0.023991264402866364,0.024206722155213356,0.04320386424660683,0.025894826278090477,0.064387746155262,0.03789782524108887,-0.0044160266406834126,-0.028290273621678352,-0.008943377994000912,0.012485508807003498,-0.021351192146539688,-0.05865400657057762,-0.04221513867378235,0.03852742165327072,-0.0752331018447876,0.00478845601901412,0.0010888631222769618,-0.05949084460735321,0.02787744253873825,0.008686133660376072,-0.07158505171537399,-0.01578959822654724,-0.07560393959283829,0.05532827973365784,0.0374632328748703,0.06681761145591736,-0.025861218571662903,0.0165544506162405,-0.07160484045743942,0.020918428897857666,-0.04614241421222687,-0.06129874289035797,-0.02644944004714489,0.02826549857854843,-0.04151257127523422,0.048390064388513565,0.06576849520206451,0.031887225806713104,-0.060452140867710114,0.029351525008678436,0.03779241815209389,-0.0266762375831604,0.0030674024019390345,0.03346700221300125,-0.07133352756500244,0.05938678979873657,0.05289969965815544,-0.027942126616835594,-0.07000994682312012,-0.008387702517211437,0.010960445739328861,-0.04243847355246544,0.04720642790198326,-0.013136130757629871,-0.042620085179805756,-0.010941503569483757,0.047153156250715256,0.06945549696683884,0.0642087310552597,0.04330382123589516,-0.0471198633313179,0.027395078912377357,-0.054306961596012115,-0.03240254521369934,-0.014242193661630154,0.043887946754693985,-0.02075222134590149,-0.05491052567958832,-0.05057571083307266,-0.01698053628206253,-0.054158881306648254,-0.07437136024236679,-0.00020211655646562576,0.0032293873373419046,-0.011565412394702435,-0.019449707120656967,0.06793990731239319,-0.02261744625866413,0.06737373769283295,0.031431153416633606,-0.04949697107076645,-0.04714455083012581,-0.02261877804994583,0.026730287820100784,0.06928752362728119,-0.01988058164715767,0.06304984539747238,-0.02517842687666416,0.07243648171424866,0.06681001931428909,0.05391523987054825,-0.06151755899190903,-0.062056705355644226,-0.02021033689379692,0.02440979704260826,0.005872752517461777,0.05563746765255928,0.06149636209011078,0.00012050363147864118,0.016572678461670876,0.07023166120052338,0.04869260638952255,0.010240629315376282,0.035730548202991486,-0.06430210918188095,-0.05720224231481552,0.02657320164144039,-0.03922295570373535,-0.07065838575363159,-0.06460459530353546,-0.007753986865282059,-0.0340285487473011,0.04553576186299324,0.05978460609912872,0.005456623155623674,-0.011693242937326431,0.04348143935203552,0.015351543202996254,-0.06486350297927856,-0.04392329603433609]},"cellActivationBias":{"rows":20,"columns":1,"weights":[2.844639523935655e-10,-1.0942152739445987e-10,-0.4574519991874695,2.5556248089975142e-11,0.0028367764316499233,1.6795914659084588e-9,0.6815232038497925,-1.9642436288602738e-10,-3.746652293967756e-11,2.7412967729123494e-11,0.6036111116409302,0.6499183773994446,0.5350325703620911,1.684470534324646,-0.5194241404533386,0.7123615145683289,-1.4342395067214966,0.45649924874305725,1.636917233467102,-1.0163671987362122e-10]}}],"outputConnector":{"rows":1,"columns":20,"weights":[-1.2151289974227097e-9,-1.4003932735651148e-10,0.4038805067539215,3.3252681858053634e-11,-0.002872512908652425,1.7394011564419998e-8,-0.3094407916069031,-2.529897125125302e-10,-8.023873926399361e-11,4.035348097342073e-11,-0.34094494581222534,-0.5763041973114014,-0.4676540195941925,-2.12524676322937,0.40080687403678894,-1.559040904045105,1.1314401626586914,-0.40281596779823303,-0.910463809967041,-1.3144664523512262e-10]},"output":{"rows":1,"columns":1,"weights":[0.6029485464096069]},"inputLookup":null,"inputLookupLength":0,"outputLookup":null,"outputLookupLength":0}