{"type":"LSTMTimeStep","options":{"inputSize":1,"inputRange":0,"hiddenLayers":[20],"outputSize":1,"decayRate":0.999,"smoothEps":1e-8,"regc":0.000001,"clipval":5,"maxPredictionLength":100,"dataFormatter":{"indexTable":{},"characterTable":{},"characters":[],"specialIndexes":[]},"learningRate":0.1},"hiddenLayers":[{"inputMatrix":{"rows":20,"columns":1,"weights":[-0.06274396926164627,-0.08674073964357376,0.0191483236849308,-0.9041191339492798,-0.10033945739269257,0.013438449241220951,-0.016404250636696815,-0.11175520718097687,-0.057632241398096085,0.04022106155753136,-0.051527511328458786,-0.11606976389884949,0.028831858187913895,0.8280239701271057,-0.03844572976231575,-0.03612979128956795,-0.3958664536476135,-0.1066482737660408,-0.0869641974568367,-0.08033720403909683]},"inputHidden":{"rows":20,"columns":20,"weights":[-0.07412620633840561,-0.050254784524440765,0.05659863352775574,0.023251688107848167,0.03163726255297661,-0.026851164177060127,0.0023664056789129972,0.07648299634456635,0.021172786131501198,-0.0631522387266159,-0.07353255152702332,0.047758813947439194,-0.06885292381048203,0.03559542074799538,-0.06982085853815079,0.0216826181858778,-0.05115347355604172,0.037225835025310516,0.0035785187501460314,0.012741596437990665,-0.061085209250450134,0.015425832942128181,-0.002854685066267848,-0.04107694700360298,-0.06606331467628479,-0.05860496684908867,0.05831882730126381,0.05753536894917488,0.06619971990585327,0.07120461016893387,-0.06350208073854446,0.056991707533597946,-0.04000411927700043,-0.013173015788197517,-0.04043789952993393,-0.05665166303515434,0.034421540796756744,-0.005475930869579315,0.021231645718216896,0.06570317596197128,0.05600457265973091,0.01544878352433443,-0.04847198352217674,0.021848805248737335,0.037436921149492264,0.023653743788599968,0.06407805532217026,0.012323271483182907,-0.06127559766173363,-0.02917833812534809,0.020186660811305046,-0.030356884002685547,-0.07054315507411957,0.01577792316675186,0.06213128939270973,0.0434904471039772,0.03878407180309296,0.059494491666555405,0.003561563091352582,0.010028842836618423,-0.02607228420674801,-0.049220021814107895,0.028814245015382767,0.04600868374109268,-0.03219074755907059,-0.04657180234789848,0.06952107697725296,0.07161402702331543,0.058399051427841187,0.03777739033102989,0.021787630394101143,0.0033946845214813948,0.06682076305150986,0.05763086676597595,-0.03527993708848953,0.07499448210000992,-0.04574401304125786,0.017478564754128456,0.014558721333742142,0.07053970545530319,0.032105449587106705,-0.028674539178609848,0.019664529711008072,-0.0010351911187171936,0.05646665394306183,0.04682964086532593,-0.027961840853095055,0.004904712550342083,0.06119348853826523,-0.01849081553518772,-0.018974388018250465,-0.03908995911478996,-0.009314431808888912,-0.048658885061740875,0.03839752823114395,0.01757705956697464,0.07444870471954346,-0.06143072992563248,-0.049775123596191406,-0.03541754186153412,0.002129834843799472,0.002068024594336748,-0.05360638350248337,-0.005905195139348507,0.07094090431928635,0.049772024154663086,0.03732937201857567,-0.048683665692806244,0.007282267790287733,0.010733203031122684,-0.0526263527572155,-0.04663316532969475,0.0035860384814441204,-0.010671927593648434,-0.04815007373690605,-0.015971679240465164,0.009376059286296368,0.03039555437862873,-0.06605996191501617,0.06161873787641525,-0.010597152635455132,-0.06418091058731079,0.0380910187959671,0.042861033231019974,0.06399399787187576,0.004572820384055376,0.06904244422912598,-0.05322353169322014,-0.01672429032623768,0.04102049767971039,0.07037345319986343,-0.04776166006922722,0.047590721398591995,-0.0007158938678912818,0.04143498092889786,0.059363070875406265,0.07267080247402191,0.059826016426086426,0.015688009560108185,0.023837214335799217,-0.07376626878976822,-0.03532423824071884,0.04541158303618431,0.07474721223115921,-0.046056535094976425,-0.008643767796456814,-0.07182317972183228,0.0104866623878479,-0.008310245350003242,0.03335227444767952,-0.009499568492174149,-0.003402173751965165,-0.059549085795879364,0.05979612097144127,0.03654489293694496,-0.030402332544326782,0.00012895601685158908,-0.03340490162372589,0.03057790920138359,-0.038999803364276886,-0.05516601726412773,0.06707220524549484,-0.06242199242115021,0.027122924104332924,-0.053934093564748764,-0.0267268605530262,0.030816517770290375,0.020704852417111397,0.059894781559705734,-0.05697247385978699,0.041645582765340805,0.052912790328264236,-0.03977334499359131,0.026097852736711502,0.03170245140790939,-0.023828953504562378,0.04030025750398636,0.0418449267745018,-0.004252873361110687,-0.04136696830391884,-0.06309782713651657,0.04673081263899803,0.00410148361697793,0.04223952442407608,0.05920955538749695,-0.00830901600420475,0.07675640285015106,0.0640801265835762,-0.06778360158205032,0.07419424504041672,-0.05523226037621498,-0.028335999697446823,0.06208505108952522,0.03508402779698372,-0.07521606236696243,-0.013883489184081554,-0.03867838904261589,0.04045703634619713,0.05961514636874199,-0.04733036831021309,-0.00041402867645956576,-0.07050897181034088,-0.04496648535132408,0.02277417480945587,-0.01916458085179329,0.02563110925257206,0.05589473992586136,0.04981085658073425,-0.019959643483161926,-0.00495182303711772,-0.060049835592508316,-0.05659821629524231,-0.04714100807905197,-0.02590901590883732,0.01207686122506857,-0.02330656163394451,0.007860451005399227,0.07700830698013306,0.006213529501110315,0.010485858656466007,0.0020520661491900682,0.012161633931100368,-0.04125375300645828,0.02466702274978161,0.02285744436085224,0.07060439884662628,-0.015764782205224037,0.0015248253475874662,0.07568323612213135,0.013557003811001778,0.002169534331187606,-0.05394299328327179,0.03189023584127426,0.06738907098770142,-0.0774177685379982,0.013824958354234695,-0.003899576375260949,-0.0013194885104894638,-0.04766106233000755,-0.030786285176873207,0.001124710077419877,0.02969491295516491,0.04519861564040184,-0.002143645193427801,-0.0010518761118873954,0.04960530251264572,0.017033450305461884,-0.047171954065561295,0.02240784838795662,0.010089478455483913,-0.056905314326286316,-0.044978976249694824,0.0243843924254179,-0.03949182853102684,-0.026715539395809174,0.05714821442961693,-0.016338353976607323,0.05849481001496315,-0.06404586881399155,0.07457081973552704,-0.04165668785572052,-0.03232818469405174,-0.0005157115519978106,0.054252319037914276,-0.004401386249810457,0.07048699259757996,-0.042157627642154694,-0.05566820129752159,-0.07446155697107315,-0.006274680607020855,0.06497664004564285,-0.02784157171845436,-0.07017163187265396,-0.07212843000888824,0.05449298396706581,0.0717216208577156,-0.029548296704888344,0.0357186459004879,-0.06898479163646698,-0.009135015308856964,-0.07680307328701019,0.012603318318724632,0.02787926234304905,0.06093432754278183,-0.0548834353685379,0.031019948422908783,-0.0474269837141037,-0.03398648649454117,-0.061625901609659195,0.05000517889857292,-0.05164435878396034,0.06537534296512604,0.006247381214052439,0.021054713055491447,-0.0671464055776596,-0.045972198247909546,0.04922434687614441,0.0031466553919017315,-0.030724801123142242,-0.07048754394054413,-0.011566417291760445,0.023904409259557724,-0.04973270371556282,0.004652135539799929,-0.002049807459115982,-0.0004609445168171078,-0.06100020930171013,0.010369475930929184,-0.014074050821363926,0.04960045590996742,0.04700731113553047,0.03513924404978752,-0.009887659922242165,-0.03262712061405182,0.053492382168769836,-0.004207394551485777,-0.073963463306427,0.0687108114361763,0.06453990936279297,0.052427738904953,-0.04822434112429619,-0.01588176190853119,0.009067831560969353,0.005161085166037083,0.025120597332715988,-0.010131338611245155,0.05056207254528999,0.02245059423148632,-0.035553425550460815,0.06902801245450974,-0.04316661134362221,-0.06659852713346481,0.011035795323550701,-0.04497811198234558,0.01894240453839302,0.04271925240755081,-0.07034693658351898,0.04321461170911789,-0.012023652903735638,0.03421395272016525,-0.03222266584634781,-0.02495647966861725,0.06447583436965942,-0.04996851459145546,-0.06014728546142578,-0.042931102216243744,0.06546170264482498,0.05186273157596588,-0.012222995981574059,0.0654509961605072,0.04303780570626259,0.06832322478294373,0.024161554872989655,-0.010480874218046665,-0.029483692720532417,0.07283297181129456,0.02656066231429577,-0.03588355332612991,0.07604187726974487,-0.018662400543689728,0.042459651827812195,-0.06999321281909943,-0.014513958245515823,-0.06375555694103241,0.016565991565585136,-0.01340394839644432,0.04275505617260933,0.04575297236442566,0.06759652495384216,-0.05946126952767372,-0.02190183475613594,0.015029323287308216,0.05428766459226608,0.06328150629997253,0.019756795838475227,0.01589813269674778,-0.02258957363665104,0.0009099544258788228,-0.025921866297721863,-0.044247329235076904,0.0011677378788590431,0.05373711138963699,-0.014903637580573559,0.012243987061083317,0.0019398157019168139,-0.07679998129606247,0.01523733139038086,0.04025089740753174,-0.07685745507478714,0.03924817964434624,-0.0659409686923027,-0.0010677281534299254,0.056284498423337936,-0.07171130180358887,-0.05544139817357063,0.01033033337444067,-0.0040353345684707165,0.008902588859200478,0.04311034083366394,0.030564546585083008]},"inputBias":{"rows":20,"columns":1,"weights":[-0.11465783417224884,-0.18531127274036407,-0.11383230239152908,-0.8693733811378479,-0.19426536560058594,-0.3398821949958801,-0.2465970814228058,-0.30659374594688416,-0.21653200685977936,-0.17463533580303192,-0.10726597905158997,-0.38509321212768555,-0.18234747648239136,-1.2663071155548096,-0.24739056825637817,-0.24082118272781372,-1.0872654914855957,-0.17026257514953613,-0.15317825973033905,-0.35697436332702637]},"forgetMatrix":{"rows":20,"columns":1,"weights":[-0.06699490547180176,0.03430003300309181,-0.012395290657877922,0.05903233587741852,-0.05769455432891846,0.00755073269829154,-0.00004113579052500427,0.008977854624390602,0.01666371524333954,-0.052371054887771606,0.048850782215595245,0.06455735862255096,0.06862735003232956,0.003976748790591955,0.00946172047406435,-0.02965894341468811,-0.005834960378706455,-0.06926502287387848,-0.04366994649171829,-0.028704414144158363]},"forgetHidden":{"rows":20,"columns":20,"weights":[-0.027205443009734154,0.008489811792969704,0.03862563520669937,0.007607754319906235,-0.05131421238183975,-0.023670630529522896,-0.021414676681160927,-0.007934658788144588,0.04025544971227646,0.04081717133522034,-0.04431486129760742,0.06173347681760788,0.01242754328995943,-0.06297268718481064,0.06370706856250763,0.02236301265656948,0.07332229614257812,-0.01237195823341608,0.06594135612249374,-0.041845399886369705,-0.02583056129515171,0.0139290327206254,0.07104077190160751,0.05334439128637314,-0.06201343238353729,-0.071021169424057,0.012864922173321247,-0.04258539155125618,0.0095905102789402,0.058966610580682755,0.006684302818030119,-0.020138554275035858,-0.03725675866007805,-0.07058323174715042,0.04861488193273544,0.012677770107984543,0.05379616469144821,-0.03300181031227112,0.026116354390978813,0.04513474181294441,-0.0014702902408316731,-0.07336541265249252,-0.054337646812200546,-0.06459435820579529,0.03192247077822685,0.0007544321706518531,0.06318850070238113,0.06038707122206688,-0.009868370369076729,0.061056509613990784,0.022268062457442284,-0.05057051405310631,-0.06841517239809036,-0.05460256338119507,0.04791838303208351,-0.02155097760260105,0.04057751223444939,0.06260493397712708,0.012322630733251572,-0.007881756871938705,0.019007183611392975,-0.02416299842298031,0.07763594388961792,0.06713949143886566,0.02632926218211651,-0.01627584546804428,-0.07315550744533539,0.05765626206994057,-0.04508119449019432,-0.017636753618717194,0.03340689092874527,-0.019510924816131592,-0.036097850650548935,0.041137270629405975,0.05461691692471504,0.06660287082195282,0.02020093984901905,-0.07364249974489212,0.05161257088184357,0.03741472586989403,0.047454167157411575,0.07077305018901825,0.01563892886042595,0.054311249405145645,0.0473543182015419,0.018628137186169624,0.0503326840698719,0.01363806426525116,-0.045308202505111694,0.05375237017869949,-0.039155829697847366,-0.006166337989270687,0.054693784564733505,-0.014759965240955353,0.008118844591081142,-0.014968214556574821,-0.03894067928195,0.037417054176330566,0.04848044738173485,0.019803358241915703,0.016039201989769936,-0.015032855793833733,-0.0033042514696717262,-0.0021482352167367935,-0.053087543696165085,-0.020142467692494392,0.061029717326164246,0.026021212339401245,-0.028350258246064186,-0.06621278822422028,0.03462212160229683,0.07709474116563797,-0.00021678334451280534,-0.01754259131848812,-0.04164819419384003,0.06959424912929535,-0.004615881480276585,-0.007065124344080687,-0.04678890481591225,-0.042415522038936615,-0.07118967920541763,0.006660036277025938,0.04803313687443733,-0.0011787029216066003,0.04095657914876938,-0.038049787282943726,0.01872321031987667,-0.0366523377597332,0.04604843631386757,0.02349262125790119,0.01755347102880478,-0.007518495433032513,-0.010904615744948387,0.008886895142495632,-0.043233249336481094,-0.010093352757394314,0.005297801457345486,0.04942099004983902,0.058731935918331146,0.03499844670295715,0.06680542975664139,0.01505549531430006,-0.013074127025902271,0.06567113846540451,-0.04484213888645172,0.029379645362496376,-0.03016657941043377,0.04331854730844498,0.027528440579771996,-0.06600651144981384,0.046423424035310745,0.051630377769470215,-0.0098792789503932,0.0656936839222908,0.04424597695469856,0.07419582456350327,0.041927143931388855,0.07210689783096313,-0.0436539500951767,-0.014116986654698849,0.042448338121175766,0.062388963997364044,-0.027848120778799057,-0.013772537931799889,-0.04164241626858711,-0.004918994382023811,-0.022754989564418793,0.009653028100728989,0.06339843571186066,-0.0315169058740139,-0.0382530577480793,-0.026109209284186363,0.013952808454632759,0.01757277362048626,0.04224614053964615,0.017174987122416496,0.022704917937517166,0.02761315554380417,-0.03613094985485077,0.02604326419532299,0.026753244921565056,0.03342661261558533,-0.013522320427000523,-0.07339882850646973,-0.011166931129992008,-0.05692916736006737,0.0373825766146183,0.04130779951810837,-0.0006125071085989475,-0.031690072268247604,-0.07737937569618225,-0.05720546841621399,0.04730488732457161,0.03989284858107567,0.02549290657043457,0.030009889975190163,0.04773415997624397,-0.0762692242860794,-0.005305484402924776,0.00004446031016414054,0.031646642833948135,-0.03315421938896179,-0.02263696677982807,-0.047156836837530136,-0.015138254500925541,0.0367056205868721,-0.07028891146183014,0.06350284814834595,0.039693109691143036,0.03673384338617325,-0.06602659821510315,-0.004788572434335947,-0.02047291211783886,0.0032940981909632683,-0.013085675425827503,0.03427384793758392,0.061207741498947144,0.05606658011674881,-0.026877669617533684,-0.06256083399057388,-0.0038596608210355043,-0.07530820369720459,-0.000054959626140771434,0.04912283271551132,-0.07112488895654678,-0.00899515114724636,-0.026900941506028175,-0.04353035241365433,0.009878410957753658,0.0010810884414240718,-0.06377723067998886,0.055726513266563416,-0.0772351399064064,0.055817946791648865,0.026481324806809425,0.059742677956819534,-0.062494486570358276,0.04391789436340332,-0.05803946033120155,-0.023568134754896164,-0.024965131655335426,-0.04216530919075012,0.048945602029561996,0.04789946600794792,0.06249995157122612,-0.04548357054591179,-0.04003378003835678,-0.026000414043664932,-0.06667091697454453,-0.013029990717768669,0.07226352393627167,-0.07272122800350189,0.009507410228252411,-0.0044479528442025185,-0.006453980691730976,0.02692044898867607,0.024421904236078262,-0.04633926972746849,0.042810287326574326,0.020156657323241234,0.05692233890295029,-0.04276055470108986,0.006984208710491657,-0.001723604160360992,-0.03195418789982796,0.04219624400138855,0.07482921332120895,0.034265629947185516,-0.015170781873166561,-0.013872276060283184,0.0026232709642499685,-0.07192268967628479,0.050166402012109756,-0.003064130898565054,-0.0571443997323513,-0.05209057405591011,0.037976883351802826,-0.021852528676390648,-0.07154446095228195,-0.017816508188843727,0.038214292377233505,0.04436159506440163,0.07736022770404816,0.00032750057289376855,-0.07684352993965149,-0.0032748605590313673,-0.03222513571381569,0.014116151258349419,-0.03793056681752205,-0.026716060936450958,-0.03861551359295845,0.07169055938720703,-0.043341878801584244,0.010258647613227367,-0.059403277933597565,0.038937103003263474,0.009525143541395664,-0.062298733741045,-0.04418295994400978,-0.06487317383289337,0.06014431267976761,0.036994513124227524,-0.044435687363147736,-0.07208850234746933,-0.01271094474941492,0.029325732961297035,-0.04372240602970123,-0.00930734071880579,0.03155657649040222,0.03548843786120415,0.03348453715443611,-0.0773322656750679,0.06245723366737366,0.07002387940883636,0.06067672744393349,0.011338888667523861,-0.056642524898052216,-0.04654157906770706,0.0225998368114233,0.017535516992211342,0.03443887457251549,0.038905069231987,-0.02763381227850914,0.039855435490608215,-0.01843741536140442,0.054144106805324554,-0.06321987509727478,-0.04984807223081589,-0.05423137545585632,0.0028339815326035023,-0.023111922666430473,0.011405732482671738,0.02042360045015812,-0.004742384422570467,-0.0419454351067543,0.057740140706300735,0.011599826626479626,0.055887576192617416,-0.04641558974981308,-0.036748867481946945,-0.07760506868362427,-0.029059220105409622,-0.0016268027247861028,-0.05175788328051567,0.009275159798562527,0.009283501654863358,0.05148696154356003,-0.017496425658464432,-0.06632736325263977,-0.04986416548490524,-0.07732094079256058,0.019419413059949875,-0.03014904074370861,-0.05776198208332062,-0.07706505805253983,0.04733164608478546,-0.03436868265271187,0.0328153558075428,0.022902730852365494,-0.02498873881995678,0.030856166034936905,0.0568000003695488,-0.039357367902994156,0.013955744914710522,0.007527985610067844,0.07048294693231583,-0.026094088330864906,-0.015752550214529037,0.0746479257941246,0.019242573529481888,-0.0695275142788887,-0.07696949690580368,-0.005489576607942581,0.036057692021131516,-0.05794483795762062,-0.06795345991849899,-0.045117590576410294,0.04127176105976105,-0.020186781883239746,0.06390175223350525,-0.01853758841753006,0.0071198237128555775,-0.03682592511177063,-0.07489994913339615,0.05593401938676834,0.05871865153312683,0.0161905437707901,-0.011414466425776482,0.007407504133880138,-0.05714970827102661,-0.06602241843938828,0.009976021945476532,-0.01559034176170826,-0.00411861389875412,-0.0370117612183094,0.054465100169181824,0.071244977414608,0.0160446148365736,-0.05494697019457817,-0.06052049994468689]},"forgetBias":{"rows":20,"columns":1,"weights":[0,0,0,0,0,0,0,0,0,0,0,0,0,0,0,0,0,0,0,0]},"outputMatrix":{"rows":20,"columns":1,"weights":[0.03208494186401367,-0.024340244010090828,-0.09797444939613342,-0.8316341042518616,-0.10315150022506714,-0.07429259270429611,-0.09848306328058243,-0.0822160392999649,-0.06311170756816864,-0.08887330442667007,-0.01906810700893402,-0.08912833780050278,-0.050181448459625244,0.844619631767273,-0.10887213796377182,-0.027195626869797707,-0.3290814757347107,-0.10699567198753357,-0.09198696166276932,-0.050971537828445435]},"outputHidden":{"rows":20,"columns":20,"weights":[0.021524595096707344,-0.010912636294960976,0.041131019592285156,0.021249456331133842,0.05333064869046211,0.050481442362070084,-0.07622961699962616,0.03707210719585419,-0.04241784289479256,-0.06578968465328217,0.04582669958472252,0.05019216611981392,-0.00038929941365495324,-0.04579697176814079,0.007510404568165541,0.053685326129198074,0.028913481160998344,-0.002372940070927143,0.058849286288022995,-0.06480661779642105,-0.043855730444192886,-0.04554987698793411,0.05647526681423187,0.017048409208655357,0.03411654010415077,-0.0400715209543705,0.04263805225491524,-0.03857732564210892,0.009394792839884758,-0.07792185246944427,-0.016194196417927742,0.019058240577578545,-0.05794401466846466,0.02566419541835785,-0.06082338094711304,0.020312052220106125,0.026843657717108727,-0.07450739294290543,0.0667698085308075,0.018847042694687843,0.05813766270875931,0.018890097737312317,-0.056447725743055344,0.033206965774297714,-0.00898717436939478,0.04829123616218567,-0.038577962666749954,-0.061119988560676575,-0.019053803756833076,-0.00637962156906724,-0.020219482481479645,0.015018836595118046,0.06143666058778763,-0.03486086428165436,-0.07577741146087646,-0.03787297382950783,0.03590007126331329,0.025251982733607292,0.0688711479306221,-0.06991217285394669,-0.04568913206458092,-0.02523905597627163,0.05039583891630173,0.0728510394692421,0.029841551557183266,-0.07660769671201706,0.06790334731340408,-0.05218099430203438,0.019078172743320465,-0.014039375819265842,0.026149563491344452,-0.055561088025569916,0.02030288055539131,-0.019077347591519356,0.05001586675643921,0.07643691450357437,-0.06104034185409546,0.041589584201574326,-0.05144156888127327,-0.006985028274357319,-0.03776917606592178,0.07664909213781357,0.06933179497718811,0.00878622941672802,0.05782556161284447,-0.0032920993398875,0.0017650588415563107,-0.06150788813829422,-0.04246293380856514,-0.013065827079117298,-0.05028563365340233,-0.021748056635260582,0.05682184174656868,-0.051484815776348114,0.06082053482532501,-0.03480054810643196,-0.03936455771327019,-0.04586745798587799,-0.009468463249504566,0.03133369982242584,0.00993769709020853,0.03342607617378235,0.051949743181467056,0.04541175439953804,0.0766143947839737,-0.057227931916713715,0.042614009231328964,-0.027947526425123215,0.07766113430261612,-0.048035867512226105,0.007627690210938454,-0.012807008810341358,0.058495186269283295,0.022173112258315086,-0.007519545033574104,0.032216716557741165,-0.06657472252845764,-0.0043517593294382095,0.049572836607694626,0.005602121818810701,-0.05228348448872566,0.027660638093948364,0.028203671798110008,0.004811258986592293,0.03110458143055439,-0.06158144399523735,-0.023586058989167213,-0.02956724353134632,0.07215005904436111,0.036022502928972244,-0.0029377960599958897,-0.04167240113019943,-0.013366203755140305,-0.025431953370571136,0.041713062673807144,0.042788539081811905,0.053230226039886475,0.07055648416280746,-0.002875083824619651,-0.046143971383571625,-0.06396811455488205,0.04228956997394562,-0.07197710871696472,0.03346320986747742,0.06678421050310135,0.030159663408994675,-0.03849034383893013,-0.012251048348844051,0.07273560017347336,-0.02673245221376419,0.012793066911399364,-0.01394212432205677,0.0022291166242212057,-0.031748346984386444,0.005793584510684013,0.06859254837036133,-0.05248778313398361,-0.021898023784160614,0.023018307983875275,0.003177900332957506,0.052282705903053284,-0.049809932708740234,0.06395852565765381,-0.02380972169339657,0.03894053399562836,-0.07051292061805725,-0.02489531971514225,-0.014137129299342632,0.025972699746489525,-0.0017140114214271307,-0.035348668694496155,0.04940786212682724,0.03473905846476555,-0.03549233451485634,0.06563998758792877,0.059183742851018906,0.0667722076177597,0.07353678345680237,0.0013112389715388417,0.014133572578430176,-0.028181012719869614,0.04502859711647034,-0.03276393190026283,-0.001992946257814765,-0.023268962278962135,-0.024757571518421173,0.06599932909011841,-0.06128128618001938,-0.03269282728433609,0.006348034366965294,-0.01314484141767025,-0.028546838089823723,0.0589824877679348,0.05842214077711105,-0.05321159213781357,-0.06729593127965927,0.07344205677509308,-0.02628021501004696,0.04422110691666603,0.04188074916601181,0.06332552433013916,0.069172203540802,-0.07755327969789505,0.04853217676281929,0.00654209591448307,-0.061688195914030075,0.026245901361107826,-0.03778043016791344,-0.004312247969210148,0.040819376707077026,0.03097589872777462,0.03484342247247696,-0.06733464449644089,0.0055866725742816925,-0.03362971544265747,-0.021693019196391106,-0.07032481580972672,0.07030700892210007,-0.02495979145169258,-0.02056637778878212,0.07055399566888809,0.022421468049287796,-0.07082046568393707,0.037202246487140656,-0.010369755327701569,0.054772283881902695,0.06427357345819473,0.045364994555711746,0.00020057344227097929,-0.02388570085167885,-0.0731101706624031,-0.053764939308166504,-0.05840320885181427,0.02200230024755001,-0.02149081788957119,-0.003468248527497053,-0.02853713184595108,-0.06862936913967133,-0.014009881764650345,0.01594124175608158,-0.028015200048685074,-0.0247342586517334,0.07437517493963242,-0.025362374261021614,-0.024764008820056915,-0.03168113902211189,0.0549643449485302,0.04316394031047821,0.06680794805288315,-0.040128666907548904,-0.07492695748806,0.030126696452498436,-0.037016671150922775,-0.06374765187501907,0.05283516272902489,-0.019141454249620438,-0.006069430150091648,-0.02926471456885338,0.001132848090492189,0.061971183866262436,-0.07449420541524887,0.0011078184470534325,0.077158123254776,-0.07307536900043488,-0.06030312180519104,-0.04221013933420181,0.01804369129240513,0.0164174921810627,0.023976465687155724,0.05879606306552887,-0.07794442027807236,-0.05586656928062439,-0.0072094751521945,0.023459352552890778,0.03283490613102913,0.005514068529009819,0.07181370258331299,0.03367748484015465,0.05404847487807274,-0.011854464188218117,-0.04224333539605141,0.03743243217468262,0.027238504961133003,-0.02953149378299713,-0.03289880231022835,0.0018372279591858387,0.0014491528272628784,-0.03410730138421059,-0.07001172006130219,-0.07390245795249939,0.013385852798819542,0.028969313949346542,-0.035603202879428864,-0.032819610089063644,0.025881528854370117,0.04182804375886917,0.05272749811410904,0.0612967312335968,-0.03248390182852745,0.037162795662879944,-0.004594083409756422,-0.06280164420604706,0.06778427958488464,-0.05911579728126526,-0.023084092885255814,-0.06468743085861206,-0.07500512897968292,-0.027382731437683105,0.060791682451963425,0.02435983344912529,0.029736272990703583,-0.005683918483555317,-0.01870597153902054,-0.04944120720028877,-0.0074043902568519115,-0.024247106164693832,-0.0008984992164187133,0.06666570156812668,-0.06311216950416565,-0.02512374520301819,-0.04950650781393051,-0.007126224227249622,-0.052186839282512665,0.04252775013446808,-0.021809136494994164,-0.04691386595368385,-0.017461545765399933,0.008197668939828873,-0.04391001537442207,-0.05487551540136337,-0.015016015619039536,-0.07161245495080948,0.028425108641386032,0.013893598690629005,0.07445941865444183,0.029769020155072212,0.021959735080599785,0.0616970993578434,0.026624975726008415,-0.031491391360759735,0.011667019687592983,-0.040986403822898865,0.05069887638092041,0.06883206963539124,0.004865395370870829,-0.056662749499082565,-0.004231465980410576,0.03577017784118652,-0.0017295945435762405,-0.007133364677429199,0.03474421799182892,-0.07162455469369888,-0.05031218379735947,0.0013876819284632802,0.05567128211259842,0.07223156094551086,-0.045353662222623825,0.003015301190316677,-0.022723916918039322,-0.022767886519432068,0.050940487533807755,-0.042526889592409134,0.0067727589048445225,0.011942129582166672,0.07569710165262222,-0.034346774220466614,-0.052418824285268784,0.0595511794090271,0.021949024870991707,-0.07127287238836288,0.06439533084630966,-0.02579384110867977,-0.029675429686903954,-0.015613370575010777,-0.007874071598052979,0.07744677364826202,0.03676360845565796,-0.07084480673074722,0.06577799469232559,-0.05021124333143234,0.06021421030163765,-0.06597886979579926,-0.011122439987957478,-0.004508930258452892,0.053674422204494476,0.06580017507076263,0.07244125753641129,-0.06075941026210785,-0.06372960656881332,0.059447597712278366,0.05995335429906845,-0.07379624247550964,0.06346717476844788,0.055838894098997116,-0.06597594916820526,-0.06125286966562271,-0.03060860186815262,0.06847277283668518,-0.07407830655574799,-0.02032109908759594]},"outputBias":{"rows":20,"columns":1,"weights":[-0.11410287767648697,-0.1851581484079361,-0.11813238263130188,-0.8210107088088989,-0.19630691409111023,-0.3446691036224365,-0.24986059963703156,-0.3076063096523285,-0.2180510014295578,-0.17709989845752716,-0.10751818120479584,-0.38656407594680786,-0.18465469777584076,-1.16018545627594,-0.2510658800601959,-0.24224792420864105,-1.022112250328064,-0.17107073962688446,-0.15410509705543518,-0.3597554564476013]},"cellActivationMatrix":{"rows":20,"columns":1,"weights":[3.166618443156688e-12,-7.86063020230543e-11,1.2712094831640597e-12,-1.3924572467803955,-7.477341412709393e-9,-0.000012135604265495203,1.2844689933899645e-7,-0.000010587513315840624,-1.117092995883695e-8,-1.5309640707950045e-11,-7.238164061174057e-13,0.00018966809147968888,1.3852905801636783e-11,-1.3459416627883911,-2.413600270756433e-7,-2.790391739893039e-8,-1.172321081161499,3.1461855343195566e-10,2.7798204710327568e-11,0.00004259280831320211]},"cellActivationHidden":{"rows":20,"columns":20,"weights":[-0.034325744956731796,-0.0738007202744484,0.07345897704362869,0.051851823925971985,0.0712006613612175,0.036528266966342926,0.028863420709967613,0.020584186539053917,0.07231268286705017,-0.07203327119350433,-0.013825987465679646,0.03651909902691841,-0.07607430219650269,-0.034139394760131836,-0.01537781860679388,-0.022993847727775574,-0.05694390460848808,-0.014701556414365768,0.043313898146152496,0.04515357315540314,0.03217018395662308,-0.07497228682041168,0.07706009596586227,0.0036835242062807083,0.05261746048927307,-0.03416929766535759,0.052023012191057205,-0.05573831871151924,0.022569235414266586,0.02859600819647312,0.02229570969939232,-0.002301139058545232,0.051736027002334595,0.04998679459095001,0.026172591373324394,0.005461661145091057,-0.004816064611077309,0.040535736829042435,0.028329698368906975,-0.021120088174939156,0.013089720159769058,-0.01744009554386139,0.0740070641040802,-0.02234180085361004,-0.010774306952953339,-0.015170400962233543,-0.039648909121751785,0.05617861822247505,0.02795735001564026,0.051057688891887665,0.06080178916454315,-0.011858043260872364,0.03281865268945694,0.07517048716545105,-0.048940736800432205,-0.06524381786584854,-0.05792436748743057,0.007443680893629789,-0.0365837998688221,0.06968513131141663,0.07660464942455292,0.03186000883579254,0.02346026711165905,0.01254911720752716,0.02173031121492386,-0.05715778097510338,-0.019575683400034904,0.02496667206287384,-0.04145212471485138,0.026558617129921913,-0.041390612721443176,-0.012562834657728672,0.059988249093294144,-0.014609130099415779,0.00980465579777956,-0.041592370718717575,0.04233891889452934,-0.0677616074681282,0.0021301291417330503,0.020197557285428047,0.076012022793293,0.04436374083161354,0.030246900394558907,-0.0035384984221309423,0.05122365429997444,0.0443364642560482,0.06033593416213989,0.06705369055271149,-0.02820453979074955,0.04555312544107437,-0.07250052690505981,0.060148935765028,0.030743997544050217,0.025764424353837967,0.03477757051587105,0.024358300492167473,0.07187893241643906,-0.06678147614002228,0.038308948278427124,0.06224668771028519,0.05304282531142235,-0.041622694581747055,-0.006536910310387611,-0.042408768087625504,-0.011166108772158623,-0.0378691591322422,0.06236347556114197,-0.05524977669119835,0.05856751278042793,0.010943264700472355,0.052344270050525665,-0.01901550590991974,-0.017007969319820404,0.031209314242005348,-0.027337655425071716,-0.032014861702919006,-0.050959691405296326,-0.0468008816242218,-0.06513860076665878,0.050879012793302536,0.06402534246444702,0.05928900092840195,0.016240039840340614,-0.03044433332979679,0.054954931139945984,0.07588908821344376,-0.06329450011253357,0.03077705018222332,0.05736958235502243,0.05095914006233215,-0.06944596022367477,0.06543523818254471,0.001663522096350789,0.007318885996937752,-0.05836387723684311,0.04009869322180748,0.07083038985729218,-0.051500387489795685,0.0513625293970108,0.06567786633968353,0.030473537743091583,-0.026518307626247406,0.014982997439801693,-0.057269688695669174,0.06262923777103424,0.06988021731376648,-0.0382678396999836,0.006420158315449953,0.044655974954366684,0.04378217086195946,0.023474624380469322,0.07626424729824066,-0.006445842329412699,0.005747927352786064,-0.000905934430193156,0.03013240173459053,0.0031184242106974125,-0.03609226644039154,-0.027134006842970848,0.011246668174862862,-0.045518189668655396,0.018673773854970932,-0.07679029554128647,-0.02518562413752079,-0.07372638583183289,-0.024467557668685913,0.07070603221654892,0.010670267976820469,-0.003195913042873144,-0.011401034891605377,0.06862794607877731,0.008088325150310993,-0.016579171642661095,0.023186683654785156,-0.04327726736664772,0.0618719644844532,0.046625662595033646,-0.05963323637843132,-0.0034732811618596315,0.010431140661239624,-0.06056161969900131,0.04069477692246437,-0.016369370743632317,-0.06665293127298355,0.07244622707366943,0.010163892060518265,0.06713800877332687,-0.021581528708338737,-0.06654141843318939,-0.06382422149181366,-0.03200367093086243,-0.04840322583913803,0.055655814707279205,0.0023785748053342104,-0.025584883987903595,0.058302752673625946,0.028136007487773895,0.010579118505120277,0.06564280390739441,0.0010260080453008413,0.008969145826995373,-0.04331600293517113,-0.0743449330329895,0.04338867589831352,-0.06542333215475082,-0.043117355555295944,-0.05433978885412216,-0.025506125763058662,0.033203452825546265,0.06442084908485413,-0.016972960904240608,-0.024581940844655037,-0.005764930043369532,-0.07434414327144623,-0.06531914323568344,-0.01688697375357151,0.06656855344772339,-0.06170708313584328,-0.026158737018704414,0.053665127605199814,0.04819602519273758,-0.025204287841916084,0.028051266446709633,0.01133757084608078,0.07178640365600586,-0.03996405750513077,0.040917567908763885,0.04194898530840874,-0.015013951808214188,-0.03471306711435318,0.05749465525150299,-0.017664983868598938,0.0311955027282238,0.001216802396811545,-0.05399012193083763,-0.002273417776450515,-0.0421045683324337,0.022326573729515076,-0.03641393408179283,-0.052858781069517136,-0.05649997666478157,-0.021551193669438362,-0.006232338957488537,0.04113427922129631,-0.05193823203444481,0.046200238168239594,0.005609928164631128,-0.053672995418310165,0.007714550010859966,0.029107822105288506,0.0010735897812992334,-0.0003991572593804449,-0.03913317248225212,0.025642886757850647,0.0597522109746933,-0.017023544758558273,0.05891694501042366,0.07536868751049042,0.018875615671277046,0.03766098991036415,-0.02216125652194023,-0.042646635323762894,0.0697898119688034,-0.07200537621974945,0.07339941710233688,0.023282991722226143,0.027594298124313354,0.05614839121699333,0.0350956954061985,-0.048067592084407806,-0.01211403775960207,-0.06926271319389343,-0.07233607769012451,0.027718251571059227,0.04972647503018379,0.04274457320570946,0.014321588911116123,-0.062425266951322556,-0.04846169799566269,-0.000002993566795339575,-0.04434243589639664,0.02530541829764843,-0.04573073610663414,0.044112712144851685,-0.06123854219913483,-0.021151866763830185,-0.002395806834101677,0.027141906321048737,-0.05404510349035263,-0.03026520647108555,0.04908807948231697,-0.01783224754035473,-0.0358111709356308,0.06069155037403107,-0.024356340989470482,-0.05044115334749222,0.04770563542842865,-0.013472492806613445,-0.07520326226949692,-0.02852846309542656,0.058917559683322906,0.024783296510577202,-0.02486293949186802,-0.0690256655216217,-0.05788465216755867,-0.05761207640171051,0.07715544104576111,-0.06376876682043076,-0.0636637806892395,-0.07160729169845581,-0.021269310265779495,-0.025641342625021935,-0.03348775953054428,0.040776267647743225,-0.010328375734388828,-0.0181777011603117,-0.07385557144880295,-0.03834698349237442,0.0499199703335762,-0.04572237282991409,-0.07378235459327698,0.06585252285003662,0.03132278844714165,-0.05851798504590988,-0.0603211335837841,-0.004110818728804588,-0.07469064742326736,-0.018132556229829788,-0.0544944703578949,0.023107677698135376,-0.018404969945549965,0.05724061280488968,-0.06731819361448288,0.0348944365978241,-0.02234341949224472,-0.016269085928797722,0.017978610470891,-0.028099047020077705,0.010384170338511467,-0.026109185069799423,0.05217345803976059,-0.0681598111987114,0.00845803041011095,0.004064343404024839,0.029331089928746223,-0.01662999950349331,0.03898371383547783,-0.009391631931066513,0.023044375702738762,-0.0019173037726432085,-0.055543746799230576,0.03357729688286781,0.045826125890016556,-0.038930296897888184,-0.04661605507135391,0.045800305902957916,0.04089727625250816,-0.03456936031579971,0.014545081183314323,-0.06520090252161026,0.023091360926628113,0.037000689655542374,0.0326097309589386,0.034538231790065765,0.0021139399614185095,0.0038506006821990013,0.06000002101063728,0.002084344392642379,0.07794422656297684,0.017207833006978035,0.03382383659482002,-0.014087299816310406,0.026211954653263092,-0.019592244178056717,-0.06936032325029373,-0.035576220601797104,0.03531910106539726,0.0165493693202734,0.06701802462339401,0.022366782650351524,0.0017663835315033793,0.015380937606096268,0.002640599152073264,0.06687718629837036,0.010858454741537571,-0.038182973861694336,-0.057035498321056366,0.05416488274931908,0.0764237642288208,0.026464752852916718,-0.043792568147182465,-0.057573407888412476,-0.057433728128671646,0.04045325517654419,0.07270674407482147,0.07712958753108978,0.017163291573524475,-0.027803588658571243,-0.012332772836089134,-0.05465228855609894]},"cellActivationBias":{"rows":20,"columns":1,"weights":[-7.656339619374272e-14,6.249855234036206e-12,-3.299396617462841e-14,0.6149749159812927,6.611816094626022e-10,0.0000025955675937439082,-1.706310825966284e-8,0.0000019004733076144475,1.1885450401649678e-9,1.0914175379433955e-12,1.4416017953488257e-14,-0.00004495220127864741,-1.071928787052534e-12,0.7687998414039612,3.216663557736865e-8,3.5607452542052442e-9,0.5733896493911743,-2.168992416229365e-11,-1.5348522149419286e-12,-0.000009470251825405285]}}],"outputConnector":{"rows":1,"columns":20,"weights":[8.288088639875346e-14,-1.1693459785536153e-12,3.7447719621400144e-14,-0.9063574075698853,-1.6057000173930192e-10,3.0727294042520725e-9,9.377052467840485e-10,-1.2358104584109242e-7,-1.2188305920091125e-10,-1.7262120823469812e-13,-2.2845415405888143e-14,0.0000027538467293197755,1.0052426420567237e-13,-0.7164531350135803,-2.4531527920146345e-9,-8.610274992992828e-11,-0.6861700415611267,8.39026938204146e-12,7.563812857297458e-13,2.7622687071016117e-7]},"output":{"rows":1,"columns":1,"weights":[0.0009286088170483708]},"inputLookup":null,"inputLookupLength":0,"outputLookup":null,"outputLookupLength":0}