{"type":"LSTMTimeStep","options":{"inputSize":1,"inputRange":0,"hiddenLayers":[20],"outputSize":1,"decayRate":0.999,"smoothEps":1e-8,"regc":0.000001,"clipval":5,"maxPredictionLength":100,"dataFormatter":{"indexTable":{},"characterTable":{},"characters":[],"specialIndexes":[]},"learningRate":0.1},"hiddenLayers":[{"inputMatrix":{"rows":20,"columns":1,"weights":[1.5320005416870117,1.3106075525283813,0.9408300518989563,1.5859161615371704,1.3364460468292236,1.2532190084457397,1.0984498262405396,-0.019300656393170357,0.8296335339546204,1.2796632051467896,3.3536033630371094,2.1346232891082764,2.7297425270080566,2.6886768341064453,1.420182228088379,1.0839970111846924,1.630245327949524,1.9796912670135498,1.6014683246612549,1.8668948411941528]},"inputHidden":{"rows":20,"columns":20,"weights":[0.013007584027945995,0.05253514274954796,0.06473129987716675,0.033642444759607315,0.06777191907167435,-0.028189020231366158,-0.03710216283798218,-0.03209810331463814,-0.02062433585524559,0.0393686480820179,-0.04503495991230011,-0.06274326890707016,-0.019132016226649284,0.04272562265396118,0.034955043345689774,0.03313751518726349,0.05256485566496849,0.028902605175971985,-0.04568076506257057,0.017859840765595436,-0.017227843403816223,-0.06084127724170685,-0.049252185970544815,0.06863602250814438,-0.011127823032438755,0.049729544669389725,0.05766361579298973,-0.06533053517341614,-0.035190191119909286,0.008495359681546688,-0.02584262378513813,-0.07009930908679962,0.06574177742004395,0.02460995875298977,-0.0715029165148735,-0.0633205771446228,-0.00838792696595192,0.060562487691640854,0.0432569682598114,0.021217411383986473,0.03605550900101662,-0.05733312666416168,0.04803475737571716,0.013853512704372406,0.017313649877905846,0.017243316397070885,-0.06707870215177536,-0.03097766451537609,0.03052758425474167,-0.03329985961318016,0.05119263380765915,-0.008963470347225666,-0.06966140866279602,-0.024165578186511993,-0.024655433371663094,0.014053717255592346,0.061272576451301575,-0.008538397029042244,0.05768321454524994,0.04355701059103012,-0.043219879269599915,0.04125501960515976,0.042047515511512756,-0.024793574586510658,-0.03888019919395447,0.015050681307911873,0.0006515173008665442,0.07501058280467987,-0.03685711696743965,0.03230505809187889,0.028677742928266525,0.048045482486486435,-0.03367317467927933,-0.0633760318160057,-0.0701044350862503,0.014269650913774967,-0.03837912157177925,0.04160833731293678,0.045337434858083725,0.006351121235638857,0.0039113592356443405,-0.06665585935115814,-0.05975689738988876,-0.06636184453964233,0.025681862607598305,0.07362537086009979,-0.07214464247226715,0.055539801716804504,0.05747333541512489,-0.07320339977741241,-0.06781934201717377,-0.01739775948226452,0.05074077472090721,0.06566810607910156,-0.010940433479845524,-0.06931250542402267,-0.033686354756355286,0.03481803834438324,-0.031684279441833496,0.047069989144802094,-0.01748090423643589,-0.028967345133423805,0.06584719568490982,0.03140641003847122,0.03381197527050972,0.06136497110128403,0.06713982671499252,-0.01904960721731186,0.04943184554576874,-0.028319844976067543,0.03687915951013565,0.05096150189638138,-0.04674407094717026,-0.010589362122118473,0.012455879710614681,-0.05748261511325836,0.04079408943653107,0.062341783195734024,-0.054063789546489716,0.02315775491297245,0.052112750709056854,-0.03431180492043495,0.03554821014404297,-0.06721089780330658,-0.00836003478616476,0.061670392751693726,0.030234090983867645,-0.010260038077831268,0.0075006852857768536,-0.05160694196820259,0.036068759858608246,-0.008655265904963017,-0.06667123734951019,0.05883954092860222,-0.07495036721229553,0.02534942515194416,0.021910786628723145,0.06338980793952942,0.05916810780763626,-0.008521068841218948,-0.04621507227420807,-0.02542746625840664,-0.012660031206905842,-0.0197478998452425,-0.05537715181708336,-0.007621142081916332,-0.01775645650923252,0.055728230625391006,-0.0032684316392987967,-0.05258122831583023,0.017457585781812668,0.005699410568922758,-0.049841366708278656,0.00473398994654417,-0.0377972386777401,0.0727287232875824,0.05185948684811592,0.01666908897459507,0.009204782545566559,-0.0029195216484367847,0.029004845768213272,0.016524333506822586,0.021542640402913094,-0.0349818654358387,0.04657835140824318,-0.03647037595510483,-0.026079723611474037,0.01331358216702938,0.0066212257370352745,0.04193699359893799,0.03370604291558266,0.03769097477197647,0.03245986998081207,0.031521327793598175,0.025437798351049423,0.040584564208984375,-0.07094921171665192,0.07025954127311707,0.07056811451911926,-0.03910272568464279,0.010772370733320713,-0.03636788949370384,0.008168158121407032,0.008166362531483173,0.051564425230026245,0.037374719977378845,-0.07109112292528152,-0.06864088028669357,0.06096098572015762,-0.021370302885770798,-0.07010659575462341,0.02594456821680069,-0.07175927609205246,0.07590705901384354,-0.03762497380375862,-0.0623706616461277,-0.048193998634815216,-0.04083184525370598,-0.020863115787506104,0.05153348296880722,-0.03694717213511467,0.003233555005863309,0.03907880187034607,-0.02835027500987053,-0.015141560696065426,-0.03006589785218239,-0.07545135170221329,0.020865164697170258,0.0745663046836853,-0.020026417449116707,-0.026561779901385307,-0.06425248086452484,-0.0100001972168684,-0.0052346535958349705,-0.01806401088833809,0.005388110876083374,0.05694111809134483,-0.06270730495452881,0.03220279514789581,0.056853413581848145,-0.05226565897464752,0.07308279722929001,-0.023710191249847412,-0.05964622646570206,-0.01664057746529579,-0.00589744234457612,-0.055497366935014725,0.014678504317998886,-0.028888341039419174,-0.009900394827127457,-0.001043854746967554,-0.025073235854506493,0.06752188503742218,0.011991147883236408,-0.03278641030192375,-0.025568945333361626,-0.051920268684625626,0.006497209891676903,0.002055110177025199,0.06308925151824951,-0.017740704119205475,-0.027173632755875587,-0.018439093604683876,0.006253644824028015,-0.05528056249022484,-0.027515055611729622,-0.06385620683431625,-0.01961849071085453,0.005033531691879034,0.02901139110326767,-0.07143791764974594,0.013408157974481583,0.015553654171526432,0.010894541628658772,0.041660673916339874,0.029539238661527634,-0.06433872878551483,0.00684993015602231,0.03757820650935173,-0.07102157920598984,0.026717083528637886,0.015186458826065063,0.008243867196142673,0.023603670299053192,0.04742202162742615,-0.022711794823408127,-0.026906410232186317,0.04709449037909508,-0.03523578122258186,-0.020997488871216774,-0.06731372326612473,-0.04610858112573624,0.0061055445112288,0.04343385621905327,-0.0361744649708271,0.06110765039920807,0.011383183300495148,-0.003247705055400729,-0.032983679324388504,0.07128365337848663,0.06391933560371399,0.07360625267028809,-0.026843469589948654,-0.009541845880448818,0.053936585783958435,0.01382065936923027,0.05811513215303421,0.03806498646736145,0.03359296917915344,0.04812198877334595,-0.0451158843934536,-0.005045350641012192,-0.06436140835285187,-0.01088638510555029,-0.004587229806929827,-0.06467436999082565,-0.06082925200462341,0.007302137091755867,0.030436202883720398,-0.04183411970734596,-0.0585554875433445,0.010398196056485176,-0.05464547872543335,0.025333398953080177,-0.016141295433044434,0.05646847188472748,-0.029091892763972282,0.06519336998462677,0.06407397985458374,-0.0681234672665596,0.04998226463794708,-0.03619568049907684,-0.06328833848237991,-0.054388489574193954,0.016417814418673515,0.009269335307180882,0.07102392613887787,-0.03433985635638237,-0.028578516095876694,-0.06561333686113358,0.04167455434799194,-0.0667644664645195,0.052223388105630875,-0.04410609230399132,0.008407912217080593,-0.06997524946928024,0.031518690288066864,0.06855878978967667,0.05179630592465401,-0.02616233192384243,0.03051217645406723,0.0707293450832367,-0.04892713204026222,-0.028304973617196083,0.05213800072669983,0.057377833873033524,-0.05209255591034889,0.061728861182928085,0.02516855299472809,-0.05646757036447525,0.02111905626952648,0.01446215808391571,-0.006449424661695957,-0.06023429334163666,-0.003345009870827198,0.04715907201170921,0.06164950877428055,-0.04616599529981613,0.07256438583135605,0.026419974863529205,0.0046797809191048145,0.048391662538051605,0.003082269337028265,0.002099317265674472,-0.056272488087415695,-0.04768309369683266,0.012850473634898663,0.06785844266414642,0.03472311049699783,0.06365779042243958,0.02748008631169796,-0.048202820122241974,0.06843358278274536,-0.04678621143102646,-0.05217268690466881,-0.06806443631649017,0.019512377679347992,-0.0011279757600277662,-0.01559910736978054,0.05409334972500801,-0.03461841493844986,-0.06602656096220016,0.012134174816310406,-0.04083195701241493,-0.062628835439682,0.055059898644685745,0.011135940439999104,-0.0052405428141355515,0.06763702630996704,0.07493914663791656,0.06397725641727448,0.023678114637732506,-0.01792331039905548,-0.04668712615966797,0.011555823497474194,-0.04948194697499275,-0.028653385117650032,-0.03075401857495308,-0.004501218441873789,0.020707348361611366,0.0005400084774009883,-0.0222970899194479,-0.030518941581249237,0.042672738432884216,0.06339985132217407,0.02789795771241188,-0.04318550229072571,0.058535441756248474,0.06285856664180756,0.0365888886153698]},"inputBias":{"rows":20,"columns":1,"weights":[-3.1602864265441895,-2.6978189945220947,1.3347927331924438,-2.0503149032592773,-3.370288133621216,-3.2091145515441895,-0.8824999928474426,-2.4970200061798096,-3.0526585578918457,-3.187893867492676,-3.606186628341675,-1.2884325981140137,-3.5587902069091797,-3.507589101791382,-1.8891875743865967,-3.107360363006592,-2.151045083999634,-3.43670916557312,-1.9507524967193604,-3.6768758296966553]},"forgetMatrix":{"rows":20,"columns":1,"weights":[0.046862632036209106,-0.040373437106609344,-0.07429314404726028,0.05251789838075638,0.04769508168101311,-0.035062018781900406,0.018534181639552116,-0.02410535328090191,-0.062400124967098236,-0.06732211261987686,0.02604176104068756,-0.048342932015657425,0.011784912087023258,0.029840175062417984,0.02930370904505253,0.030774442479014397,0.021240683272480965,0.06927768141031265,-0.029943950474262238,-0.03877302631735802]},"forgetHidden":{"rows":20,"columns":20,"weights":[0.02479294128715992,-0.06969395279884338,-0.05753934010863304,-0.023005789145827293,-0.05285847187042236,0.06192271411418915,0.027597889304161072,-0.024875441566109657,-0.05758180469274521,-0.07573556154966354,0.0344744510948658,0.06796690076589584,-0.004765974823385477,0.008290260098874569,0.01745445653796196,-0.00839273352175951,-0.013952416367828846,-0.009580275043845177,0.04363010823726654,-0.022461242973804474,0.04434759169816971,0.061506643891334534,0.06982100754976273,-0.035306837409734726,-0.011294904164969921,-0.016644027084112167,0.046816401183605194,0.04471137747168541,-0.038667693734169006,-0.018451277166604996,0.0028800189029425383,0.051465898752212524,0.009443298913538456,-0.018595803529024124,0.06820959597826004,-0.031122352927923203,0.004190042614936829,-0.03054630756378174,-0.0532262921333313,-0.05849436670541763,-0.01288762129843235,-0.05824336037039757,0.040690381079912186,-0.030752170830965042,0.040687818080186844,0.0522356741130352,-0.02020648494362831,0.023821154609322548,0.0739317461848259,-0.03836536034941673,0.007664380595088005,-0.06478554010391235,-0.0036035191733390093,0.0334148071706295,0.004053381737321615,0.00943656824529171,-0.05299488082528114,-0.07376033812761307,0.034276630729436874,0.024930117651820183,-0.0006696035852655768,0.0015266633126884699,-0.004419831093400717,0.02604636549949646,-0.04959908127784729,-0.004980761092156172,-0.048051923513412476,-0.056559134274721146,-0.03677258640527725,-0.057997751981019974,0.07544274628162384,0.040596891194581985,0.026346225291490555,-0.07022042572498322,-0.011818979866802692,0.07241005450487137,-0.0002613532997202128,-0.050880711525678635,-0.04943180829286575,0.03420048579573631,0.0037701032124459743,0.024034900590777397,-0.06085719168186188,-0.04843093454837799,-0.06287800520658493,-0.0553099550306797,-0.05214797332882881,0.004145721904933453,0.014305301010608673,-0.07176272571086884,0.05284058302640915,-0.06515812128782272,-0.051327865570783615,-0.03612644597887993,-0.04639841243624687,-0.018904460594058037,-0.07286863774061203,-0.011896412819623947,0.016440900042653084,0.03499209135770798,-0.06204231083393097,-0.06477579474449158,-0.05539510399103165,-0.01772063411772251,0.05267170071601868,-0.03627374395728111,0.031940679997205734,-0.0611942782998085,0.05764378607273102,-0.048156268894672394,-0.04195750504732132,0.07239781320095062,0.006669876165688038,-0.02157987840473652,-0.04898107051849365,0.0036945021711289883,-0.03246048837900162,0.025589600205421448,-0.05536263808608055,0.027041206136345863,-0.04135427251458168,-0.024963010102510452,-0.03157675266265869,0.039313867688179016,0.06542715430259705,-0.01590212620794773,0.06885949522256851,0.018099764361977577,-0.05367777869105339,-0.00848221592605114,0.04041367769241333,-0.030779698863625526,0.0679832175374031,0.01780136115849018,-0.03138893470168114,0.017095407471060753,-0.03915928304195404,-0.07126393914222717,-0.01099999900907278,0.06939245015382767,0.06660276651382446,0.05606168508529663,-0.03249841555953026,-0.042791690677404404,0.02019813470542431,0.01523379236459732,-0.0710924044251442,0.059643521904945374,-0.06309649348258972,-0.0013359597651287913,-0.01107214204967022,-0.04190235584974289,-0.0034648082219064236,0.06780087947845459,-0.02593369409441948,0.06444288045167923,-0.008113452233374119,0.06851491332054138,0.05665682256221771,0.009201900102198124,-0.02174236625432968,-0.007405420299619436,-0.04627295583486557,0.05771379545331001,-0.004529729951173067,0.06983821839094162,0.02613642066717148,0.041654378175735474,0.07543531060218811,-0.06644858419895172,0.0473456010222435,-0.03312642499804497,-0.04383912682533264,-0.016814662143588066,0.06701643764972687,-0.0019198080990463495,-0.014843214303255081,0.06344369053840637,0.05341344699263573,-0.027769697830080986,0.02108352817595005,0.034286029636859894,0.016440777108073235,0.02108982764184475,0.058695197105407715,-0.023513685911893845,-0.04700937867164612,0.04294441640377045,-0.07145079970359802,-0.03315293788909912,0.05347570776939392,-0.07573802024126053,-0.07262323051691055,0.011113814078271389,-0.02563403733074665,-0.0010913300793617964,-0.06953708827495575,-0.037444114685058594,-0.003223474370315671,-0.04613913223147392,-0.06902949512004852,0.026900310069322586,-0.0036180783063173294,0.06490077823400497,0.049960266798734665,0.06289929151535034,0.07064079493284225,-0.008031843230128288,0.00037060154136270285,0.04938989877700806,0.021052611991763115,0.025121482089161873,0.026188340038061142,-0.07473783195018768,0.0017553685465827584,-0.027406273409724236,0.026981625705957413,-0.06270802021026611,0.016482636332511902,-0.06461940705776215,-0.031052440404891968,-0.039050549268722534,0.003869367530569434,0.004078768193721771,-0.0642671138048172,-0.057938165962696075,0.025340676307678223,0.03187846019864082,-0.05794426053762436,0.040490295737981796,0.06604194641113281,0.017522748559713364,0.03814433142542839,0.07448381930589676,-0.05650603771209717,-0.00985765177756548,0.035789426416158676,0.041364919394254684,0.02297266758978367,0.0033232024870812893,0.036890801042318344,0.05599568411707878,0.006784102879464626,-0.0195075124502182,0.058544356375932693,0.05311267077922821,-0.039949800819158554,-0.008657949045300484,-0.022747166454792023,-0.000403580634156242,0.014481110498309135,-0.048082396388053894,0.06062428653240204,-0.025077179074287415,-0.06222178786993027,0.01423183735460043,-0.058896228671073914,0.0212848037481308,-0.0010837168665602803,-0.01308947429060936,-0.0213798638433218,0.047736965119838715,-0.017283957451581955,-0.019521594047546387,-0.06701970100402832,-0.030977372080087662,-0.05822884663939476,0.028939951211214066,-0.05228080600500107,0.058782633394002914,0.07550139725208282,0.027421502396464348,-0.028324276208877563,0.017102619633078575,0.009151939302682877,0.013473978266119957,0.014388383366167545,-0.019211262464523315,-0.04689859226346016,0.020971642807126045,-0.017119145020842552,-0.0046519325114786625,0.003405672963708639,-0.043390288949012756,0.05104726180434227,-0.007115453947335482,-0.005596395116299391,0.023391343653202057,0.07264163345098495,0.048948630690574646,-0.04993690177798271,-0.024081353098154068,-0.022820865735411644,-0.06145089492201805,-0.06846357136964798,-0.04806595295667648,0.018113911151885986,-0.07188399881124496,-0.02024952508509159,0.0753687247633934,-0.030786914750933647,0.05145648494362831,0.013173045590519905,-0.06448527425527573,0.000028261696570552886,0.07266933470964432,-0.06607447564601898,0.06305760145187378,0.029324132949113846,-0.04228086397051811,-0.01759677566587925,0.0270114466547966,0.05119940638542175,-0.050270359963178635,0.015427219681441784,-0.049075495451688766,-0.016619069501757622,0.06764384359121323,-0.047174304723739624,-0.020828841254115105,-0.013992122374475002,0.002288688672706485,0.03637723997235298,-0.056814175099134445,-0.06590981036424637,-0.05286670848727226,0.04166373610496521,0.014838428236544132,0.06970836222171783,-0.041814304888248444,0.05633167922496796,-0.060308873653411865,0.015095858834683895,0.05035704746842384,-0.001606108620762825,0.060573115944862366,-0.02075645513832569,-0.008759776130318642,0.05224353447556496,0.01630615070462227,0.053022757172584534,0.0283189844340086,0.07297033071517944,-0.008471773006021976,-0.006205882877111435,0.03148624673485756,0.024499086663126945,0.04573395475745201,-0.0007746265036985278,-0.07291034609079361,0.0044144499115645885,0.006977849639952183,-0.0537111796438694,-0.05905534699559212,-0.045042261481285095,0.04064096510410309,-0.03579733148217201,-0.0023993842769414186,-0.06263872981071472,-0.062142208218574524,0.013278870843350887,0.05529390275478363,-0.05884018912911415,-0.0008262259652838111,-0.055859461426734924,-0.05380317196249962,0.029105810448527336,-0.00860321894288063,-0.0069184876047074795,-0.04835930094122887,-0.019082676619291306,-0.005107859615236521,0.01104968786239624,0.018561942502856255,-0.018437089398503304,0.0006676086923107505,0.06260591000318527,-0.03369911387562752,0.008935376070439816,0.009423400275409222,0.027110109105706215,0.017915604636073112,0.0549846887588501,-0.04693033918738365,0.025480803102254868,0.048316024243831635,0.05217335373163223,-0.011646829545497894,-0.04118810594081879,0.05209112539887428,-0.05297847464680672,-0.06632181257009506,-0.04975415766239166,0.0494786836206913,-0.014653310179710388,0.04459403082728386,-0.019774554297327995,0.016851266846060753,0.037809696048498154,0.07188691198825836]},"forgetBias":{"rows":20,"columns":1,"weights":[0,0,0,0,0,0,0,0,0,0,0,0,0,0,0,0,0,0,0,0]},"outputMatrix":{"rows":20,"columns":1,"weights":[1.62143075466156,1.437955617904663,1.491391658782959,1.7496453523635864,1.3844754695892334,1.3077110052108765,1.2699944972991943,0.04919210448861122,0.8974665403366089,1.3234050273895264,3.3849408626556396,2.3364598751068115,2.7392144203186035,2.7542271614074707,1.5474785566329956,1.1553657054901123,1.8176454305648804,2.0622053146362305,1.7937686443328857,1.8754687309265137]},"outputHidden":{"rows":20,"columns":20,"weights":[0.05017085373401642,-0.03769613802433014,0.010347987525165081,-0.05200851708650589,-0.04347976669669151,-0.001585124060511589,-0.010223708115518093,-0.06424863636493683,0.030964579433202744,-0.057647667825222015,-0.024992618709802628,0.05056117847561836,0.014569828286767006,-0.05891904979944229,0.03907540813088417,-0.060086578130722046,-0.04342610388994217,0.04833371192216873,-0.02949049137532711,-0.049358073621988297,0.038956254720687866,-0.004353620577603579,0.02444130927324295,0.019508302211761475,0.008920964784920216,-0.020770011469721794,-0.0438588447868824,-0.04463883861899376,-0.05237453803420067,0.00945524126291275,-0.025150597095489502,0.0012260721996426582,-0.021748393774032593,0.06014746055006981,0.010087655857205391,-0.07256786525249481,-0.07570267468690872,-0.02050287462770939,0.07259885966777802,0.07232337445020676,-0.03737986832857132,-0.002598072635009885,-0.06900680065155029,-0.04588901251554489,-0.06315317004919052,-0.0409839041531086,0.038356781005859375,-0.02010554075241089,0.025224702432751656,0.025112245231866837,-0.05293602496385574,0.058650434017181396,-0.0493302084505558,0.07151830196380615,0.04462624341249466,-0.07179918885231018,-0.05785251781344414,0.030431054532527924,0.04956793785095215,-0.03595805540680885,0.06462129950523376,-0.010796496644616127,-0.015085732564330101,-0.0011398083297535777,0.04499044269323349,0.009144747629761696,0.027619874104857445,0.008607417345046997,0.005679435562342405,0.03768646717071533,0.06215698644518852,0.07121980935335159,0.009302206337451935,-0.05202414095401764,-0.050648245960474014,0.008307245559990406,0.06769222766160965,0.04334717243909836,0.02733893133699894,0.05305568873882294,-0.037207767367362976,0.008135479874908924,-0.006166798993945122,-0.037485167384147644,-0.030106201767921448,0.04366530105471611,-0.058869730681180954,-0.06849398463964462,0.00042459790711291134,0.06484426558017731,0.0355663038790226,0.0028843143954873085,0.07210663706064224,0.05930999666452408,0.06276156008243561,0.010374411940574646,-0.030558250844478607,0.04493718594312668,-0.00913421530276537,0.008007689379155636,-0.07523221522569656,-0.04821859672665596,0.045659855008125305,0.0048656887374818325,-0.035267431288957596,-0.04199119657278061,-0.010141171514987946,0.047890838235616684,-0.01891622133553028,0.04178324714303017,-0.05938005447387695,-0.03764129430055618,0.046404168009757996,-0.044462524354457855,0.02582157962024212,-0.07456324994564056,0.06753578782081604,-0.05719960853457451,-0.07564075291156769,0.02458304353058338,-0.04122926667332649,-0.06695715337991714,0.04442637413740158,-0.046538181602954865,-0.008637471124529839,-0.039056599140167236,-0.05825419723987579,0.06002364307641983,-0.02646997943520546,-0.009217513725161552,0.012771092355251312,0.07101885974407196,-0.028527120128273964,0.058175891637802124,-0.03598950803279877,0.0072796237654984,-0.02757403440773487,-0.04738874360918999,0.017191549763083458,0.012741537764668465,0.07464420050382614,0.07097257673740387,0.0002966183819808066,0.005344821140170097,0.01847619004547596,0.027388202026486397,0.06564833968877792,-0.0019973297603428364,0.05320637673139572,-0.015395155176520348,0.06776949018239975,0.018030012026429176,-0.03693656250834465,-0.033212810754776,-0.016968177631497383,0.008873187936842442,-0.05853481963276863,-0.04219774156808853,0.052248287945985794,-0.029804036021232605,0.034035127609968185,0.042201582342386246,-0.008042226545512676,-0.06827344745397568,-0.07177042216062546,-0.03704596310853958,-0.07458525896072388,0.03565528243780136,-0.00372536713257432,0.045457012951374054,-0.03707576543092728,-0.049143556505441666,0.07059778273105621,-0.052266307175159454,-0.04258996993303299,-0.01519860327243805,0.009587528184056282,0.02478908933699131,0.06407954543828964,-0.007120145484805107,0.015263902023434639,-0.05690453201532364,0.05693665146827698,0.00212245830334723,0.04917868226766586,0.029917094856500626,-0.05806136131286621,0.0167405866086483,0.0039743175730109215,0.0021955538541078568,0.015698395669460297,0.06237735226750374,-0.040054090321063995,-0.009785037487745285,-0.005487850401550531,-0.0586932934820652,0.000754436245188117,0.050887443125247955,0.042399510741233826,-0.017671097069978714,-0.048368435353040695,-0.043760623782873154,-0.05772876739501953,0.04504817724227905,0.06142650544643402,-0.005596281029284,-0.03754477947950363,0.03012041002511978,-0.048647552728652954,-0.06863901019096375,-0.0186765119433403,-0.034074537456035614,0.00348064792342484,-0.024763992056250572,-0.012356050312519073,0.07421862334012985,-0.0019012435805052519,0.03610876202583313,0.05087032914161682,0.0019151093438267708,-0.04417312890291214,-0.04425575211644173,0.07490401715040207,-0.02264888770878315,-0.038917411118745804,-0.03199644386768341,-0.05708959326148033,-0.015033150091767311,-0.06889406591653824,0.005471562501043081,0.0382685661315918,0.051060158759355545,-0.04058879613876343,-0.02594405598938465,-0.038812197744846344,-0.01746457628905773,0.03247980773448944,0.06231643632054329,0.07053542137145996,-0.028549738228321075,-0.03418775275349617,0.06722928583621979,-0.01765088550746441,-0.01782521978020668,0.014940716326236725,0.05336124822497368,-0.026327520608901978,0.037262700498104095,-0.06987999379634857,-0.06541506201028824,0.009245825000107288,-0.037366870790719986,0.05807594582438469,-0.006435832474380732,-0.050604332238435745,0.022467561066150665,-0.058863990008831024,-0.003962553106248379,-0.0384342297911644,0.06939181685447693,-0.06157015636563301,0.060607798397541046,0.05194179713726044,-0.04818321764469147,0.003982032183557749,0.04234583303332329,-0.01963958702981472,-0.05311750993132591,-0.07500740140676498,-0.03906238079071045,0.04636864736676216,0.05029808729887009,0.027704985812306404,0.031090660020709038,-0.0009642229997552931,-0.0036475309170782566,-0.06908691674470901,-0.0026082785334438086,0.060023754835128784,0.021376945078372955,-0.04441198334097862,0.004434834234416485,0.03567136451601982,0.03301078826189041,-0.04787653312087059,-0.04052349925041199,0.07587327808141708,0.0529351532459259,0.003963528200984001,0.06583155691623688,0.05830127000808716,0.028141362592577934,-0.0005178549326956272,0.07471321523189545,0.04664907604455948,0.06817615032196045,-0.014676005579531193,-0.018379896879196167,-0.0033025986049324274,-0.036536358296871185,0.024075478315353394,-0.07287020981311798,-0.007969178259372711,0.03071584179997444,-0.036165833473205566,-0.051499899476766586,-0.012740560807287693,0.0012190648121759295,-0.04946216195821762,-0.03348134085536003,0.0023574207443743944,0.059809356927871704,0.0686899796128273,-0.0383625365793705,0.044133443385362625,0.023363012820482254,0.03433654457330704,0.026466498151421547,-0.056732162833213806,-0.05057881399989128,-0.07208450883626938,0.04060499370098114,0.06204235181212425,-0.044358499348163605,-0.06187223270535469,0.056999046355485916,0.03183629736304283,-0.019886357709765434,-0.06831330806016922,0.044822368770837784,0.04632144793868065,0.07025227695703506,0.05502704903483391,0.06620108336210251,-0.012518680654466152,0.061761390417814255,-0.019589543342590332,0.007887579500675201,0.04906634986400604,0.057241979986429214,0.004587472416460514,-0.056614965200424194,-0.0007049810374155641,-0.0453995019197464,-0.045706238597631454,-0.045728038996458054,0.010754255577921867,0.07538004219532013,-0.05792946740984917,0.03620777279138565,0.045479219406843185,0.01537637785077095,0.054837457835674286,0.017355605959892273,-0.016504699364304543,-0.015896093100309372,-0.05551120638847351,0.03991908207535744,0.012745814397931099,-0.058643851429224014,0.04233696684241295,-0.061199065297842026,0.0370926707983017,0.011875227093696594,0.017308857291936874,0.04330750182271004,0.01705099083483219,0.061013996601104736,-0.04373182728886604,0.028026416897773743,0.06766004115343094,-0.07363478094339371,0.0694308802485466,0.012398612685501575,0.03446616604924202,0.07546355575323105,-0.07169871032238007,0.034421198070049286,0.06934120506048203,0.007824350148439407,-0.04932035878300667,0.03581085056066513,0.012909255921840668,-0.04915254935622215,0.045623522251844406,0.06027538329362869,-0.03510422632098198,-0.045469362288713455,-0.06520698964595795,-0.009963897988200188,0.03700448200106621,-0.03202188014984131,0.024868452921509743,-0.021647082641720772,0.015223558992147446,0.05326376482844353,-0.05703074485063553,0.03847699984908104,0.06867899745702744,-0.030019033700227737]},"outputBias":{"rows":20,"columns":1,"weights":[-3.2160608768463135,-2.7306699752807617,2.5923149585723877,-2.033508539199829,-3.395970344543457,-3.2053284645080566,-0.916523814201355,-2.417144536972046,-3.0256218910217285,-3.1635775566101074,-3.6496596336364746,-1.3676055669784546,-3.5734455585479736,-3.605193853378296,-2.6737253665924072,-3.128326654434204,-2.2332189083099365,-3.536712646484375,-2.0554914474487305,-3.676640748977661]},"cellActivationMatrix":{"rows":20,"columns":1,"weights":[-1.4148036241531372,1.3226298093795776,-2.005082845687866,-1.5505815744400024,-1.5730091333389282,1.4444739818572998,-1.6604090929031372,1.128268837928772,1.276613712310791,1.4253947734832764,1.86959707736969,-1.6567836999893188,1.7015869617462158,-1.6933138370513916,-2.3482823371887207,1.3440231084823608,1.5548083782196045,-1.544339656829834,-1.5669907331466675,1.703332543373108]},"cellActivationHidden":{"rows":20,"columns":20,"weights":[0.01921016164124012,-0.023988954722881317,0.04077320545911789,0.05299686640501022,0.06089257821440697,-0.02882612869143486,-0.034793682396411896,0.04503007233142853,0.02886435203254223,-0.07218585908412933,-0.03250162675976753,0.07464369386434555,-0.03304629027843475,0.05477876588702202,-0.06245318055152893,-0.016217613592743874,-0.010909977369010448,0.053755056113004684,0.01422796305269003,0.04997111111879349,-0.03269228711724281,-0.027647612616419792,0.05613642558455467,0.039076484739780426,-0.0680466964840889,-0.041845571249723434,0.05530993640422821,0.035046715289354324,0.03616068884730339,-0.013346854597330093,-0.008279642090201378,0.028456879779696465,0.053440503776073456,0.0012452701339498162,-0.017485998570919037,0.025817271322011948,0.06946904212236404,0.028001999482512474,-0.011193345300853252,0.03634888306260109,0.06385578215122223,0.05305253714323044,0.05127682164311409,-0.024075744673609734,-0.025762440636754036,0.04621472954750061,-0.012393134646117687,-0.03984915837645531,-0.021892093122005463,0.0300242081284523,0.03559688851237297,-0.05437418818473816,0.024940019473433495,-0.06609459221363068,0.04403930529952049,0.0530744232237339,0.03717762976884842,0.02250872179865837,0.050588686019182205,0.01719851978123188,-0.021382147446274757,0.050140950828790665,0.0015968051739037037,0.027644408866763115,-0.02108185552060604,-0.053478725254535675,-0.04787534475326538,-0.06016143411397934,-0.07224617898464203,0.027187414467334747,0.061021264642477036,-0.06963913142681122,0.006975763943046331,0.0013645344879478216,-0.02072228118777275,-0.011655350215733051,0.06114042550325394,-0.049433209002017975,0.054848991334438324,-0.04134537652134895,0.06335967779159546,-0.032957471907138824,0.06694656610488892,-0.04158015549182892,-0.03240630775690079,0.03372472524642944,-0.025558853521943092,0.01414197776466608,0.07050805538892746,-0.05455363169312477,0.0539839044213295,0.020506925880908966,-0.005353911779820919,0.000249475211603567,-0.03398600220680237,0.04038015753030777,-0.01192428171634674,-0.06552539765834808,-0.04957989603281021,-0.041246358305215836,0.06236288696527481,0.008015284314751625,0.03559001162648201,-0.04598143324255943,0.011483326554298401,-0.01593015529215336,-0.016636718064546585,0.018508080393075943,0.008350444957613945,-0.058779120445251465,-0.052474573254585266,0.07317465543746948,0.06734853237867355,-0.06155345216393471,-0.02181508205831051,0.03790430724620819,-0.01999066025018692,-0.06904292106628418,-0.009124446660280228,0.04176097735762596,-0.01248333789408207,-0.032677486538887024,0.00968644767999649,-0.04311281070113182,-0.048749372363090515,-0.03222721070051193,0.004859264474362135,0.0600762739777565,0.04585091397166252,0.041910767555236816,-0.06583697348833084,0.07121005654335022,-0.03616049140691757,-0.05434984341263771,-0.041445568203926086,-0.033776409924030304,0.0015774066559970379,0.06869745254516602,0.040245890617370605,0.04092269390821457,-0.04521911218762398,-0.06916933506727219,-0.03875243663787842,0.01559540443122387,-0.06312081217765808,-0.003242740174755454,-0.00015585552318952978,0.008766424842178822,0.03053540363907814,0.060632191598415375,-0.03250538185238838,-0.07381093502044678,-0.01286855898797512,-0.07302900403738022,0.031526755541563034,0.004445613361895084,-0.06122731789946556,0.07213102281093597,-0.01084523368626833,0.044542793184518814,-0.012235915288329124,0.007567146793007851,-0.02519819140434265,-0.05652574449777603,0.05438467487692833,-0.01042212639003992,0.013007952831685543,-0.06902754306793213,-0.027053985744714737,-0.05121860280632973,0.014004101045429707,0.05450800061225891,0.025464564561843872,0.072990283370018,-0.07394993305206299,0.041366759687662125,-0.001436705468222499,0.06888771057128906,-0.01173394825309515,-0.06577049940824509,-0.07577433437108994,0.04676825925707817,-0.01181371882557869,0.002914954675361514,-0.041618142277002335,0.017962303012609482,0.07500920444726944,0.058296605944633484,-0.021197032183408737,-0.01631871797144413,0.07235410809516907,-0.05478641390800476,0.0036090228240936995,0.06517984718084335,0.01861814223229885,-0.05359284579753876,0.04512625187635422,0.06348361819982529,-0.04350519925355911,0.0515580028295517,0.06976529210805893,0.03155792877078056,-0.03464339300990105,-0.03563890606164932,0.026951100677251816,0.06204505264759064,-0.07233387231826782,0.07368836551904678,0.040707290172576904,-0.031413037329912186,-0.06552878022193909,-0.03723462298512459,-0.017155343666672707,0.007955532521009445,-0.05200861021876335,-0.03193581476807594,0.07376377284526825,-0.026089228689670563,-0.01605825312435627,-0.07175259292125702,0.016663677990436554,-0.03454918414354324,-0.04328618198633194,0.015339567326009274,-0.00856667198240757,0.06100735813379288,-0.05049500614404678,-0.06914389133453369,0.015103714540600777,-0.024775609374046326,-0.008390571922063828,-0.05001034960150719,0.06776987016201019,0.040791966021060944,-0.07015910744667053,0.056751713156700134,-0.03931240364909172,-0.045514535158872604,-0.008448043838143349,0.06295249611139297,-0.0013050418347120285,-0.027909575030207634,0.07609423249959946,-0.012867817655205727,0.07210466265678406,0.017766570672392845,-0.05546478554606438,0.05593816936016083,-0.050470225512981415,0.02525096945464611,-0.05766885355114937,-0.05897719785571098,-0.04033675417304039,-0.05606762692332268,-0.004406907595694065,0.035020772367715836,0.013770291581749916,-0.07117399573326111,-0.06909600645303726,-0.0003514066629577428,0.013651118613779545,-0.02718282863497734,-0.016051579266786575,-0.045224204659461975,-0.025332996621727943,0.0062779830768704414,-0.002274643862619996,0.054449230432510376,-0.0027492125518620014,0.07250131666660309,0.0735921859741211,-0.0197815652936697,-0.020191194489598274,-0.03235223889350891,0.06088889390230179,0.012099380604922771,0.01878374256193638,0.037141598761081696,-0.005683079827576876,0.018463196232914925,-0.039697177708148956,-0.019528944045305252,0.03737768903374672,0.02718319185078144,-0.0674782246351242,-0.06642330437898636,0.06853487342596054,0.019987760111689568,0.01755603589117527,-0.03274032473564148,-0.06090012937784195,0.019653834402561188,0.06526687741279602,0.06720631569623947,-0.0731448084115982,0.05335056781768799,-0.011620729230344296,-0.0422619953751564,-0.04759438335895538,-0.051506977528333664,-0.036796312779188156,-0.0365009605884552,0.0543583407998085,0.0641552209854126,0.02181781455874443,-0.03664971888065338,0.0634727030992508,-0.031058311462402344,0.06102197989821434,-0.04484882578253746,0.006703451741486788,0.021389111876487732,-0.04032730311155319,0.007832222618162632,-0.031070541590452194,0.016109822317957878,-0.04625263437628746,-0.046990953385829926,-0.06533488631248474,-0.06100160628557205,0.0176780316978693,-0.00978398509323597,0.01719778962433338,0.053147092461586,-0.0734727680683136,0.04019222781062126,0.013969669118523598,0.00021695226314477623,-0.006737920921295881,0.06800509244203568,0.016993746161460876,0.05678916722536087,-0.03821523115038872,0.03778092563152313,0.00841305498033762,0.0664108619093895,-0.035431474447250366,0.07267417758703232,-0.024178069084882736,0.03801947832107544,-0.02091675065457821,-0.014283007010817528,-0.016031652688980103,0.052205827087163925,0.007361508905887604,-0.023796336725354195,-0.0752829760313034,-0.04681029170751572,-0.009121526032686234,0.07051698863506317,0.02312678098678589,-0.040657058358192444,-0.06997772306203842,-0.05999539792537689,0.004465380683541298,0.04263966903090477,0.004960022866725922,0.04127082973718643,-0.05039769783616066,0.03300609067082405,-0.020512709394097328,-0.06833433359861374,0.06161123514175415,0.0380856990814209,0.044571518898010254,-0.04019031301140785,-0.05319223925471306,-0.0013663193676620722,-0.06634321808815002,-0.0481201633810997,0.048179835081100464,-0.028139425441622734,-0.0011538361432030797,0.04759706184267998,0.016077687963843346,-0.026723701506853104,0.032570913434028625,0.024158572778105736,0.027643311768770218,0.06403012573719025,0.052309051156044006,-0.04839653521776199,0.06749337166547775,0.006858592852950096,-0.07150980085134506,0.045417770743370056,0.0733361765742302,-0.07307329773902893,-0.010409765876829624,-0.060546040534973145,0.05278914049267769,-0.005660202819854021,-0.002879408420994878,-0.022542735561728477,-0.04838578402996063,-0.068083256483078,-0.06020261347293854,0.0040040635503828526,0.06872928887605667,-0.002251232974231243]},"cellActivationBias":{"rows":20,"columns":1,"weights":[1.308122992515564,-1.0984916687011719,0.2567758560180664,0.6159074902534485,1.3849180936813354,-1.3378117084503174,0.9846631288528442,-0.3723391890525818,-0.9671546220779419,-1.3404401540756226,-1.7033700942993164,0.2485927939414978,-1.668371558189392,1.6608268022537231,2.316326856613159,-1.202377200126648,-0.6343923211097717,1.4994069337844849,0.5806936025619507,-1.5850428342819214]}}],"outputConnector":{"rows":1,"columns":20,"weights":[-0.38020583987236023,0.5873880386352539,-2.816307306289673,-1.1513196229934692,-0.14394958317279816,-0.0013745459727942944,-1.3742175102233887,0.6272391676902771,0.202616885304451,-0.042085468769073486,1.628953456878662,-1.7316372394561768,0.9807752370834351,-0.977498471736908,0.10911396145820618,0.03947874531149864,1.1568450927734375,-0.5439338088035583,-1.177675724029541,0.46515199542045593]},"output":{"rows":1,"columns":1,"weights":[0.930226743221283]},"inputLookup":null,"inputLookupLength":0,"outputLookup":null,"outputLookupLength":0}